hsa_circ_0002172,-1.6899712,-2.2476733,1.5944929,0.5457706,-0.5775869,-0.43297088,2.5092328,1.8679562,-1.3499173,1.772716,2.2885845,-0.26891282,1.0640264,0.11987824,2.627963,2.180367,-3.1220865,1.1798786,-2.3423717,-1.1696117,1.0702876,0.59190506,0.3630183,-1.7466732,-2.1985312,0.44132012,0.7596562,-1.4360976,-0.54115117,2.1593833,-2.6987135,-0.21749334,1.9459996,-1.1473651,-2.1747205,-1.8205123,-1.3910009,1.2226102,-1.0722708,-3.5178418,-2.0273635,-0.669772,-1.5658921,0.031809565,1.7930361,2.4911337,-1.9816645,1.0470921,-0.10013382,1.4292086,0.87927604,4.6025667,0.005420669,-1.9755222,0.87293047,1.0646114,0.055798903,-0.36814475,-1.6938311,-2.6931515,-0.43929416,3.3302944,-0.63881344,3.2077904
hsa_circ_0089776,-1.0538775,-2.469517,0.8653487,0.49490437,0.28115445,-0.41365644,2.3416378,1.5457768,-1.3190894,2.0025415,1.8239247,0.21661723,0.94000494,0.15089495,2.536631,2.9462566,-2.763652,1.387933,-2.3722398,-1.1649998,0.6595983,0.75135005,0.4285528,-2.0955207,-2.0576081,0.7900163,0.2540024,-1.3141907,-0.22643138,1.4282898,-2.5006726,-0.20926194,1.3648872,-1.2618763,-1.66726,-1.7117361,-1.1177206,2.1102157,-0.8907903,-3.5894444,-1.8345128,-0.48109892,-1.1677378,0.06677772,1.9815686,2.469336,-2.8370795,1.2936031,-0.061115637,1.7647862,1.9150461,5.3123126,0.47726038,-1.6402463,0.60896516,0.78352827,0.54711735,-0.037002843,-0.8797113,-2.5191855,-0.8477464,3.2216392,-0.8040149,3.91417
hsa_circ_0041089,0.8630464,0.67485887,-0.9758831,1.6545156,-3.016316,-1.8482583,0.9592298,1.8272991,2.620318,0.3666996,-1.7316555,-2.5434506,3.0503826,0.7386418,-0.58953243,0.36003983,-1.2219571,-1.4567773,2.5248108,-0.3032203,-3.0229564,-2.6544101,1.3404307,2.0320232,0.4377862,2.1461937,0.61279196,1.3330222,-0.88342154,-0.93506575,-2.0380864,0.7164806,0.39185718,1.1739354,-1.9601842,-0.6129886,-0.7125291,0.36196133,0.36208424,-1.6498536,0.5324885,-2.4499178,0.34424204,2.3790047,3.113526,0.80709064,-3.5210702,-2.902595,-1.4297183,0.52589774,1.8338661,1.1124669,0.9473611,0.34985256,-1.6158487,0.8192105,-2.328768,0.68558794,-0.08643734,-0.6096711,4.819884,-1.3092756,-1.7125175,1.3207971
hsa_circ_0041099,0.45427456,0.3963554,-1.0538417,1.4092026,-2.756756,-1.6095102,0.86856055,1.6883504,2.9367669,0.36278775,-2.182174,-3.0836575,3.4079385,0.76363564,-0.9046673,0.06979994,-1.4807848,-1.5174463,2.4868803,-0.61846507,-2.7582545,-2.8642755,1.2050258,2.0562835,0.18529354,2.5677269,0.37440342,1.6229725,-1.2309324,-0.6661876,-1.9202797,1.2625037,-0.016253583,0.71315306,-1.7721509,-1.1637075,-0.47195488,0.4718195,0.45459813,-1.7050197,-0.21711218,-2.8602688,0.023739934,3.1010349,3.409427,1.0269654,-4.1288753,-3.3268616,-1.7513202,0.7221621,2.2084432,1.2368487,0.9598692,0.9027703,-1.2456678,0.9275368,-2.2950847,0.3266397,0.56908154,-0.7888809,5.126053,-1.0758706,-1.562367,1.2368448
hsa_circ_0041116,0.7385775,1.0094736,-0.8654164,1.7085071,-2.9653258,-2.1863697,0.8823254,2.2430556,3.6177263,1.0378535,-3.1003675,-2.964949,2.95867,-0.3702452,-0.996996,0.5247819,-1.4982595,-1.0875057,2.2489362,-0.41977388,-2.4594753,-3.5950878,0.8589032,2.0390966,0.81952924,2.6289628,0.0705216,2.3680708,-1.8809359,-0.4920686,-2.0074868,0.96919614,0.9655489,0.57024723,-2.4245975,-1.8426044,-0.164337,0.91971815,0.5892294,-1.8764843,-0.39018503,-2.6709738,0.5460736,2.177799,2.5016391,0.34105238,-4.9016347,-2.8717291,-2.0803874,1.2440714,2.5956607,0.93461907,1.5582654,0.75512403,-1.4198039,0.9181441,-2.8742034,0.7048269,0.5866241,-0.8793852,5.028786,-1.3833431,-1.782922,0.86288923
hsa_circ_0089792,1.323305,1.1078796,1.6933894,-2.0162904,-0.13884997,0.8325622,-1.8625259,0.5656875,-2.6488237,-0.3133245,0.39976355,0.89870864,-2.300747,2.0634098,-0.06527597,1.9443909,0.28528586,1.3147403,0.44903374,-2.7769823,3.1380692,-0.9644956,1.9917533,-1.325039,-0.25321412,0.5377192,0.73459965,0.96587706,-1.505041,-1.7760409,1.3146403,-0.24162644,0.95836395,-0.23237163,-0.8304965,2.0747418,1.3461823,0.6869413,0.6667903,-1.4057425,-0.64006144,-0.30615798,-1.2831727,1.7235297,-0.6725598,0.7381991,0.21008827,2.317827,1.395785,1.3809397,0.8850811,0.48126042,0.60285693,0.6034183,0.36545983,-0.95062536,-0.55421245,-1.0051117,-0.4480939,-1.2090043,-0.9249348,0.74324346,-1.2894837,0.1673223
hsa_circ_0013871,-1.6619112,0.34484583,-1.0120254,2.8236437,0.28585634,-0.650828,0.84599495,-1.7523819,0.51970404,1.0951431,-0.2098294,3.080246,0.25879043,1.5945088,-2.947566,-4.177365,-0.46947783,0.683912,1.9664187,-2.177899,-1.9113922,0.72353685,0.2893692,1.7491025,-2.0134783,1.3209763,2.9342923,3.5245316,0.48013613,-0.05761618,1.5130627,6.3164787,-2.900794,4.8165703,-5.1312594,2.9470172,4.0353785,1.9409548,-0.3969908,-0.9433315,1.4097711,0.22944714,1.3988421,2.2264655,1.8904101,-1.2132463,-1.3772395,1.5263813,0.63494176,2.5171096,5.6697373,-5.143572,3.382876,3.778603,2.3128846,-5.431018,-1.8372023,-0.10971503,-2.9509254,-3.0568395,0.01282018,-1.1234629,2.980395,-3.2251832
hsa_circ_0013870,-1.7152121,0.25207052,-0.9267627,3.0838587,0.0893368,-0.7480129,1.085757,-1.6929514,0.9008581,1.0902313,-0.14866333,2.9486806,0.51995635,1.3968804,-3.1782935,-4.59081,-0.5563389,0.86783254,1.6505626,-2.385202,-1.6644509,0.550873,0.11220795,1.6557558,-1.9835026,1.2191536,2.7194905,3.2877262,0.17116703,0.25284362,1.4395157,6.5762286,-3.0266414,4.7926235,-5.7253084,3.4016187,4.112609,2.3125646,-0.6470598,-1.3246858,1.4498426,0.5767244,1.5235145,2.072695,2.2311823,-1.5109175,-1.3987755,1.6186306,0.59141064,2.4381673,5.3768625,-5.2916193,3.3650267,3.615024,2.5142848,-5.481887,-1.976535,-0.07826463,-2.7452157,-3.1636207,0.049642984,-1.0474844,3.1989684,-3.2740867
hsa_circ_0037995,0.078106545,0.15286724,0.13347186,-2.5741084,0.45880145,-0.21979679,-0.8680182,-0.045247044,-0.5655363,1.2174189,0.5285577,0.7304639,-1.2291847,2.9119456,1.6186218,0.7553738,-2.2925072,1.4844369,-0.33612433,1.331312,3.320543,-2.2884011,0.9067863,-0.49137065,0.82369894,0.8438395,0.5613741,0.29855132,-1.944241,0.5929594,0.096247025,-0.44873226,-1.0401204,-1.2135851,-1.1077639,-0.107435636,-1.0398508,0.8069114,0.8798315,-2.6757014,-0.77414435,0.26976016,-1.8406432,2.0853772,0.39585865,1.8998322,-0.92294574,-0.83312947,-1.3406668,1.5758971,0.524546,1.6470681,2.4591427,1.267176,-1.4662244,0.31704062,-1.587723,-2.3072412,-0.2436116,-0.6546402,-0.15082362,0.638067,-0.6680637,1.5410374
hsa_circ_0037996,0.3261147,0.25647607,0.10594155,-2.034195,0.6096492,-0.5216605,-0.57368714,-0.35326517,-0.12806922,1.5965892,0.41787383,1.0706764,-1.6620601,2.598064,1.2494409,0.67108446,-2.5600617,1.4331644,-0.13918166,1.2283293,3.2996526,-2.6117659,1.1121149,-0.46947762,1.2423575,1.2482028,0.18004437,0.75590515,-1.8447849,0.94603693,0.5968154,-0.29229409,-0.6564473,-1.4390281,-1.4512008,0.11055992,-0.5286265,0.73909307,0.5215709,-3.0405333,-1.3777004,0.20709698,-1.6570054,1.7064135,0.13145232,1.2788109,-1.0332396,-1.0767082,-1.0327431,1.5653481,0.061697885,1.455231,2.18524,1.4330558,-1.6793336,-0.26024568,-2.0978196,-1.9211797,-0.36312085,-0.38672364,0.20712721,0.3932811,-0.3032159,1.4512298
hsa_circ_0052415,1.285292,0.75606734,0.84519684,0.37567574,-1.3885119,-1.8021436,0.48216313,0.3173165,1.2215761,-0.18042226,0.6515034,1.160914,-0.8850216,0.057768054,-0.74230283,-2.241485,-1.7687387,0.19776753,1.25344,-0.037672702,0.6277503,-0.6791664,-0.75535786,0.06510677,-0.741927,0.4005885,-1.5626246,1.9131937,-0.99980396,0.5352377,-0.14866984,0.9540699,0.8258602,1.5846611,-2.2385483,0.62262183,1.308514,0.5094691,-0.8434184,0.6694516,-1.4879713,0.5034105,0.3059073,-0.74105877,1.9355364,-0.72850657,0.061163757,1.2783513,0.7276346,0.92012346,1.2642331,-0.3489815,0.9650471,0.4122616,0.23962776,-1.541029,-2.0915177,1.2776513,1.4521935,-1.7638613,-0.8788575,0.56945574,-0.055361316,0.23806259
hsa_circ_0037997,0.2973867,-0.45790482,-0.053162478,-1.4667897,0.6009783,-0.6118248,0.32690212,-0.39245707,-0.11705108,0.59414804,0.13850334,1.4339924,-1.2584465,2.4882436,2.2825713,1.1122361,-2.7081277,1.9286268,0.056958172,1.23612,3.538959,-2.485924,2.0095077,0.056758013,1.9134213,0.58182925,0.37831983,0.31869638,-1.9208249,1.3588382,0.43369812,-0.2920646,-0.6491943,-1.2063954,-1.8007733,0.06836508,0.5000541,0.8201124,0.34809986,-3.425522,-0.9847884,0.077819556,-1.3608685,1.4021219,-0.40251356,1.8845857,-0.8794201,-0.714778,-0.6521708,1.6293994,0.6640018,1.360333,2.7431931,0.8625878,-1.9943074,-0.6341725,-2.0680616,-1.7060953,-0.42527863,-1.1475899,0.3372616,0.12131161,-0.0026327092,1.6919079
hsa_circ_0057112,1.8592421,-0.9550229,0.6352671,0.65133685,-2.4057474,-1.4472442,2.040297,0.5886376,-1.3155093,-0.4763462,-1.1473268,-0.745414,-1.071733,2.0464127,-0.25872973,-0.8140745,-4.624515,0.0738302,0.0057566282,1.804887,-1.5323815,-2.8499932,-1.0921363,-2.4425461,-2.5240402,1.5331596,0.62805915,2.9630322,-0.65053356,0.69312567,-1.3048862,0.96404374,-0.5915347,2.9755135,-1.203055,3.2412338,4.427734,1.3078408,-0.84392685,-1.2082723,0.76708955,0.91003054,-0.61955297,-1.3864441,-1.2171192,-2.496809,-1.5042187,1.0489416,0.7306564,3.904619,1.7605951,2.6676166,0.45729408,1.7834454,2.46497,-1.6161641,1.1001542,-0.8289486,1.9190165,-3.0866697,-1.4997442,-1.2018778,0.06730673,-1.5596906
hsa_circ_0005461,1.6619207,-0.13309613,1.3351535,-0.33061022,-0.035520155,-0.20559554,0.61321765,1.4206327,-0.40256307,0.54157025,3.165377,-0.816544,0.44707978,-1.1126598,0.47334778,2.4685848,2.302558,-0.5663061,-0.14771788,1.6868219,0.61279076,-2.421209,2.2894173,-0.888216,-1.4603703,-0.42631721,-0.36740306,-1.4356061,1.5507405,0.061377026,2.3239486,1.0127945,-0.100233376,-2.171362,0.7268267,-0.99925727,1.3417811,-0.33376223,0.5380384,0.39886,-1.1292958,-1.0502317,-0.5666959,-0.33998996,2.361503,2.9240558,0.32008103,2.0307477,3.04409,1.8584836,-0.7930977,-0.3964926,-0.0874753,-0.28743243,-0.6636873,-1.3802348,-1.3040998,0.8257678,1.9803593,1.3854085,0.030308684,1.3334031,-1.2104068,0.5670607
hsa_circ_0041122,0.39858,2.7876642,0.7764653,-3.382274,-1.26995,-1.0701498,-0.10416419,2.4595642,-1.1530551,-0.277716,-0.8054829,1.817935,-0.43573508,0.44334218,2.3892312,-0.38002518,0.37129104,0.4143637,1.4382898,-1.70626,5.2567453,-3.4280968,2.9485745,0.5180208,3.3255186,2.0159311,0.024291582,-0.06574125,-3.7959678,-2.969963,0.8003312,-2.0071406,1.7244134,0.70740014,-0.073175006,-0.687387,3.3538156,2.6236134,3.1238382,-2.6369326,0.43661687,-1.9183292,1.1523429,0.4019775,-2.3851404,1.8534329,1.0434326,-0.039497543,-0.8028982,1.707845,-0.63573694,-0.28932574,1.3114008,-0.72184694,-0.43423462,2.1304824,-0.5142677,0.122419804,-0.20746158,1.0326545,-1.930191,-2.4472592,-3.8067048,-0.010731006
hsa_circ_0013876,-1.1174415,0.2882535,-1.117061,3.2350364,-0.2889808,-0.8878146,0.7084123,-1.7975143,1.4406093,0.6384133,-0.0043721558,2.7958455,0.4357104,0.7100283,-3.1221085,-4.7063694,-0.2646421,0.44374937,1.7554722,-2.139059,-1.0708547,0.24214773,0.3037619,1.6440271,-2.3953888,1.3163766,2.4910607,3.0468059,-0.12484069,0.49140224,1.3244356,6.4073763,-2.8918417,4.502279,-5.926121,2.8004391,4.0721292,2.7481704,-1.1229737,-1.3723024,1.09505,0.5143789,1.3689497,1.0500443,2.3343363,-2.0016155,-1.0243678,2.2065487,0.6557793,1.6021401,4.854406,-4.688199,3.464426,3.7318656,2.1953802,-5.0001802,-1.9412867,0.07403114,-2.428288,-3.234605,0.592642,-0.8704118,3.004969,-3.102676
hsa_circ_0020316,0.8179648,1.0134221,0.077306345,-0.8795032,-0.1853304,-0.26307386,0.3229255,1.2399764,0.7922421,0.47608507,-1.0642432,0.35500336,0.7066675,0.3792637,1.4182991,0.6286547,-1.3819796,0.44922814,0.60897416,-0.18659878,1.5019062,-1.176015,0.46361503,-0.5152799,0.8715186,0.22102726,-0.29966724,1.394967,-2.454159,-1.1432165,0.03306268,-0.7341181,-0.08109664,-0.014229073,-2.4707766,0.0017084646,1.6173007,1.9863429,0.87221986,0.26796255,-0.88325304,0.6017874,0.33874002,-0.18761641,0.5691079,-0.21102948,-0.35310388,1.6376836,-0.7745503,0.7500055,-0.2753642,2.1266854,1.7975895,-0.65543044,-0.19136482,0.35381487,-1.4990473,-0.2801806,0.4006556,0.18910286,-1.1164327,1.3134422,-1.2826531,1.4978384
hsa_circ_0089771,-0.36626473,1.7447816,0.68560004,-1.0418403,-1.6509846,-0.16788878,-0.08183755,0.60128963,-0.4272175,-0.24629246,0.69734883,-0.9766938,0.5868217,1.6337717,1.42622,-0.059986096,-1.6687195,1.6203907,0.049778122,-0.90892994,2.4855354,-0.99497086,0.54885584,-1.4556484,0.41973528,0.70761275,-1.0343028,0.049642526,-1.3716887,0.13795339,0.24848191,-0.5881057,0.7549031,-1.6224024,-0.7933464,-0.41834292,2.0875533,1.0305798,0.23191261,0.5896545,0.4878933,-0.07670241,-0.9315278,1.0319384,-0.3085924,-0.058536213,-0.25843775,0.29018685,0.44531664,1.7078819,0.8383287,1.3459187,1.8956573,-0.6133513,0.12816541,0.47685575,0.03538279,-0.19536279,-0.68784875,-0.7733757,-1.6834675,-0.35375428,-1.2128562,-0.3162942
hsa_circ_0038404,3.221116,-1.2003795,1.5067472,-0.8760144,1.8106855,4.9255557,-0.4797661,-0.71623904,1.7503769,-1.7816656,-3.1317642,-1.9206634,4.3840847,5.7328005,-3.1346924,-3.5804536,-4.7526803,-0.07796179,3.2787225,-0.27316165,3.5923305,2.8211558,0.68602693,-4.054961,-3.7017667,0.69656396,1.9660478,0.044191558,-2.751303,-3.7054467,-0.13202202,-2.3139656,-3.487896,2.544017,2.464595,-0.3791073,0.3071043,1.5627329,-1.637355,2.9059944,-6.6064405,-1.3844709,-1.5547055,-2.5649526,-2.8753655,0.8095851,0.037371602,-1.7810783,-0.13967943,-3.3948243,1.1543899,8.138933,-2.179291,5.153019,0.1522794,2.245997,0.06563197,-3.0247204,2.0139732,-2.1962242,0.5866283,0.7837873,-2.5434253,6.773426
hsa_circ_0002326,4.585513,-0.84366655,1.5454104,0.089373,-0.40065908,0.38560763,-2.3560548,-0.6569786,-1.8179288,0.2952782,0.112193204,-2.7948122,4.509038,4.111225,3.8829072,-1.1903424,4.4719944,4.6675158,2.8872867,3.4192646,4.3762527,-1.2073599,5.066745,1.275724,0.89745116,4.1798973,3.7469804,3.2774994,2.8973613,4.0191164,4.5014243,1.1491984,2.5839536,0.31323597,-1.9148978,1.8822993,0.25444275,-3.0935383,0.07746923,-2.01689,-1.1692301,0.026081922,-1.454003,-0.50167745,4.747653,0.011597273,1.3181185,2.5665364,-2.094347,1.6344607,1.7686465,0.28313965,-2.368204,0.70788044,2.4959092,2.2003691,0.8593237,-3.467189,2.618092,-0.8593879,1.2703198,1.2984016,-0.62765795,2.223927
hsa_circ_0014209,1.699045,-0.92385393,-2.3290718,-0.28918564,-0.41175833,0.9360707,-1.443632,-0.14765392,4.3829412,-0.3754484,-4.170484,-2.584994,-0.13795485,-3.1870372,-1.2855536,-0.37828955,-3.5906115,0.10278069,-0.037350416,-1.1932662,-1.2144917,-4.328617,1.309541,-1.8533427,0.47594747,2.4142284,1.0587953,3.0623348,-2.9291809,0.7157003,-0.5698545,1.3250749,2.9928646,2.5565832,-5.010005,0.10554188,-0.83551645,2.4217305,-0.49179876,-0.95075756,0.749103,-1.915991,1.5433054,1.0873195,-0.5061348,-0.5817703,1.2684679,2.2515264,-0.17354302,1.3305103,0.18349668,0.9375251,2.5253353,-0.31566462,-0.89637977,-3.1073017,-1.7719331,-1.9192034,0.8889228,-1.2228367,-0.18918523,0.7526508,-1.1444807,-1.8344741
hsa_circ_0014210,1.628407,-1.1624217,-2.1862152,-0.13489038,-0.3754011,0.8968337,-1.5372378,0.022566898,4.4387593,-0.57151794,-4.2461066,-2.6179178,0.16908014,-3.438706,-1.1086687,-0.34136668,-3.2756178,0.012434594,0.32352087,-1.3839355,-1.4369882,-4.4842286,1.3755045,-1.6979434,0.46964368,2.5633247,1.1074495,2.5966055,-3.0748334,0.6623577,-0.54315126,1.108822,2.862542,2.6054463,-5.265573,0.29443827,-0.7010523,2.3169506,-0.15900269,-1.3259808,0.59821093,-1.9970679,1.1877612,1.3176472,-0.49684766,-0.36461052,0.88025486,2.4829023,-0.2318177,1.4216546,0.38327882,0.99458086,2.7630496,-0.39924598,-0.655238,-2.8412256,-1.4817826,-1.8189355,0.9328935,-0.90616465,0.3073108,0.5859111,-0.8294623,-1.9005172
hsa_circ_0044512,-0.48922616,-1.9755524,-1.6950423,0.913991,0.061755497,-0.2207793,0.85259837,0.50413346,-0.10104321,0.2556518,0.17847626,2.0058389,-0.62950915,1.8272659,0.68968505,-1.2185773,0.085762404,0.306539,0.7826296,1.9727973,1.3377017,-0.13445112,0.33548713,-1.5656263,2.7695959,2.4837806,1.0401773,-2.5002608,-3.9494202,-0.9652352,-0.43063122,-1.6276544,1.1594278,0.9910759,0.38037223,1.9610387,-1.7291551,1.3084606,0.4516536,0.58216053,1.047147,1.7770067,-0.34191573,1.0827911,-0.6289211,0.7537735,-3.0885608,1.6490875,0.2582018,-0.93028677,3.1064556,2.7238858,1.309648,-2.7677746,-0.34556022,-0.03700557,-1.1903911,1.961228,0.21175721,-1.8840717,-0.9267983,2.2673776,-0.18179561,3.4079084
hsa_circ_0044522,-0.8689951,-1.9497206,-1.5968342,2.1626654,0.7932974,-0.5623555,1.0701936,-0.6305945,-0.225256,0.94252133,-0.71868837,2.7173603,1.5349213,1.9113413,1.3509982,-0.42320788,0.99002045,2.2026398,1.1952198,2.3532324,2.1948984,0.71554923,-1.0343673,-1.9505428,3.1585484,2.828115,2.3202085,-3.1879396,-5.11232,-0.8580369,-1.5837471,-1.6159881,1.1327266,0.8171075,-0.013682944,1.140316,-3.1835504,1.3789167,0.7569076,1.1514646,0.08291628,2.9408233,-0.7076648,1.562417,0.6295215,1.77832,-3.8212445,1.5431373,0.22396812,-1.1816435,3.2598844,3.2809114,2.4784343,-5.022428,-1.7013596,0.1367768,-1.8743535,2.959263,0.60132664,-2.226705,0.08348307,4.0300293,0.6579765,4.2197676
hsa_circ_0082878,-2.6070585,-0.8499468,-0.38960913,-0.6540917,1.3400674,0.6594984,-0.28123727,1.8303658,-1.1525548,0.5752202,-0.34549543,0.71446955,0.74504006,2.420184,-1.6962651,1.5359173,0.6296629,0.93961644,-0.2704356,-0.9455476,2.8944533,-2.4053466,-0.20913935,-1.9933847,0.39488715,0.58987737,2.9310794,0.5061108,-2.2748382,-1.4343457,-1.2336854,0.17677887,0.6589542,-0.27531376,-1.1999846,-1.840867,-1.0449355,0.6809386,2.4475904,-1.3850155,-0.36765155,-0.0912691,-0.70737416,3.6345282,-0.67637795,1.8202541,-2.1803677,-1.2301091,-0.3659551,0.5940632,-0.9250884,-0.52672505,1.4904379,1.7312387,0.8817626,2.3313692,-0.32845506,-1.3989303,-1.4407662,0.7568663,-0.5815178,1.2568191,-0.88963467,-1.2775168
hsa_circ_0082879,-2.3114057,-1.0358353,-0.76135474,-1.1656525,1.5900327,0.8690387,-0.43976888,1.2590909,-1.2136942,0.5778113,-0.79773927,0.815188,0.8321682,2.2087195,-1.2635506,1.3343803,0.35630032,1.017238,-0.3419796,-1.3962319,2.8713925,-2.0446897,-0.3479165,-2.5159228,0.606712,0.77607673,3.1899903,0.85162777,-2.4449375,-1.5838398,-1.0430408,0.31307763,0.24628067,-0.13387421,-0.86487436,-1.5338032,-1.1922947,0.8588622,2.5649393,-1.2772064,-0.5012738,-0.18908301,-0.79380226,3.7587366,-0.4357879,1.705578,-2.181173,-0.98257476,-0.8028503,0.4076639,-0.7791134,-0.40443373,1.8746961,2.2613554,0.74934745,2.2232788,-0.0050835866,-1.4767857,-1.4329754,0.7902407,-0.6135444,1.1549253,-0.84356153,-0.85018015
hsa_circ_0044510,-0.7587765,-2.0264044,-1.5972652,0.97993,0.09182988,-0.40400377,0.92785704,0.7359329,-0.25119448,0.6137214,0.35314786,1.985211,-0.788311,2.0047555,0.64677775,-1.1386812,0.4938744,0.02506465,0.74302804,2.3592005,1.7226574,-0.27074856,0.23184326,-1.2983896,2.44698,2.301424,0.85352546,-2.0839305,-3.7487457,-1.2755237,-0.6646681,-1.4295332,0.98833174,0.76500005,0.61807215,1.7281281,-2.067576,1.3141018,0.50825644,0.40953594,1.0616761,1.6653916,-0.41820794,1.1392142,-0.706027,0.7295211,-2.6767328,1.5167997,0.21165317,-0.7731488,2.7608778,2.3737144,0.9449569,-2.5830634,-0.2280314,-0.20170788,-1.2917756,1.9621373,0.31742743,-1.6669245,-0.84843796,2.2654104,-0.036760565,3.286642
hsa_circ_0044511,-0.70267797,-1.8620313,-1.3645837,0.8975651,0.006463592,-0.31387565,0.80180717,0.91037464,-0.3131826,0.24420655,0.2927623,1.870996,-0.8299667,2.1081417,0.4496428,-1.2286557,0.49222183,0.05652717,0.981462,1.9941846,1.672276,-0.22175397,0.29858813,-1.374606,2.55459,2.329391,1.0382617,-2.3922682,-3.8635442,-0.92541987,-0.49375817,-1.5685285,1.1468642,0.8849035,0.5127543,1.875391,-2.0054483,1.1007804,0.5423966,0.5836191,0.9595414,1.7067646,-0.5375872,1.1781083,-0.75509804,0.5978111,-2.9973629,1.7329196,0.20629212,-0.8786756,2.9375937,2.7496018,0.982299,-2.661315,-0.16613168,-0.22396918,-1.4137088,1.9767818,0.38263124,-1.8069153,-0.8495506,1.9236239,-0.03526248,3.4328165
hsa_circ_0044519,-0.9624074,-2.43282,-2.7617195,2.4215734,0.55698174,-0.9384861,0.4379946,-1.0119572,0.051448114,0.39713943,-0.23313202,2.4428587,1.6598842,2.1625981,1.8508273,-1.2992071,0.90444154,1.9443386,1.2270027,2.683883,1.8199983,0.69996744,-0.55267906,-1.6680195,2.747767,2.8029737,2.494264,-3.1176305,-3.9320183,-0.6244184,-1.4734423,-1.5647798,0.9394733,0.85965705,0.71334636,0.73856777,-3.8705695,1.1471125,1.1563616,0.99945486,0.29619637,2.4672484,-0.8956176,2.6012747,0.68928194,1.957371,-3.469585,1.4482925,0.31814912,-1.1114415,3.0438588,3.177353,1.7189691,-4.9969883,-1.4149084,-0.38949493,-1.4672103,2.5563948,0.025608232,-1.8503667,0.42033407,3.4909458,0.0073134676,4.3011503
hsa_circ_0068939,0.9782575,0.22829139,1.6283945,-1.2928499,-0.2844212,0.84283423,0.6142573,0.70452696,-3.5883336,-0.64526194,0.82240325,-0.22174637,0.847677,0.36899105,-1.4145945,0.22889166,-0.94108486,-1.1346823,1.1203626,-1.1667751,2.1286457,-0.19394735,1.0914584,-0.64699745,0.68148375,1.3076779,0.6700308,-0.15657994,-1.6208345,-1.0814234,-2.1518075,-0.03572798,0.20895945,0.4606172,0.21348102,-0.551805,2.0465462,0.7181997,-0.109581694,-2.9,1.5831492,-1.0602448,-2.0343714,0.9025772,0.07357345,1.6389557,-1.0565037,-0.42881304,1.8592081,0.10535669,0.09797114,-0.418912,-4.1401606,1.958269,2.056311,2.3077044,-0.698124,-4.6186347,-2.1024475,-0.4449863,0.6901316,0.95191735,-0.7860209,-1.5534406
hsa_circ_0068940,1.0452571,0.96133536,0.30760604,-0.7326731,-0.12863852,-0.18308115,0.7407941,2.6304636,0.22768071,0.6495872,0.19217542,-0.19835089,-0.7556707,-0.14094779,-1.9228834,0.30240488,1.0922301,-0.68995154,0.11815726,-1.0837132,1.3321285,-0.8246603,-0.0513904,-0.28019163,-0.17850888,0.6126943,-1.1571621,0.70135,-1.8033849,-1.1439728,-0.28766426,-0.15081404,0.7518783,0.18825118,-2.0237892,0.21577668,1.899498,0.3989244,-0.79201096,-0.84282935,-1.1357901,1.3723059,0.095428206,-0.6732376,0.62318265,-0.2878181,-0.22277023,0.6544345,-0.02288772,1.1972218,-0.062074702,0.2443947,0.1385302,0.69500506,0.4051836,-0.32206723,-0.7989896,-0.36166778,0.8538304,-1.5412834,0.15980838,0.235073,-1.085971,0.3699086
hsa_circ_0079070,-0.6145159,-0.5256996,1.4368783,-0.57239366,0.92647004,-0.519841,1.0944462,0.06461996,1.57894,-1.4439679,0.27228522,-1.3744463,-1.0097872,-0.6946265,-0.031789728,1.1443955,-2.2932787,0.7513892,0.21008459,-2.4177024,0.2725216,-0.5403102,0.3571978,-1.069089,-0.5456453,1.233487,-0.03930621,1.1262754,-0.023421735,-0.101989634,0.89538497,-0.99653125,1.4220521,-0.28641024,-2.4800155,-0.5144538,0.31200296,2.008378,-0.6484586,-0.49086535,-1.4620093,-0.5111994,0.38554806,0.4333834,-0.033855494,-0.56995624,-0.49304378,1.286321,-0.48622814,0.25930938,0.0042121112,1.5181545,-0.7728965,-2.3462663,0.62522775,-1.2221284,-1.5105603,0.6171337,2.057979,0.12943557,-0.8843444,-2.3753798,-1.8940669,1.1990172
hsa_circ_0007286,2.243147,2.1453447,0.784736,0.32582363,-0.27309874,-0.43876827,-0.7253665,0.46974668,1.2481533,-1.4911175,-0.016833652,-0.03177378,-0.00659431,-1.3600982,-0.4131996,-1.7751957,-0.03594853,-0.5918353,1.1651459,-0.017492265,0.5178528,-1.570632,0.9480073,0.553101,0.6074696,-1.2242212,-1.5216742,0.71343595,-0.20772332,0.4338511,0.73792136,1.3383832,0.39280072,1.4222178,-0.95160913,0.9294627,1.6161755,0.46646044,-1.2433685,1.629495,0.48777246,-1.5994337,2.8039052,-1.8046879,-0.1524315,-1.2368184,2.1748765,0.71105576,2.7696104,1.465441,0.511786,-0.17524928,1.4214088,1.1297736,0.659246,-1.0581338,-1.4221692,0.511108,0.90720314,-1.8385319,-2.0649674,0.17362534,-0.36567461,-1.3764517
hsa_circ_0044518,-0.9805603,-2.4661622,-2.73276,2.3815136,0.5019293,-0.6963617,0.5063856,-0.96642286,-0.26676112,0.5136282,-0.114627205,2.6105943,0.9079933,2.20374,1.769292,-0.37715778,1.1013952,1.698294,1.1291832,2.7695856,1.9495361,0.7559812,-0.6766402,-1.3951707,2.3255608,2.7016718,2.5062976,-2.8472044,-3.4575262,-0.35020056,-2.107134,-1.3355496,0.540184,0.621379,1.0473169,0.5320625,-3.835151,0.79951,1.1452961,0.38370538,0.42512423,2.275173,-1.2698659,2.4526718,0.9696278,1.932795,-3.417652,1.1790177,0.35179517,-1.079244,2.9366772,3.0852253,1.6039217,-4.691041,-1.2636329,-0.4417757,-1.360464,2.1419132,0.34890822,-1.6894236,0.40428808,3.669541,0.24776116,3.9062166
hsa_circ_0073778,0.5787312,0.99061716,-1.0471913,-0.36578724,-0.82606846,-1.0935999,-0.4740184,0.63457876,1.2722138,-0.31431162,0.29249972,-0.71468765,0.26252213,-0.0053788675,-1.174613,-0.21869607,0.05336496,-1.1241754,-0.6538193,0.06735352,0.66772795,-0.6494001,-0.4935458,-0.17920288,0.25267157,1.5189279,0.072677165,-0.18187426,-1.462262,-1.5908577,-0.04203995,0.65273386,-0.5276379,1.1188638,0.12358196,0.9922928,-0.54412174,-0.6481106,0.68290716,-0.6276564,0.686996,0.89295536,-0.78951734,-0.87676394,1.2192881,0.07901004,-0.62760085,0.3246539,-0.34640992,-1.2245351,0.48888803,-0.947368,-0.51220536,1.4424726,1.260261,0.7649034,0.52868557,-0.5876224,0.38680357,-1.1893795,0.21037003,-1.0635743,-0.136567,-1.4222324
hsa_circ_0044524,-1.3398612,-2.3168414,-2.3328562,2.2302449,0.90184945,-0.60779744,0.6680827,-0.86724895,0.09783001,0.6329104,-0.722564,2.5878322,1.3014845,1.9339651,1.5083805,-0.5761724,1.0221565,2.0660355,1.1644014,2.6360662,2.0800781,0.28473288,-0.9573456,-2.118449,3.4279883,2.9057224,2.3078523,-2.8394465,-4.947699,-0.64098895,-1.6099504,-1.7919078,1.3004471,0.8782148,0.16747709,0.68470615,-3.3437102,1.3997581,0.8910381,0.9438428,0.2646147,2.567603,-0.70185953,1.8243327,0.51391035,1.3048481,-4.05068,1.5178138,0.54201573,-1.1938251,3.1440837,2.8087578,2.0500417,-5.1260104,-1.5872272,-0.015106977,-1.8462138,2.8485782,0.6381553,-1.9962384,0.91591626,3.8254774,0.83398616,4.1442785
hsa_circ_0048499,2.3277974,-2.9474583,-1.1507962,2.1154075,-0.15487173,-0.48112157,-0.9167557,-0.23993853,-0.26036456,1.4787523,-1.0875251,1.3901433,-2.3887002,0.1773103,-2.6111586,-0.31068492,-0.0007352339,-1.9295659,2.240347,2.048367,-2.458353,-1.788241,-1.8459749,-0.22382024,-1.1840442,0.33263552,-1.6043998,2.0237532,0.35007125,0.5941242,-1.2238052,-0.0075371284,1.0322583,-1.9854237,-1.8920503,-0.35360935,-0.9468678,-0.34913316,2.2163634,0.13917303,-2.838575,0.96980363,-0.88511765,1.78433,1.0812771,-0.24776404,-2.2096646,0.09201638,-0.52722543,0.78873557,3.3778875,0.04283169,-0.74238634,1.3055518,-0.015644563,-1.5297592,-0.8685034,0.82058036,-0.53498346,-0.5360123,1.8644264,-0.8254842,-0.08037249,1.3067942
hsa_circ_0044509,-0.43745777,-1.8631057,-1.4293075,0.9679605,0.286959,-0.46732673,0.8698232,0.7657003,-0.43822673,0.40069616,0.44732302,2.1556425,-0.89816916,1.8169909,0.16386475,-1.1763178,0.89085364,-0.028023003,1.0339364,2.0241735,1.478415,-0.44153628,0.10595628,-1.0756501,2.3332932,2.4551551,1.0825007,-2.3096423,-3.421629,-1.1726805,-0.5059335,-1.5130235,1.0188224,0.65318966,0.49959368,1.9431396,-1.5673785,1.1000453,0.44344446,0.41194218,1.0526423,1.6180494,-0.70229393,1.0022172,-0.75618905,0.75835335,-2.6330006,1.6618418,0.12755957,-0.79771596,2.8835382,2.5833144,0.9704257,-2.3489337,-0.16344057,-0.1994737,-1.3799239,1.8609306,0.10336253,-1.7510833,-0.8422085,2.2784693,-0.22293897,3.2527702
hsa_circ_0044529,-0.99426425,-2.1725338,-1.5668207,1.8705236,1.2588447,-0.39902124,0.47463486,-0.6901045,0.10933122,0.4741202,0.14706661,2.5625498,1.1847802,2.0697386,1.0577409,-0.19810215,1.314248,1.7824519,1.5028726,2.5368502,2.2928686,0.5030984,-1.275681,-1.8993388,2.8014753,2.367388,2.5212212,-3.2154279,-4.6277013,-0.4886077,-1.9494686,-1.706492,0.7145273,0.9385609,0.5224452,1.069171,-3.1333332,1.4808226,0.75298226,0.73725545,0.25000158,2.555169,-0.7442598,1.7022061,1.2599832,1.9859661,-3.5197043,1.3540051,0.577381,-1.148761,3.0225766,3.0835145,2.20312,-4.167683,-1.9040134,0.6104369,-1.5664885,2.8624542,0.37818742,-1.8314636,0.6352542,4.045465,-0.15079749,3.5134351
hsa_circ_0044536,-0.93781275,-1.5374135,-2.151423,2.1927876,1.2207309,0.09994734,0.7164814,-0.8406455,0.5953695,0.3028694,-0.6620848,2.4484282,1.3851043,2.2952514,1.1369483,-0.48901495,1.219248,2.014941,1.6274652,2.3086865,1.8631457,0.28612638,-1.1165924,-1.7443475,4.0285444,2.6172018,2.4642498,-2.5924776,-4.8597584,-0.6685705,-1.4352007,-1.8144847,1.774128,1.3460199,-0.37638208,0.6691254,-2.8878376,1.3447051,0.93074113,1.2188699,0.41276926,2.938609,-0.8048802,1.7556901,1.1873239,1.367498,-3.887934,1.8387777,0.38683942,-1.0684173,3.2993968,2.7124574,2.0274699,-5.312224,-1.5306487,0.017767893,-1.3551162,2.922464,1.5133878,-1.7621831,0.60389924,4.2816133,0.763268,3.569699
hsa_circ_0044520,-1.0077436,-1.8758059,-2.162668,2.1805735,1.1667917,-0.33890918,0.55423355,-0.69386303,-0.45756012,1.0093169,-0.25431564,3.0538578,1.1039948,1.5808547,1.5694016,0.70485085,1.3055785,2.377491,1.4982018,2.7343702,2.8882384,0.45173165,-1.0559497,-1.9552821,2.946514,2.965631,2.2377336,-2.7352805,-4.177247,-0.13796638,-2.0670896,-1.4696347,0.78826696,0.043273285,0.790811,0.8219141,-3.2043777,1.2907827,0.6721053,0.55712676,0.37584588,2.405128,-1.208558,1.7861063,0.9817477,1.6864761,-3.5972047,1.4649417,0.4623922,-0.89728034,3.7657661,3.525177,2.3834312,-5.228348,-2.135743,-0.47431996,-2.0817986,3.3560424,0.83500606,-2.0190814,0.545115,4.3975687,-0.040418312,3.9586773
hsa_circ_0073779,0.18268022,0.26591557,-0.9498531,0.011596104,0.07586304,-1.3295174,-0.52980405,0.5447562,0.7601168,-0.51566476,0.29714477,-0.6539945,0.5573576,-0.37979314,-1.5733178,0.18855116,-0.19103234,-1.1336626,-1.0728035,-0.20766868,0.87960434,-0.8166427,-0.52081823,-0.28810334,0.26229316,1.5989294,0.6657398,-0.7520836,-1.2378026,-1.583784,-0.48184997,1.0241668,-0.813393,1.396072,0.33722383,0.8173094,-1.5501634,-0.79521275,0.9310293,-0.731462,0.87173516,0.60938704,-0.5603135,-0.8931546,1.0197325,0.31050023,-0.62171715,-0.022398943,-0.79457545,-1.8226429,0.11620599,-0.7516708,-0.9179565,1.750362,1.6820211,1.0805837,0.86528546,-0.75827324,0.7411377,-1.1029788,0.07823269,-0.8865215,-0.3279856,-1.6860628
hsa_circ_0062544,-0.0055017644,0.2667142,-0.5399803,-0.021326294,-0.5863328,-1.4807831,0.027149294,1.0264618,0.91203207,-0.14204666,-0.734893,-0.23807722,-1.0950906,-0.61577106,0.1739847,-0.38494146,-0.27783802,0.6381148,-0.5527891,-1.5791813,-0.36174747,-1.1557931,0.1417303,-0.76934916,-0.15226509,-0.21834812,0.6372759,1.3158869,-0.003988591,-0.2546491,-0.08223809,0.6293757,0.9560231,1.665709,-1.4527744,1.0394374,0.9118253,0.97504926,0.28549284,0.106075235,-0.31059927,0.051069144,0.7315935,-0.06082082,2.6840582,-0.5389424,-0.16791895,1.4239469,0.28865176,1.4158343,-0.64365655,0.30542332,1.8746262,-1.2182853,0.021499336,-1.0883478,0.19729425,0.19630629,0.7986872,-1.3647091,-0.45701608,1.4168973,0.08859922,1.002281
hsa_circ_0027022,0.41361627,0.59313035,-0.7906032,-0.7158963,-1.035937,-1.0937505,0.7271547,0.83197117,0.6035885,0.16780108,-0.6754146,-1.2384408,-1.5170087,-0.7827956,0.02283992,0.58896387,-0.15895985,-0.82037556,-0.4317462,-0.4622041,-2.4961917,-0.90530884,1.005525,-0.41413987,0.2571634,-0.01631986,-0.043305743,1.8578256,0.35104886,-1.056565,0.7448451,-1.4439548,0.11675342,1.4829605,-0.99515885,0.52801305,0.08580802,0.846855,0.50016576,0.96107984,-0.083664276,-0.083396524,0.6783373,-0.40699652,1.2682099,-0.5443217,-0.034621563,1.4884708,0.52344024,1.1612884,-0.2845943,0.42986113,1.8913574,-1.3625143,0.7771133,-2.190949,0.010784433,0.8815705,1.5224688,-0.99045813,-1.6871996,0.45825115,-1.8389009,1.4771326
hsa_circ_0013869,-1.0011004,0.033214748,-1.3584881,2.8093033,0.015328351,-0.20198274,1.3544624,-1.4903598,0.95274436,0.50874335,-0.23998386,2.46546,1.5574692,0.77445525,-2.3956954,-3.7336247,-0.4832846,0.52166396,1.6604197,-1.969323,-1.1897185,-0.22554581,-0.47941166,1.4807264,-1.5768589,1.1481767,1.277874,2.1383116,0.13016221,1.0080695,1.4953561,5.100316,-1.7903504,2.8022904,-4.9385414,1.0555292,2.3958383,2.2143838,-0.9943785,-1.664658,1.3007632,-0.07419686,0.7637026,0.7835518,1.1756166,-1.4481554,-1.2187061,1.6772913,0.37871155,0.9169332,3.7545857,-3.5293186,2.0668068,2.7405179,1.5485669,-3.6241872,-1.5732954,-0.4647536,-1.7787538,-1.828961,0.54186916,-1.5234783,3.0032353,-1.9451358
hsa_circ_0044517,-1.1153795,-2.4768953,-2.6115038,1.8526268,0.61049867,-0.20125215,0.47520876,-1.2034736,-0.5655442,0.43731305,-0.656035,2.4830644,0.8301619,2.4123976,1.9583242,-0.56904614,1.3946456,1.4496039,1.4720147,2.7118235,2.02621,0.45655066,-0.71943426,-1.4006734,2.240791,2.8183472,2.4805176,-2.8038306,-3.0377789,-0.11811112,-1.8949171,-1.4833955,0.27654243,0.72105134,1.6403775,0.85965586,-3.629653,1.1593789,1.3974363,0.45996246,0.9803996,1.7585939,-1.2185261,2.6491098,0.99161327,1.6759297,-3.517216,1.057175,0.57685965,-0.9746136,2.7190096,2.9856832,1.4665042,-4.480762,-1.468793,-0.6631572,-1.0787455,2.0563054,0.103027485,-1.6504267,0.4880616,3.8493474,-0.012887879,4.008077
hsa_circ_0085899,-3.2725875,-0.23693909,-0.1715056,-1.8178422,-1.7810655,1.6698713,-0.12394987,-0.5579107,-1.9675566,0.30043894,-0.59462523,1.4842641,2.6144824,2.5482004,2.229916,2.6521878,-0.78919137,-0.28888163,1.5776408,-0.19218507,-1.5343305,-1.4051648,-0.36917555,0.20969091,-1.6313528,2.091426,3.378396,-2.1863155,-1.7512097,-0.5061224,-1.9592826,-0.41079864,-0.13209261,0.86212236,1.2320904,0.23484671,-4.4838614,-1.1159809,0.062121052,-2.098723,2.193813,-1.9023306,-0.12900685,3.8178139,1.2370918,2.253371,-1.2298682,-1.598388,0.52106047,-1.0820981,-1.2866215,1.9620278,-1.5021634,-0.6365436,-2.7666593,1.7083094,0.37652132,-4.0515594,-0.4171496,-0.55043805,2.0969315,4.235874,-2.194098,1.2716197
hsa_circ_0085900,-2.7358897,-0.69314146,-0.35322863,-1.8129052,-1.3382125,1.7060374,0.045679048,-0.42197242,-2.3045,0.29586023,-0.7154134,1.4791895,2.6314833,3.0729127,2.1416297,2.2983637,-0.75365555,-0.5498153,1.362692,-0.14866838,-1.4339819,-1.2410858,0.007143298,0.05879258,-1.0100842,1.9998991,3.1633844,-1.8905504,-0.97311985,-0.47931275,-2.3090456,0.008735136,0.051544413,0.98489225,1.238425,0.09482399,-4.5916696,-1.2930642,0.17781717,-2.1218057,2.3103952,-2.1103487,-0.6180294,4.074051,0.7437136,2.7312891,-0.77805316,-2.0220318,0.65517426,-1.3827591,-1.5225583,1.807052,-1.3747224,0.3850163,-2.755547,1.8564557,0.28828233,-4.5139427,-0.9196096,-0.3624444,1.8153582,3.6767902,-2.1188514,1.2889644
hsa_circ_0035135,-0.48095432,0.19472128,-0.56428117,-0.18425669,0.94454455,-0.7442193,-0.32049668,0.8126324,0.3548564,-1.2673116,0.7715385,-0.7103662,1.2557468,-0.14508538,-2.2438898,0.026243564,-0.24164654,-0.880908,-0.68612283,-0.5122312,0.4481258,-0.27778348,-0.5383925,-0.94888604,0.21882161,1.7547495,1.1199893,-0.35598537,-1.8391858,-1.0422046,-0.5695335,0.740195,0.32052654,1.7235873,0.8883545,0.84462667,-1.3671992,-0.70648205,0.73562825,-0.042236846,0.87478006,-1.0630305,0.07442196,-0.36645645,0.34754556,0.3126614,-0.9948553,-1.0502883,-0.31988016,-1.6805584,0.6784599,-0.9142408,-1.033058,1.1079051,1.5232424,1.5481309,0.47225428,-1.0790375,0.5435695,-1.1503437,-0.5169442,-0.8008224,-1.1413904,-1.603654
hsa_circ_0035136,-0.4830561,0.15289456,-0.003697718,-0.43930343,1.5802437,-0.1426826,-0.043103598,0.774045,0.14291386,-0.93311465,0.7092041,-0.6253686,1.3257536,0.27361748,-2.229639,0.51738465,0.008474743,-1.0768944,-0.2940416,-0.28529462,0.37458724,-0.47256672,-0.75993574,-1.1169412,0.4282807,1.7532631,1.2123114,-0.55809087,-1.4674592,-1.21906,-0.47297525,0.19251387,0.06160294,1.4373181,0.86784786,0.6483415,-0.7085536,-0.61191046,0.6708106,-0.053326387,0.7632119,-1.2437835,-0.053393688,-0.11150189,-0.27706328,0.46045718,-0.48749518,-1.0597339,-0.025043383,-1.3402606,1.0328856,-1.3567748,-1.2670316,1.0124942,1.3854814,1.1693636,0.41339087,-1.0565603,0.82530737,-0.8175899,-0.43907946,-0.9532789,-1.5293537,-0.62286353
hsa_circ_0035139,-0.40936056,0.043042928,-0.35387808,-0.25932795,1.0693405,-0.5673613,-0.055236533,0.47142702,0.3373238,-0.8798964,0.6204258,-0.6632646,1.1864306,-0.072299585,-1.8567361,-0.11842408,-0.2868472,-1.0176383,-0.5943114,-0.55439293,0.6651311,-0.388416,-0.27145556,-1.1093452,0.4080046,2.048101,1.2095486,-0.33167055,-1.7094908,-1.2017404,-0.38517946,0.6611544,0.05638366,1.7362819,0.98731667,0.81766194,-1.178067,-0.2522813,0.8113763,-0.28590482,0.8467088,-0.8493346,0.0021990961,-0.37286925,0.28685918,0.26301438,-0.86003435,-1.0551752,-0.23679899,-1.731501,0.8827983,-1.0171052,-0.7467766,1.4524441,1.8718674,1.3680438,0.27184847,-1.1208203,0.61464745,-0.7017195,-0.37510982,-0.869157,-1.0870148,-1.2197497
hsa_circ_0079477,0.1439339,2.326283,2.0058517,-0.48790386,-0.70359063,-0.4131993,1.0501102,-1.061593,0.7339293,-0.43985108,0.68979865,-0.29790497,-0.16350056,-0.5738509,0.68985206,-0.049621418,-1.368639,-0.29843524,-0.44018218,-0.69504106,1.0577748,-1.08863,0.4634043,0.7213774,-0.39852864,-0.2538279,-0.28929025,0.5887478,0.76280266,1.2242169,0.95348173,0.57423514,0.08278901,0.25956228,-0.6364748,0.097462095,0.44526392,0.036308747,-0.55846703,-0.92656755,0.9791382,0.21368541,1.203743,-1.2251558,0.18413916,-0.07496321,0.386587,0.88392264,1.3497254,0.08235452,0.6474775,-0.8614854,1.073631,0.3707301,0.1512795,-2.3697906,-0.9584835,0.015771125,2.0367718,-0.8780785,-1.5830693,-2.149753,-0.5184369,-0.45258877
hsa_circ_0079478,0.3777788,1.962008,2.0567756,-0.7226644,-0.69935095,-0.059763953,1.4795763,-0.6348065,0.5076853,-0.18128327,0.60945594,-0.37228125,-0.17115986,-0.52276474,0.7495871,0.024418388,-1.2447674,-0.4329847,-0.47180524,-0.67160803,1.0283464,-0.93170035,0.19130653,0.47161075,-0.38941205,-0.32058173,-0.63310176,0.1931589,1.0484571,1.0298895,0.6710937,0.16987139,0.19053523,0.17851989,-0.5009393,0.35000634,0.36645743,0.09281033,-0.70966524,-0.7197026,0.714296,0.33005843,1.2189968,-1.5334139,0.44318834,0.089061886,0.56649125,0.7022679,1.5506728,0.28861645,0.37165433,-0.7863419,0.8173175,0.5698729,-0.09358857,-2.2239883,-0.8807905,-0.08749098,1.6872714,-0.93223035,-1.385958,-1.5366384,-0.6461011,-0.63939965
hsa_circ_0089547,-1.1564504,-1.1936111,0.47897848,-1.8619294,0.49377903,0.07821861,-0.101168044,0.8305683,-1.5663904,0.7121611,1.6186172,-0.36008582,-0.07787905,1.3175967,0.45305258,1.1106399,-1.3458601,0.9548383,-0.22975732,0.44863185,1.9078257,-1.2186576,-0.3951769,-2.0764844,-0.10972411,0.4404092,1.6578698,-1.3820934,-0.6687376,-2.4626563,-0.5671682,-0.20633498,-1.3092812,-0.38236293,1.2154298,-0.49994043,0.1958302,-0.20851427,2.2294617,0.85368603,0.6331565,0.48457372,-0.85467106,1.7336768,0.6003052,0.5830315,-0.7128353,-1.0628244,-0.2705706,-0.7969456,-0.82775426,1.0631859,0.10052725,-0.06734813,-0.78981936,1.3672644,0.9597113,-1.7330537,-1.4473827,0.8042482,-0.23449555,-0.44096917,-0.46587566,-1.3337866
hsa_circ_0077011,0.44278985,0.042251658,-0.09465266,-0.34058762,-0.33263147,-1.8802111,0.36415532,0.25638038,-0.11267376,-0.25704807,-0.5305242,-0.6200505,-1.2985399,-1.5254427,0.2092292,0.18807216,-0.38769847,0.5569614,-1.0371011,0.85945636,-1.2418762,-1.0840926,0.24102372,-1.0189039,0.061075922,0.57321644,-0.5018704,1.122479,0.915586,-0.22069927,0.3346493,0.053251747,-0.9432143,0.31737638,-0.051742975,0.057968594,-0.072018385,0.885953,0.65221924,-0.03712341,0.8141337,0.12682982,1.7912631,-1.0457182,0.81999725,-1.1044382,0.59435993,0.0166268,-0.12919647,1.4450027,-0.29647157,0.2721173,1.9208658,-1.0556169,0.2550493,-0.89916545,0.7868927,0.53848755,1.9932467,-0.44576725,-2.2007062,-0.00636067,-1.3479687,-0.064423315
hsa_circ_0000215,0.3254218,1.8993253,0.09279523,-0.1008234,0.6635909,-0.26248243,0.7415716,0.73116624,0.3830792,0.35856006,-0.9380511,-0.6772988,-0.077602886,-0.17445904,-1.0225215,-0.7956409,-1.1390332,-0.77127606,0.495595,-0.7217008,0.19802906,-0.9411883,-0.08200331,-0.58460075,0.15020405,1.1938303,-0.13659063,0.9958479,-0.3280863,-0.006538493,0.7119064,1.246772,-0.07242106,0.8544926,0.04809421,0.3014881,0.87305564,0.9144891,0.5583917,0.09656503,-0.07399747,0.5389935,0.8531847,-0.25294754,-0.8905449,-1.4582614,-1.6710135,-0.12151587,0.26188114,0.79596734,1.8775102,0.8297564,1.4612583,0.18278356,-0.16268961,-1.1232822,-0.44810623,-0.27990943,1.8127728,-1.1478391,-1.5542594,-1.2358145,-0.97746855,0.29764813
hsa_circ_0081091,-1.4495138,-0.5742242,-1.8754807,2.755619,1.4779114,-2.0989523,-0.45089585,-0.32954606,0.2523825,0.86185974,-1.4846519,1.1034106,1.310729,-0.2346537,0.79759204,-2.750978,1.3440673,1.9518281,-0.15992768,2.4847531,0.6494034,0.46041632,-0.40989754,-1.5503784,2.1556795,2.219531,2.1871178,-0.87110513,-2.9938629,0.93284637,-1.1372944,0.4971638,1.0503732,-0.3818506,-2.157667,0.54952234,-3.126547,0.59953576,0.53485096,0.7167381,0.8521116,1.4847761,0.28471863,1.2525297,-0.37861377,0.18809548,-2.9973023,1.8140056,-0.4805074,0.8597424,2.2374818,0.76553255,3.284954,-4.6674275,-1.2917105,-1.1207507,-2.3516462,1.9592186,0.38177973,-1.5299027,0.23359253,2.8680136,0.81964344,2.3860428
hsa_circ_0044526,-1.0725454,-2.0593998,-1.9539695,2.0012875,1.3864905,-0.8057505,0.43589664,-1.0130842,-0.28180084,1.025646,-0.39882872,2.5969417,0.8476413,1.3307368,1.3250818,0.35995406,1.5031853,2.2579992,1.878219,3.0633404,2.502933,-0.0036829237,-1.2283942,-1.6647326,2.7283578,2.7747378,2.357074,-2.8119464,-4.322571,-0.31732464,-2.102849,-1.2331383,0.60793275,0.17356238,0.7234758,0.89741075,-3.0665143,1.1389064,0.8111597,0.50390935,0.44800353,2.832221,-0.97808295,1.9373169,1.5326043,1.767326,-3.777513,1.1756575,0.6392081,-1.0412453,3.3497603,3.3010488,2.312952,-5.245694,-2.522095,-0.24499987,-2.1848528,3.4260087,1.1482036,-2.0470102,1.0519536,4.2851205,0.16215664,3.6155145
hsa_circ_0081111,-1.4024293,-0.44200197,-1.9754536,2.901804,1.3382689,-2.0950735,0.040877875,-0.27508613,0.21801378,0.4154473,-0.8988398,0.9566802,1.2454234,-0.14639533,0.6870181,-2.4866269,1.0889224,1.312826,-0.36587113,2.2792728,0.55189204,-0.17520083,-0.08092143,-1.2109375,2.2709672,1.9632468,2.662548,-0.64650065,-1.7840528,1.1933172,-1.1690133,0.7668625,0.8588671,-0.38501614,-2.0989351,0.2599749,-2.762305,0.0063297953,0.3479972,0.613531,1.0298411,1.2150787,-0.25196835,1.3217893,-0.29022282,0.5317579,-2.1991718,2.097812,-0.20014851,0.32627052,1.5764189,0.44547385,2.4050713,-3.9744778,-0.7909918,-1.1098336,-2.0226314,1.8724413,0.5576667,-1.6494488,0.17749535,2.8330255,0.7727771,1.6869781
hsa_circ_0044528,-1.3974737,-2.209777,-2.410696,2.0081105,1.3850853,-0.7633958,0.61515594,-0.92097515,-0.05453611,0.77019024,-0.3176274,2.3743038,1.0944395,1.2936003,1.464673,0.65016407,1.3031158,1.8647312,1.8474833,3.0399363,2.0686336,-0.19259885,-1.1597382,-1.4484571,2.7911065,2.5715482,2.7641628,-2.8424456,-4.4580035,-0.51862043,-2.0576982,-1.4814814,0.94080377,0.19837679,0.4983304,0.7944306,-2.7780802,0.9105324,0.58263296,0.8395006,0.70926803,2.5230815,-0.87344676,2.10131,1.7056212,1.9697293,-3.6278427,1.0981658,0.725455,-1.2467319,3.112559,2.7649958,2.3907216,-5.4303865,-2.4623733,-0.08580922,-2.12138,3.0201716,1.2049893,-1.8146217,1.0278633,4.4464636,0.11932458,3.2009814
hsa_circ_0044535,-1.0122176,-1.828145,-2.5442646,2.2646253,1.4333014,-0.3488658,0.45994803,-1.0032445,0.7806982,0.5340189,-0.39804038,2.2497623,1.419658,1.694705,1.3181475,-0.1397021,1.3055675,2.0734496,1.9282036,2.7346537,2.223415,-0.018049052,-0.67744976,-1.7362425,3.5648313,2.7121964,2.6597328,-3.0700166,-5.1510983,-0.693952,-1.4903493,-1.3011632,1.3984114,0.8659984,0.055016372,0.70396835,-2.7361,1.187348,0.72045904,1.6027582,0.3643703,2.741814,-0.52086425,1.9271164,1.5154945,1.8729036,-3.444567,1.6995871,0.23591237,-1.0180142,3.426595,2.953071,2.1183877,-5.7947655,-1.7877202,0.20486474,-1.3830497,3.4337528,1.3158772,-1.8761253,0.90489495,4.410551,0.4278388,3.6950903
hsa_circ_0055230,2.1593173,-0.30014786,-0.85820484,3.6364994,-0.67005384,-1.1391134,-0.2875615,0.6602801,0.13802384,0.28190124,-1.3490314,-1.0519257,-0.48558494,-0.99141186,-1.6764536,-3.7219858,-0.40372163,-2.5067132,2.617122,0.47750247,-1.4712219,-1.1212329,-0.6282714,2.8345263,-0.40139633,-0.59593606,-0.7764237,0.81478655,1.9044145,0.28075507,-0.026956607,0.78528005,-0.072816655,0.15429813,-0.74305433,-0.5757753,1.6812899,0.10806394,0.508196,1.6815196,1.5921234,-0.33380783,2.5992134,-0.5172901,2.3118634,-2.3071291,-0.22212243,-0.57730204,1.313516,-0.023964455,1.2770123,-0.16821997,0.51421523,0.9706765,0.70829165,-3.0183487,-1.5304164,0.121975064,0.79514563,-0.8706102,-0.344894,1.054882,-0.78138906,-0.41696063
hsa_circ_0055233,2.2055202,-0.18995735,-0.42548424,4.243553,-1.5748357,-1.5816398,-0.3520098,0.70753914,0.22862358,0.45152915,-1.0274863,-1.4850862,-0.2168162,-1.2142385,-1.7655293,-4.1513968,-0.8184985,-2.7438936,2.3260894,0.9383932,-1.9165576,-1.1443716,-0.9770879,2.4484112,-1.1217138,-0.26181394,-1.1861111,0.8313453,1.9469271,0.7817972,-0.4635657,1.6073108,0.4293871,0.033623468,-0.57620484,-0.83935446,1.328747,-0.32649705,0.821168,2.297425,2.057273,-0.13243625,2.6635358,-0.7282108,2.1449802,-2.6459231,-0.6112239,-0.78129524,0.9623319,0.080626614,1.5404055,-0.5065464,0.4359317,0.23049715,1.0969683,-2.8552504,-1.8092915,-0.16304463,1.1018946,-0.4850841,-0.8089319,1.0785705,-0.8809885,0.068243
hsa_circ_0055235,2.6260781,-0.16407543,-0.35683218,4.3280373,-1.4285818,-1.7033411,-0.25212896,0.7278183,0.58862984,0.05586203,-1.1774542,-1.4753814,-0.6912851,-1.1917248,-2.3174438,-4.0576067,-0.22377896,-3.0538435,2.3907232,0.76014,-1.9816928,-1.5726272,-0.9981042,2.3122737,-1.1588473,-0.602429,-1.1851023,0.83934474,2.0992932,1.0196936,-0.9633765,1.695233,0.6334602,0.4933439,-0.7963678,-0.7822791,1.8538601,0.06311463,0.8381997,2.536598,2.192964,-0.33248,2.5858397,-0.9818891,2.6938286,-2.5010288,-0.54245037,-0.5944416,1.1979512,0.23849067,1.2098786,-0.32236576,0.6440782,0.3752966,0.9448653,-2.808084,-2.0285964,0.115127176,1.5061078,-0.789721,-0.8402584,2.089716,-1.4807937,0.047150966
hsa_circ_0055236,2.6044831,-0.23746586,-0.6665432,3.551444,-0.71187234,-1.1415405,-0.4423809,0.79691935,0.65831685,0.04290346,-1.3268561,-0.9823003,-0.74597013,-0.8396426,-2.0964608,-3.9410326,-0.27077174,-2.6312742,2.4805653,0.50175,-1.41989,-1.2599663,-0.84234256,2.4685059,-0.42320588,-0.6638819,-1.0827216,0.8685081,1.9337367,0.5556067,-0.29098853,0.85340154,0.14648691,0.66188926,-1.1503067,-0.12498062,1.942984,0.10841335,0.58915436,2.0045397,1.5473824,-0.52471316,2.5122945,-0.8129237,2.8226314,-2.0822985,-0.15493426,-0.242004,1.06526,0.19728835,1.2789387,-0.3577899,0.4811306,0.82435584,0.8520233,-2.778368,-1.7248799,0.54588914,0.7974933,-0.87367755,-0.028184975,1.6491532,-0.97955936,-0.034425005
hsa_circ_0055237,2.4882705,-0.32679942,-0.85080093,3.4270544,-0.7507212,-1.3210166,-0.33486867,0.47309038,0.736524,-0.120985396,-1.5310938,-1.075086,-0.7434647,-0.9651016,-1.5687476,-3.6542184,-0.20874767,-2.5352395,2.4283695,0.3954347,-1.6201831,-1.2116809,-0.4168478,2.4064813,-0.39636603,-0.49751404,-0.7257133,0.74429816,1.9252925,0.44120824,-0.06489996,0.8600629,0.2475581,0.545806,-0.83378357,-0.185767,1.4180348,0.056067213,0.7725061,1.8999174,1.4393066,-0.37154776,2.469787,-0.5581924,2.420906,-2.145525,-0.3529214,-0.17886768,1.0855303,0.17099313,1.0256362,-0.06710807,0.5125034,0.74018157,0.70429647,-2.721149,-1.5360034,0.29581234,0.87182283,-0.8126118,-0.29878435,1.3446323,-0.83105546,-0.15390421
hsa_circ_0055239,2.6854348,-0.21806832,-0.27703288,4.1914744,-1.4943887,-1.6998832,-0.3434827,0.83649737,0.59560204,0.13461603,-1.1872435,-1.6969917,-0.84882635,-1.2819887,-2.2922502,-3.8923888,-0.005326036,-3.0108137,2.3261747,0.74644226,-1.9631412,-1.8998715,-0.9505667,2.2819092,-1.1779985,-0.4048263,-1.5489959,0.8703833,2.061407,0.9751748,-1.0223758,1.4202307,0.5365378,0.36913744,-0.73641354,-0.7576682,1.6091658,0.1912886,0.76658255,2.3381546,2.1958294,-0.5958827,2.9521742,-0.7847391,2.8452096,-2.4709625,-0.4968202,-0.5202143,1.2886292,0.06803214,1.2997658,-0.5612591,0.6092237,0.36568338,0.87085813,-3.1349812,-2.2818346,0.22510256,2.0675287,-0.828495,-0.58318037,1.8347389,-1.6344059,0.10754856
hsa_circ_0079155,0.36519766,0.50363123,1.0113556,-1.1883312,-0.06195562,0.47720295,-0.78651696,0.74569374,0.62461376,0.5800071,-0.93440425,-0.12958692,0.9895964,0.544901,1.886766,1.219309,-2.8529873,0.33694482,-0.5669664,-0.95360404,3.089447,-2.2612786,0.29899415,-0.2017864,0.6656084,0.42960352,1.7380719,-0.7986855,-1.9680101,-0.7814388,-0.10739229,0.13110209,0.061754078,-0.07217116,-1.3064675,-0.4739587,0.1970312,1.3829758,1.5857925,-0.9720682,-0.6279828,0.74681276,-0.07459354,1.0617871,0.11400991,0.8446169,-0.9332151,1.4348317,-0.23543388,-0.13310173,0.8456236,1.7459778,1.1435615,0.41687968,-0.8698933,0.48799753,-0.38664395,-1.491178,-0.64894754,-1.2424147,-0.54292977,0.9832804,-0.8544525,0.8688608
hsa_circ_0089837,-0.5228502,1.2072575,-0.32741112,-0.30453885,-1.9727035,-0.9982148,2.1588132,1.038728,1.5463959,-1.6914967,0.5586142,-0.015843313,0.796367,0.5354148,0.5566834,-1.6306108,-2.0431533,0.86624724,-1.2750711,-0.8345507,-0.52533257,-1.0498797,-0.26789328,1.4382492,0.12506802,0.048958004,-0.11805663,0.19586112,-0.48301357,0.006577973,0.43923968,-0.87139785,0.37193072,0.6403623,-0.700471,-1.2325705,0.4309151,-0.77980584,-0.68533283,0.6621043,0.10873702,-0.1433989,0.77171093,-0.8373735,1.9811674,0.20519118,0.3045844,0.63384444,-0.40156484,1.3218006,-0.6066162,0.18732361,0.9984892,-1.2819242,2.3001723,-1.648772,0.346449,0.6811432,1.4492996,-0.47575396,-1.8656199,-0.1904771,-0.7545568,2.0594316
hsa_circ_0089839,-0.77791125,0.9084399,-0.22175735,-0.019476939,-2.0017838,-1.1188,2.0439844,1.3685151,1.5872517,-1.4262203,0.3595971,-0.2861274,0.8925403,0.8024826,0.18634644,-1.6668303,-1.9877572,0.9249687,-0.8721294,-0.6183487,-0.23922338,-1.0749873,-0.17819476,1.0470779,0.16070794,-0.061460104,-0.20663275,0.14760882,-0.3296505,-0.032092817,0.47512355,-0.7126907,0.32949203,1.0526769,-0.78778434,-1.6214265,0.31727302,-0.82943237,-0.5041784,0.66486806,0.3710043,-0.12537406,0.68160796,-0.750076,1.7823328,0.19844668,0.5726094,0.46794677,-0.6439714,1.4077402,-0.49907863,0.23641983,0.9995228,-1.0864443,2.3812437,-1.382103,0.6132005,1.2922412,0.9003486,-0.3990922,-1.9025944,-0.022698881,-1.0582637,1.9345098
hsa_circ_0044508,-0.8869815,-2.096972,-1.1926472,0.91593355,0.32299802,-0.5477682,0.80267024,0.91944927,-0.22880308,0.4823878,0.5834291,1.7356588,-0.94993156,1.8094666,0.34998855,-0.8587549,0.4502219,-0.119615406,0.54644185,1.908335,1.8689922,-0.81332916,0.47056624,-1.4326366,2.163982,2.1386662,0.71764934,-2.2253966,-2.67245,-1.072226,-0.37456042,-1.1897539,0.93427914,0.44121557,0.74267685,1.9491287,-1.323283,1.3752947,0.8955877,0.46821973,1.1504683,1.1008718,-0.6410659,0.9917755,-0.5900402,0.4870894,-2.5131233,1.4008443,0.22736198,-0.8989819,2.5553799,2.4792888,0.6758135,-2.231065,-0.33646244,-0.72613555,-1.3193704,1.6807083,-0.046312846,-1.510184,-1.1248937,1.660239,-0.21571636,3.0530083
hsa_circ_0044515,-1.1798708,-2.8154466,-2.5960784,2.031229,0.6489447,-0.4883698,0.75668883,-0.8980017,-0.41751355,0.39873138,0.16888566,2.4311109,0.9570755,2.1077638,1.7584125,-0.18539283,0.7591103,1.454138,0.759101,2.981749,2.0635962,0.0145917395,-0.37426856,-1.1264731,1.849435,2.6763663,2.1108975,-2.8507185,-2.3883872,0.21900608,-2.130451,-1.3466744,0.5535751,0.61798424,1.7619432,0.61762136,-3.658961,0.40532604,1.38684,0.7270419,0.73473835,1.6203667,-1.3093548,2.4170313,1.1977563,2.0801396,-3.4784307,0.83985287,0.4699569,-1.2860485,2.5704994,3.0611906,1.1940571,-4.199914,-1.8006393,-0.8399124,-1.0237249,1.7495732,-0.24497308,-1.7922856,0.41062036,3.6001525,-0.4748753,3.451524
hsa_circ_0044516,-1.1158667,-2.850681,-2.1982522,2.1818593,0.67935336,-0.57581306,1.1716379,-0.95423746,-0.4637866,0.47399908,0.011623941,2.4673815,1.1617703,2.3983421,2.0406582,-0.50934356,1.0778253,1.4573371,0.878002,2.543029,2.3395634,0.18224129,-0.60354525,-1.0521258,1.8497117,2.7731903,2.7218716,-3.0671933,-2.4952898,-0.15559186,-1.7983388,-1.0695293,0.776776,0.40312245,1.6620129,0.6820705,-3.6706305,0.5306897,1.3629352,0.6545283,0.46128714,2.2790842,-1.4926664,2.541592,0.9548131,1.7313377,-3.305565,0.8738205,0.27809262,-1.5129979,2.451951,2.9537437,1.1077489,-4.163213,-1.5115302,-0.5157143,-0.80694467,1.7626878,-0.1558044,-1.7441822,0.34538743,3.379736,-0.44280532,3.9540439
hsa_circ_0041843,-0.10353181,0.09107305,-0.6950905,-0.87857246,-0.46623525,-1.3683498,1.4381665,1.7659305,-0.19960175,0.06312209,-0.37262654,-0.8544588,-0.5129558,-0.4971196,0.37781352,0.44749498,0.46113178,0.90872824,-0.98346406,-1.005416,-0.88013214,-0.6376124,0.75427246,-1.1214286,1.0680097,0.45136344,-0.56135356,1.2009414,0.7716764,-0.88585603,0.6532575,0.008457634,0.38662124,-0.0997799,-0.025895705,-0.05802568,0.94337493,0.092879824,1.4227906,0.6333922,-0.07811049,0.96006924,0.31134298,-0.30755565,2.1858478,-0.20996606,0.025476377,0.04931181,-0.45274678,1.3225819,-1.1647477,0.5492418,1.5734154,-2.3453522,-0.39626408,-1.2239356,0.5234567,0.015598476,0.8764297,-0.05195035,-1.2287661,0.6144735,-1.4829353,0.6961163
hsa_circ_0044543,-0.6549118,-1.9049875,-2.3709466,1.831244,0.8376923,0.1099247,0.54804826,-1.0247028,0.70062596,0.7251721,-1.2611663,2.3930304,1.7491871,1.7351457,1.453153,0.239651,1.0247598,1.9046843,1.5897523,2.126637,1.5970895,0.023032883,-1.4361401,-1.828527,4.102292,2.4799473,2.7202182,-2.59891,-5.1502147,-1.0384207,-1.7275748,-1.9983501,1.5523075,0.8529985,-0.66878384,0.95423883,-2.7853584,1.1670789,0.8182713,1.3051475,-0.034811366,3.0279813,-0.6477002,1.6858517,0.44572243,1.011749,-3.1507468,1.908295,0.19655062,-1.1375507,3.148566,2.605956,1.5453641,-5.003478,-1.4074215,0.23644313,-1.1284218,3.0097215,1.1199623,-2.252276,0.25876418,3.7608411,0.98821723,3.577251
hsa_circ_0044549,-0.6991005,-1.9883476,-2.065979,2.0672421,0.6567288,0.3009838,0.4892557,-0.5551448,0.7056775,0.81391263,-1.1689956,2.3895943,1.3427843,1.9113425,0.93274516,0.27253294,0.5349481,1.9477171,1.3707608,2.1608102,1.8678526,-0.040563483,-1.4414922,-1.7838202,3.7558064,2.2968538,2.2394278,-2.6108139,-5.560541,-1.0457695,-1.851725,-1.8434649,1.6889563,1.0377297,-0.7003342,0.8727269,-2.526686,1.1245178,1.0758183,1.3948761,-0.011102009,2.8685064,-0.7964853,1.6851089,0.5494978,1.5170596,-3.578176,1.7726895,0.12449595,-0.98583347,3.3284926,2.8632004,1.89162,-4.812202,-1.3281738,0.25688317,-1.2138275,3.0038123,0.78727406,-2.181422,0.37105405,3.9328184,0.9326046,3.4806175
hsa_circ_0044521,-1.2208022,-2.2716138,-1.8244661,1.8635154,1.1912445,-0.28358164,0.58865374,-1.2137139,-0.5947626,1.2518156,-0.32540727,2.650628,1.0085064,1.5391866,1.5870993,0.8449043,1.0422791,2.2127783,1.4155724,2.732099,2.579474,-0.018967062,-1.4717416,-1.1064211,2.1899934,2.885008,2.100538,-2.818944,-3.506344,-0.012245336,-1.6159725,-1.7553676,0.83865374,0.24225007,0.96210694,0.6840282,-2.766059,0.77405167,0.9741008,0.5266663,0.72854507,2.1498187,-1.1861097,1.6394887,1.589883,1.7367464,-3.7923493,1.3678359,0.29656732,-1.4645015,3.4968653,3.24346,1.6772889,-4.883725,-2.1727624,-0.6775292,-1.6371763,2.8830311,0.71507865,-2.0078976,0.5445214,3.8624578,0.013412754,3.7191017
hsa_circ_0044527,-1.2534628,-2.1898634,-2.1810563,1.8261267,1.4652747,-0.88380724,0.32707697,-0.82878953,0.042745605,0.6852647,-0.1893733,2.5655792,0.7410579,1.2404714,1.1623032,0.5591523,1.4428973,1.7918516,1.6837684,3.004149,2.470322,-0.07374597,-1.3469336,-1.3897269,2.9674814,2.3638868,2.4930654,-2.6895232,-4.211058,-0.3944329,-2.047957,-1.5898641,0.6565604,0.28686413,0.5755448,0.55575,-2.844615,0.9677017,0.8281766,0.7066576,0.356142,2.7147262,-0.89666635,1.9516658,1.8370706,1.7311821,-3.5282116,1.5513157,0.6939071,-1.1070741,3.0015292,2.9400885,2.1686656,-5.103329,-2.2354157,-0.3909585,-1.9975139,3.2954347,1.2260876,-1.6228303,0.9645912,4.2322903,0.18996933,3.3382413
hsa_circ_0044534,-1.1880575,-1.7526911,-1.9392388,1.800858,1.1043409,-0.27686182,0.7827275,-0.7812279,-0.29194835,0.472381,-0.7902826,2.3383229,0.6417855,1.7201134,0.8095217,0.6479694,1.447486,1.5911288,2.067776,2.6188314,2.1899455,0.0010185508,-0.9770112,-1.4921476,2.8794248,2.587438,2.314456,-2.428694,-4.419595,-0.4857824,-1.983009,-1.5262814,0.9831469,0.614142,0.4747954,0.60604054,-2.6770103,1.1664754,0.85452145,1.5090048,0.72639364,2.5624244,-0.7508461,1.5623708,1.6748345,1.5219481,-3.5090106,1.4416318,0.74265105,-1.16241,3.085301,2.905523,1.773169,-5.716223,-1.9992743,-0.12126536,-1.9131633,3.31605,1.6341136,-2.1735787,0.77356845,4.598939,0.28438073,3.3599942
hsa_circ_0044539,-0.98459446,-2.083702,-2.714822,2.1900449,0.97678566,-0.5585466,0.8362902,-1.0312252,0.3397498,0.73788685,-0.89137536,2.2825391,0.92687,1.2696884,0.9584928,1.0931326,1.3104202,1.903216,1.9126242,2.489391,1.8697093,0.17404978,-1.2830399,-1.633285,2.8381064,2.7375913,2.4385235,-2.546888,-4.535776,-1.028962,-2.0055246,-1.6327211,1.2914283,-0.043077163,0.24117851,0.8245567,-2.4330058,0.80230516,0.39877108,1.0960937,0.36878246,2.98653,-0.5911242,2.0539272,1.8743434,1.8046457,-3.9977798,1.5382452,0.4892825,-0.97793025,3.3713126,2.4662416,1.9222485,-5.7191906,-1.6055422,0.039662838,-1.3610767,3.4884348,1.5211903,-1.3625642,0.70112616,4.3368316,0.34374294,3.3351715
hsa_circ_0013874,-0.6258082,-0.08767739,-1.302441,3.084355,-0.083778895,-0.6585601,1.0878128,-1.664963,1.3580674,0.30366963,-0.4994022,2.3146,1.2256899,0.077754006,-2.5042124,-4.3419375,-0.35672557,-0.5244173,2.381488,-1.7100703,-0.8411879,-0.61256504,-0.1754529,1.506799,-2.2379503,1.0398004,1.331675,2.0242417,-0.25442958,1.3480089,1.105804,5.5110183,-1.641743,3.1892796,-5.5403132,1.3211553,3.1625834,2.9911554,-1.045751,-1.2493793,1.5377672,0.07873387,0.67709535,0.20441534,1.308943,-2.1619074,-0.91777205,1.8921663,0.6289802,0.5911138,3.6202934,-3.446522,2.1407292,3.2071397,1.6050268,-3.2469325,-1.4271628,-0.29510933,-1.1916655,-2.5774605,0.58505726,-1.2169176,2.5542927,-2.1583552
hsa_circ_0039600,-0.25601298,-0.049032874,-0.60903245,0.30485624,-0.008525694,-1.0743062,0.3362504,1.1959542,0.20257229,-1.9443716,-1.0501391,-0.006854964,0.35913247,0.91244704,-0.17821832,0.5521095,-2.096648,-0.09489526,0.55910796,-1.192518,0.38800216,-0.99146897,0.5421473,-0.61863524,0.30289328,-0.64557564,1.7068558,0.52355003,-1.1057662,-1.3328178,-0.77685285,-0.327789,-1.0333589,1.3056352,-1.7205974,1.634541,0.91915894,2.5156016,0.42093113,-0.019952586,1.0843769,-1.2281363,0.5809824,0.3963853,1.0838367,-0.65840393,-1.3110121,-0.23578855,-0.0472732,0.042955644,-0.04001792,2.0246954,2.1444051,-0.09913656,-0.06615637,-1.5096602,-1.8524673,0.33345258,-0.04349166,-1.681116,0.19996929,0.8245025,-1.0614842,1.3832359
hsa_circ_0039603,0.20727663,0.12035904,-0.79756963,0.8385079,-0.1577809,-1.6009514,0.085525356,0.6368901,1.2632284,-1.5133038,-1.7207241,0.020968897,-0.01800815,-0.08881191,0.06973952,-0.018303383,-2.05104,0.4616656,0.5690712,-1.047193,0.3529672,-0.9554139,0.550814,-0.43667608,0.45617455,-0.32998314,1.4294455,0.8139719,-1.5791042,-1.0562946,-0.15862134,0.3888275,-0.8808914,1.8602515,-1.8595134,1.4717196,1.0861526,2.2998796,0.1011156,-0.6848024,1.0866871,-0.6516183,0.9038904,-0.26982963,1.0861067,-1.005543,-0.99333125,-0.22997828,-0.26499206,0.20112093,0.16156286,0.7989197,2.9654667,0.26259044,0.055191845,-2.7112682,-1.5391998,0.21393144,-0.058051977,-1.9203933,-0.12596163,0.3620197,-0.6798092,1.5455523
hsa_circ_0039604,-0.02138859,-0.111124724,-1.0229076,0.7871231,0.110776186,-1.6124176,-0.11842432,0.8166538,1.7791741,-1.2820448,-1.4095325,-0.12173444,-0.10862573,-0.20438649,-0.40840667,0.17287554,-1.8216962,0.1154883,0.027573712,-0.8725524,0.26563707,-1.4959569,0.6926323,-0.34392557,0.54357374,-0.25295866,1.1829729,1.0659531,-1.6715614,-1.2040735,-0.036812108,0.8565365,-0.76898456,1.4630978,-2.0819697,1.7490468,1.1023948,2.4441555,0.09387873,-0.71682096,1.1709453,-0.5416589,1.1581222,-0.24217522,1.2990534,-0.8521063,-0.64144695,-0.042799015,-0.4674708,0.46765542,0.26521033,1.0047178,3.0243402,0.12618798,-0.09774364,-2.8129857,-1.5993806,0.4051257,-0.29102728,-1.806423,-0.3717851,0.48421058,-0.61535335,0.96873754
hsa_circ_0039605,0.24290128,0.09696136,-0.46210146,0.78830403,-0.022238959,-1.3342733,-0.17911404,0.8536674,1.7889398,-1.4450527,-1.1444949,-0.18132281,-0.13725844,-0.23177952,-0.5284372,0.35521933,-1.8820962,0.47931352,-0.15842171,-0.8404359,0.5878116,-1.7003343,0.86848855,-0.24323086,0.66568613,-0.2057922,0.8517891,0.6991228,-1.7114744,-0.8193442,-0.322032,0.5219748,-0.6775782,1.3402677,-1.8309128,1.5321836,1.2345237,2.540728,0.23525913,-0.8234268,0.7889605,-0.37589148,1.2752396,-0.5923929,1.4627426,-0.51978135,-0.72286093,-0.38610545,-0.13225627,0.47465813,0.0063866237,1.1161668,3.0486972,0.17108682,-0.30910552,-2.6816676,-1.2319678,0.1432175,-0.5601627,-2.1241548,-0.5659289,0.28026783,-0.638261,0.97997296
hsa_circ_0039606,0.1472533,0.027947575,-0.99422026,0.5705007,-0.029159993,-1.7326877,0.18624622,0.9962098,1.3264192,-1.5118401,-0.9398184,-0.07718457,-0.21820979,-0.48291478,-0.36539668,0.4965205,-1.8045982,0.26303154,0.21638185,-0.4871941,0.82264096,-1.4545414,1.0193094,-0.442525,1.1379514,0.07655972,0.92243063,1.0546384,-1.4536477,-0.8762647,-0.032516338,0.44900906,-0.47323912,0.9418426,-1.3356072,1.3186045,1.256707,2.5166616,0.04345822,-0.7889919,1.2046678,-1.0084779,0.74238443,-0.7360159,1.3588636,-0.95236284,-0.21554987,-0.5653502,-0.696756,0.6967989,0.38816708,1.1813273,2.5701132,-0.00917769,0.047871105,-2.7342455,-1.4393549,0.39875612,-0.50222456,-1.7557337,-0.5058177,0.6650948,-0.9258124,0.992832
hsa_circ_0044507,-0.67097664,-2.332813,-1.218788,1.0171436,0.2304878,-0.370636,0.81788474,1.1907187,-0.23260613,0.5069809,0.575676,1.9257135,-1.0191481,1.7341493,0.30826885,-0.7122147,0.29336172,-0.16226111,0.61271363,2.0949566,1.6928782,-0.64349306,0.70574826,-0.9859494,2.2524583,1.9420317,0.7093441,-1.9731947,-2.5109584,-0.8480945,-0.3985915,-1.1035122,0.7719774,0.47181305,0.5149371,2.0798664,-1.0984615,1.0873772,0.9728874,0.46828255,1.2248491,1.0774462,-0.6807253,0.96447337,-0.7382564,0.7212025,-2.544124,1.3805462,0.1225036,-0.9842302,2.5260277,2.5625377,0.95548147,-1.9240425,-0.29367802,-0.5294103,-1.1233006,1.7406902,-0.3175476,-1.5639201,-1.2089393,1.4506336,-0.12323796,3.227522
hsa_circ_0019789,0.080342956,-0.006969662,-0.8421358,0.22242671,-0.92632765,-2.0912988,1.3742139,1.5292994,0.6994082,-0.30545762,-0.7651053,-0.7685943,0.11574451,-0.3775609,0.43710208,-1.1622226,0.62014645,-0.92701566,0.6408139,-1.0385163,-1.3067642,0.20011547,0.3987763,-0.0683525,0.58731943,-0.35551488,-1.1950694,1.688676,0.6139992,-0.43879285,-0.16825221,1.0697863,0.24924159,0.8670704,-0.11547418,-0.22685832,1.2334673,0.6591657,0.55847496,0.044006154,0.5668476,0.40108484,1.7181717,-0.52570975,1.3596905,-1.2393787,0.08103778,-1.0077597,-0.088888586,0.7639654,-0.20179819,0.8643201,1.8455713,-0.8354401,0.6974053,-0.71649116,-0.5872032,0.34289843,1.7312833,-0.121111654,-1.1393071,-0.688692,-0.4251069,1.1018677
hsa_circ_0019793,0.28249753,0.20573293,-1.1682596,-0.23739336,-1.395617,-1.9968586,1.4835176,1.5017216,0.609504,-0.24687614,-0.8355037,-1.1196091,0.1954087,-0.19707423,0.84686077,-0.7838079,0.8609148,-0.8529257,0.4275752,-0.96552354,-1.5535762,0.62487215,0.5068785,-0.5200107,0.4302741,-0.09060666,-1.3768692,1.4768982,0.073357336,-0.52501446,0.09179622,0.39161032,0.23456123,0.8095012,-0.042968478,-0.25518072,0.9721792,0.8130836,0.5654855,0.1825199,0.24042292,0.7912579,1.3429257,-0.3108081,1.5925258,-0.97710353,-0.14791927,-0.99186075,-0.21348794,0.9753123,0.014907094,0.9159576,2.3080301,-1.4576706,0.4859322,-0.46709695,-0.57978916,0.356751,1.5047103,-0.24454986,-1.1306825,-0.86361444,-0.92200667,1.3306963
hsa_circ_0019795,0.054321915,0.18068245,-1.2567312,0.26729327,-1.1277218,-1.7861898,1.9301801,1.7194608,0.52578974,-0.14775944,-0.6743313,-0.98053735,0.30089507,-0.020112911,0.8227062,-0.8374875,0.95896965,-0.6606198,0.25264895,-0.99773127,-1.4340487,0.6252733,0.596864,-0.37368786,0.5078213,0.073261045,-1.5746722,1.5326313,0.2712981,-0.59351736,0.22681081,0.689072,0.4141466,0.5631569,-0.30115512,-0.47805682,1.251373,0.7477458,0.4531138,0.20103043,0.31265914,0.80908185,1.1931037,-0.28774458,1.4905635,-1.0404767,-0.14539073,-1.0194302,-0.01460844,0.8052532,-0.21622866,0.86083037,2.187521,-1.5378,0.5892484,-0.4404218,-0.5407132,0.43373135,1.686805,-0.09771197,-1.1053716,-0.8658073,-0.73468435,1.4595324
hsa_circ_0019796,0.12883109,0.48193815,-1.2323707,-0.10127329,-1.3140451,-1.9125324,1.9091156,1.6166983,0.47882912,-0.22474846,-0.50882053,-1.0128539,0.1654976,-0.28710145,0.6945597,-1.0818173,0.62892854,-0.80930656,0.3350845,-0.8491085,-1.5862181,0.66472757,0.63645273,-0.37373477,0.47532803,0.07770623,-1.4265656,1.6001964,0.29213178,-0.49433327,0.07540616,0.26982042,0.33738163,0.80390143,-0.16363765,-0.5442089,1.242786,0.5442412,0.50679415,0.35327,0.24384321,0.9554686,1.2214197,-0.5660396,1.3703375,-1.0006481,-0.34272027,-1.014003,-0.10852296,0.8834845,-0.07080072,1.0519551,2.3196237,-1.4896642,0.6184135,-0.5756478,-0.8529578,0.17245847,1.2875026,-0.19282076,-1.3668295,-0.82301044,-0.8238344,1.436089
hsa_circ_0081116,-1.3973264,-0.8981815,-1.9020233,3.1503358,1.447978,-2.0601282,0.1423978,-0.075316384,-0.130891,0.20607582,-0.7831773,0.88938004,1.1400669,-0.25030228,0.75284564,-2.5480263,1.5028728,1.7225449,-0.06443635,2.332752,0.46918133,0.43551514,-0.01938192,-1.5970829,2.3148332,2.2046332,2.2084415,-0.94265133,-2.2617054,0.8828703,-1.2159151,0.49855962,1.2935696,-0.9309418,-1.9663041,0.4218628,-2.828155,0.19050545,0.55412465,0.7173056,1.324642,1.4425155,0.01616736,1.4587846,-0.43023354,0.37400964,-2.6330447,1.7220047,-0.15022804,0.6180818,1.607367,0.72571474,2.9308436,-4.628684,-1.3094091,-0.8738852,-2.193559,1.9037256,0.4170534,-1.1752784,-0.03517696,3.0707667,0.4701979,2.2662795
hsa_circ_0068783,0.38687336,1.2986835,0.8482503,0.2731181,0.53153956,-0.7462096,0.9753025,1.3660728,0.19564192,0.27031827,-0.16897714,-0.64623946,0.07975225,-0.76292026,-0.9938263,-0.057987858,-1.2732303,0.14294732,-0.23104495,0.3141835,0.4751256,-1.9522688,-0.7699688,-0.19917236,0.22251926,0.15142623,-0.8533857,1.0266577,-0.5527,0.55224776,0.33705834,0.12832268,1.5266562,-0.9275324,-1.1370467,-0.5178003,1.6071819,-0.3485472,0.21491428,0.8743222,-0.40815884,-0.17112747,0.03937628,-1.5364381,-0.28112558,-1.068771,-0.4461704,0.33266327,0.6914244,1.4876492,0.39772505,-0.6179192,0.22518988,-0.54831713,0.78892696,-1.0970957,-0.394336,0.2066417,1.5350682,-1.0791986,-1.7375402,-0.15919994,-0.8563073,0.3417003
hsa_circ_0039097,0.5175323,-0.66253257,-0.75952405,0.9607753,-0.36808735,0.12051964,0.49253982,0.16067515,-0.08251695,1.3163177,-0.9224285,0.6026118,-0.30513835,-0.38191926,-0.45855176,-0.00083239604,0.076730184,-0.42861873,0.59000057,0.313087,-0.5309367,-1.4770808,-0.3245875,-0.2713741,0.15862693,1.1004783,-0.44877177,1.0390542,-0.8840854,-0.004277307,-0.4138702,-0.92124915,0.04065876,-0.19807051,-1.526072,-0.62931025,0.2153493,0.44899514,0.33346826,-0.8770697,-0.28310972,0.42382193,-0.50530386,-0.2479392,0.16645834,-0.00081829354,-1.0971338,0.8903309,-0.19538441,0.06642266,-0.23328577,0.46861693,0.10800176,0.56203324,-0.28562045,-0.70056635,-0.16627045,0.021961777,-0.2751997,-0.5143956,0.98182607,0.32086602,-0.5654994,1.0577294
hsa_circ_0005180,0.05015396,-0.48390648,0.6091923,0.78121114,1.6432312,-0.30784363,2.8969765,2.2929692,0.45012948,-1.6406825,0.7217857,-3.1551943,-1.7548978,1.2935859,-1.6292199,-0.53050035,-3.773263,-1.9942145,0.89556235,-2.0879805,0.8219884,-1.349271,0.7512845,1.3401383,2.314796,0.60956943,0.4817168,0.6972577,1.5565985,0.67950034,-2.408673,-2.8477898,1.5147161,0.5612216,-3.0788538,-1.3570192,2.0184689,1.2625675,1.5154938,-1.5350908,-0.6604147,-1.8365428,1.019584,0.08157356,1.5860089,-0.113364056,1.4309226,-2.0257013,-0.45290127,0.6534179,0.18295008,0.7963418,-0.642642,-2.2904525,0.0062022656,-0.49015749,-2.1597917,-1.8296723,1.613452,-1.2521844,-1.4291751,1.7732574,-2.8347876,0.6037547
hsa_circ_0017180,0.28155884,-0.2511484,0.721757,0.7449101,1.363169,0.02577854,1.867507,2.0116718,0.92952794,-0.8257864,1.4157233,-2.8817537,-1.4438922,1.1465582,-1.7309878,-0.5605119,-4.003821,-1.6106544,0.5699093,-1.3857305,0.47165298,-1.7753378,0.109151736,1.8451191,1.8295789,1.408008,0.5893235,0.3680606,1.9520035,0.7629199,-2.6484225,-2.5713303,1.1454787,0.28140178,-2.477266,-1.3979527,1.8606653,0.7255691,1.3548741,-1.1480613,-0.7430918,-1.7020007,0.5438102,-0.035343777,2.5197163,-0.11429785,0.5543171,-1.9934185,-0.6681647,1.0624077,1.5012139,0.7509663,-0.6351196,-1.2895403,0.3082066,-0.51288116,-1.0754977,-1.5001576,1.2939792,-1.2086544,0.11186549,1.2459193,-2.3561487,0.13546418
hsa_circ_0017181,0.23260845,-0.60833794,0.45180485,0.97986966,1.3211827,-0.114262976,2.7219481,2.716149,0.4429628,-1.4919688,1.2557384,-2.9658184,-1.7854381,1.2900208,-2.0355158,-0.6872911,-3.1575332,-1.7423702,0.7681615,-1.7129827,0.1291766,-1.8683503,0.27267346,1.1135244,2.142175,1.288308,0.27761832,0.20186006,1.774679,0.88388073,-2.306139,-2.5952816,1.6277254,0.47443908,-2.7992518,-1.527295,2.0053167,1.0520333,1.356381,-1.2179346,-0.39266205,-1.7023581,0.8074401,-0.21652469,2.0784512,0.01471662,1.2355632,-1.6264789,-0.4650605,0.6747704,0.8956547,0.48666096,-0.7949584,-2.082591,0.4051004,-0.42154455,-1.4699618,-1.6398951,1.4873228,-1.3226151,-1.1570127,1.2297575,-2.5059273,0.17330725
hsa_circ_0017182,0.5373826,-1.0498488,0.06811146,1.4334855,1.5918882,-0.08914634,2.7658296,2.149026,-0.109048896,-1.6360953,1.7712266,-2.7730153,-1.7608886,0.74722195,-2.5067167,-0.62605274,-3.0967922,-1.366567,0.83492774,-1.2094898,0.038700853,-1.5745373,-0.14093079,0.86307484,1.8704077,0.7805725,0.18761629,0.13712388,2.027206,0.8256206,-2.3982701,-2.3381357,1.0351629,0.32351178,-2.2575788,-1.6486931,2.0499659,1.0005447,1.3023882,-0.9040926,-0.080180906,-1.4457048,0.41670993,-0.3370235,1.6942093,-0.37841466,1.1519672,-1.8186238,-0.17397225,0.72307366,1.3131381,0.48494542,-0.917368,-1.8696572,0.68656665,-0.6701229,-0.98236865,-1.363595,1.0762542,-1.6462806,-0.6913341,1.0929395,-2.0821652,0.23703553
hsa_circ_0017183,0.15171431,-0.7282449,0.07702437,1.3800589,1.2867827,0.26280072,2.7811828,2.0139658,-0.052268364,-1.369737,1.1325588,-2.476408,-1.3239883,0.8381484,-2.7236013,-1.1452684,-2.8436391,-1.6094109,0.634024,-1.1561207,-0.062170003,-1.8583171,-0.14362207,0.93635815,2.271621,0.23909204,-0.48765308,-0.24903022,1.7525482,0.8875605,-1.4754355,-1.8009233,0.7630234,0.64898413,-1.7705833,-0.9495719,2.02788,1.1230313,1.4002734,-0.405056,0.6478012,-1.1707497,1.1701807,-0.42347732,1.2765117,-0.6425194,-0.017329477,-0.90073997,0.22594766,0.003886401,1.8654279,-0.006585417,-1.5939684,-1.4399633,0.96495605,-1.1628535,-0.8118836,-1.1607114,0.9132115,-1.8025465,-1.3978009,0.7785574,-1.4465971,-0.13157882
hsa_circ_0017184,0.4377744,-0.4222415,0.44242355,1.0130266,1.5913436,-0.06718915,2.6171968,2.0458372,0.476973,-1.8621911,0.7965187,-3.0596495,-1.5602766,0.5766442,-2.0461862,-0.7378085,-3.6488261,-1.3075037,1.0227402,-1.719227,0.64012265,-1.5447633,0.059809398,0.8412924,2.0982249,0.7490749,-0.035104744,0.6945181,2.0218163,1.4342864,-2.5507255,-2.5560644,1.0343875,0.9870815,-2.6594384,-2.026005,2.0620298,1.259399,1.3053825,-1.6789736,-0.9816397,-1.8162388,0.44759467,0.022556022,1.0466092,-0.060517665,1.5632718,-1.7987452,0.2700131,0.5355884,0.56141484,0.30929086,-1.1724943,-2.3692224,0.4039926,-0.60784364,-1.6232371,-1.5207404,1.4905303,-1.9179065,-0.92298937,1.0400711,-2.5518456,0.66768223
hsa_circ_0089429,-2.430407,-3.4472783,0.9516978,1.650644,1.5381354,-0.62096894,1.2245642,0.10596275,-0.8477263,-0.6087321,0.26966035,2.3211055,-0.9234215,0.6879434,0.112859376,0.75494987,-0.41095296,0.46816972,-1.1191927,1.002838,0.33759,0.7166571,1.324081,-1.0754695,2.937517,0.8064709,0.8116207,-2.2868946,-4.411248,-0.5769913,0.123665504,-1.5108844,0.4888054,0.9633058,-1.3817285,0.48591846,-0.752632,2.556609,0.66718566,-0.8777403,1.4425467,1.905782,-0.4082339,1.038776,-0.9485088,1.2917107,-3.4668348,1.0459977,0.9174829,-3.3443782,1.3006018,2.3098567,0.8647741,-1.6539338,-0.28250018,1.2362982,-2.0820372,-0.9026798,-1.3092057,-0.6680056,-0.11438042,1.2922231,-2.6279113,1.2803855
hsa_circ_0089440,-3.1107194,-3.898658,1.1680284,1.9644152,1.7825063,-0.90221447,1.6320369,0.020218056,-0.7580729,-0.13109984,-0.12222931,2.6240723,-0.6811935,0.9237878,0.25878185,-0.010233664,-0.3972723,0.93490714,-1.5728692,1.1983724,0.53580266,0.7344588,0.6493774,-1.0941046,3.2647312,0.87213045,0.75407517,-2.0674565,-4.664166,-0.43980542,0.08518658,-1.2311398,0.7036531,0.793858,-1.6497676,0.69677484,-0.8484713,2.9351313,1.2546865,-1.0032313,0.89958024,2.3367257,-0.47561923,1.2197814,-0.79757005,1.4995966,-3.9363961,1.2286686,0.6522327,-2.8923268,1.4053015,2.1238353,0.96596706,-1.9946961,-0.098048195,1.3314408,-1.9571587,-1.0803466,-1.4032531,-0.72272027,-0.63990605,1.9516876,-1.9938045,1.3768424
hsa_circ_0089445,-1.3109101,-1.4737536,1.297686,0.5247431,1.633961,-0.34766957,1.4405808,0.5947244,-0.47120678,0.24757077,-0.42312533,1.4102005,-1.0244249,0.25593144,0.32016808,0.10777097,0.3771711,0.14566566,-0.58403856,-0.2698747,1.1129882,-0.20764564,0.5908948,-0.64106524,2.9946353,-0.01646582,-0.1355568,-1.5929759,-3.102345,-0.41781637,0.807681,-1.0292869,0.4614453,0.10068503,-0.9119334,0.7531792,0.34697437,2.1559615,1.0052289,-0.59731615,0.31405333,1.8475684,0.28670382,0.12811716,0.18651137,0.7711964,-2.1924455,0.8084563,0.5199113,-1.6314958,1.4144617,0.84996605,1.487239,-1.0148798,0.42004773,0.8352478,-1.1052319,0.3780557,-0.21012609,-0.77762127,-0.872539,0.4148003,-0.837509,1.578922
hsa_circ_0035141,-0.17718671,0.4311236,-0.35394707,0.6647523,1.1731892,-0.39820528,-0.19763167,0.96533614,0.3277348,-0.6023066,0.541746,-0.60814923,1.5983182,-0.2988911,-2.230448,-0.16001338,-0.03853326,-1.0009863,-0.79561824,0.2659059,0.87257326,-0.1389201,-0.40977785,-0.7192257,0.041154683,1.5591794,0.6480878,-0.5569081,-0.9828657,-1.0663671,-0.9636199,0.9809763,0.37357602,1.4383953,0.43157825,0.8543062,-1.2205023,-0.14429405,0.3907362,-0.49630085,1.077419,-1.1220715,0.09295045,-0.7654413,0.27267838,0.11585102,-0.7096309,-2.0682337,-0.0043486455,-1.7688034,0.37279257,-0.44483355,-1.061819,1.1629083,1.3118906,1.720157,0.14374208,-1.0383223,0.6141729,-0.9659416,0.11436154,-0.5699683,-0.72436005,-1.4495634
hsa_circ_0076600,0.2612802,0.92375326,0.2776058,-0.49569204,-0.6513868,-2.0740943,0.0050536892,0.36506107,0.44335464,-0.056925107,-0.3600159,-0.23772128,-2.6926057,-0.69125944,0.21813454,1.1060579,-0.43398216,-0.341312,0.09156025,-0.18760116,-1.328873,-0.7167978,1.2157946,-0.3403276,-0.7539394,-0.52852833,-0.01782783,1.5687284,0.56566596,-0.8382393,0.43214732,-0.30661267,-0.6205329,1.1204823,-1.4804846,0.7560036,-0.034100883,0.8666444,0.5761293,0.34432244,-0.41595823,0.23123379,1.0967096,-0.5111248,1.2381725,-0.33258817,0.2716582,1.2795066,0.6146654,1.1187859,-0.5671925,-0.104110554,1.8636414,-1.0215701,0.4191109,-1.9009867,-0.64351064,0.7236627,1.710247,-0.7618991,-1.609685,0.38578367,-1.2983793,0.524664
hsa_circ_0047786,0.9220252,1.9887568,-0.5659609,-1.0541958,-0.02211499,0.0020186424,0.82229656,0.88534504,-1.5148246,-0.31892782,0.15017204,-0.8999464,-0.872354,-0.2769589,-0.7215442,-1.3132104,-0.06750231,-1.4343832,0.4345863,-0.68875283,-0.44878662,-1.0743756,-0.27655643,-0.69284594,1.0072954,0.404863,-0.4746771,1.3268944,-0.6513994,-0.27114764,0.23160893,-0.7226911,-0.4548837,-0.2886708,0.93880713,0.24087225,0.8191796,-0.3216643,1.092968,0.7055774,0.69504833,-0.21343096,0.47486755,-0.9340943,0.29455188,-1.1040331,-0.115745865,-0.37894744,0.3810405,0.9411289,0.17811143,-0.28087983,0.91492826,0.07880113,1.4585155,-0.34923056,0.40661812,0.12303726,1.3858181,-0.52739537,-1.5532311,-1.2929897,-0.6950025,-0.16695666
hsa_circ_0073786,0.3313901,0.58732736,-0.9395138,-0.13351962,0.065375395,-0.7102792,-0.42038268,0.8124926,0.5344681,-0.117180064,0.22079642,-0.57233876,0.4564791,0.33639744,-1.21255,0.17304374,-0.40916443,-0.8069112,-0.39321214,-0.01602639,0.91415966,-0.8968956,-0.6917199,-0.3134104,0.3337193,1.8424411,0.37783036,-0.32483166,-0.89339375,-1.711753,-0.01184586,0.6571404,-0.75081223,1.4675221,0.23698612,0.59873736,-1.216276,-0.2651669,0.93918484,-0.9316744,0.67285395,0.55140156,-0.76469725,-0.7254629,1.0424849,0.17546915,-0.39730343,-0.06800312,-0.45442823,-1.4792639,0.12786624,-0.211254,-1.1084428,1.408829,0.9266145,1.0292218,0.80325496,-0.69825,1.2968739,-0.8763654,0.2922299,-1.3443564,-0.032099336,-1.9990797
hsa_circ_0073783,0.5452782,0.6325821,-1.2608483,-0.47524112,0.24324909,-0.9107476,-0.4835936,0.67521584,0.5731131,-0.34289494,0.51125705,-0.8419892,0.44818223,-0.20927535,-1.3544536,0.33337623,-0.16032802,-1.2580931,-0.6853197,-0.08116249,0.997069,-0.5036741,-0.4003429,-0.14898801,0.16594337,1.4226931,0.5275376,-1.3076999,-1.0261858,-1.6926125,-0.115769446,0.48172042,-0.73375523,1.1291407,0.40791577,0.56747943,-1.2737862,-0.876552,0.6033583,-0.8617501,0.6759055,0.36844817,-0.46739635,-1.0903457,1.4499428,0.48594737,-0.30922744,-0.27399847,-0.4158665,-1.498665,-0.05638451,-1.1772113,-1.1846353,1.3285406,0.98545176,0.79510343,1.1058853,-0.98932654,0.9845321,-0.8560583,0.2749625,-1.0358375,-0.4209048,-1.6996877
hsa_circ_0073784,0.26924264,0.4410214,-0.86092675,-0.35914162,0.082413465,-0.85214275,-0.4040274,0.40842947,0.54967815,-0.42415237,0.41345835,-0.7964968,0.3904336,-0.004006984,-1.3728272,0.40805137,-0.6126888,-0.90898085,-1.0562997,0.07703309,1.0214267,-0.7275849,-0.8039592,-0.26139167,0.19215398,1.6579548,0.4404164,-0.6458156,-1.1191814,-1.845818,-0.18520612,0.27185732,-0.8894421,1.3915366,0.23317002,0.2722124,-1.4202361,-0.7435481,0.8181842,-1.0138565,0.48720005,0.3608388,-0.7996727,-0.98650503,1.4586415,0.5113214,-0.35758996,-0.30138665,-0.6573761,-2.137993,-0.21881941,-0.9047333,-1.2054583,1.4698704,1.0442507,0.81250596,0.9102272,-0.95458865,1.0673754,-0.9225554,0.47619444,-1.1907218,-0.24245912,-1.8214998
hsa_circ_0052123,2.015903,0.49030158,0.66076386,-0.33522344,-0.59087986,0.21194278,0.21991539,-3.007018,0.22962907,-0.22493541,-0.110439435,-0.715569,0.1784476,-1.0689555,1.6232136,-1.8887137,-1.9588372,1.346826,-0.7522514,-0.3968753,0.18910594,-0.8422027,-0.7016512,1.9973891,0.5736308,-0.33746055,1.3827047,0.4022583,2.9355102,0.73546964,1.1759259,1.3951585,-1.920294,1.898548,1.158741,0.5083121,-1.1625758,-1.857537,1.9666232,0.72823197,0.42920282,0.3455925,1.0483656,-2.255113,-0.4297005,-0.9933443,1.7108471,0.6128834,-0.077107765,-1.363043,-1.591371,-2.6806798,-0.6992152,-0.8887871,-1.0964488,-2.875246,2.2602124,-2.770652,-0.042554773,-1.3316616,-1.1756871,-2.0625813,1.1412071,0.05977322
hsa_circ_0083771,-1.0466149,-0.80374503,1.6196489,1.5071673,-1.3610438,-0.68594974,0.8331865,1.5962417,-0.48842058,-1.4066312,0.8773615,0.27413303,0.921237,1.4595053,-0.94144934,-0.57684374,-2.876804,0.45132604,-0.9392719,-2.2418125,2.1090767,-0.8013765,-0.17870547,-0.21844226,-0.47269425,0.7368262,0.84067065,-1.1669954,-0.9760729,0.5259273,-2.333942,0.101466015,0.6495727,-0.19344871,-1.541002,-0.14307323,1.0708414,1.0812422,0.38128692,-0.75109655,0.94643056,-0.3768683,0.5831031,0.052680716,1.4566288,0.6417888,-0.8594267,-0.005506626,-0.25784275,-0.7832094,0.8505672,1.4141064,0.37147805,0.3758997,-0.18404011,-0.1300531,-0.3586935,-0.5626255,-0.1848672,-2.4530354,-0.8391314,0.8497444,-1.8286334,0.63802755
hsa_circ_0083773,-0.90528345,-0.6273029,1.7882763,1.4078777,-1.253121,-0.6234446,0.9150959,1.4133382,-0.06735536,-1.1099799,0.7335862,0.40745965,1.0204546,1.5180842,-1.1701064,-0.7198918,-3.1021457,0.07681117,-0.9751247,-2.4015665,2.3130553,-0.9939642,-0.38824606,-0.11057698,-0.5601212,1.0062313,1.3383414,-1.3049735,-1.0605862,0.31468025,-2.0845964,0.42844462,0.57376826,-0.035550695,-1.6747808,0.38031816,0.80294603,0.93133986,0.4132461,-0.7292733,0.69214165,-0.21506304,0.57718015,0.093975745,1.252165,0.49741772,-0.9138747,0.28483677,-0.72897625,-0.6452252,1.1350911,1.8084052,0.54003674,0.81048644,-0.08547774,-0.30491295,-0.4287525,-0.14106677,-0.5103113,-2.3348913,-0.90876687,0.8811188,-1.2562675,0.5139193
hsa_circ_0083774,-0.7787989,-0.2986797,1.2074717,1.4493328,-1.1158375,-0.6653609,0.5488902,1.6379217,-0.10032527,-1.1294466,0.75272465,0.41314977,1.0523783,1.2253345,-0.8055923,-0.9141849,-2.9784505,0.026289936,-0.8684264,-2.3814647,2.0871549,-1.3441802,-0.052276015,-0.124606684,-0.6201864,1.1326785,1.24217,-1.0804687,-1.122847,0.34064052,-1.9566839,0.4223691,0.8698797,-0.39304343,-1.5617257,0.41368076,0.80513054,1.0067962,0.4900948,-0.66170484,0.70244634,-0.45654416,0.7079972,0.0066375146,1.4192334,0.5059658,-0.8151259,0.09764089,-0.55514926,-0.48454666,1.3082361,1.3426155,0.9650236,0.6524839,-0.1746919,-0.5863898,-0.7332947,-0.48047882,-0.4840585,-2.2887392,-0.6769403,0.48846364,-1.3875437,0.5234502
hsa_circ_0083776,-0.6622527,-0.27530006,1.2291043,1.2993679,-0.9113252,-0.6208092,0.46161532,1.5296849,0.025207078,-1.2259163,1.1351022,0.18384047,0.961942,1.2067932,-1.0873644,-1.0187743,-2.981057,0.24612421,-0.94416255,-2.6715271,2.1489327,-1.2214396,0.24251296,-0.18930098,-0.40134898,0.80992013,1.4003414,-1.5337956,-1.1633772,0.56506306,-1.9859871,0.26087987,0.7193975,-0.3014047,-1.959123,0.36632872,0.7562862,0.97665167,0.20757845,-0.8149074,0.7202097,-0.2514652,0.96091455,-0.19915685,1.3468766,0.8078798,-0.6877541,0.46653888,-0.6155847,-0.49149907,1.1209,1.5503712,0.8701198,0.78557587,-0.2805982,-0.4932572,-0.64723283,-0.70762944,-0.4746386,-2.4855897,-0.9800742,0.39793664,-1.4116468,0.71032095
hsa_circ_0083778,-0.37420106,1.030402,0.9290492,1.3586757,-0.9775132,-0.5093521,1.5799111,1.9281764,-0.05139265,-1.0323628,0.47345966,-0.41782564,1.182638,0.550935,-1.1759511,-1.382451,-3.7192147,1.0668385,-0.8819638,-2.705665,2.8033695,-2.158305,0.18143831,0.112474665,1.1416659,1.3891442,0.64790237,-0.2848033,-1.8148828,0.5846296,-1.2510074,-0.38830787,0.83139205,-0.35260788,-2.8614972,-0.6775986,1.9783658,1.8183534,0.69438785,-0.20102696,1.2967978,-0.23106618,0.762864,-0.46189293,1.1166677,0.60779977,-0.2982885,1.086927,-0.8920669,-0.019977111,1.4703473,0.63561434,1.8368486,-0.017216515,0.9798958,-0.994862,-0.4386289,0.029475108,0.37249416,-2.6509697,-1.8864942,0.36938363,-1.1969078,0.20233637
hsa_circ_0052115,1.7637591,1.3476944,-0.5698529,0.59518456,-1.3567946,-0.10683392,0.4359655,-1.5367119,0.79541755,-0.334166,-1.1587449,-1.3388848,0.7517022,-0.6718552,1.3163707,-1.9624062,-1.5849367,0.7529924,-0.9726978,-0.42224318,-0.11572875,-1.6852672,-0.48406878,1.96508,0.18099232,0.3172092,1.2302747,0.08198666,2.48384,0.2742265,0.8216736,1.0147654,-1.095086,2.0728207,1.7405404,0.59672356,-1.1468261,-2.171194,1.4522291,1.5972946,1.969533,-0.33097863,1.6232767,-3.293277,-0.36106342,-1.1802673,1.2378112,0.23411994,0.07689664,-1.1513431,-2.4672496,-1.4353098,0.35758132,-0.51017576,-0.6820366,-3.132867,2.7684498,-1.5972841,1.39927,-2.2413716,-1.5904149,-1.3586773,1.1632667,0.934794
hsa_circ_0044523,-1.1953809,-2.727749,-2.3778195,2.1307917,1.411449,-0.37876344,0.6549724,-1.5558995,-0.4755718,1.3145005,-0.46874902,2.7309537,0.7705447,1.4767632,1.8478482,1.0545967,1.3823678,2.0319839,1.7239431,3.0670116,1.8911532,0.006637379,-1.2597792,-1.4760845,2.2688775,2.8304586,2.34775,-2.953014,-3.566099,0.14633588,-1.9209398,-1.686359,1.0327624,0.04357558,0.9301334,0.3896742,-2.962999,1.0374665,0.9540408,0.503142,0.5611907,2.2446678,-1.1590737,2.069836,1.8388368,1.7630901,-4.3391576,1.4951949,0.9024311,-1.1002164,3.2619927,2.6155932,1.4273037,-5.4096346,-2.2537029,-0.67415786,-1.0011741,2.904396,0.6676177,-1.574815,0.76698524,3.7246966,0.18823484,3.7138824
hsa_circ_0016756,2.6336985,1.3804631,-0.85791445,0.96356386,-1.3638836,-0.8535066,0.7102197,0.12544587,2.8408327,-0.94591403,-0.43128982,-1.4369527,-1.2512832,-1.5321255,-1.3306688,-2.5899298,-2.1507587,-0.77210915,0.22858697,-0.24070206,-0.3931043,-2.5739896,-0.5676068,1.0450966,0.854716,-0.43769878,-0.22770971,1.1782414,0.051892843,-0.0983686,0.5210305,0.71946305,0.1571659,3.0710921,-1.3699139,1.2331016,1.9368167,-0.09625906,0.36638978,1.389623,0.83846754,0.5559736,2.0163312,-2.057768,1.209624,-1.1724468,1.0294876,1.174464,1.4552169,1.3066924,-0.3644045,-1.9196532,1.5273515,0.15720084,0.63089246,-4.422049,-0.40705937,0.43098933,1.4870281,-2.5546591,-1.6181803,-0.5282954,0.79043025,-1.4656096
hsa_circ_0065408,-2.1162586,-2.287535,0.85080796,1.4178466,0.38107955,0.9320894,0.98239344,0.59589255,-1.0964197,0.516541,0.084862515,1.6661286,0.012084729,0.51348656,0.36591053,0.99349236,-0.30278704,1.0406184,0.5070038,-0.119819164,0.26537114,-0.35274187,0.34149686,0.039495137,0.13777106,1.4606134,2.2704883,-0.3379469,-2.264009,-0.56280017,0.31010062,-0.93793094,0.25724044,1.0157862,-1.8623208,-0.3921307,-1.1435347,2.1566153,0.9177307,-1.2126358,-1.0496342,-0.4181651,-0.47489804,2.146043,-1.141026,1.0030153,-1.5585513,0.17769682,0.046112284,-1.4692165,0.2126296,0.63872874,1.0358058,-2.4017456,0.6438733,0.645954,-0.7881426,-0.46579087,-2.2264533,0.4137509,0.12932292,0.48351496,-1.7048005,1.0350882
hsa_circ_0065399,-1.2897266,-2.8962977,-0.23643206,1.1752695,0.8146075,0.43440735,0.60123205,0.49278376,-1.8444843,1.2951044,-0.8624137,1.8657461,-0.39228752,1.1749579,0.47281593,0.14921628,0.192759,1.670707,2.072328,0.10099383,1.4038299,-0.08954877,0.4014859,-0.7915836,1.2679536,2.3130074,1.854229,-0.2899465,-3.0565488,-0.5052213,1.1662515,-0.969157,-0.7360583,1.1128204,-1.9346154,1.1015322,0.43839553,3.0808477,1.1578444,-1.2473078,-0.44342527,0.42419004,-1.1864331,1.4713755,-0.8317081,0.2570095,-2.1007957,1.986418,-0.36457375,-1.7536296,1.3261653,2.229055,2.0244184,-1.7281979,-0.36572924,0.15904522,-0.7645197,-0.072652705,-2.116013,-0.60134345,-0.14313018,1.3779985,-1.1999459,2.4038439
hsa_circ_0065400,-1.2260199,-2.9429858,-0.15245377,1.2564261,0.76638716,0.33591786,0.95549804,0.060231782,-1.4606113,1.5461498,-1.199157,1.8075861,-0.27880687,0.9920513,0.34575316,0.39021498,0.09730114,1.8030447,1.8537964,-0.37137794,1.5762987,-0.054461043,0.5361926,-0.92867875,1.3868724,2.2798574,1.5027274,-0.4520297,-2.8144677,-0.51524025,0.94763094,-0.9869272,-0.544425,1.3190396,-2.008784,1.2384958,0.52207255,3.239809,1.1617614,-1.2753103,-0.60639715,0.63151413,-1.1542722,1.4667087,-0.85183644,0.49815723,-2.0223958,1.531754,-0.27459428,-1.7798443,1.4624361,2.18042,2.1204195,-1.6640363,-0.08785452,0.017468546,-0.9169982,0.1434235,-2.041002,-0.78288704,-0.09589537,1.4107726,-0.9752688,2.370718
hsa_circ_0065401,-2.0108273,-2.2851694,0.5421279,1.6152875,0.49837205,0.51400465,0.978509,0.33763477,-1.5170404,1.094933,-0.2957167,1.5986857,0.045880266,1.4397384,0.21410379,0.77237177,-0.065179646,1.5251687,0.83295417,-0.36939836,0.61098194,-0.08572588,0.4676917,-0.5836704,0.30712414,1.7338912,2.093819,0.24624921,-2.4190927,-0.55521244,0.6975602,-0.7407391,-0.55753803,1.387092,-1.9108548,0.060487323,0.438905,2.447142,0.5681731,-1.0824109,-1.1489979,0.3798061,-0.82946676,1.9760149,-1.2024539,0.8509601,-1.6511434,1.1297268,0.14469196,-1.2993588,0.98010784,1.5373962,1.5372175,-1.857598,0.72650164,0.13435498,-0.92638505,-0.3577032,-1.8173798,-0.47578758,-0.22797251,0.5519339,-1.2745662,1.3588384
hsa_circ_0065402,-1.2008266,-3.3265858,0.16714096,2.169102,0.87085813,0.14789914,1.2004727,-0.19402923,-2.0764735,1.3108227,-0.6699578,1.8244984,-0.37840983,1.232749,0.19353348,0.119661,-0.16803762,1.5110936,1.5357562,-0.16371092,1.1097276,0.33699736,0.8299461,-0.94502777,1.0361925,2.5978694,2.504721,-0.6244429,-1.9928432,-0.29394108,0.4262957,-0.4747135,-1.0327142,1.3904004,-2.2292504,0.9247423,-0.021040937,3.3157775,0.8667411,-1.1185604,-0.001276502,0.34693456,-1.4634452,1.588601,-1.2482102,0.48389402,-1.7319655,1.1653376,-0.10229888,-2.2231905,1.0332043,1.894147,2.0458956,-1.6857731,0.21946089,-0.14876865,-0.9537988,-0.3088358,-2.6032202,-0.9331001,0.27236542,1.098099,-1.0577583,2.4704478
hsa_circ_0065403,-1.8247485,-3.0227375,0.56521726,2.1291544,0.45417267,0.46802193,0.8694814,0.24123842,-1.6565393,1.453299,-0.7771668,1.8528984,-0.049023695,1.308152,0.17388785,1.0533602,0.30128372,1.5695267,1.4673715,0.10564821,0.8236108,-0.31481344,0.41105035,-1.2277089,0.57842875,2.0480402,2.2552803,-0.36890912,-2.6674292,-0.18959746,0.45994028,-0.48432618,-0.45810395,1.1844462,-2.1027827,0.46311182,-0.1929906,2.9526658,0.8015119,-1.3895867,-0.83054364,0.14195333,-1.6558617,1.8067393,-1.5624453,0.799397,-1.4012744,0.9051145,-0.18880586,-1.8098639,0.76556456,1.5190225,1.3512028,-2.0062644,0.4232306,0.016634518,-0.45842534,-0.32762527,-2.6762843,-0.7843798,0.33224294,0.70633715,-0.9480315,1.7131134
hsa_circ_0065404,-2.2834728,-2.5285318,0.56933874,2.200599,0.42534757,0.26533973,0.9150698,0.55383354,-1.5545785,0.90603364,-0.0012470877,1.5086933,0.039151933,0.9248904,0.042943235,1.1019931,0.089808546,1.427388,0.97428024,-0.021411056,0.42563933,-0.113062896,0.7568777,-0.65496844,0.09058991,1.9771545,2.3508039,-0.46878642,-2.2950602,0.076807015,0.026592705,-0.48935705,-0.20061831,0.9892934,-2.1450837,-0.3693932,-0.694785,2.3560102,0.59146756,-1.3177664,-1.1410669,-0.40155315,-0.78803754,2.111901,-1.2635578,0.90896064,-1.7297804,0.38375765,0.050016847,-1.3857994,0.25931755,1.00291,0.9934491,-2.4532394,0.7879804,0.586923,-0.61306715,-0.52746725,-2.4779549,-0.21779943,-0.008420207,0.64450103,-1.3816826,1.091516
hsa_circ_0044533,-0.8979345,-1.6635525,-2.242595,1.7856592,1.354565,-0.10337442,0.6288861,-1.2072958,0.09621852,0.21450871,-0.8046498,2.2809186,0.7855191,1.6315707,1.0868489,0.38685215,1.8757364,1.8653208,2.1299946,2.431903,2.004041,-0.24223524,-1.4402725,-1.4936931,2.883485,2.6280024,2.37355,-2.441518,-3.9445052,-0.45772496,-1.9839176,-1.7566857,1.0211792,0.40630028,0.4835889,0.48734537,-2.1970363,1.0379763,0.8524318,1.1052735,0.69731474,2.3495655,-1.0202682,1.7930847,1.7574118,1.4352015,-3.4383948,1.7188575,0.7476762,-0.9203069,2.7529554,3.2143896,1.737847,-5.560966,-1.8892522,-0.3707382,-1.7533699,3.29547,1.9051731,-1.5587561,0.6095053,4.3412933,0.53223675,3.4402153
hsa_circ_0081063,-0.7125219,0.27108616,-1.5742749,1.893122,1.6361173,-1.5212386,-0.089878835,-0.29227564,0.39639533,0.7861711,-0.81707454,0.8009415,1.0177492,-0.04147108,1.6575853,-2.4277697,0.8993733,2.0051086,-0.32478663,1.4027845,1.6444408,-0.6299237,-0.03874786,-1.4941442,3.2373543,2.0755026,1.4792701,-1.2003148,-2.5703058,0.5757252,-1.0401393,0.3529783,1.793473,-1.1421598,-2.2071784,0.5779939,-1.101886,0.38454762,1.2464963,1.0304036,1.1706778,1.639068,0.20760508,1.0144757,0.499606,-0.1130134,-3.1835213,2.337426,-0.5443827,0.8758986,2.649828,0.88977355,2.7076597,-3.7860434,-1.7048548,-0.7359207,-2.0375328,2.2000237,0.9881942,-1.6629802,0.12812166,2.336465,0.5830168,2.8301647
hsa_circ_0081065,-0.84514266,-0.46708238,-2.2305012,3.0448966,1.8203105,-1.7987281,-0.7417601,-0.45751575,0.5005733,0.6918918,-0.98157454,1.3429512,1.4594977,-0.37531668,1.8966087,-2.7612002,0.9453743,2.1990182,0.16336197,1.8346696,0.9933928,-0.2052734,-0.3365389,-1.2372426,3.3458927,2.7146935,2.3620107,-0.44228944,-3.0233986,1.0145458,-1.2645661,0.33517203,1.5728844,-0.74553,-2.219286,0.88213015,-2.0601614,0.5184462,1.4203787,0.8490994,0.98768884,1.5314286,0.47889766,1.1520323,0.5141507,0.028667914,-3.556837,2.7585478,-0.77569765,0.3560331,2.8982153,0.84514266,3.2655432,-4.3444195,-1.9599581,-0.89507836,-2.1651769,2.1417053,0.61066115,-1.703995,0.663012,2.4891305,0.4286801,3.0838344
hsa_circ_0081066,-0.83857256,-0.29346147,-2.0790732,2.962159,1.6084317,-1.9896142,-0.5270929,-0.5999386,0.65780956,0.5060111,-1.6624311,1.2319355,1.4100337,-0.4073709,1.9001462,-2.826291,1.0207629,2.0767052,0.04918765,1.983159,1.2464813,-0.35357678,-0.3124888,-1.6922157,3.2233512,2.8952072,2.7194366,-1.080109,-2.7520456,0.5927495,-1.3670164,0.13119029,1.6039784,-0.82914203,-2.4021385,0.5437491,-2.431391,0.5927776,1.4068527,0.7984114,0.86173344,1.2449191,0.2986196,1.1862745,0.62764895,-0.05217125,-3.484656,2.653762,-0.7625207,0.13873366,2.5982862,0.58982986,3.200706,-4.1175585,-2.001787,-1.0723248,-2.2440321,2.708987,0.26431358,-1.5189916,0.8659838,2.9744568,0.5093898,2.9052715
hsa_circ_0035143,-0.41723284,0.54167217,-0.2846529,-0.06634674,1.0059559,-0.8867294,-0.36983475,0.6011533,0.42642176,-0.77239597,0.4448204,-0.7707961,1.3407542,-0.38761076,-2.0127249,0.024314918,0.018467762,-1.110127,-0.5315598,-0.3331563,0.6790603,-0.15137014,-0.4293548,-0.9780289,0.061660677,2.1318853,0.71507394,-0.14822741,-1.187534,-1.013775,-0.42617065,0.66491336,0.2945563,1.545436,0.8090882,0.7680276,-1.2543073,-0.07210891,0.90595955,-0.17372039,0.8855992,-0.78509486,-0.2033541,-0.4024708,0.6360526,-0.053797487,-0.7693388,-1.2493774,-0.03182755,-1.5017005,0.57799727,-0.93724275,-1.0045775,0.9370064,1.3009261,1.2532072,0.2942652,-0.98023665,0.43454784,-0.9036661,-0.6569757,-0.88962644,-1.5204959,-1.4589175
hsa_circ_0013873,-0.7860695,-0.27629232,-1.0941634,2.850458,-0.12288157,-0.39749116,1.2414352,-1.2081789,0.8667272,0.36273146,-0.1271715,2.6577878,1.3959998,0.48970374,-2.103014,-3.581167,-0.19205298,-0.2940501,1.6338787,-2.0152416,-0.72473603,-0.35504037,-0.17696914,1.4394175,-1.9286873,1.1132354,1.181783,1.7008625,-0.20034371,1.2683899,1.0038469,5.5039225,-1.6878909,2.5624602,-4.7919106,1.1189014,2.6028998,2.6031468,-1.1944124,-2.0642974,0.9181882,-0.16364838,0.7648356,0.38907117,1.2260983,-1.8661207,-0.89423656,1.6003973,0.6582365,0.6185884,3.4765546,-2.982365,1.8422208,2.7174234,1.1978558,-2.9821146,-1.6069869,-0.45339507,-1.0682958,-1.8683391,0.9625521,-1.6479331,2.8228507,-1.8388537
hsa_circ_0073785,0.6228597,0.718402,-1.2652565,-0.46220106,0.1849294,-1.2969209,-0.35199276,0.62300885,0.4532513,-0.34912184,0.15977216,-0.9082761,0.94654864,-0.22482808,-1.0532496,0.29314724,-0.32178137,-0.977598,-0.4478925,-0.14859116,0.63289034,-0.88448083,-0.5566415,0.01833186,0.31903195,1.6528193,0.55576086,-0.85999066,-0.3840955,-1.6953626,-0.25900137,0.30631924,-0.93804246,1.4008062,0.5677478,0.46188173,-1.2375592,-1.0601058,0.9617824,-0.7428422,0.4054421,0.51803106,-0.42370412,-0.8938494,1.0861989,-0.013849829,-0.35048255,-0.25708586,-0.45596033,-1.2986933,-0.06890491,-0.5988724,-1.2897825,1.2097093,0.7524741,0.6230998,1.0235915,-1.0741682,1.1662551,-0.72042286,0.38181943,-1.3563249,-0.787443,-1.8555212
hsa_circ_0073782,0.3004821,0.7206408,-0.8265642,-0.5435175,0.20238522,-0.96492326,-0.30391696,0.5291584,0.2805816,-0.46279755,0.5859229,-0.9231809,0.348302,-0.020027457,-1.258156,0.124206096,-0.22124068,-1.0312551,-0.75239503,0.13646592,0.7572505,-0.5187252,-0.60307735,0.02017688,0.15589513,1.805868,0.52684456,-0.87951297,-0.79342717,-1.6271341,-0.27926603,0.22856805,-0.7703432,1.1577017,0.23938715,0.2795398,-1.4563863,-1.2179677,0.8788983,-0.9545244,0.6286002,0.5256803,-0.39065292,-1.1036432,1.4724681,0.16694312,-0.34628028,-0.33199355,-0.6642514,-1.5074589,0.09652978,-1.1209911,-1.3563757,1.4032322,1.161681,0.94267064,0.95339966,-0.8407622,0.98077136,-1.0709077,0.28226015,-0.9345274,-0.47428623,-1.6328168
hsa_circ_0081678,0.045073297,-0.07252984,0.48053384,-0.23489702,-0.89332855,-1.2938881,1.1709015,1.1679116,0.59939295,0.86351025,-0.51008016,-1.106871,-1.0922058,-0.8863834,0.14106514,0.6897446,-0.7416189,-0.013239171,-0.80699027,-1.269883,-0.07570036,-1.3220978,1.2268567,-0.52112377,-0.12020273,0.0053552454,-0.2612675,0.68919575,-0.6734801,-0.62554824,0.6320558,-0.95858824,0.44200063,0.57531464,-1.5809884,0.29181024,0.7467621,1.2646685,0.36877882,-0.25640714,-1.2062148,0.55444014,0.59342486,-0.3585324,1.4127923,0.50009567,-0.16028267,0.80705434,-0.22385325,0.40237728,-0.045669906,0.76574385,3.040949,-0.8594835,0.59251195,-1.6723733,-0.6344908,0.7022499,0.3000315,-0.6524859,-1.4628993,0.17772818,-1.6403902,1.8524209
hsa_circ_0044505,-0.77436376,-2.361366,-1.1151904,1.1467742,0.29605955,-0.49004337,0.914472,1.2669665,-0.6445631,0.47476003,0.6507374,1.8050416,-0.8658734,1.498432,0.08958231,-1.243993,0.0859222,-0.15037374,0.6793819,1.970292,1.46606,-0.03113086,0.7256521,-1.0713484,2.272886,1.9992481,0.46403438,-1.7440795,-2.292808,-0.7192581,-0.3957073,-1.0627943,0.8403833,0.78589743,0.6254865,1.7358387,-0.8948143,0.8871454,0.95583403,0.39924037,1.0684717,0.86947054,-0.89702076,1.0442194,-0.61312383,0.5766679,-2.5947897,1.0632949,0.24082185,-0.92009294,2.6163433,2.2000988,0.7094209,-2.0725951,-0.13327838,-0.8599808,-1.0607523,1.3616958,-0.5865896,-1.2696718,-0.93965715,1.1517684,-0.3127509,3.083997
hsa_circ_0044506,-0.9468587,-2.3380952,-1.0748181,0.7617647,0.49562865,-0.61672646,0.7398212,0.9927966,-0.6780735,0.4458631,0.71633106,1.962341,-1.1028411,1.732782,-0.044815548,-0.96787435,0.3408671,-0.17367603,0.46569696,2.0559475,1.6787591,-0.57905996,0.49788558,-1.172148,2.1184773,1.6877741,0.47084224,-1.9640794,-2.7366571,-0.476788,-0.4605707,-1.2756413,0.6048817,0.46781278,0.675426,1.9369085,-0.92395806,0.8616199,0.8739342,0.5378136,0.84196264,1.3168806,-0.59360474,0.7084581,-0.81956404,0.5905839,-2.5791914,1.310638,0.087532535,-0.7413659,2.3329096,2.5820851,0.7875315,-2.042268,-0.09523459,-0.33662498,-0.9261787,1.3244127,-0.42875654,-1.4671856,-1.4529216,1.5099912,-0.2548075,2.7827
hsa_circ_0044514,-1.7154127,-2.697111,-2.311924,2.1213593,1.0197551,-0.53671724,0.87347263,-1.0770078,-0.36387283,0.4328007,-0.073720105,2.6004772,0.549635,2.1629195,2.141108,-0.69294447,0.9309385,1.6658448,0.79808396,2.9380536,2.3274312,0.66223747,-0.06344691,-0.86199594,1.8347602,2.6983988,1.8875717,-2.307197,-1.8174961,0.5583369,-1.6443151,-1.3589451,0.9522233,0.31266573,1.197444,0.6700946,-3.5577304,0.22378659,1.6780996,0.37262467,0.5244152,1.3865051,-1.1077498,2.4292018,1.0472037,1.5350637,-3.239185,0.57086205,0.18960951,-1.2022387,2.1798697,2.4125197,1.283221,-4.2914996,-1.4593866,-0.8837824,-0.86114377,1.7998338,-0.4311972,-1.1272291,-0.49996498,3.2504642,-0.3598313,3.5646188
hsa_circ_0006293,0.7436897,-0.115301296,-0.3203813,0.46711004,-0.3928261,-1.2948588,0.8152698,0.6011804,-0.5176246,-0.48887515,-0.81842804,-0.7652271,-1.8828788,-1.5855932,-0.74830014,-0.7807866,-0.55827135,-0.33651012,0.15201288,0.4995322,-0.8432892,-1.4208757,0.042276036,0.01331449,0.021276914,0.15158622,-0.7004843,1.7084415,0.9597951,-0.49552605,0.3480783,0.29809272,-0.7631067,-0.12077147,-1.2364646,0.18453133,-0.028138882,0.29030755,0.40861863,0.81514794,0.15906344,0.29832175,1.8648905,-1.1591324,0.22455207,-1.46839,1.025449,1.0848889,-0.11435132,0.56321365,-0.5484368,-0.3308125,1.1313213,-0.76785374,0.5136219,-2.374785,0.26816246,0.80803615,1.8716642,-0.8540278,-1.8565545,-0.1324405,-0.38505647,-0.17310026
hsa_circ_0010574,-1.5918354,-0.46733096,-0.21667428,-0.48586324,0.67394584,0.04694519,-0.77362317,-0.29496416,-0.5112729,0.87114197,0.2654229,0.9106972,0.92087495,1.4019783,0.17864889,0.11309798,0.17037112,-0.31110394,-0.3556646,0.7264794,0.77955616,0.03494366,0.25553972,-0.63750046,-0.4797285,1.0816638,2.9374776,0.5805505,-0.784859,0.26827863,-1.7984183,-0.36510578,0.29603937,0.116288535,-0.70663947,-1.078992,-2.357457,-0.07178011,1.1212217,-1.0158426,-0.34975016,-0.2059091,-1.2451236,2.8626716,-0.101256646,1.937149,-0.92358726,-1.4675995,-0.9618085,0.70216584,-0.9603872,0.25570938,0.8687435,0.68160075,0.5093081,2.7773557,0.41274163,-2.310654,-2.4377277,0.61230314,-0.00993229,1.6217188,-2.0312743,0.8841628
hsa_circ_0082877,-2.7330241,-1.3120639,0.030779019,-0.8534452,1.2033055,0.9670079,0.25603166,1.6398618,-1.3608786,-0.15389048,-0.017756507,1.0430938,0.6116799,2.4153068,-1.374675,2.0467553,0.17558728,0.07844963,-0.7468835,-1.2251289,2.3071957,-1.6045233,-0.14533661,-2.158247,-0.047171097,0.12058998,2.8925195,-0.22073837,-2.9614491,-1.6443968,-1.3518386,-0.33478656,0.4695391,0.53091455,-0.79727507,-1.8274106,-1.2373476,0.737782,1.7660956,-1.7445394,-0.45456213,0.31355968,-0.5502873,3.2991455,-0.59765875,2.0487936,-2.2934718,-1.5051955,-0.038481764,-0.33756617,-1.0240703,-0.035009168,1.5203536,1.690361,0.9594933,2.6535106,-0.56673384,-2.0542674,-1.2524811,1.0784054,-0.5725246,0.9256526,-1.3757937,-1.308269
hsa_circ_0080466,-0.39145505,-0.11433036,0.8951421,0.16363472,-0.96528924,-1.56356,0.5249183,0.9089772,0.5749947,-0.12559685,0.002855252,-1.1027975,-0.29257765,-1.4053208,-0.65326726,-1.1417748,-0.3340014,0.006845862,-0.09546098,0.3976734,-1.0829055,0.18085729,0.09097326,-1.0623063,-0.123405226,-0.047901157,-1.4244015,0.74103796,-0.15393828,0.11867638,0.12690783,0.3203158,0.9231803,-0.24796376,-0.5829614,0.05338683,0.4592225,0.11923282,-0.35202295,0.44742578,0.26798847,0.020436212,1.9607544,-0.9613762,-0.078952424,-1.1435829,-0.057635892,-0.5022895,0.4440899,1.8623912,0.50155246,-0.0017408832,1.2379907,-0.22438638,0.5373805,-1.0969883,-0.41149506,0.82190365,0.2797082,-0.6560201,-2.4051685,-0.019961478,-2.1101382,1.0125661
