hsa-miR-6087,0.085281044,-0.23793869,0.40230173,0.11310779,-0.12963937,-0.1206103,0.34506938,-0.1253611,-0.41303524,0.116678074,0.71653736,0.12355786,-0.035444874,-0.08100535,0.43627542,0.0057920846,-0.19037068,0.3359182,0.04126399,0.26999214,0.21885584,0.53095007,-0.06791111,-0.014281103,-0.094037056,-0.07242815,-0.38671783,0.5923449,-0.28993943,0.6075093,-0.13928927,-0.1229062,0.060734738,-0.30443066,-0.17793754,-0.42106512,0.021047968,0.237379,0.9594001,0.25547925,-1.0322324,-0.44106585,0.01437791,-0.5456106,-0.21969883,-0.34187657,0.36401308,-0.023581974,-0.07334307,0.2619762,0.12947895,-0.40977022,-0.23817244,0.35675612,0.15901734,0.095628634,-0.20506299,-0.38671252,-0.32837826,0.34166282,-0.057450883,-0.38141382,-0.3803577,-0.27991787
hsa-miR-7-5p,-0.06719925,-0.17574944,-0.39395854,0.09632663,-0.052933365,-0.15942894,-0.2619028,0.18069355,-0.31683305,0.08471122,-0.37182835,-0.15173481,-0.38329908,-0.23016445,0.005369788,0.35713518,0.2161664,0.15469114,-0.071289085,0.0516388,0.3545954,0.9890892,0.17935526,-0.15231936,0.23096514,0.17024112,-0.28656498,0.034379315,0.061761063,0.31702444,-0.37207618,0.22739695,-0.39245015,-0.2327869,-0.16176963,0.51020616,0.07249163,0.44651407,0.5076929,0.24556185,-0.42020348,-0.3818468,0.61007094,0.10913468,-0.2846465,0.3939548,-0.29841825,0.27856618,-0.4345137,0.20146284,-0.5662374,-0.5880462,0.66903424,0.28974,-0.5013402,0.20203729,0.047352638,-0.21773331,-0.75710636,-0.24866797,0.006195667,0.17062746,-0.29219973,0.1441833
hsa-miR-328-5p,0.0673776,-0.030640949,0.3486997,0.23497592,0.1848394,-0.106768206,0.30228123,0.13228334,-0.32793915,-0.034961924,0.4510556,0.16072972,-0.0095320335,0.109875314,0.12529068,-0.06181849,-0.45979586,0.12314612,-0.18665473,0.27717492,0.17640376,-0.24058796,0.43836004,-0.062997155,0.19048265,0.016828049,-0.119408414,0.3715928,-0.41113728,0.044970993,0.13018452,-0.28910327,0.11239368,-0.7276171,0.26696405,-0.042055853,0.31076795,0.039351676,0.8988393,-0.053154685,-0.17292446,-0.20320982,0.09485303,-0.5535607,-0.3308597,0.26357388,0.47192907,-0.06944759,-0.012910243,0.040147923,0.46933797,0.4327687,-0.35983372,-0.23821734,0.64437634,0.25387838,0.2237383,-0.38110107,0.3848085,-0.067841485,-0.15142384,-0.13231255,-0.5694338,-0.27739257
hsa-miR-3689b-3p,-0.06681773,-0.27328563,-0.29559743,-0.042873144,0.3203843,-0.55960345,0.012762078,0.27612442,-0.23107767,-0.57560354,0.19494174,0.057197202,-0.18720509,-0.14476901,-0.12780452,0.011721151,-0.033811994,0.47119525,0.23115037,0.5491447,0.18387812,-0.11742837,0.397213,0.2404587,0.27280253,0.25831193,0.06501685,0.33395907,0.20378335,0.36865568,-0.3954948,0.02269143,0.03191856,-0.022625329,0.009627014,0.099770375,-0.5504684,0.041507367,0.7773819,0.29813147,-0.71190846,0.35486397,0.049108207,0.11552229,0.1308902,-0.17789635,0.024496283,0.13005921,-0.37310466,-0.10968355,0.074708655,-0.40732065,0.5332564,0.36010113,0.018683445,-0.30932245,-0.15001613,-0.32056904,-0.25174245,-0.43758735,-0.10673095,-0.14164703,0.13228472,-0.73818904
hsa-miR-3689c,-0.06681773,-0.27328563,-0.29559743,-0.042873144,0.3203843,-0.55960345,0.012762078,0.27612442,-0.23107767,-0.57560354,0.19494174,0.057197202,-0.18720509,-0.14476901,-0.12780452,0.011721151,-0.033811994,0.47119525,0.23115037,0.5491447,0.18387812,-0.11742837,0.397213,0.2404587,0.27280253,0.25831193,0.06501685,0.33395907,0.20378335,0.36865568,-0.3954948,0.02269143,0.03191856,-0.022625329,0.009627014,0.099770375,-0.5504684,0.041507367,0.7773819,0.29813147,-0.71190846,0.35486397,0.049108207,0.11552229,0.1308902,-0.17789635,0.024496283,0.13005921,-0.37310466,-0.10968355,0.074708655,-0.40732065,0.5332564,0.36010113,0.018683445,-0.30932245,-0.15001613,-0.32056904,-0.25174245,-0.43758735,-0.10673095,-0.14164703,0.13228472,-0.73818904
hsa-miR-30b-3p,0.15999481,-0.059090223,-0.657918,0.20508,-0.23749612,-0.24094978,0.37355137,-0.023629421,-0.14411266,0.053706624,0.0026527375,0.0589343,-0.21747431,0.00068786246,-0.12371565,0.52497876,0.052984793,-0.0010747283,-0.007927215,0.28196374,0.29097688,0.74216115,0.27334896,-0.11159373,0.3222091,0.12023911,-0.024811978,0.012951444,0.1043992,0.41430014,-0.15097478,-0.03190892,-0.12393398,-0.1339054,-0.12353837,0.083207786,0.11234523,-0.041666947,0.55824393,-0.22694395,-0.38768625,0.14287505,0.08036011,0.11077368,-0.039543197,0.20178033,-0.24630335,0.12436859,-0.59783655,0.025412207,-0.008790976,-0.43927607,0.13629377,0.30395663,-0.5342845,-0.22400178,0.20146143,-0.41739127,-0.6412363,-0.052942906,-0.36389402,-0.1350779,-0.15778194,-0.2627756
hsa-miR-3689a-3p,0.24475597,-0.33211786,-0.184432,-0.24984233,0.44447836,-0.67870086,0.14657943,0.122638494,-0.35836726,-0.74143213,0.40254542,-0.084782414,-0.32936677,0.013302157,0.05503038,0.30049542,0.028226333,0.33273384,0.3021858,0.5227136,-0.076927036,-0.238043,0.5375104,0.11577756,0.35207975,0.2355588,0.0657078,0.3426999,-0.26204723,0.46600387,-0.6574882,-0.013166404,0.15492225,-0.1455274,-0.42806542,-0.13663033,-1.1100674,-0.15378967,0.6996727,0.2452559,-0.78748524,0.5074196,-0.36639264,-0.034186326,0.21069525,-0.21559164,0.11415595,0.105748914,-0.16230087,-0.13811392,-0.053951744,-0.2741592,0.19484113,0.456768,0.22228256,-0.2760701,-0.3047269,-0.59393585,-0.2978113,0.06833322,-0.14439052,-0.00070139224,0.44323036,-0.8162767
hsa-miR-8485,0.8935996,-0.3097584,0.072692536,-0.48051682,-0.13448651,-0.87988704,1.347269,0.6376504,-0.22095361,-0.2838569,-0.225992,-0.5597789,-0.048133202,-0.6395042,0.15851103,1.1891437,0.037917968,-0.2220926,-0.6357747,0.6109604,0.5592461,-0.22153321,0.48441857,0.040520843,-0.09134431,0.10608493,0.1159174,0.0868894,1.1597135,0.034973126,-0.48655006,0.41831374,0.14966202,-0.29889444,-0.2640059,-0.49889195,-0.0001409646,-0.8579486,0.025596697,-0.18381275,-0.5815574,-0.64858335,0.25149065,-0.19872084,-0.010532301,0.046125695,0.18310714,-0.42011598,0.72867996,0.46706682,0.82490504,0.6663098,-0.42638856,0.5320871,0.10814883,1.1721076,0.9430472,0.3051977,0.19900993,0.14691244,0.34318316,-0.35033873,0.5908111,0.5165262
hsa-miR-6851-5p,0.344926,-0.102999374,0.016871223,0.2762053,0.06259623,-0.6481719,0.50387096,0.2297198,-0.28671056,-0.2322453,0.28273034,0.2803462,0.2665948,-0.12621841,0.10262062,0.047497448,-0.07571161,0.0031519867,-0.37586728,0.5173772,0.20800972,-0.15053444,-0.33958057,-0.32227847,-0.025532145,0.0098365275,-0.09525957,0.1764345,0.36132416,-0.0065718074,0.061747383,0.13124672,0.56220585,-0.33073026,0.34493563,0.051523782,-0.03784294,-0.3047355,0.6392037,-0.07634366,-0.18698938,0.019472161,-0.012780316,0.25758472,-0.24437031,0.06418097,-0.33267587,-0.10909219,0.13367002,-0.12125199,0.53265786,0.28614062,-0.1523597,0.25097758,-0.027385967,0.055355042,0.31191322,-0.4696719,-0.20220381,-0.045186203,-0.28017235,-0.21418104,-0.39121833,-0.45142058
hsa-miR-4778-3p,-0.14447644,0.035597876,0.05070017,0.19299123,-0.101579525,0.099027455,-0.3099154,0.073659524,-0.2536434,0.2027718,-0.118598744,-0.035635702,-0.19792213,0.025690628,-0.17139988,0.17088304,-0.32164007,0.03905919,-0.29828933,-0.04399211,0.018469272,0.7160552,-0.079160996,0.022910671,-0.2511165,0.28001183,-0.32216156,-0.32730347,0.02638693,-0.218328,-0.46992606,-0.008308067,-0.6782462,-0.37558794,0.5237535,0.46285233,0.38095686,0.5200814,0.44944537,0.06837926,0.49173698,-0.26057136,0.46106708,-0.20083673,-0.15486479,0.70737576,-0.06731421,-0.18903151,-0.14454249,0.092927925,0.058524907,-0.20582557,0.57070935,-0.109414734,-0.021043682,0.21942809,0.41660306,-0.008765737,-0.34603968,-0.31924862,-0.01229087,-0.21436791,-0.30325392,0.32377186
hsa-miR-4300,0.40869373,0.1277365,-0.019208902,0.28636003,-0.5177847,-0.65258753,0.13047977,-0.27968526,-0.08818798,-0.06252854,-0.17415087,0.16645566,-0.15221286,-0.49180967,-0.21312758,-0.025555471,0.12155266,0.03633446,-0.22107413,-0.04625066,0.3608663,0.53858036,0.54027957,-0.42711076,0.36249804,-0.0736337,-0.22171943,0.026643973,0.14185868,0.20148191,0.17611909,0.31435415,-0.116210505,-0.05072176,-0.06388433,0.102233686,0.46906337,0.13285461,0.4788227,0.1771734,0.10846075,-0.19433953,0.25263882,-0.0036267634,-0.37499952,-0.04992471,-0.16582946,0.103556894,-0.16325617,-0.029631099,-0.1662746,0.056115095,-0.40718636,0.27251986,-0.21907648,0.065939814,0.104884036,-0.7324545,-0.54042363,0.044461116,-0.09531009,0.12637423,-0.33927795,0.024043225
hsa-miR-3192-5p,-0.07759798,-0.071066834,-0.23515949,0.09804075,0.080950856,-0.39418584,0.09977658,0.29935047,-0.30864012,-0.14100824,0.152367,0.28411797,-0.13881496,-0.11534635,0.012546157,-0.013602441,-0.19801731,0.2384799,-0.14844826,0.5091951,0.12052581,0.25860038,-0.13324504,0.024744311,-0.03750529,0.3643132,-0.17211334,0.25058386,0.15129493,0.18060109,-0.41016886,-0.037615195,0.13689734,-0.10875625,0.25909415,0.2821949,-0.058133096,0.0794649,0.65921694,-0.040163565,-0.31943777,-0.0518897,0.18431582,0.12329967,0.02590461,0.21704158,-0.046716496,0.056042407,-0.32206383,0.17261444,0.4819878,-0.15287311,0.4419437,0.12613079,-0.011841654,0.021516914,0.49904743,-0.2706486,-0.14700222,-0.24904542,-0.24603099,-0.32224652,-0.20083117,-0.4211545
hsa-miR-6780a-5p,0.19744422,0.09754932,0.20476049,0.5936549,-0.2438127,-0.13922366,0.093306534,0.074004695,-0.020742564,0.15787123,-0.0021716158,0.19020094,-0.03762419,-0.3350158,0.13197137,-0.102800846,0.1784429,0.20046337,-0.4643828,0.10259511,0.33551288,0.83931047,0.36933488,-0.19039351,0.19315028,0.20854841,-0.15344109,0.48007217,-0.17233095,-0.00038405514,-0.034767363,-0.18467675,0.04960528,-0.18858624,-0.28240606,0.047353476,0.27371848,0.24857993,1.0015383,-0.072681665,-0.12098659,-0.14152524,0.29173344,-0.13394369,-0.3701587,0.10514573,0.10385529,0.35680494,-0.41222793,0.18078162,0.16795774,0.23534036,-0.00491299,0.19179647,-0.18702804,-0.09725248,0.038892012,-0.4634826,-0.22295302,-0.1289514,-0.016086513,-0.0077161123,-0.41591504,-0.06348095
hsa-miR-6756-5p,-0.061867096,-0.25597447,0.06643656,0.36816108,-0.011868255,-0.53488296,0.3816373,0.30858102,-0.31757125,-0.3799878,0.41191497,0.20086718,0.033350218,0.11437769,-0.014368983,-0.38652623,-0.26720756,0.5856124,0.022594782,0.86050844,0.38618493,-0.0027816587,0.27594373,-0.0029344715,0.11072803,0.36466223,-0.28236136,0.23204097,-0.17185909,0.28354555,-0.07339937,-0.005527543,0.18918763,-0.1000535,0.27223358,-0.04792646,0.1178067,0.007349987,1.2805828,0.095053725,-0.53128266,0.31936476,-0.06568121,-0.1703671,-0.04052886,-0.26353213,0.2435394,0.30400124,-0.33441985,0.047939282,0.46200663,-0.094574735,0.3092395,0.20573288,0.443097,-0.15437302,0.048511863,-0.42118308,-0.053091865,-0.10300042,-0.38818857,-0.24876034,-0.5552186,-0.47847676
hsa-miR-6726-5p,-0.055021677,0.037506267,0.19564281,0.12254367,-0.009690055,-0.24105161,0.30721468,-0.012393081,-0.36153015,-0.05944975,0.36724147,0.14595175,0.14525205,-0.029784176,0.106825046,-0.19318055,-0.34446362,0.34965163,-0.009180956,0.5690561,0.21616818,-0.1538471,0.030253824,-0.027619693,-0.02648407,0.028574044,-0.21257755,0.30742612,0.019994974,0.27599818,0.033280555,0.07622326,-0.012544658,-0.20351583,0.24979109,0.08779597,0.20986532,0.2700057,0.6794227,0.14154707,-0.058456227,0.08813706,0.23327565,-0.36461368,-0.08292845,-0.03712539,0.23125482,-0.0527178,0.09048545,0.242203,0.54164153,-0.14405866,-0.13038664,-0.11494536,0.364592,0.069575824,0.10551512,-0.17826146,-0.00933372,-0.09560935,-0.19030319,-0.16807507,-0.37811798,-0.27634636
hsa-miR-4728-5p,0.27019683,-0.12751587,0.6460536,0.48735636,0.019858234,-0.32849863,-0.11274836,0.51099455,0.031244282,0.092236355,0.2935758,0.28414646,0.04273071,-0.10387205,0.2074249,-0.30498683,-0.054087363,0.0023517413,-0.5493045,-0.10055544,0.34350827,0.33382165,-0.015499009,-0.050326604,0.060740627,0.19910857,-0.19541548,0.56641406,-0.25499797,-0.033579946,-0.13066027,-0.35212907,0.16104096,-0.38475883,0.072559334,-0.07378352,-0.030369174,0.18663643,1.179216,-0.12405151,-0.43016052,-0.021340149,0.046538573,-0.19706093,-0.2026687,-0.009743169,0.0594345,0.48285094,-0.1853276,0.06792349,0.08224966,0.554473,-0.016985303,-0.009436231,0.2860198,0.30455095,0.1039265,-0.2681454,0.032819048,-0.120612726,-0.000604523,0.008481848,-0.63493323,0.17094322
hsa-miR-650,0.09287767,-0.045275807,0.5058497,0.08360176,0.04770536,-0.15948927,-0.09708379,0.20684111,-0.28044364,0.3292689,0.15175381,-0.17218882,0.0030010429,-0.1734993,0.2554565,-0.1207041,-0.48362976,0.0014246914,-0.3358852,0.1442881,0.02491634,-0.086649075,-0.24474452,-0.028278902,-0.25658742,-0.29976472,-0.44537953,0.5415371,-0.4100714,-0.007154745,-0.12837984,-0.1023633,0.26515839,-0.30586568,0.20579088,-0.123642035,0.34621596,0.16003266,0.34275332,0.060527578,-0.329481,-0.19413306,0.099141724,-0.28606948,-0.29769173,0.47379237,0.47575185,-0.05740811,0.38477287,0.34827805,0.29718494,0.5412092,-0.5325974,-0.34691337,0.41830513,0.6223756,0.31129074,-0.21439847,0.37664413,0.28512183,-0.17786734,0.0154397115,-0.26376694,0.21371329
hsa-miR-1277-5p,0.990583,-0.7205596,0.113265045,-0.15058939,0.5213906,-0.9229747,0.57746774,0.17704614,-0.23515342,-0.5912608,0.23719835,-0.4555566,-0.20618139,-0.7339662,0.30108628,0.6516825,0.5366446,-0.47818363,-0.30423677,0.83629864,-0.010800229,-0.2135164,0.27226084,0.083189644,-0.11943275,0.3025513,0.15497126,-0.50582284,0.37150618,-0.007504759,-0.49696815,0.28720987,0.18660899,-0.16154918,-0.4583867,-0.43179402,-0.62837374,-0.57445914,0.37736875,-0.14143328,-0.7284618,0.2839361,-0.43565178,0.32528895,0.6354408,-0.26645228,-0.11481036,-0.13671918,0.4926665,-0.13101453,-0.39040568,0.30629316,0.7525888,0.8523674,0.37966436,0.44205752,-0.13681266,0.07150489,-0.113660954,0.4214969,-0.29755983,-0.3525753,0.5079688,0.29622373
hsa-miR-1249-5p,0.18816191,-0.30220124,0.4741066,0.5410773,0.052437056,-0.38433495,-0.106812514,0.41732857,-0.06675575,-0.20758861,0.2877743,0.06600877,0.015112493,0.21814473,0.22927123,-0.19502297,0.051346105,0.07127628,-0.63447565,0.030076101,0.1769626,0.18519983,-0.044400774,-0.09904981,-0.1976815,0.14416888,-0.012014959,0.30336323,-0.604789,-0.40568772,-0.026410643,-0.35104465,0.21061745,-0.32001883,-0.15526032,-0.15291375,-0.22913478,-0.067738816,0.8843999,0.1789179,-0.64529157,0.14520872,-0.17616864,0.1684027,-0.22319087,0.12556863,0.061997857,0.14017668,-0.023861611,0.010719402,-0.318733,0.3614018,0.07834833,0.39964226,0.014056084,-0.015878323,-0.33147672,-0.33373916,-0.08117087,0.16446602,0.27055225,0.074690044,-0.37248808,0.22295034
hsa-miR-103a-3p,0.18897662,-0.27059814,0.34525812,-0.21220392,0.4223286,-0.7955328,0.38678357,0.0071054874,-0.1882161,-0.15138578,0.06889689,0.23963451,0.14120865,-0.7829571,0.10804395,0.083791256,-0.08268834,-0.3521288,-0.167697,0.28846854,0.16374238,-0.6643094,0.25801253,0.23666888,0.54614097,-0.3612983,0.1906127,0.2703706,0.7397676,-0.087158374,-0.022048993,-0.13312796,0.1647023,-0.41699225,0.53090125,-0.023026546,-0.024482884,-0.15419042,0.33743688,-0.058841065,-0.63439023,-0.1327275,0.3824437,0.007318376,0.21602666,0.19421364,-0.034141995,-0.5364277,0.013176609,-0.1803303,-0.027981684,0.63693345,0.34030792,-0.1880368,0.42903388,0.607264,0.053974815,0.32076544,0.2753595,-0.3794969,-0.68883795,-0.39754555,-0.45913044,-0.1433136
hsa-miR-107,0.19134556,-0.10781281,0.48944688,-0.40367287,0.55469275,-0.7067325,0.4563394,0.10202229,-0.059119247,-0.07993882,0.13125686,0.19408526,0.3732618,-0.6134564,0.2412371,0.1688314,-0.1523069,-0.28361675,-0.025523717,0.18116385,0.17661211,-0.85340166,0.26814738,0.18520144,0.5648915,-0.5406791,0.22153541,0.32147068,0.8001566,-0.08984858,-0.029167764,-0.18286455,0.22162504,-0.37126452,0.4772346,-0.2840647,-0.017506192,-0.14405122,0.37774011,-0.14552246,-0.301062,-0.032664377,0.19797713,-0.1348417,0.29133663,0.3599577,-0.006512898,-0.37017885,0.23497283,-0.1762588,-0.24050651,0.78315985,0.21577811,-0.30884615,0.59574115,0.91636217,0.1289334,0.36468488,0.27403373,-0.32388887,-0.50467926,-0.3782296,-0.40042454,-0.045542717
hsa-miR-7110-5p,0.12187875,-0.27964658,-0.25864503,0.31971145,0.0013681803,-0.5419121,0.17714813,0.16194059,-0.403229,-0.27611896,0.36327866,0.39718515,-0.08572156,-0.11664708,0.077441186,-0.07093185,-0.039606806,0.378758,-0.16626498,0.39207748,0.0922446,0.49160945,0.08550362,-0.3055233,-0.10107869,0.34704652,-0.02816546,0.39470327,-0.17253841,0.18287537,-0.35357127,-0.05523979,0.108272165,-0.051773295,-0.11769127,0.080105275,-0.1426386,-0.100686446,1.3124051,0.23590876,-0.5668741,0.049568042,-0.03999568,0.2694182,-0.106856786,0.17377073,0.064468615,0.25995225,-0.18856028,0.13657933,0.048507303,-0.21408448,0.2142194,0.4615341,-0.16209768,-0.07795032,0.054025576,-0.7121175,-0.34180996,-0.07398202,0.084606804,-0.06769209,-0.1617255,-0.32622936
hsa-miR-920,-0.0016049261,-0.17425752,0.23064019,0.33733043,0.03371175,-0.24107793,-0.15276435,0.3914127,-0.24615958,-0.023349,0.29005527,0.40932897,0.058273554,-0.11983201,0.13489239,-0.6499526,-0.08217812,0.33324248,-0.16096127,0.31651312,0.262623,0.28014243,0.003148037,-0.17252278,0.024683014,0.360917,-0.26654223,0.5253202,-0.10820993,0.17963243,-0.17111763,-0.042299293,-0.09065297,-0.17026152,0.043954473,0.18367836,0.107862614,0.30035308,1.1661863,0.08874741,-0.20586203,0.17475781,0.16137955,-0.13528636,0.021776274,0.04235839,0.117038235,0.47417852,-0.11273607,0.28654987,0.1207039,-0.09187571,0.31067726,-0.115828775,0.2329366,0.095109425,-0.035957165,-0.2861909,0.12181164,-0.21445145,0.07410206,0.014647698,-0.54555243,0.24248347
hsa-miR-6752-5p,-0.13526215,-0.1832936,0.1470328,0.26975834,0.09625905,-0.45171836,0.17615864,0.31906855,-0.27086347,-0.13734797,0.6941732,0.4458804,0.20517842,0.09814794,-0.1265766,-0.10186183,-0.4616884,0.4158022,-0.0011484631,0.4767191,0.31233296,-0.15613171,0.03209531,0.0088945925,0.08478527,0.24469362,-0.1086632,0.2928349,-0.17368947,0.13180098,-0.08763409,-0.33621657,0.06994209,-0.45037463,0.24692467,-0.04384558,-0.22643937,-0.00915073,1.0463519,0.037515227,-0.45025504,0.18158598,-0.07790182,-0.18665989,-0.14335842,-0.08589843,-0.01621242,-0.0010556517,-0.21611181,-0.11624188,0.48799056,0.05140558,0.015405504,0.14489383,0.14238219,-0.049316436,0.07583731,-0.35363007,-0.08762459,-0.22094886,0.11308159,-0.30182284,-0.2513859,-0.44298556
hsa-miR-646,0.10298005,0.17462072,0.6896978,0.18032806,0.13820489,-0.30561,-0.5246997,-0.06173398,0.00837067,0.18222031,0.25410166,0.36112425,0.24245094,-0.4432115,0.08173382,-0.57499015,0.07612596,0.16519533,-0.19471855,-0.09281585,0.11097971,0.1611776,0.16946988,-0.14016436,-0.18774068,0.0875053,-0.3052446,0.23529626,-0.11018939,-0.3600246,-0.032259583,0.121751666,-0.29196587,-0.027355801,0.04506583,0.096891545,0.1661148,0.54238427,0.6609877,0.27023458,0.46543336,0.16103838,-0.008707412,-0.2558448,0.05860265,0.042536423,0.109050415,0.14590737,0.37930962,0.07859813,0.109259866,0.16029738,0.13890423,0.049613617,0.4496963,0.30373523,0.1399505,-0.19576688,0.047393944,-0.19045238,0.31084782,-0.048430163,-0.16664143,0.20855978
hsa-miR-4739,0.08106699,-0.23200053,0.41869614,0.8429607,0.112704895,-0.2614321,-0.32306677,0.42068508,-0.2917074,0.25443664,0.69116735,-0.11277682,0.2914078,-0.2936763,-0.08702416,-0.39631605,-0.25764647,0.19643098,-0.2194254,0.13465166,0.26727703,0.34565073,-0.31171313,0.064529225,-0.22159985,0.0013572722,-0.5073054,0.5243494,-0.79202044,-0.17319335,-0.101400495,-0.50284183,0.30038095,-0.47717482,-0.17506999,-0.3137287,-0.09283436,0.29543698,0.82859826,-0.16572925,-0.53679234,0.14826821,-0.17658924,-0.14514315,-0.21853146,-0.116331816,-0.18718357,0.095162936,0.0740157,-0.30669123,0.13319676,0.62226015,-0.28260237,0.44154742,0.0017698304,-0.04852592,-0.28779247,-0.6212904,-0.13102613,0.3582086,-0.012743747,-0.17498793,-0.33299538,0.270876
hsa-miR-6812-5p,0.002754456,-0.17894085,-0.035695978,0.3592054,0.21013474,-0.5562468,0.17481923,0.12198552,-0.3019809,-0.25718072,0.4257224,0.07288759,0.13453996,-0.27268252,-0.054370455,-0.103058174,-0.15360773,0.42688245,-0.13044362,0.5838439,0.3363665,0.05606394,0.5461908,0.09194572,0.3587094,0.029042484,-0.033787444,0.58084613,-0.37237975,0.09150325,-0.16911195,-0.2467241,0.16330941,-0.34112912,-0.18252128,-0.009955023,-0.45037684,0.058300503,1.1990407,0.14385413,-0.71117765,0.25422975,0.07069061,-0.07329715,-0.12785007,0.08416115,0.12926781,0.2653703,-0.45181835,0.0905463,0.07418803,0.30891767,0.1703451,0.29443884,-0.037370507,-0.15410577,-0.25892767,-0.39366314,-0.16829698,-0.19716816,-0.07018564,-0.018114042,-0.07048546,-0.44325757
hsa-miR-6799-5p,-0.037622184,-0.16829997,0.11188534,0.24332179,0.15970376,-0.36459595,0.075954854,0.37337667,-0.3080423,-0.2620674,0.41069707,0.37762246,0.2026771,-0.04584323,0.0009622218,-0.47615662,-0.26499492,0.45320597,0.11124693,0.34713075,0.22570845,-0.13486315,0.16898865,-0.11939027,0.114590585,0.31547123,-0.1691983,0.48853105,0.11784119,0.2631235,-0.1597583,-0.05370053,-0.01361043,-0.2418813,0.38831374,0.06979152,0.022709165,0.1786189,0.98122734,0.036041,-0.28172383,0.338583,0.03215483,-0.2509899,0.066429876,-0.031227428,0.24500227,0.041934296,-0.089603014,0.06854047,0.47853035,-0.09520872,0.19927767,0.019718701,0.36168677,-0.037077155,0.08045799,-0.24709852,0.24229741,-0.41512758,-0.12675048,-0.24997829,-0.43916777,-0.2327172
hsa-miR-6756-3p,0.2802555,0.021217274,0.6416068,0.048186664,-0.04512992,-0.42559502,-0.26143906,-0.024870625,0.03978225,-0.09412607,0.5242843,-0.2632691,-0.016535064,0.20220308,-0.5297496,0.19663037,-0.040496804,-0.13767764,-0.039330542,-0.24201487,0.16119172,0.03898986,0.44866332,0.043803085,-0.1290021,0.25947902,-0.43317991,-0.5133394,-0.2579594,-0.55313146,-0.16179173,0.33084944,-0.58756775,-0.41267636,0.13153552,-0.09698563,-0.23161344,0.37250644,-0.12531725,0.2930363,0.69903845,0.027357124,-0.258558,-0.39907098,-0.08778678,-0.30493852,-0.34912306,-0.50659347,0.23312856,-0.23960921,0.027135316,0.08120758,0.09335617,0.39139587,0.47095698,0.007923716,0.21121466,-0.1902806,-0.4056041,0.13556026,0.49866852,-0.38149863,0.17839926,0.14140368
hsa-miR-4446-3p,-0.0032036381,-0.007600173,0.29304224,-0.004326271,-0.015890434,-0.7036713,0.16941771,0.19674265,-0.2053725,-0.35049555,-0.11673417,0.3079187,0.076227054,-0.3889081,0.01321733,-0.2512195,-0.18714905,0.5580039,-0.12098221,0.2677901,0.23204078,-0.24563693,0.50654274,0.092392944,0.32709125,0.15697119,0.020898543,0.69964623,0.1568299,-0.012360708,-0.04059374,-0.15060629,-0.06221484,-0.07573233,0.16250126,0.031594202,-0.1274667,-0.07153142,0.7030867,0.0606546,-0.6234197,0.33496612,0.20283264,-0.21358137,-0.12426084,-0.0071075764,0.4723181,-0.12879609,-0.19271362,0.15019438,0.56198126,0.34768778,-0.08668073,-0.023520043,0.112780385,0.044796146,0.010017988,-0.087959945,0.27807376,-0.3779161,-0.09328517,-0.034619667,-0.14714822,-0.28360426
hsa-miR-4498,0.11798059,-0.11807036,0.8155885,0.25235018,0.035697065,-0.31480318,0.0053526214,0.3846075,-0.11407893,-0.44149393,0.16700673,0.4356603,0.019498935,0.029599907,0.3391462,-0.8668525,0.010092975,0.31041107,-0.12762997,0.038416382,0.15479325,-0.049590092,0.047562733,0.008287464,-0.066842034,0.5041593,-0.1630452,0.3954617,0.2676162,0.2164791,7.501487e-05,0.036801543,-0.16003475,-0.1507078,0.5960128,-0.06284217,0.32836068,0.2846509,0.9533957,-0.09781751,-0.122129306,0.30585864,-0.021974491,-0.31929317,0.17191768,-0.36170778,0.4539911,0.205672,0.16918665,0.15553804,0.43873248,-0.04478302,0.31663027,-0.07661924,0.8028296,-0.014223602,0.090815544,0.14699022,0.46796298,-0.44302267,-0.23988234,-0.3883195,-0.8811845,0.00092467736
hsa-miR-4672,0.5537667,0.14649841,0.16847464,0.08781514,-0.21777543,-0.41901234,0.6803374,-0.018718403,-0.046977114,0.2757588,-0.28618154,0.17644101,0.12683545,-0.7055049,0.08162505,0.20832796,0.20790835,-0.12691651,-0.45115778,0.06674114,0.2825711,0.34120196,0.2287887,-0.28236863,0.2732248,-0.11049938,-0.14633487,0.6540017,0.67734784,-0.13052373,-0.17681518,0.054968763,0.24151534,-0.09216834,-0.057566725,-0.11644611,0.41649082,-0.19316217,0.53321874,-0.2600711,0.114918895,-0.16980803,0.28119117,-0.058265902,-0.2078143,0.52531886,0.1059042,-0.08444857,-0.1750604,0.20774734,0.48062795,0.7709771,-0.41126364,-0.21580853,-0.23356587,0.45221764,0.4875779,-0.27558628,0.10343962,-0.12981594,-0.287946,-0.13057318,-0.2938809,0.20014448
hsa-miR-6790-3p,0.5849366,0.111193836,0.9144379,-0.29986876,-0.5707735,-0.19227657,0.15499437,-0.4110855,0.12797308,0.5716509,0.4266845,-0.74981457,0.053620324,-0.1640916,-0.15493849,0.63065344,0.023294054,-0.14956255,-0.08065425,-0.26962763,0.19107124,0.38691187,0.39430663,-0.018861393,-0.23680016,-0.18305948,-0.6733013,0.13523506,-0.5169594,-0.16978562,0.02477301,0.38597623,-0.48100245,0.011051244,-0.7530886,-0.83386135,0.167929,0.23404919,-0.537183,0.39113373,-0.18375288,-0.50111467,-0.035682026,-0.82839733,-0.37789252,-0.35146075,0.25453684,-0.5491103,0.42054608,0.4215605,-0.012373432,0.22476453,-0.97440743,0.41975617,0.22534344,0.46377492,0.1061012,-0.013875968,-0.43233746,1.0588186,0.6502228,-0.30263957,0.34123537,0.75391114
hsa-miR-6862-5p,0.098375015,0.11622749,0.26307952,0.23253211,-0.49851996,-0.5927961,0.047945146,-0.22818805,-0.15876241,0.13375184,-0.046892427,0.009589054,0.061184373,-0.6154587,-0.2255369,-0.097018644,-0.049685966,0.2664813,-0.21583596,-0.12854588,0.18423846,0.23920754,0.5519075,0.06597646,0.31465346,-0.325816,-0.1341395,0.30826813,0.010085814,0.1199264,0.22107302,0.30968153,-0.30368808,-0.20089415,0.2082098,0.035488915,0.16395417,0.22478329,0.5059063,0.29997993,-0.47464484,-0.07353756,0.22980341,-0.14251934,-0.43259138,-0.14220561,0.18677449,-0.027396731,-0.11712284,0.13198067,-0.07315368,0.17681363,-0.39619982,0.17291181,-0.2045127,0.10374425,-0.24389894,-0.21309546,-0.16431218,-0.23591235,-0.02809247,0.14989544,-0.02280784,0.0069860835
hsa-miR-4640-5p,-0.05272791,-0.0003934729,0.5519898,0.2905512,0.0825942,-0.64022535,0.19267808,0.2027145,-0.21465048,0.15061986,0.62631136,0.48848587,0.28776735,-0.07057178,-0.17205764,-0.2865562,-0.2945123,0.29301924,-0.26781395,0.17969,0.4001168,-0.19528407,0.16561393,-0.0006561696,0.3801784,-0.07970342,-0.17160636,0.390383,-0.1666238,-0.1395554,0.0819432,-0.15819414,0.11038618,-0.34567598,0.33434516,-0.045352384,0.028454833,0.14306532,0.9088587,-0.09901635,-0.039529,0.3545,-0.06771931,-0.23938727,-0.23337121,-0.046163857,-0.09877487,0.04117375,0.0090648085,-0.051370442,0.49328458,0.519172,-0.15082493,-0.15472953,0.42025346,-0.020860465,0.21681848,-0.29032835,0.12671673,-0.20903291,-0.032959342,-0.2688129,-0.470613,-0.3552353
hsa-miR-5088-3p,0.15958013,0.08366171,0.50232184,0.24242936,-0.1129482,-0.16356961,-0.08938487,-0.34621996,0.08039,-0.17095996,0.41461885,-0.15142588,-0.012562171,0.29887497,-0.5582599,0.07807631,-0.14616446,-0.032848928,-0.0060167345,-0.19831412,0.031518824,0.15237103,0.45470098,-0.06881337,-0.13618541,0.20810644,-0.29767978,-0.496507,-0.50403523,-0.28005552,-0.011059126,0.16564119,-0.5579433,-0.50651854,0.18993811,-0.28554556,0.039033834,0.25382543,0.19112514,0.07463814,0.5065647,0.07678385,-0.38983563,-0.3455212,-0.06267934,-0.23128745,-0.35700923,-0.3019647,0.08376639,-0.34443054,-0.05183762,0.025584145,-0.20427573,0.3636938,0.555531,-0.13776614,-0.04335731,-0.23245433,-0.45521143,0.25823182,0.0837997,-0.3442596,-0.16950423,-0.025055403
hsa-miR-6881-3p,0.5344879,-0.1811376,0.54137415,-0.4755603,0.17934212,0.04318827,-0.03614311,-0.33927333,-0.0032535752,-0.13659844,0.3636013,-0.8870441,-0.14716972,0.54492044,-0.30459914,0.962741,-0.5098916,-0.32160732,0.0043430445,-0.095974095,0.017411068,0.060347024,0.57473814,0.0016776245,-0.11452913,0.29360512,0.020030433,-0.90599483,-0.48840275,-0.13610767,-0.5853479,0.1483338,-0.79220665,-0.6181005,-0.09145066,-0.124122255,-0.26351643,0.34143114,-0.52289313,0.060001772,0.4358205,-0.06798932,-0.24981596,-0.6451561,0.07550877,0.2605121,-0.02991066,-0.66483486,0.35178578,0.095214896,-0.11495869,-0.060384456,-0.15886612,0.14984712,0.4787032,0.20066997,0.33469912,0.068304755,-0.6015088,0.48295084,0.1669795,-0.13639958,0.39155135,0.21581195
hsa-miR-765,0.07130846,-0.33213872,-0.047968768,0.58135414,0.021838132,-0.15670529,-0.07637157,0.75458866,-0.15072687,0.04448824,0.28669742,0.026272228,-0.3116476,0.37406272,0.3161362,0.034436975,0.40520683,0.23485832,-0.37747157,0.32501924,0.35956776,0.89479494,0.13190751,-0.35693303,-0.08045378,0.4640454,-0.38523275,0.4126797,-0.6465381,0.180572,-0.20459667,-0.06472336,0.04890294,-0.17681034,-0.5763386,-0.007973847,-0.06989849,0.12443859,1.2251056,0.027064972,-0.7190164,0.116166055,-0.037952825,-0.0025772583,-0.30782694,-0.16955878,-0.005128159,0.5452172,-0.35592124,0.32286593,-0.04063315,-0.46136886,0.48359093,0.5827674,0.08442456,-0.13751596,0.039239813,-0.52007353,-0.29236433,0.2048197,0.19076663,0.055655584,-0.41916704,-0.15757456
hsa-miR-6778-5p,0.12448124,-0.15725896,0.1448107,0.27986962,0.044494543,-0.5428752,0.22026655,0.7361068,-0.3348995,0.050086584,0.057139896,0.16930455,0.0557199,-0.1532775,0.37385467,0.075729944,-0.18305768,0.30410418,-0.4384577,0.3287467,0.38973084,0.24034666,-0.038276322,0.032404635,0.11393875,0.16317907,-0.13583086,0.7903629,0.014186423,-0.19636492,-0.26558918,-0.4436151,0.33651605,-0.15265723,-0.089514814,-0.01760314,0.11902316,-0.07850851,0.8576941,-0.15647897,-0.5143531,0.23369294,0.2928543,-0.13854222,-0.25058356,0.49108717,0.3651566,0.10911115,-0.04025386,0.26501986,0.60609156,0.48800096,-0.05480215,-0.0151158795,-0.1468048,0.29854873,0.42278606,-0.3610024,0.21781671,-0.087971374,0.07525557,0.008076128,-0.3211504,0.060291745
hsa-miR-1199-5p,0.3216107,-0.124698885,0.5444999,0.37995583,-0.26071107,-0.65111184,-0.06979662,0.0017949274,-0.111279845,0.09430468,0.63616675,0.045787722,0.24920152,-0.68494856,-0.061287314,-0.25214446,-0.102136604,-0.16050652,0.061868288,0.06782232,0.4663305,0.29562676,-0.14900438,-0.21517088,-0.15944982,-0.029304251,-0.5410413,0.26928437,0.13324142,0.07922572,-0.19029456,0.15611771,0.03432417,-0.06528277,0.013821358,-0.28574002,-0.102921516,0.2079732,0.12280187,0.1347237,-0.12521183,-0.16476214,0.0028569514,-0.22477795,0.076992735,-0.54559046,-0.29110804,-0.12412874,0.34534037,0.12640053,0.18237327,0.22531486,-0.21957578,0.42695013,0.14171238,0.19504789,-0.08540493,-0.26347932,-0.07510934,0.15577957,0.23887897,-0.3683839,0.24151193,0.28268534
hsa-miR-6779-5p,-0.17354342,-0.0034112884,-0.114149235,0.4037276,-0.21110469,-0.16309096,0.37510484,-0.036119718,-0.32888427,-0.15707578,0.22111665,0.053560153,-0.11170336,0.10829886,-0.20498657,0.05549461,-0.35554576,0.38838556,0.013655571,0.34755084,0.38865396,0.5049114,0.49675354,0.073378116,0.34043536,0.2054667,-0.14438142,-0.10589872,-0.16067208,0.41112444,0.014026369,-0.0022308533,-0.31936875,-0.4351662,0.38882905,0.17886417,0.23426574,0.28630123,0.8292254,-0.10578076,-0.24725349,-0.040221345,0.19739422,-0.34772462,-0.16588518,-0.17242274,-0.059557863,0.14609352,-0.3908644,-0.030487394,0.19441634,-0.33682615,0.22405326,0.17459309,0.20423898,-0.29548702,-0.0024000772,-0.32500544,-0.45039478,-0.2481607,-0.4335998,-0.31628358,-0.5844741,-0.41046047
hsa-miR-1185-2-3p,0.7490007,0.20985416,-0.080033556,-0.24281296,0.08227405,-0.39859456,0.39629382,-0.46179822,0.021875462,-0.19662657,-0.016718717,-0.122369766,-0.19093923,-0.29683605,0.19914596,0.5040244,0.09058833,-0.32846805,-0.2038822,0.20229234,-0.13574304,-0.22156063,0.6840288,-0.21353696,0.28256395,-0.17982128,0.2738651,0.23272015,0.021327958,-0.14913487,0.19547525,-0.008980002,0.304412,-0.11235072,-0.396757,-0.1439122,0.13809265,-0.2409775,0.21577626,0.19628488,0.07164037,-0.14266998,0.0043542525,0.12503618,-0.16818437,0.6365785,0.39198583,-0.21916996,-0.17404997,0.059137993,-0.26452082,0.41592154,-0.5854654,-0.051833138,-0.08530171,0.22394973,0.18236148,-0.8793306,-0.2629161,0.24668449,-0.07615962,0.2861417,0.09303373,-0.27401277
hsa-miR-4726-5p,-0.025331842,-0.04800964,0.46278915,0.5343128,-0.024764275,-0.7185626,-0.20639987,0.34567684,-0.22379968,-0.10063867,0.5134892,0.29605296,0.32761773,-0.14191726,-0.15160233,-0.487619,-0.30251038,0.4238472,-0.47887838,0.13432714,0.2536822,-0.027658135,-0.09210653,-0.097021304,-0.14785501,0.051295143,-0.18190098,0.4912651,-0.3134463,-0.6359417,-0.058832884,-0.13950917,0.16866085,-0.14195657,0.20136221,0.059901185,-0.17196178,0.14875658,0.8033965,0.37537736,-0.1304684,0.29402292,-0.005062174,0.15702072,-0.28341013,0.16923648,-0.11891149,-0.13195112,0.16768879,-0.04688387,0.20766707,0.46218377,-0.06249837,0.26667327,-0.0026135184,-0.121879086,-0.09268725,-0.66468346,-0.08969785,-0.10901747,0.4277796,-0.08599651,-0.1378084,0.014732133
hsa-miR-370-3p,-0.054221023,0.07763487,0.017331459,0.52403665,-0.5875593,-0.36298057,0.2697793,-0.07482846,-0.03202474,-0.37115481,0.15487564,0.24908139,0.20531133,-0.022087958,-0.34979492,-0.54982215,0.06641383,0.5499947,0.021900566,0.04740419,0.26345152,0.36688134,0.5256837,-0.15775958,0.11699165,0.5363816,-0.17623131,0.015739432,-0.15835737,0.095362134,0.3082411,0.2944183,-0.41141847,0.2518684,-0.19075577,-0.1500388,0.15130153,0.06906171,0.4517483,0.121437356,0.09691815,0.26471862,-0.1065646,-0.1826809,-0.044291113,-0.8348985,-0.04014001,0.12744522,0.051122427,0.045786694,0.3513593,-0.21880627,-0.027729388,0.66539043,0.13146375,-0.6724639,-0.23375432,-0.26752523,-0.3837453,0.087081365,0.24273406,-0.2929852,-0.2489411,0.09430916
hsa-miR-7113-3p,0.3830284,0.1409982,0.86345184,-0.026425213,-0.30021888,-0.5762034,-0.29014304,-0.27661234,0.07859438,-0.19492553,0.559975,-0.1093933,0.051805213,-0.23854303,-0.31900525,-0.19984843,-0.03548334,-0.1523414,0.23711628,-0.057943974,0.20812415,-0.19359963,0.43990642,-0.15429361,-0.260462,0.10851948,-0.63878363,-0.3566219,0.14611976,-0.1346014,-0.22239292,0.62110627,-0.5519547,-0.09739543,0.31341514,-0.18337974,0.15139294,0.5214398,-0.2888108,0.4107554,0.69577765,0.0862178,-0.14101726,-0.58257365,0.20414542,-0.4315551,0.04752732,-0.5480418,0.6016564,0.13432032,0.28504255,-0.13319899,-0.22454314,0.21401247,0.82289386,0.24423715,0.23936719,-0.04096212,-0.0068448684,-0.05816678,0.2796096,-0.4097997,0.23281108,0.17532389
hsa-miR-93-3p,0.39872032,0.47733822,0.32707363,-0.017925085,-0.22902176,-0.4313563,-0.23171866,-0.43158823,0.05723498,0.15573813,-0.13570349,0.18751806,0.13629223,-0.6776294,-0.30783308,-0.3501253,0.33762532,-0.15505774,-0.20841976,-0.37963492,-0.0867689,0.29418468,0.3494611,-0.5107577,-0.17050788,-0.06887019,-0.42667112,0.09230802,0.37035567,-0.06257,-0.09813489,0.7904346,-0.54499996,-0.08145576,0.27309787,0.12898348,0.049768403,0.48009628,0.19555624,0.3611415,0.9228993,-0.3065121,0.0056112614,-0.013352522,-0.05969574,-0.027192473,-0.2769995,-0.038385224,0.2511721,0.12238251,-0.20241863,0.08391634,-0.03175045,0.19385594,0.41873616,0.4468619,0.27480665,-0.32120222,-0.25267,-0.12637044,0.0993865,-0.18026966,0.036241084,0.33222014
hsa-miR-431-5p,0.02792851,-0.15085684,0.2980497,-0.5096968,0.2297252,-0.455662,0.009601204,0.09265193,-0.33468005,0.16325173,0.29874933,-0.14774874,0.15439084,-0.15061112,-0.14653112,0.3330508,-0.22655529,0.14819117,0.085810855,0.27328655,0.0074838153,-0.6501779,-0.023824494,0.20498271,0.04580864,-0.084918365,-0.21226747,0.1128259,0.31129485,0.025044713,-0.19393581,0.38273916,-0.28782463,-0.2892488,0.3254878,0.220082,-0.4547211,0.36064634,-0.12758376,0.2672356,-0.22253557,0.24198331,0.1777848,-0.32526866,-0.068721466,0.10098323,0.19544217,-0.7330013,0.15975665,0.16239974,0.5356335,-0.120221205,0.12954,-0.16156039,0.15635373,0.3108856,0.22615021,0.36492983,0.036458217,-0.2381764,-0.01501905,-0.072989404,0.27881432,-0.092846945
hsa-miR-3689d,-0.024437962,0.18425332,-0.42629632,-0.3954439,-0.10211926,-0.10363464,0.43518645,0.21442297,0.0065261554,-0.24193725,-0.11222292,-0.24726029,0.1022655,0.34646243,0.032259732,0.4378839,-0.28088477,0.44715443,0.21347253,0.3698639,0.14707094,-0.30316082,0.85239935,-0.2979562,0.121743806,-0.032157466,0.061217945,0.38295427,-0.19902734,0.24112037,-0.15321538,0.030035427,-0.11558595,0.0654404,-0.44788888,-0.241015,-0.11323442,-0.28048894,0.18626033,0.30222645,-0.120203175,-0.0327471,-0.09903615,-0.3111164,-0.17582484,0.34037602,0.6461871,0.09304049,0.008913118,0.573674,0.14675392,-0.12580329,-0.54632527,0.07700148,0.17536226,0.31918168,0.2561775,-0.2490272,0.034946457,0.118226446,0.42769834,0.22882582,0.4473548,-0.16333655
hsa-miR-1273h-5p,0.14994147,0.057748273,0.62296313,0.109614685,0.09264607,-0.09352616,-0.033305526,0.51570106,0.08278237,-0.14092061,0.22948591,0.2437428,-0.15631974,0.40500802,0.32957494,-0.2776358,-0.027586507,0.10668966,-0.1689487,-0.11136729,0.19557111,-0.06113965,0.0027562145,-0.18534543,-0.10546756,0.39166403,-0.20216404,0.44348347,-0.07755815,0.22671494,-0.07558628,-0.07965238,0.14259018,-0.1047704,0.23653959,0.01454148,0.097394995,0.37569675,0.6413946,-0.10188331,0.12443044,0.10133159,0.009492536,-0.3522564,-0.06558097,-0.16119832,0.39276996,0.2570572,-0.07613445,0.17442654,0.42317608,0.014289648,0.05664954,-0.16807291,0.6858066,0.16740069,0.5057845,-0.07266721,0.2223662,-0.14580894,-0.008196074,-0.13388714,-0.57648015,-0.23391603
hsa-miR-6865-3p,0.7132389,0.13667509,0.43804803,-0.0698391,-0.53920233,-0.48425487,0.35124016,-0.3918032,0.16486357,0.12073508,-0.1145556,-0.69344455,0.045041446,-0.44769707,-0.32097453,0.8536782,-0.04237347,-0.68458027,-0.337335,-0.14288855,0.1625313,0.4215218,0.08515218,0.09413874,-0.23344377,-0.19464907,-0.38863924,-0.8508154,0.58283734,-0.23365505,-0.24848121,0.66194814,-0.4417988,-0.49182647,0.3639647,-0.35717207,0.04101126,-0.16410236,-0.6840086,-0.051373757,0.53689957,-0.4151711,-0.10723823,-0.17624377,0.10967035,-0.046787128,-0.67315304,-0.37539914,0.71313304,-0.10649189,-0.097798645,0.35369533,-0.30550537,0.34828827,0.109530285,0.7598119,0.3445223,0.20881532,-0.5425262,0.3561972,-0.030454297,-0.33970147,0.44211593,0.66392356
hsa-miR-4781-5p,0.0831672,-0.37042525,0.30687684,0.19471571,0.2646349,-0.03999976,0.17057201,-0.17535087,-0.110251345,0.092509635,0.06258973,-0.5906259,-0.23506114,-0.45691505,0.3331777,0.31595898,-0.025244337,-0.81099194,-0.027235879,0.16425012,-0.20406134,-0.11835485,-0.04715127,0.4872659,0.23290087,-0.24282546,0.16291143,0.0886638,-0.26147854,0.28165233,-0.10959429,-0.49447545,-0.05217751,-0.66175056,0.10638161,-0.30529067,-0.35358626,0.03245959,-0.17316622,-0.2904551,-1.0647405,-0.20011924,-0.04253096,0.09222865,0.24034631,-0.062045068,0.028987093,-0.19417208,-0.38744497,-0.00071972347,-0.7779089,0.28516498,0.1484256,-0.078301474,0.37151617,0.18741992,-0.67526084,0.2499423,0.20406833,0.2613791,-0.98256886,-0.23214541,-0.18259552,-0.01703118
hsa-miR-297,0.040546745,-0.27354,0.26999143,-0.5641418,0.48274884,-0.8871583,-0.18741119,0.4692122,0.01485959,-0.45962524,0.37665713,0.27401194,0.045910753,-0.27782387,-0.30482158,0.08905019,0.22942922,0.27276367,0.45453644,0.115672946,0.097774185,-0.8932304,0.46380287,0.21855299,0.18983512,0.17345731,-0.0046132407,0.28115064,0.6849321,0.20139271,-0.5106975,0.32228246,-0.33069587,-0.018640168,0.2944486,-0.13296746,-0.83392763,0.104520224,0.18657868,0.23880292,-0.62711656,0.60040605,-0.06023848,-0.11174708,0.47756702,-0.4299755,0.06697895,-0.54246557,-0.066446915,-0.15765892,0.26093176,-0.2881255,0.71199316,0.3816652,0.48416212,0.21433094,0.2049944,0.64847606,0.16813205,-0.710697,0.17298925,-0.4989373,0.41253838,-0.3535418
hsa-miR-6745,0.014919262,-0.30056503,-0.18156226,0.30598485,0.07817245,0.07796497,0.20858854,0.29126555,-0.23162663,-0.3669058,0.20417379,-0.072365075,-0.20457838,0.7057349,0.23644003,-0.094545946,0.06764344,0.3842148,-0.11392187,0.65072477,0.19752334,0.50466573,0.17463112,-0.3893183,-0.23630774,0.6933626,-0.07930156,-0.26307666,-0.58870965,0.37411517,0.019797828,0.17125808,-0.08845892,-0.0014876558,-0.33033603,0.15362531,0.30219525,0.11753342,1.0446944,-0.09408721,-0.1602597,0.23376615,-0.19229065,-0.0027608387,-0.042666554,-0.1906749,0.12845539,0.59561205,-0.070870206,0.3524384,0.10336441,-0.7090198,0.4652744,0.34599262,0.35405546,-0.30455846,0.17806944,-0.2771473,-0.4679796,0.28796405,-0.101598464,0.108251266,-0.55293125,-0.32340395
hsa-miR-6825-5p,-0.16690989,-0.19565329,-0.12510632,-0.10936742,0.26765025,-0.34105864,0.19474156,0.60182714,-0.45635337,0.10096722,0.52371556,0.29382458,-0.17895919,0.24340753,0.073674515,0.038297214,-0.20953435,0.4278474,0.10081769,0.6223482,0.34791666,-0.12864116,0.008998376,0.045837596,0.12323643,0.19317542,-0.21791427,0.50860345,-0.1817547,0.20103325,-0.34094164,-0.1648556,0.18898842,0.022807626,-0.14466001,0.097946525,0.07599746,0.17809866,0.9140315,0.045632552,-0.19463736,0.30423152,0.22722979,-0.18209445,-0.0067925085,0.32655337,0.31197444,0.20886892,-0.22643426,0.21806858,0.45864958,-0.13721241,0.33113647,-0.20473263,0.28234306,0.08408808,0.5663404,-0.27158982,0.08712749,-0.097596325,0.11788133,-0.12238122,-0.23190217,-0.28954718
hsa-miR-149-3p,0.07130213,-0.095142275,-0.11100131,0.6795129,-0.15786305,-0.44202346,0.29707596,0.26790386,-0.12699966,-0.29355615,0.046251193,0.05905112,-0.21308963,-0.43221936,-0.07769486,-0.1432759,-0.23685211,0.16195004,-0.0013361826,0.7943465,0.36752853,0.05360178,0.40891728,0.01733583,0.09885051,0.39581645,-0.15860115,0.25829247,-0.24646059,0.3121102,-0.16440019,-0.40385777,0.21064453,-0.19776428,0.032668993,-0.22905935,0.08093463,-0.36997405,0.90488136,-0.17480415,-0.40570197,0.2654552,-0.040887766,-0.0798269,0.10468426,-0.15157625,0.23708762,0.5658521,-0.32529807,-0.17324147,0.46629763,0.38224155,-0.005476129,0.24624217,0.34271964,0.07378705,0.01422358,-0.2832642,0.4075209,-0.01871923,-0.3065232,-0.11616347,0.105263606,-0.13226065
hsa-miR-6870-5p,-0.104666196,-0.19239661,-0.43938577,0.39028326,-0.077334836,-0.21494524,0.39994174,0.11525735,-0.27689305,-0.17065448,0.33700174,-0.08964591,-0.11602844,0.056557298,-0.18912923,0.28759304,-0.22272605,0.3032296,-0.02052962,0.6277153,0.34712544,0.3452002,0.5270115,0.064755075,0.30825195,0.1882338,-0.06720464,0.037669066,-0.40246794,0.3744137,0.006195697,-0.2162301,-0.020650562,-0.40791944,-0.09772446,0.019307643,-0.09336379,-0.07711443,0.9543916,-0.074845545,-0.78827006,-0.12519917,0.100382335,-0.063885525,-0.23262283,-0.0379262,0.0051498767,0.1508445,-0.72975427,0.057363085,-0.06876121,-0.118788764,0.23151001,0.40804213,-0.17606194,-0.23589088,-0.19079171,-0.3404073,-0.3948513,-0.073013745,-0.20026895,-0.17754816,-0.18707791,-0.40657774
hsa-miR-1266-5p,0.36788145,0.044668023,0.38785896,0.038284976,0.25130522,-0.02058871,0.2285229,-4.12581e-05,-0.012739369,-0.052867845,0.059917424,0.09405046,-0.10711684,-0.12503773,0.31968626,-0.09064858,0.019819532,-0.03283056,-0.29557618,0.28746128,0.099396065,-0.21875833,0.17751816,-0.17371954,-0.17452629,0.13195768,0.0822256,0.27872437,-0.010148987,-0.07169483,0.25515684,0.10090812,0.40323046,-0.15281163,-0.045287915,-0.05451683,0.4680766,-0.12056926,0.49271753,0.0058299103,-0.10870192,-0.15947104,0.07621895,-0.14985923,-0.18748923,0.10521811,0.350236,0.05704371,0.22191541,0.02472669,0.5329429,0.3099283,-0.32273725,-0.034180436,0.42152178,0.33208564,0.38569534,-0.24420482,0.36175546,0.027256327,-0.050888084,0.10088002,-0.26227096,-0.24789086
hsa-miR-6757-5p,0.122940905,-0.0029607834,0.20876038,0.59343356,0.30167928,-0.46253243,0.12871225,0.1669707,-0.08028161,0.11476717,0.40983856,-0.2690391,0.22260736,-0.12345159,0.079155795,0.20522895,0.15054792,-0.08585899,-0.34746656,0.41625425,0.17916791,-0.07186628,0.4293438,0.18329479,0.32969913,-0.1538085,-0.03229758,0.5847258,-0.5540589,-0.4666686,0.17440806,-0.2499553,0.27378008,-0.7399774,-0.13584092,-0.10464104,-0.6528819,0.12657171,0.6085376,0.005067817,-0.605261,0.36213872,-0.21684478,0.07137133,-0.3310589,0.1694767,-0.10254484,-0.08670782,-0.56306237,-0.026646936,-0.07143625,0.51528084,0.04731952,0.37317792,0.0022580817,-0.1632707,-0.34814087,-0.44031158,0.00436919,-0.019844014,-0.1731634,-0.015090296,-0.03001043,-0.52935904
hsa-miR-5591-5p,0.47827792,-0.32791138,0.22779012,0.16838288,0.25350785,-0.72804207,0.045726735,-0.13891755,-0.119946234,-0.5664131,0.27753362,0.39185616,-0.3254315,-0.43350387,-0.09205626,-0.33309644,0.40036386,-0.12711073,-0.1918976,0.18386744,0.32687885,-0.120394826,-0.0037606077,-0.4939211,0.16141562,-0.28655407,-0.20730326,-0.12761524,0.41567212,0.49072355,-0.04097781,0.4795084,0.5601945,-0.1914983,0.18891415,-0.05576897,0.11309079,-0.12388355,0.9446522,0.289286,-0.39864522,-0.43247452,0.23360863,0.3723409,0.070252016,-0.4231499,-0.7127226,0.24536952,0.115405306,-0.5728751,-0.7024213,0.036457565,0.24789703,0.36451414,0.41384622,0.29544932,-0.20682994,-0.46219736,-0.44930384,-0.029757243,-0.35787377,-0.21411864,-0.79200816,-0.2926507
hsa-miR-1913,0.42600697,0.15016945,0.77672744,0.09164047,-0.23525771,-0.6682819,-0.32707876,-0.2717391,0.094738424,-0.31738153,0.5456845,-0.018655658,0.16013044,-0.38211033,-0.66667366,-0.59962255,0.035687674,0.107008815,0.2770026,-0.10124898,0.14220664,-0.24377099,0.5613876,-0.24944735,-0.24296388,0.34506592,-0.5769369,-0.31317863,0.17976248,-0.08537229,-0.14369464,0.7719067,-0.66708416,0.003354276,0.43454972,-0.118402,0.060451034,0.5608476,0.010260619,0.36299586,0.7352908,0.36515355,-0.29965228,-0.3057874,0.30983567,-0.6139672,-0.06636529,-0.5312252,0.3856814,-0.08770216,0.1697337,-0.09900495,0.020418117,0.3956516,0.7613903,-0.03988908,0.053820956,-0.22217953,-0.104484044,-0.17391789,0.183031,-0.50296646,0.18815118,0.24402797
hsa-miR-6804-5p,-0.020475838,-0.18991137,-0.13017714,-0.31839535,0.37482372,-0.4117972,0.010797849,0.54363966,-0.33001864,0.1717171,0.27292606,0.3388299,0.0410345,0.089926586,0.020347819,0.16289584,-0.25784588,0.42027777,0.23363155,0.44028792,0.39445683,-0.19411077,-0.00283437,-0.42130306,0.09518429,0.39971688,-0.23225665,0.7901739,-0.20750214,0.16776894,-0.29371387,-0.24937907,0.10870295,0.2825118,-0.45895544,0.22859721,-0.1420328,0.12609154,0.6802137,0.08881309,-0.22282219,0.32053962,0.28477862,-0.18660274,-0.1435791,0.35318437,0.2782114,0.057458054,-0.29608175,0.31977722,0.57927865,-0.041229755,0.0069334125,-0.1735012,-0.019151354,0.28758866,0.62864274,-0.41611558,-0.10474491,0.09661877,0.36617085,0.1985635,-0.028447516,-0.1148301
hsa-miR-4518,0.25108993,0.07389107,-0.1153925,-0.21051219,0.072786406,-0.3390432,-0.17028126,-0.050030045,0.059361756,-0.05261621,0.024938576,0.19128492,-0.18407959,-0.35275608,-0.0057014027,-0.19966,0.5634673,0.16339839,0.23051919,0.096542254,0.020823274,-0.19130673,0.8110209,-0.28569046,0.18026736,0.13548103,-0.12816586,0.5809508,0.08724271,0.031227788,0.040615156,0.46108487,-0.20435107,0.3581575,-0.5490511,0.09326479,-0.22150281,0.123207144,0.21010429,0.63274103,-0.08219556,0.2173196,0.04622531,-0.11944468,-0.013494059,-0.2048654,0.40108743,-0.19779466,-0.17656931,0.21659672,0.04778318,-0.4225704,0.034952857,0.287502,0.1354484,-0.13048604,-0.11462069,-0.41985264,0.22718583,-0.15752472,0.3925216,0.11680137,0.39286897,-0.2043475
hsa-miR-6133,-0.16153374,-0.23399201,-0.4221842,0.38921264,-0.02531513,-0.3388662,0.09415314,0.50235826,-0.366576,-0.08618923,0.40597817,0.13030666,-0.011219807,0.268725,-0.0067900876,0.16794953,-0.45861125,0.4423997,-0.21513388,0.48859444,0.39985824,0.5985891,0.0014034186,-0.20376822,0.060532,0.3572622,-0.21869773,0.29489765,-0.4419645,0.29322168,-0.3756047,-0.32530576,0.124066755,-0.19084047,-0.0330799,0.2161734,-0.20728093,0.04685468,1.0724704,-0.005371119,-0.67540073,0.035750307,0.11588109,-0.046613008,-0.18963602,0.14675428,-0.05260849,0.27204514,-0.3578765,0.21908441,0.23848921,-0.23309942,0.31017628,0.3240388,-0.19439207,-0.13176407,0.20321956,-0.5729065,-0.5140104,0.050853647,-0.014241311,-0.12492224,-0.2509416,-0.33367717
hsa-miR-7111-5p,0.29842916,-0.11606958,0.35098636,0.53271437,-0.0850787,-0.23398876,0.3229336,0.43953836,-0.047854155,0.2631594,0.39469412,0.15530777,0.17267652,0.08915309,0.25393036,0.16571352,0.09341166,0.07264021,-0.41779283,0.050573677,0.49674734,0.42612335,0.18131341,-0.17524074,0.2706904,0.15258399,-0.09803876,0.38807198,-0.29662305,-0.2245834,0.23410772,-0.3611294,0.3758125,-0.40000546,-0.34115744,-0.17811845,0.19534104,-0.013638684,0.78285694,-0.30104595,-0.26543185,0.035272505,-0.08038524,-0.28478637,-0.48145354,-0.023020435,0.034654524,0.16414392,-0.21996596,0.024373282,0.385834,0.47356424,-0.3711097,0.21167995,-0.16707177,0.00465421,0.18461184,-0.52552485,-0.050581053,0.12808692,0.20224556,0.053041942,-0.44627982,-0.08160218
hsa-miR-6767-5p,0.36565286,-0.15933873,0.21442492,-0.031078069,-0.3929057,-0.62382394,0.4789753,0.3078837,-0.12891783,0.117839426,-0.1277926,-0.15342541,-0.35314286,-0.4261325,0.1056899,0.62452084,-0.18172856,-0.1492698,-0.3824055,-0.021553246,0.31243882,0.086395435,0.38454896,0.22736901,0.36006415,-0.01549095,-0.057437543,0.6799994,-0.19174635,0.02912078,-0.2925327,-0.5101424,0.39974838,-0.073588505,-0.4849921,-0.27613187,-0.064341046,-0.40830866,-0.04495905,-0.22509925,-0.9453565,-0.34992447,0.32976556,-0.2820499,-0.43239832,0.110168025,0.5744453,-0.25232157,-0.3436236,0.29918775,0.6948046,0.9614938,-0.7647928,0.05382914,-0.32144907,0.3648872,0.53191894,-0.11556376,0.2597557,0.30587682,0.03732934,0.06568033,0.2735929,0.019260064
hsa-miR-1185-1-3p,0.6524857,-0.051988155,-0.1914898,-0.1035005,0.03648425,-0.30164883,0.44481102,-0.518577,-0.06880252,-0.33529705,-0.14243786,0.047835797,-0.246655,-0.39853632,-0.0023593972,0.47546443,0.082030006,-0.28441328,-0.29937902,-0.009524367,-0.043346815,0.10814824,0.4638422,-0.43078402,0.2575288,-0.16051053,0.24267463,-0.06422347,0.26699117,0.13960962,-0.052053407,0.040807765,0.21280698,-0.29889888,-0.13080348,-0.14289169,0.33539882,-0.39978716,0.435835,-0.023386322,-0.120103434,-0.38162017,0.076534234,0.23280054,-0.13416192,0.64715713,0.10825796,-0.19170414,-0.2083174,-0.09489072,-0.34890884,0.35237053,-0.40098432,0.031885803,-0.34255525,0.22920553,0.08405318,-0.51639193,-0.37170443,0.039927475,-0.22776924,0.04938163,-0.15493788,-0.083655804
hsa-miR-4763-3p,-0.060714174,-0.09684481,0.47479174,0.3681676,0.011949075,-0.575352,0.19977234,-0.023587288,-0.4236306,-0.25246656,0.38847193,0.24537584,-0.079384215,-0.37342736,-0.0001364637,-0.5846304,-0.27444592,0.30158305,0.1619876,0.45613724,0.30485934,-0.1658188,0.273916,0.20091946,0.23645909,0.12660882,-0.3247496,0.4345956,0.034240883,0.37887576,-0.025122425,-0.059928004,-0.076905325,-0.20349012,0.4830973,-0.14050385,0.3357102,0.2499845,0.86196536,-0.004002426,-0.27479056,0.38674378,0.1739799,-0.4114792,0.17085777,-0.31684867,0.31643292,0.0802273,0.0925754,-0.051416155,0.52974886,0.046211995,0.033916373,-0.085708566,0.7548199,-0.0727387,-0.07009486,-0.11126786,0.33176008,-0.19083028,-0.5710467,-0.43926492,-0.58325076,-0.2236531
hsa-miR-4534,0.01592963,-0.09390595,-0.23186125,0.28940338,0.17511764,-0.28751233,0.16731653,0.27372244,-0.10635774,-0.124270596,0.29101312,-0.2552307,0.074211635,0.22016075,-0.03656657,0.30074093,-0.17829867,0.3579424,-0.03668881,0.6110899,0.34318578,0.022932421,0.40436363,-0.17432472,0.07133332,0.040521737,-0.047077466,0.26365888,-0.5559928,0.14510313,-0.14316587,-0.22019988,0.1491454,-0.2631484,-0.2810528,-0.102592036,-0.26826718,0.09716055,0.70789164,-0.019627716,-0.5227945,0.3584037,-0.08785302,-0.036284767,-0.13712835,0.20937344,0.08964674,0.108426236,-0.4478225,0.11550076,-0.040522255,0.02108495,0.061577607,0.35616812,0.052325755,-0.06381685,-0.051005937,-0.37393486,-0.34073985,0.107372314,-0.118518196,0.046593573,-0.03536144,-0.41087312
hsa-miR-324-3p,0.27680337,0.04322196,0.618104,-0.012861033,-0.28570327,-0.62582266,-0.16418357,0.29248857,0.1577786,-0.20339465,0.5018812,0.11289375,0.46208856,0.045314867,-0.49733433,-0.33456734,-0.23500757,0.2839405,-0.21938568,-0.017767122,0.2532361,-0.33882827,0.28308672,-0.24259214,-0.06201547,0.22401594,-0.32526425,-0.15680788,0.337316,-0.27319402,-0.19004059,0.34543085,-0.23937859,-0.00048109514,0.5063873,0.08002017,-0.04237558,0.1103865,0.03149243,0.20254317,0.4422555,0.36010015,-0.048349343,-0.32892856,-0.054466143,-0.3492571,0.02880618,-0.49746135,0.47876784,0.25946954,0.66647774,0.27723455,-0.16044971,-0.046372883,0.24180868,0.0016737196,0.30218267,-0.001819479,0.2530227,-0.31194115,0.36178035,-0.35850427,0.17809455,0.1408634
hsa-miR-3160-3p,0.6430413,0.022104887,0.5059567,0.47365385,-0.10774672,-0.49035883,-0.4280182,-0.17945835,0.07112283,0.06913291,-0.069635816,0.13710332,-0.015545441,-0.72546166,0.12180915,-0.46764627,0.69924396,-0.31743592,-0.57485557,-0.31406698,0.16581176,0.74168795,-0.07018229,-0.6538722,-0.36808133,0.06671521,-0.40007392,0.11555387,-0.006006049,-0.40534776,0.062517166,0.42916808,0.028332148,0.16588877,-0.4194353,-0.002645224,0.2203625,0.2664191,0.6773679,0.43710116,0.38617224,-0.43320864,0.1699301,0.38825637,-0.23096247,-0.046912584,-0.41601157,0.42634165,0.32176405,-0.0035697191,-0.78831977,0.35046467,0.2746487,0.57679003,-0.054778744,0.41076165,-0.09129324,-0.5203154,-0.5529942,0.32693198,0.441914,0.10558334,-0.2856703,0.77496016
hsa-miR-6862-3p,0.22976914,0.43222103,0.6356481,-0.061506733,-0.0983502,-0.2779064,-0.10608988,-0.33167478,0.107949555,0.14148284,0.2717415,-0.32227293,0.012636645,-0.038284626,-0.45401463,-0.01561541,-0.18181609,0.008925516,-0.2202458,0.011272667,-0.02073256,-0.3567171,0.7599197,0.102166764,-0.11736825,-0.14511192,-0.35117614,-0.117864706,-0.52433026,-0.42842776,0.14198525,0.41653535,-0.43085322,-0.35372418,0.054113425,-0.3017486,0.1918034,0.1873635,0.11671456,0.26711112,0.6641091,0.0860616,-0.32164696,-0.43317106,-0.12260726,0.12607329,0.18074901,-0.024566676,0.5027822,0.0871292,0.11294067,0.49603954,-0.61736065,-0.11556418,0.9110758,0.36496937,0.2546994,-0.18209773,0.12657204,0.23811911,0.3079182,-0.04793064,0.20711197,0.15195885
hsa-miR-6794-5p,0.064295135,0.048099585,-0.17252341,0.18979733,-0.3107097,-0.3242905,0.38817072,0.08958104,-0.21022324,-0.2764237,0.06064964,0.32015088,0.07118278,-0.16193144,-0.02057913,-0.0017340936,-0.29258832,0.53958315,-0.06703784,0.40513495,0.24197124,0.27459297,0.41066718,-0.25857985,0.071364276,0.42236066,-0.051717736,0.36895177,-0.03173204,0.3819527,0.005058887,-0.0753001,-0.13195336,-0.19164889,0.0073781717,0.025929036,-0.004006405,-0.14533956,0.9523416,0.04951535,-0.4366638,-0.090653226,0.054198712,-0.22730687,-0.2890335,-0.088343695,0.35010538,0.1919587,-0.33589318,0.23831937,0.56563866,-0.11116097,-0.26974392,0.26606905,-0.15678465,-0.045341726,0.05831268,-0.4659621,-0.19664429,-0.1712922,0.08484841,-0.0025685935,-0.038229834,-0.3403718
hsa-miR-6127,-0.05158644,-0.28919628,-0.29644835,0.24954961,-0.046291433,-0.4952419,0.15549703,0.4203832,-0.48994625,-0.3489689,0.34017587,0.33457217,-0.0756872,0.033101443,0.09316797,-0.15458827,-0.22285938,0.60181475,-0.043996967,0.54814076,0.24063516,0.38433397,0.09312095,-0.19234595,0.017785653,0.40944967,-0.22910638,0.48989198,-0.26352116,0.2841475,-0.4549978,-0.1640478,0.057595603,-0.08559118,-0.16170329,0.15254487,-0.2548235,-0.00084470963,1.1634969,0.16629885,-0.6208887,0.19680947,0.036929745,-0.045816384,-0.038005114,0.06421981,0.1726604,0.25314882,-0.24684373,0.2402236,0.26612186,-0.26436242,0.22535801,0.32149336,-0.10617629,-0.13509522,-0.01874104,-0.6508942,-0.26468268,-0.05254184,0.06289958,-0.037136156,-0.20940585,-0.22485359
hsa-miR-6870-3p,0.15524487,0.07583644,0.5813898,-0.4437834,0.29153997,0.08123391,-0.03834576,-0.009573969,-0.15652907,0.22766162,0.33983907,-0.65991557,-0.17428891,0.44025767,-0.22834297,0.7575825,-0.28391248,-0.32041484,-0.021579906,-0.30014923,-0.08900456,-0.39617467,0.9588534,-0.009647467,0.23456742,-0.3326479,0.010325617,-0.30311477,-0.44579497,-0.22058658,-0.18670392,0.24024957,-0.8697957,-0.89500326,0.10896757,-0.023346683,-0.051860653,0.33518368,-0.3342697,0.14278954,0.31566396,-0.115529865,0.07680624,-0.72839594,-0.21133693,0.45142063,0.2993622,-0.8015967,0.4559602,0.21150719,-0.24475525,0.062026445,-0.15360592,-0.3246414,0.8672534,0.30589524,0.30864525,0.27178755,0.20000492,0.010628214,0.27226454,-0.1434353,0.18045111,0.0155372545
hsa-miR-6832-3p,0.05673478,0.2119244,0.29479676,0.1258734,-0.30359113,0.0628165,0.09611454,-0.25276273,-0.037150294,0.3260282,0.118346214,-0.5740909,-0.05796535,0.24021903,-0.42136347,0.8694753,-0.22740148,-0.27903354,-0.23699534,-0.3066701,0.15219511,0.6384886,0.3624844,0.24580547,-0.061140623,-0.13995734,-0.3411414,-0.870215,-0.24660517,-0.36907265,-0.22459364,0.29089954,-0.9196456,-0.8727157,0.36269924,-0.1836441,-0.019693065,0.30348253,-0.24084347,0.038984176,0.72551525,-0.25416085,-0.13531156,-0.46237206,-0.1576396,0.29136482,-0.50885093,-0.2045066,0.26902482,-0.13727528,-0.35013497,-0.054181173,0.1030196,0.24050614,0.2158219,0.29377276,0.16258506,0.14903915,-0.719249,0.15874217,0.2604915,-0.2881638,0.16337977,0.47595105
hsa-miR-6882-3p,0.029108126,0.3250147,0.6645438,0.123353936,-0.21134627,-0.5119569,-0.24647775,-0.22718051,-0.08732577,-0.13126981,0.36320767,0.21758398,0.06851776,-0.35689944,-0.41344976,-0.45007858,0.012968947,0.13086717,0.30599466,-0.3999579,0.15845428,-0.1271242,0.77376735,-0.0898812,0.103566974,0.19938014,-0.48562902,0.019138178,0.26949233,-0.13112155,0.0008164163,0.5211173,-0.98980105,-0.22378568,0.5133782,-0.027037412,0.31849125,0.7972745,0.07536214,0.38450387,0.9052459,0.15147607,0.09861374,-0.55678684,0.12859377,-0.2515754,0.15845992,-0.5748271,0.27941516,-0.009743374,0.1555042,-0.29747364,0.09877078,0.20362067,0.8703268,-0.044462215,0.16846451,-0.060635824,-0.035169538,-0.48052612,0.3512384,-0.6023216,-0.19030325,0.16541615
hsa-miR-6797-5p,0.36185324,-0.13640021,0.29477772,0.609071,-0.09132563,-0.06711789,0.24599291,0.23115896,-0.067192055,0.030412378,0.115907006,0.2440267,0.11237362,-0.18041681,0.59841895,-0.34859994,0.24013114,0.22257455,-0.5859247,0.18485619,0.33523232,0.7689026,0.30677786,-0.21529284,-0.067037426,0.40318972,0.039908137,0.44473442,-0.17752703,-0.19511615,0.22623377,-0.20178027,0.29483998,-0.04611605,-0.4837683,-0.04709061,0.45481554,0.020217309,1.1803914,-0.054397646,-0.32418784,-0.14049618,0.013945693,-0.22774774,-0.26247594,-0.11275418,0.4144148,0.4165303,0.058154613,0.22534148,0.3857582,0.25480902,0.030737277,0.42750168,-0.019117804,0.008399195,0.081674084,-0.51280916,0.02028702,0.10123752,0.12877163,0.118550144,-0.4887748,0.062162396
hsa-miR-6848-5p,-0.057772353,-0.06274778,0.34475023,0.37684116,-0.03140167,-0.5961839,0.4684004,-0.10511063,-0.064121224,-0.22438516,0.625561,0.11024321,0.0002238069,0.116363525,-0.43414527,0.12458676,0.061979692,0.23307386,-0.043781575,0.2505958,0.40838605,-0.4333531,1.0280019,0.23454659,0.7328273,-0.21416807,0.06198375,0.13022555,-0.41602194,0.0002690206,0.38823026,-0.09721048,-0.100664295,-0.6741216,0.01982765,-0.314489,-0.35944802,-0.09101733,0.68551886,0.012161357,-0.6585442,0.39667833,-0.21411712,-0.34557164,-0.3002685,-0.54979986,-0.065290555,-0.25353268,-0.46794182,-0.31042433,0.12320767,0.23029914,-0.25321656,0.3197728,0.42797762,-0.50553524,-0.49811342,-0.07516316,0.059995905,-0.23534252,-0.11070712,-0.2622536,-0.19260384,-0.76410466
hsa-miR-361-3p,-0.2654871,-0.26485693,-0.06807625,-0.29137662,0.31863013,-0.14085008,-0.32597837,0.20875941,-0.020870807,-0.095720604,0.56075174,-0.40415284,-0.11750444,0.5218625,-0.6258216,0.41367373,-0.28196278,0.08682977,0.24036865,-0.05739082,0.12711957,-0.21508208,0.40922073,0.30256158,0.16426432,-0.021924533,-0.08706009,-0.30849952,-0.61312425,-0.20360228,-0.36942235,-0.086585544,-0.35008478,-0.36413383,-0.17285532,-0.06993259,-0.59036696,0.05349856,-0.16996609,0.21574457,-0.22629541,0.26855904,-0.357587,-0.1576439,0.04115885,-0.063825674,-0.28817374,-0.26867956,-0.057603024,-0.09094973,-0.25402847,-0.11636316,0.11890717,0.16204788,0.055937435,-0.15303577,-0.08881932,-0.095687576,-0.19125557,0.11564687,0.43490493,0.008251716,0.59293056,-0.2618426
hsa-miR-5001-5p,0.17577444,-0.028124955,0.3324827,0.24323584,-0.14742143,-0.2662425,0.08393122,-0.09751249,-0.3600133,0.532949,0.1724341,-0.21869142,-0.2582466,-0.71064645,-0.049448013,-0.17672825,-0.10666849,-0.09482931,0.0013549685,0.3041228,0.33746037,0.10890081,0.2879533,0.034187425,0.2718686,-0.27777517,-0.5064658,0.6625025,-0.46030697,0.20239745,0.016849115,-0.06681198,0.17472261,-0.05614392,-0.33149248,-0.12868433,0.5229775,0.29522395,0.3531501,0.10185983,-0.22704609,-0.15812613,0.404232,-0.32428718,-0.2502568,0.23465605,0.38777667,0.19919242,-0.20102218,0.21479389,0.07789479,0.5529156,-0.54809093,-0.34805354,0.19427648,0.26114553,0.058378346,-0.42612863,0.25931525,0.35649434,-0.27531683,0.1371427,-0.14908957,0.36443424
hsa-miR-6893-3p,0.08565681,0.29171044,0.63535655,0.059375484,-0.337216,-0.48550636,-0.071284905,-0.08524434,0.15229614,0.115910545,0.3299137,0.04343836,0.31571484,-0.23351985,-0.5659166,-0.07808038,-0.116670124,0.0336535,0.04155278,-0.46639797,0.22906479,-0.06700019,0.49385673,0.006154023,0.06569034,0.1474429,-0.38207516,-0.21166678,0.37185842,-0.33150113,0.018619113,0.5089316,-0.76240057,-0.18045911,0.4718537,-0.047717582,-0.024671782,0.5013701,-0.12727173,0.2537205,0.95907795,0.058034454,-0.010549723,-0.54042524,0.004812613,-0.4195147,-0.24916096,-0.39720827,0.37287194,-0.06860252,0.2099158,0.1161834,-0.012084936,0.26554903,0.48341343,0.23303288,0.3148957,0.086827666,-0.13296081,-0.21895035,0.55772734,-0.5145272,0.16578513,0.4380519
hsa-miR-6784-3p,0.4768661,0.17744176,0.70145524,-0.18237843,-0.32668424,-0.2709879,-0.112711675,-0.015134891,0.29789346,-0.0033198704,0.29872617,-0.3559631,-0.0321226,0.2120573,-0.30650023,0.24784385,0.08460172,-0.32539096,-0.26686344,-0.36400846,0.082590066,-0.11824458,0.5424539,0.06146039,-0.2699787,0.2430334,-0.30385956,-0.4178247,-0.15137957,-0.5841653,-0.025276784,0.26883906,-0.50994086,-0.08902286,-0.23461488,-0.3465082,0.07661244,0.18482488,-0.45798042,0.3099348,0.7704862,-0.141055,-0.15608795,-0.5282737,-0.086437754,-0.17860372,0.17410713,-0.4289018,0.55775625,0.1621372,0.13505699,0.32032505,-0.27022365,0.23106848,0.4826352,0.21882468,0.48056,0.12721226,-0.11727651,0.36224023,0.73601377,-0.28646046,0.32925707,0.6371275
hsa-miR-6787-5p,0.23004444,-0.1164979,0.11942917,0.47916883,0.05707783,-0.64251804,0.38931423,-0.32420632,-0.41259825,-0.19156668,0.3248697,0.19569856,-0.115384206,-0.81080544,-0.0698246,-0.5632751,0.08217944,0.005698718,0.18707365,0.5931948,0.20557147,0.08230633,0.15274794,-0.18171756,0.12947841,0.062067926,-0.23146594,0.3097424,0.06263702,0.58143073,0.010721258,0.2340816,0.14216879,-0.074208245,0.23889054,-0.14664796,0.31809482,0.13825229,0.8874985,-0.14517426,-0.3575297,0.15937644,-0.012056021,0.18359181,0.27805436,-0.35325918,-0.13587041,0.25763834,-0.13539347,-0.12166437,-0.043511454,0.05062914,0.08180413,0.2605071,0.55330765,-0.0528368,-0.16483444,-0.46950105,-0.024160914,0.04492486,-0.8384551,-0.3879673,-0.51716363,-0.2346769
hsa-miR-181d-5p,-0.24826542,-0.44959438,-0.3716381,-0.33349538,-0.088779844,-0.12971403,0.28343937,0.34472877,-0.2915851,0.14540762,-0.116361685,-0.31379503,-0.60673815,-0.19978006,-0.14445773,0.9164936,-0.38307887,0.0055938726,0.3031223,0.49099362,0.24838856,0.05870838,0.5832398,0.62236536,0.31044397,0.43729308,0.064961754,-0.16892546,-0.17004119,0.54073334,-0.74904716,-0.62180007,-0.4375155,-0.07633595,-0.4224164,0.038966585,-0.038015563,-0.06539791,-0.18748805,-0.3915241,-0.92488015,-0.0661118,0.40456462,-0.65778065,0.1454256,-0.056748584,0.55313665,-0.38230667,-0.3989864,0.09480843,0.8107764,-0.008350173,0.31661814,0.10351391,0.1316944,0.16502176,0.6599493,0.7507087,0.22024786,0.017504554,-0.39708114,-0.36889708,0.4186076,-0.1864191
hsa-miR-5004-5p,0.045203753,-0.34320033,0.10930154,0.37536997,-0.09069028,-0.14252612,0.23927055,0.62469405,0.16515803,-0.01707464,-0.28440753,-0.12662701,-0.41078597,-0.021896519,0.43592158,0.47728765,-0.08437933,-0.5127444,-0.48334485,-0.12948222,0.26067758,0.3363551,0.23602553,0.19782019,0.17591797,0.22555067,0.17351945,0.03125967,-0.4833573,-0.089126684,-0.3354982,-0.9716064,0.23662896,-0.15076429,-0.36194405,-0.39698184,0.06577991,-0.5450121,0.16622618,-0.5232136,-0.49671823,-0.13552736,-0.03875459,-0.21547864,0.12518968,0.036307976,0.34985167,0.58763,0.038939036,0.08433656,-0.03844454,0.8488949,0.05002018,0.06794282,0.39758432,0.57183254,0.33605632,0.31481987,0.60834605,0.45564798,-0.10712484,0.021157414,0.018515306,0.45428506
hsa-miR-1236-3p,0.25573254,0.11393297,0.28739402,-0.09347197,-0.1091621,-0.16640294,-0.32204902,-0.26933944,0.14711796,-0.09326159,0.30253482,-0.4334184,-0.21115375,0.45093122,-0.43952343,0.5424572,-0.22712316,-0.16494124,0.010454467,0.14232099,0.15518126,0.108160056,0.6776129,-0.21267009,-0.21591833,0.2123499,-0.33709666,-0.8252566,-0.36525333,-0.24774629,-0.31508455,0.33537823,-0.70275503,-0.44476283,0.08195783,0.08558729,0.078132674,0.41146952,-0.22953595,0.35645434,0.7228634,-0.040834602,-0.15564662,-0.48554114,-0.10444207,0.12506379,-0.1029409,-0.4551963,0.1596774,0.08586986,0.037905052,-0.39250278,-0.10880121,0.13361607,0.54712486,0.11571832,0.40932128,-0.18144204,-0.43699872,0.10841883,0.29661238,-0.13208647,0.26156524,-0.1981367
hsa-miR-769-5p,-0.012637701,0.41534644,-0.13460922,0.14464581,-0.33433113,-0.22395724,-0.16819836,-0.37550312,0.21212319,0.2180006,0.25808066,0.26804894,0.027663788,-0.042242706,-0.50028926,0.01122244,-0.11160973,0.29754227,-0.10775913,-0.030885985,0.116709135,0.5258531,0.36317393,-0.35210708,-0.22575687,0.090411,-0.19624673,-0.03601297,-0.4560262,-0.0553461,0.023658922,0.14186384,-0.33413014,0.23110448,-0.23523517,-0.13757119,0.13754766,0.10973606,0.769439,0.2938412,0.31432137,0.022636455,-0.23833193,0.08509482,-0.08493609,0.11762174,-0.21725662,0.38705075,-0.20227183,0.05283933,-0.29171953,-0.13228641,-0.22617552,0.36174613,-0.014256875,0.106775135,0.15614083,-0.673061,-0.6918625,0.1904527,0.5224142,0.08053992,0.2822994,-0.008433345
hsa-miR-6744-5p,0.012688604,0.014696753,0.0031651543,0.122590214,0.0030693316,-0.5552775,0.250917,0.39293045,-0.20028363,-0.014453499,0.07356054,0.14042452,0.004338898,-0.18729372,-0.10689989,0.055548094,0.21648364,0.41317752,-0.058300387,0.11152322,0.283399,-0.020842671,0.3895436,0.039415512,0.24931389,0.026578762,-0.13219865,0.69547415,-0.09582405,-0.19181907,-0.0023634448,-0.07878945,0.028223548,-0.00748566,-0.3504826,-0.23973389,-0.16563821,-0.06156124,0.5613124,0.017170541,-0.3826463,0.37605587,-0.027835594,0.035621148,-0.206635,0.11664354,0.115808494,-0.045038022,-0.25585166,-0.011734321,0.165751,0.24735278,-0.104619555,0.32966116,-0.124784775,-0.06115161,0.006134183,-0.35247454,-0.020297427,-0.05860278,0.3068177,-0.024153842,0.021818403,-0.063551925
hsa-miR-135b-3p,0.42473024,-0.43705243,0.6315669,0.2954686,0.43208104,-0.37023377,-0.12989044,0.04009269,0.10103393,-0.46002832,0.40823945,0.072716564,0.0787195,0.021673646,0.460654,-0.3479485,0.4539924,-0.47071648,-0.19059934,-0.012512955,0.15781383,-0.15688775,-0.10639889,-0.02598481,-0.05246197,0.16617836,0.1230697,-0.2792668,0.31919703,-0.18903157,0.105464876,0.18320143,0.31773043,-0.31450954,0.07110817,-0.106005885,-0.40844157,0.032491095,0.21284755,0.1382465,-0.19206308,-0.026848156,-0.21540853,0.064956054,0.28280166,-0.7088946,-0.3771937,0.104671806,0.46100372,-0.259631,-0.39527574,-0.03315308,0.7082179,0.46477103,0.4798464,-0.043391444,-0.2846432,0.36248508,0.043446302,0.052665293,0.020989286,-0.35977647,-0.458468,-0.0594585
hsa-miR-4269,0.23132823,0.12274744,0.5634374,0.21723484,-0.10113228,-0.6305845,0.18366809,0.23717947,-0.027215635,0.064029984,0.14706042,0.08274959,0.37063834,-0.390573,-0.040099293,-0.02478922,-0.12862308,-0.046699468,-0.36474052,-0.08695841,0.36715177,-0.09622588,0.23268782,0.004882342,0.15591277,-0.033593662,-0.07881056,0.46773368,0.20205636,-0.6121567,0.10924649,-0.19213665,0.06740725,-0.09714009,0.018677948,-0.2043802,0.20385082,-0.095196284,0.11723841,-0.0661204,0.1934309,0.017313603,0.2454783,-0.22095363,-0.22260167,0.09571139,0.0128893405,-0.28944194,0.3556772,0.11481399,0.55853754,0.87457746,-0.4332887,0.0046774815,0.08822998,0.30452764,0.31667644,-0.1166727,0.29048908,0.0017439912,0.3526298,-0.18291345,-0.07211893,0.27408493
hsa-miR-4682,-0.15059578,0.24179588,-0.06890862,0.19395459,-0.11286898,-0.33112553,-0.24391815,0.051323187,-0.039094776,-0.18924516,0.42686272,0.1609178,0.047885213,0.29113838,-0.49181354,-0.20664549,-0.2659701,0.6016789,0.017794857,0.33252916,0.22332726,0.18315545,0.2150108,-0.3062757,-0.33015835,0.36030996,-0.1928004,-0.059323538,-0.47002137,-0.13159706,-0.14742671,0.17185496,-0.32567093,0.2260296,-0.052713837,0.18052824,-0.11799677,0.34453446,0.6383485,0.280231,0.38798425,0.41276166,-0.14764439,0.053752515,0.0012733189,-0.08872437,-0.26241726,0.06065445,-0.091331296,0.012603579,0.11878215,-0.38111916,0.1093375,0.35902232,0.22668678,-0.33612436,0.13558298,-0.6563609,-0.59018534,-0.0007186436,0.43744522,-0.07126771,0.17682682,-0.33752722
hsa-miR-6795-5p,0.1781322,0.04895411,0.0005186209,0.36788398,-0.10509525,-0.4613248,0.4758556,0.01250448,-0.1596449,-0.13174437,0.16818333,0.19666119,0.081302956,-0.37195623,0.06577083,-0.05379356,0.071620904,0.34199825,-0.20202601,0.22484691,0.32766914,0.22415754,0.7365752,-0.1974468,0.36582008,-0.014295874,-0.00083770236,0.6734568,-0.13332078,0.031670053,0.12674382,-0.08617281,0.2315211,-0.2698934,-0.2488883,-0.1353311,-0.046364132,-0.11589007,0.9186691,0.09374931,-0.509576,-0.090728916,-0.02081748,-0.11967915,-0.36891282,-0.008194491,0.28442362,0.08358821,-0.4532378,0.12217495,0.17700188,0.34417227,-0.31158742,0.35707134,-0.095088825,-0.04922672,-0.11951084,-0.6692978,0.02908339,-0.12881328,0.07872631,0.016891373,-0.06468161,-0.438606
hsa-miR-4691-5p,-0.046626814,0.10051287,0.608615,0.062708065,0.33071724,-0.5463958,-0.4146435,0.031667754,-0.04668533,0.04418744,0.50447005,-0.012784596,-0.03375419,-0.29874295,-0.36264515,-0.26718172,-0.23915303,0.06438794,0.16752349,0.06360086,0.14007965,-0.67632663,0.32211038,-0.11269734,-0.07303987,-0.14702275,-0.20419963,0.32072395,-0.5072498,-0.18954517,-0.12515962,-0.12960468,-0.17787153,-0.11877915,0.1861339,-0.20138814,-0.28018576,0.27309287,0.04009354,0.16576305,0.032745324,0.39369458,-0.169367,-0.025446936,0.08699814,-0.022497091,0.13626145,-0.41078392,-0.004189348,-0.19473834,0.045735,0.40705442,-0.06083112,0.0052944296,0.8032598,0.03867159,0.041886453,-0.10157202,0.26567838,-0.04772982,0.101743855,-0.23714979,0.35669437,-0.24223164
hsa-miR-1915-3p,0.40307248,-0.33038074,0.8465428,0.2005952,-0.12531981,-0.38604638,0.13952425,0.24772848,-0.16601281,0.28714097,0.631496,-0.5047502,0.0065573775,-0.13399394,0.18044657,0.40644413,-0.29530147,-0.29807967,-0.27479044,0.2742398,0.32749474,0.18642204,-0.16590776,0.17497505,-0.14391804,-0.101258196,-0.5224984,0.039063863,-0.27346367,-0.011748176,-0.3664937,-0.18130182,0.12709035,-0.49474302,-0.000170912,-0.4682117,-0.050528336,-0.021164726,0.09797286,-0.113052696,-0.52132636,-0.11479344,-0.07442109,-0.5609848,-0.14148284,-0.16709527,0.08715071,-0.21070507,0.40974444,0.2190813,0.35297513,0.51192844,-0.38339943,0.021932593,0.31066224,0.44023192,0.14094411,0.10902272,0.2396359,0.4905887,-0.05545671,-0.37516162,0.14063716,0.23503529
hsa-miR-484,0.39236343,-0.11492936,0.83495384,-0.4113496,0.26993847,0.03724272,-0.206758,-0.019992614,-0.39229482,0.23889203,0.6166127,-0.5191953,-0.20541358,0.19880825,0.33338973,0.12220041,-0.19698745,-0.06595884,-0.111153536,0.119850196,-0.14661942,-0.080861226,-0.34373444,-0.13336335,-0.5939322,-0.2067172,-0.47576684,0.11638482,-0.6009157,-0.024943015,-0.25484756,0.2822045,0.07514241,-0.16656823,-0.16069342,-0.20482622,0.12844749,0.28424585,-0.28367022,0.24342239,-0.05287382,-0.29909116,-0.044356156,-0.4114845,-0.22106624,0.07764513,0.45203286,-0.5445355,0.80754024,0.33534062,0.31826887,0.049236394,-0.33939984,-0.13763607,0.57913864,0.3230245,0.39444065,-0.12471897,0.24107549,0.65605253,0.2234711,-0.18440945,0.16007563,-0.0208032
hsa-miR-4510,0.21970402,-0.3141051,-0.40238714,0.19383605,0.3869076,-0.6851702,0.30724615,0.27209008,-0.2911975,-0.22175758,0.3669382,0.16336985,-0.15952508,-0.24790242,0.1169066,0.2751111,0.2717255,0.036458816,-0.032351255,0.68857265,0.124450885,0.091862984,0.064298585,-0.19474408,0.10562959,0.15174824,0.023919469,0.38901165,-0.13991313,0.22917101,-0.28954634,-0.006425984,0.40419328,-0.18853228,-0.21830699,0.0139096575,-0.5758681,-0.13878754,0.92995614,-0.021609299,-0.96840346,0.3630476,-0.1945486,0.4835408,0.20791405,0.023796218,-0.2819815,0.14094797,-0.5196523,-0.074798174,-0.26922482,-0.22820736,0.4584526,0.5686864,-0.06230921,0.02144234,-0.16367953,-0.66949606,-0.38152233,0.054145277,-0.44066322,-0.0531717,-0.08642059,-0.5643255
hsa-miR-6129,-0.00019361482,-0.25404567,-0.46369833,0.043759555,0.14587401,-0.44545838,0.13789423,0.39940786,-0.26519272,-0.27992982,0.33375895,0.30879658,-0.14574157,-0.04873654,-0.03366447,0.07024951,-0.05780223,0.35820052,0.15093152,0.5636218,0.1717971,0.17967972,-0.045294736,-0.20958485,-0.061631516,0.37227866,-0.08876171,0.17959708,0.11954947,0.39882952,-0.3815952,-0.04036246,0.11941735,0.09913773,0.013233817,0.1283964,-0.26105234,-0.03373598,0.8347313,0.03881304,-0.6466595,0.1000765,0.03206651,0.25980225,0.17826952,-0.08413044,-0.11628094,0.047458302,-0.4315042,-0.013218973,-0.020027129,-0.507318,0.5581899,0.41800484,-0.056979682,-0.086394615,0.060276788,-0.5123628,-0.42072257,-0.15141708,-0.1424124,-0.25802258,-0.09541253,-0.40646538
hsa-miR-4731-3p,0.74097747,-0.32996336,0.9585001,-0.1720948,-0.27588856,-0.4494418,0.14086124,0.46584594,0.40557954,-0.3296362,-0.058156155,-0.16273944,0.25810155,0.24566548,0.05472513,0.003536304,-0.042458836,-0.17842683,-0.62262434,-0.28991067,0.1745682,-0.059251606,-0.09011433,0.028461039,-0.45509213,0.6377027,0.038006596,-0.21248774,0.23214038,-0.617705,-0.107892886,-0.17502812,-0.03985148,0.1782979,-0.15815005,-0.43907338,0.14975736,-0.37414792,-0.19950077,-0.25463814,-0.16627298,-0.025604088,-0.24951313,-0.1952186,0.11822023,-0.35962912,0.18551864,-0.40140122,0.6815264,0.19036253,0.5368492,0.7993855,-0.38308498,0.24385826,0.12680735,0.44211438,0.46884093,0.36098918,0.062007584,0.45886186,0.32196528,-0.24211958,-0.2507299,0.94632524
hsa-miR-1233-5p,0.022925533,-0.22856207,0.25801924,0.4438754,-0.0016476564,-0.5808538,0.19244428,0.70358616,-0.21660033,-0.12368918,0.23990975,0.09104095,-0.17954995,-0.123144925,0.08999739,0.014171352,-0.31910047,0.044139065,-0.36786786,0.47003806,0.38024232,-0.11669183,-0.013753525,0.28523317,0.11940403,0.21694466,-0.1426523,0.24456319,-0.15435696,-0.18478005,-0.40444267,-0.587472,0.36606205,-0.21999402,0.19141114,-0.13710389,-0.007329077,-0.36885634,0.59302354,-0.32554424,-0.23728114,0.35561648,0.040876947,-0.13928092,0.061573222,0.12807101,0.19525474,0.32873964,0.15062913,-0.035188675,0.7161531,0.77919775,0.018128803,-0.1349109,0.42238614,0.21655585,0.41221315,0.017020158,0.68594897,-0.06872764,-0.13821027,-0.19603337,-0.0051497757,0.036419503
hsa-miR-6824-5p,0.042793073,-0.07470161,0.042644937,0.4675043,0.27000827,-0.13000225,0.27399027,0.42322475,-0.10585085,0.19351141,0.5397446,0.08086491,0.12358361,0.047247045,-0.016131084,0.25824067,-0.25421077,0.00254358,-0.24214375,0.48483378,0.3914677,0.053127397,-0.33468768,0.052435298,-0.058884636,0.13125712,-0.060872506,0.10722624,-0.018013796,0.038133025,0.124902815,-0.35448405,0.39994854,-0.48715308,0.37641335,-0.0853231,0.12251524,0.016688276,0.7834107,-0.4109775,-0.4395858,-0.037089095,0.076753356,0.09105886,-0.20063443,0.09700587,-0.3080489,-0.027305784,-0.39229074,-0.29046434,0.32013708,0.22463283,0.25909397,0.24745695,0.017717274,0.022908494,0.27762052,-0.2340383,-0.20992091,-0.1593311,-0.24572733,-0.43798688,-0.42797706,-0.3999817
hsa-miR-1827,0.010190157,-0.16088784,-0.16111019,0.17797218,0.20445009,-0.23870337,0.017727261,0.41163832,-0.21318519,0.04464514,0.02354308,-0.029652348,-0.18995856,-0.33638477,0.08977851,0.059427556,0.177147,-0.091017455,-0.13124004,0.13962762,0.29908794,0.28320545,-0.010617341,-0.08358957,0.15648016,0.12755866,-0.20189714,0.6420972,0.07883666,0.10279263,-0.29201716,-0.04923126,-0.016531494,-0.20519497,-0.11246653,0.12633105,-0.21913317,0.18442278,0.55355567,0.08604391,-0.5298857,-0.17363712,0.40969512,0.15889466,-0.037396308,0.24918602,-0.13254412,0.15938774,-0.4489935,0.24260984,-0.31311032,-0.037087336,0.52285725,0.14759682,-0.059566665,0.19666027,-0.07793003,-0.15439229,-0.12237044,-0.17500335,0.009783974,-0.0017805127,-0.16655447,0.20637284
hsa-miR-3612,-0.04412335,-0.16473772,0.19899894,0.38744828,0.09165114,0.0037395214,-0.1865891,0.2115459,0.13644399,-0.24476339,-0.0010502458,-0.13035683,0.028480427,0.3307651,0.3891529,0.020761877,0.05841928,0.15301348,-0.40533987,-0.083558775,0.055847075,0.41309342,0.5353328,0.10123808,0.06480039,0.10161188,0.15458137,0.022930343,-0.57161134,-0.28690845,-0.07047301,-0.39969754,-0.07569544,-0.21575326,-0.3530339,-0.13965677,-0.19762284,0.07305825,0.69728404,0.112597995,-0.43979344,0.06661447,-0.12753281,-0.24898605,-0.1428335,-0.0015306894,0.3655523,0.29438105,-0.05619095,0.17059654,-0.37815803,0.073813945,0.40629753,0.3981876,0.21246476,-0.084733464,-0.27173236,0.06236973,-0.15568446,0.09180536,0.10392017,0.06928925,-0.23184842,-0.065442964
hsa-miR-6860,0.034936074,0.064507715,-0.07670631,0.11278133,-0.21532215,-0.4810202,0.29257002,0.10912625,-0.26809654,-0.26153982,0.11853069,0.42568153,0.16591056,-0.24018899,-0.1389487,-0.44710204,-0.0025459107,0.6035874,0.02504005,0.24017443,0.21209995,0.1566381,0.528681,-0.27316517,0.17559779,0.30255798,-0.16101456,0.4485022,0.23777099,0.35893345,-0.107376814,0.4459718,-0.21041958,0.0075824806,0.23346981,0.08924985,0.0019012947,0.086335376,0.88002765,0.16989423,-0.044938482,0.26530486,-0.15254365,-0.16848122,-0.03773707,-0.19211142,0.23029752,0.2974549,-0.028544424,0.28171024,0.5246546,-0.271261,-0.02310655,0.1657773,0.24939002,-0.18654783,0.09071974,-0.32149357,0.08051308,-0.40291592,0.008577478,-0.103454165,-0.06622536,-0.31164184
hsa-miR-612,0.05139585,0.23613712,0.46226442,0.34581965,0.19325668,-0.0932598,-0.1366228,-0.2798511,-0.24759708,-0.17530374,0.35714594,0.20168684,0.08435684,-0.018292088,-0.19471674,-0.6303319,-0.20046921,0.2658161,-0.016579548,-0.042018034,0.032532778,-0.049037494,0.5630131,-0.3611117,-0.03343248,0.04047987,-0.1466964,0.2810661,-0.35243326,-0.041286666,0.1568859,0.19397405,-0.41052175,-0.43898553,0.35452136,0.019930601,0.36869347,0.49586415,0.6978013,0.15740778,0.49333537,0.11724381,-0.08362625,-0.3392874,-0.12850653,0.027792081,0.14374225,-0.20000274,0.21544069,-0.049910087,0.20719749,-0.007307656,-0.26981398,0.03020091,0.9356036,-0.23449367,0.003694788,-0.5767466,0.14465715,-0.1742559,-0.042225346,-0.2003773,-0.50596017,-0.35652128
hsa-miR-219a-1-3p,0.12859732,0.15297833,-0.45649117,0.09196103,-0.10040327,-0.28939125,-0.12864076,0.18788196,-0.17806903,0.045472573,0.06024326,-0.2956551,-0.1837179,0.09363095,-0.3814353,0.4550028,-0.18229525,0.4114585,-0.17889565,0.51519567,0.15511772,0.40001303,0.08044826,-0.35468084,-0.47579584,0.3376631,-0.24935304,-0.014568301,-0.61183673,-0.17403127,-0.4443701,-0.07652989,-0.2254957,0.19565612,-0.51432306,0.04643563,-0.060737364,0.0945393,0.4836674,0.11513401,0.22582671,0.28786916,0.030545894,0.24596813,-0.11351443,0.62646866,-0.027101751,0.061479874,-0.16854085,0.17527789,-0.040827837,-0.03202745,0.040099878,0.35032687,-0.26367092,0.094672054,0.2962897,-0.6028466,-0.628596,0.35840032,0.43419275,0.18385786,0.52451736,0.24758457
hsa-miR-6785-5p,-0.05280218,-0.4787209,-0.26071855,0.11181581,0.044318184,-0.57003,0.39575988,-0.13866292,-0.647004,-0.2261996,0.49827173,-0.34099135,-0.118979305,-0.10763145,-0.10738851,0.27020523,-0.06833082,0.40639472,0.15237996,0.842198,0.18749975,0.09752094,0.30522293,0.29783887,0.42221242,-0.15226029,-0.34208152,0.37195843,-0.5519568,0.4292224,-0.24045984,0.082729116,0.071128115,-0.4008892,-0.46378723,-0.15989608,-0.7937906,-0.03796049,0.6361112,0.32773978,-1.2830724,0.29891977,-0.07496217,-0.18105517,-0.15322356,-0.2994134,-0.018433534,-0.028069736,-0.32526997,0.12233436,-0.013770058,-0.28398243,-0.10470566,0.42385417,-0.23940738,-0.40203264,-0.8172314,-0.39929852,-0.39256632,0.34507605,-0.32097417,0.049292613,0.1510875,-0.37229052
hsa-miR-6803-3p,0.41184285,-0.11299049,0.54819876,-0.262808,-0.21281385,0.027354736,-0.13773763,-0.1355083,0.026642509,0.32970604,0.40435192,-0.7439484,-0.64834994,0.07290431,-0.4771756,0.6630526,-0.19892211,-0.7073926,-0.05414885,-0.22115977,0.0073497016,0.017306194,0.5395447,0.24893023,-0.2214516,0.2135749,-0.50333065,-0.63162136,-0.6819058,-0.2521008,-0.4800873,0.20919287,-0.469537,-0.3367267,-0.31727272,-0.21839075,0.16234499,0.16480154,-0.7579039,0.091486625,0.48034212,-0.43903655,-0.07474373,-0.68405896,-0.0021657946,0.005023163,0.1767613,-0.42374095,0.32732856,0.0768972,0.18599048,0.3826874,-0.39985856,-0.022379378,0.690621,0.36814192,0.6573474,0.10966522,0.18045308,0.6589464,0.36747697,-0.24291164,0.62147576,0.516974
hsa-miR-4667-3p,0.31133637,0.047928583,0.18265475,-0.23486568,-0.0031893135,-0.3300969,0.048584457,0.11460244,0.1383942,-0.04378834,0.22580613,-0.37570366,0.041974697,0.4008145,-0.2923154,0.65463215,-0.11221267,-0.15231784,-0.029267797,0.11065428,0.21064098,-0.09733888,0.308345,-0.13348895,-0.23495078,0.21686937,-0.1653282,-0.5277298,-0.031708322,-0.43486744,-0.21053906,0.22549674,-0.3050861,-0.18850408,-0.10112359,-0.07310856,-0.22937028,0.033331648,-0.40046006,0.11846151,0.65542626,0.01200647,-0.23148103,-0.29365304,-0.066309966,-0.069905974,-0.26399156,-0.44458807,0.27901807,-0.024600064,0.29370776,0.031397186,-0.114563785,0.275457,0.2780271,0.297361,0.55754477,-0.090208225,-0.3135616,0.28017718,0.47718143,-0.16740583,0.44619834,-0.025959264
hsa-miR-619-5p,0.10161173,-0.0014768151,0.06766464,0.10054625,0.040483065,-0.48245978,0.38785324,-0.13533309,-0.07002113,0.1648845,0.0634008,0.2846659,0.034820724,-0.65592146,0.031161444,0.05056899,0.19788799,-0.23288912,-0.17414865,0.015446668,0.23112734,-0.020104792,0.5098754,-0.0725723,0.60213387,-0.4400552,0.024190005,0.6974377,0.285049,-0.039592274,-0.052395284,-0.20863517,0.023200521,-0.2238492,-0.09790322,-0.20802632,0.0379677,-0.09751872,0.4115317,-0.08809418,-0.40908152,-0.0025018565,0.27756745,-0.055428118,0.021342283,0.26158032,0.10943667,-0.29272237,-0.33029303,0.12355125,-0.039031234,0.51869226,-0.001505972,-0.09961648,0.05714369,0.14125341,-0.058754057,0.04261616,0.2775494,-0.25221473,-0.31057325,-0.31785655,-0.18445951,-0.08516602
hsa-miR-181b-5p,-0.20203616,-0.35271257,-0.10999,-0.39513266,-0.039969258,-0.1437789,0.2551896,0.03100246,-0.27585757,0.077166975,-0.05434192,-0.11897527,-0.6083315,-0.27663925,-0.13286659,0.5361588,-0.21687979,-0.017201232,0.3687097,0.21269913,0.11438047,-0.15647136,0.802457,0.48256806,0.44638604,0.289555,0.1277522,-0.13557254,-0.19684388,0.5059386,-0.6009141,-0.4192464,-0.5160635,-0.02435837,-0.34833974,0.044794496,0.10239169,0.1292641,-0.22694816,-0.2655224,-0.53052497,0.12265361,0.30672252,-0.7053231,0.2547037,-0.11882274,0.69905394,-0.4161711,-0.25058785,0.08803361,0.59156597,-0.002760649,0.22186214,-0.07045433,0.4215877,0.07664992,0.4956982,0.640993,0.3881722,-0.03541224,-0.45623526,-0.28411844,0.266501,-0.19461258
hsa-miR-3941,0.38887545,0.0081889555,-0.028879173,-0.29362357,-0.21430403,-0.27777696,0.60006493,0.12750979,0.14869595,0.020147536,-0.29220304,0.029918049,-0.17797543,-0.056133747,0.20822889,0.8548494,0.43376,-0.23666687,-0.384924,-0.00080359157,0.1277662,0.15253565,0.72888505,-0.34747887,0.19204634,-0.071452536,0.021063637,0.3999671,0.28605133,-0.12647791,-0.33979228,-0.02100221,-0.15193579,-0.0935732,-0.61795443,-0.22879626,-0.20583396,-0.4312981,0.1264283,0.15138073,-0.3363675,-0.32655308,0.19712728,-0.3186602,-0.2152856,0.25047708,0.3678389,-0.4821438,-0.16700198,0.41719043,0.26411057,0.14963177,-0.22495155,0.20325209,-0.038058758,0.37032178,0.33778423,0.1612794,0.06162923,0.028758427,0.19107033,-0.17826898,0.2671087,-0.005433918
hsa-miR-6887-5p,0.3365683,-0.029631676,-0.06517467,0.43518382,-0.098839946,-0.53327996,0.3711927,0.15625001,-0.13290802,0.11919428,0.113851406,0.056871507,-0.118542686,-0.281563,-0.0780888,0.4578346,0.24953306,0.20311697,-0.22843213,0.29509023,0.4396939,0.36319092,0.67629063,-0.18446939,0.44134012,0.039929148,-0.06607876,0.68052006,-0.4193269,-0.036584683,0.11869497,-0.3322024,0.14978041,-0.29313752,-0.6863194,-0.18534482,-0.05323115,-0.12743601,1.0219073,-0.068182155,-0.7328612,0.1650356,0.14932746,-0.08362938,-0.5164161,0.16835192,0.0860831,0.07596626,-0.7121229,-0.027695812,0.06497598,0.38258228,-0.4610391,0.42968044,-0.39796314,-0.008122627,-0.13639222,-0.78055257,-0.306501,0.08677729,0.07969644,0.2330149,-0.16090569,-0.24555252
hsa-miR-6791-3p,0.04416737,0.12836882,0.2530052,0.09843696,-0.0136178695,-0.2665689,-0.033418458,-0.19554335,-0.15607695,-0.04268979,0.3228907,-0.24514511,-0.016270379,-0.10072192,-0.25687706,0.12429259,-0.2253147,-0.007235104,0.4317242,0.24537848,0.3010185,-0.2029325,0.18263184,-0.23256308,-0.06783436,-0.07023522,-0.36339512,-0.2281192,-0.13540077,0.27329308,-0.11276223,0.184439,-0.33975613,-0.15385737,0.26055658,-0.16801482,0.23927498,0.34090763,-0.36677495,-0.1038699,0.4246436,0.20989013,0.018475208,-0.2824997,0.13100454,-0.111764625,-0.09438353,-0.37745076,0.2636603,-0.05456967,0.27496642,-0.13901085,-0.19787963,0.07754829,0.65734255,0.032296587,0.1804085,0.07744437,-0.052940827,0.029094791,-0.18827303,-0.33182594,0.052944005,-0.19750038
hsa-miR-7106-5p,0.007785596,0.09186549,-0.04248054,0.35052082,-0.0016982382,0.040232744,0.10467212,-0.09226622,-0.019690499,-0.19828343,0.25850257,-0.14538288,-0.04745029,0.29965654,-0.03411833,0.28230476,-0.31812084,0.31462303,-0.086903974,0.20188625,0.17164342,0.41809908,0.5990872,0.06305995,0.23533496,0.11161535,0.036039248,0.09391682,-0.54220665,0.21304247,-0.18127367,-0.35464427,-0.06343802,-0.53587484,-0.13158387,-0.1560987,-0.05963415,0.18661663,0.8393199,-0.03322975,-0.19068082,0.09016644,-0.12736876,-0.36399126,-0.18628725,0.2644398,0.17476848,0.24736328,-0.38263866,-0.033488967,-0.015181865,-0.03506213,-0.17615032,0.2324339,0.038203124,-0.22177489,-0.08151663,-0.4183325,-0.42525825,-0.020523977,-0.13204184,-0.035705503,-0.16608734,-0.49149352
hsa-miR-4530,0.21532433,-0.030281603,0.44913813,0.51494485,-0.07753403,-0.5137157,-0.10313655,0.44981214,0.022385012,0.3850609,0.301831,-0.102687694,-0.04106322,-0.4435288,-0.04107168,0.25099593,-0.18448846,-0.2841379,-0.51928174,0.24849638,0.4136312,0.17848143,0.017662846,0.123597875,0.12858814,-0.087609455,-0.29916206,0.23706758,-0.33695823,-0.28770715,-0.3594028,-0.4992672,0.28620487,-0.35393804,-0.07601047,-0.16291039,-0.10216359,-0.15091701,0.3695733,-0.24680544,-0.08930616,0.15317713,0.0962778,-0.13524196,-0.103285335,0.20552438,-0.12972085,0.3004313,0.074865736,0.026810035,0.33026832,0.9917416,-0.18903792,-0.14867374,0.10378124,0.4171489,0.3017118,-0.0715597,0.4494735,0.092774406,0.097002394,-0.036339696,0.31735638,0.20888293
hsa-miR-3187-5p,0.20045555,-0.35389814,0.4114702,0.18257196,0.040597513,-0.23864478,-0.06197787,-0.04225659,-0.45972142,-0.12636402,0.47786698,0.04106931,0.120857395,-0.268397,0.1941288,-0.80019957,0.18063855,0.3022447,0.1513898,0.40680093,0.114739075,0.28191182,-0.1632546,-0.09701773,-0.030774545,0.23199256,-0.47992235,0.29596105,0.10630318,0.3932845,-0.0067933737,0.6297178,-0.10563455,-0.037766714,-0.028042058,0.06591055,-0.057285953,0.44494206,0.6045335,0.2884168,-0.3073683,0.12039592,-0.070284106,-0.3085091,0.04041021,-0.75768584,-0.031954303,0.18532176,0.40930858,0.266021,0.26063368,-0.5381871,0.09969726,0.15237805,0.3702323,-0.2563708,-0.4724801,-0.32827985,0.06956583,0.08253111,-0.118044674,-0.044294205,-0.35067314,0.08635101
hsa-miR-8059,0.35722655,-0.33523566,-0.2479542,0.57612103,-0.11407482,-0.013652479,0.25190285,0.0017671415,-0.010423112,-0.040549036,0.0074922,0.107180424,-0.15116727,-0.1939229,0.52873135,-0.0046317405,0.59454393,-0.17475003,-0.26066726,0.5035944,0.24506582,0.84060806,0.18907425,-0.34196183,-0.12924753,0.5402692,0.010161043,-0.02563169,-0.2539776,0.09363208,0.15269126,-0.048080824,0.12126369,0.034360163,-0.7214373,-0.08350796,0.20707034,-0.1291962,0.8227855,-0.005679194,-0.611461,-0.10792881,-0.0348504,0.17408885,0.046890136,-0.19894418,0.08744613,0.49567178,-0.37837186,0.26515493,-0.33152395,-0.34568384,0.55919075,0.7575301,-0.2893545,-0.038233336,-0.28726795,-0.2100211,-0.29923084,0.35764718,-0.07803741,0.0504281,-0.31198224,0.31389466
hsa-miR-4749-3p,0.5551449,-0.056281254,0.86678797,-0.20320532,-0.2614033,-0.56292546,0.22731572,0.11670644,0.17016444,0.11520143,0.61700475,-0.29017195,0.4112321,-0.07434756,-0.380891,0.2902413,-0.04304455,-0.17951265,-0.16902886,-0.21675046,0.23686384,-0.26381978,0.102540165,0.12621921,-0.23015437,0.05699762,-0.44807342,-0.19217998,0.25242496,-0.5639907,-0.07958089,0.36003077,-0.18006478,-0.15283316,0.022905352,-0.52480495,-0.16922429,0.019934732,-0.33820415,0.1329884,0.30289742,-0.078572944,-0.29475787,-0.43738678,-0.024771215,-0.41051245,-0.17588502,-0.70618504,0.5839633,0.04311194,0.34414732,0.5752555,-0.4140233,0.32487038,0.22705813,0.39558685,0.26513758,0.14115039,-0.14037211,0.31927478,0.57836026,-0.515595,0.31314924,0.6031393
hsa-miR-6871-3p,0.20666522,0.22979398,0.45159966,-0.15310751,-0.022275195,-0.48155263,0.09662014,0.24298263,0.077227,-0.014987652,0.111900635,-0.04637944,0.32060274,-0.08419871,-0.29337972,-0.027101923,-0.12441269,0.0925888,-0.20646104,-0.09238937,0.11345685,-0.36056343,0.20750144,0.17647533,-0.094722435,0.08207852,-0.14765169,0.21730028,0.25760984,-0.5343013,-0.0018971646,0.16179991,-0.14192677,-0.020178018,0.1379414,-0.25868952,-0.13412566,-0.097817115,-0.1655695,0.0026452695,0.5343003,0.08712033,-0.12444843,-0.23502263,-0.07478136,-0.11908532,-0.029672837,-0.25050294,0.53470445,0.04530331,0.68101823,0.6346458,-0.3551098,0.052183427,0.38295,0.27489832,0.5154973,0.0742723,0.26114762,-0.0070540537,0.479674,-0.31289256,0.2621432,0.22857781
hsa-miR-6842-5p,0.22449802,-0.06179649,0.4136736,0.08396938,0.15229686,-0.19244401,0.14262575,0.062152848,-0.064969085,-0.40989843,0.17838566,0.12059192,-0.07367095,0.39820924,0.25045988,-0.1799434,0.06961085,-0.05908714,-0.12117853,0.27217832,-0.038413286,-0.26025334,-0.08338306,-0.2973684,-0.26235297,0.2654963,-0.0759982,-0.22565046,-0.041804653,0.21263562,0.12517051,0.2029056,0.06292218,-0.36889902,0.23179269,0.015336688,0.022677908,0.052823823,0.5193948,-0.04143021,0.05835656,-0.06069924,-0.30231342,-0.006258984,-0.05429962,-0.26802936,-0.034926567,0.13288467,0.19200727,-0.01834493,0.117584795,-0.17761841,-0.001807331,0.09165489,0.73049504,0.09597322,0.2506724,-0.118864484,-0.11131372,0.061750308,-0.2118157,-0.12534793,-0.6370802,-0.48640853
hsa-miR-190a-3p,0.72412646,-0.4388827,0.55069214,-0.85960674,0.68461317,-0.32795975,0.3114042,-0.23554789,0.020698732,-0.6071931,-0.09479915,-0.60239387,-0.28064248,-0.09983744,0.22238351,0.8102727,0.2551635,-0.51938593,-0.14409044,-0.3288948,-0.18971294,-0.5547103,0.80740625,0.1945242,0.22981651,-0.038903963,0.56633663,-0.69435304,0.265141,-0.18646426,-0.27596474,0.20050314,-0.23371406,-0.31118602,-0.35625413,-0.3517847,-0.2998762,-0.16556586,-0.35411793,0.038831845,-0.101278044,-0.3315158,-0.17958492,-0.16040313,0.35673591,0.13394855,0.17521401,-0.57939756,0.57869697,-0.20075881,-0.85774136,0.50152785,0.46391976,0.3271299,0.6157603,0.5328773,0.146453,0.5162342,-0.32556233,0.27826843,-0.026597328,-0.22930305,0.10544479,0.20134538
hsa-miR-1207-5p,0.08295858,-0.05722179,0.29898104,0.44720784,0.026962608,-0.4461383,0.18606177,0.30661803,-0.2585847,-0.068303466,0.3226888,0.27979204,0.10730561,-0.10914667,0.095406845,-0.2791359,-0.16962118,0.29334182,-0.2893038,0.12742448,0.31479725,0.20909558,0.2782699,-0.10425423,0.27278882,0.08523248,-0.19633289,0.5950872,-0.17037933,0.0652698,-0.035472084,-0.16414914,0.19028307,-0.39961508,0.22298181,-0.017254502,0.110131,0.17109206,0.9709933,-0.15047692,-0.34221417,0.105742455,0.044601075,-0.27791488,-0.25408164,0.019646885,0.15583697,0.104601085,-0.1297284,0.09586495,0.44158,0.3663226,-0.116937734,0.08188917,0.3258056,0.0074129305,0.15152816,-0.4548654,0.13378604,-0.1688974,-0.26420656,-0.19642018,-0.61295885,-0.32021007
hsa-miR-7152-3p,0.17210118,0.11864159,0.05456428,0.07368377,-0.075223126,-0.22249125,0.19269755,0.104505435,-0.0029014342,-0.18199612,0.066470236,-0.09228962,-0.06847926,0.32716602,-0.167909,0.1994247,-0.16965683,0.33831576,-0.16253325,0.24130496,0.22202848,0.07146944,0.42977372,-0.21346405,0.016574506,0.3370694,-0.0032365476,0.13444883,-0.36645323,-0.09321459,-0.026653122,0.007806965,0.061671633,-0.022727486,-0.24333984,0.03296135,0.057334382,0.024052968,0.29088348,-0.017273333,0.075223684,0.25229198,-0.107022196,-0.09673605,-0.24060531,0.11660972,0.17321481,-0.053511508,-0.22633821,0.13867754,0.5343925,0.0637434,-0.4194957,0.09784209,0.044551253,-0.2505094,0.36974624,-0.53192216,-0.2599744,0.12924659,0.115814224,0.15888768,0.0069081164,-0.50777763
hsa-miR-6721-5p,0.02905103,-0.30223104,-0.07566987,0.1356987,0.25922406,-0.40897262,0.43800968,0.0046731164,-0.3176587,-0.07617099,0.21977921,0.4587542,-0.09723066,-0.29857808,0.06314819,0.08959555,-0.16122223,-0.12888949,-0.012035364,0.20411336,0.11802934,0.043696053,-0.064228065,-0.14245228,0.39866993,-0.022369396,-0.045166943,0.15923123,0.27492866,0.43952626,-0.2089686,-0.10849541,0.30924717,-0.5999189,0.6417307,0.006833913,0.11326126,-0.11134957,0.73375785,-0.3478225,-0.61174685,-0.12215593,-0.06577304,0.08388984,0.115831934,0.18681571,-0.18776171,0.011563533,-0.3779593,-0.1904049,0.062005706,0.10121286,0.20530821,-0.09006599,0.21816972,0.3149619,0.11910865,-0.1814242,0.064053036,-0.24540551,-0.91208225,-0.38728395,-0.71557164,-0.471039
hsa-miR-5582-5p,0.786533,-0.22804794,-0.05140954,-0.00092410686,0.052645653,-0.21106757,0.5564502,0.08850206,-0.020022744,0.11314175,-0.34643668,-0.15386224,0.007743106,-0.45407423,0.5909915,0.23046547,0.41060725,-0.8866195,-0.39171088,0.21886277,-0.14562395,0.4022016,-0.42411983,-0.25835243,-0.17066303,0.41012958,-0.06017173,-0.07421575,0.8897253,0.0010525862,-0.20504376,0.26922065,0.16051264,-0.11123391,0.3018711,-0.011407701,0.24571046,-0.280212,0.11595171,-0.59136903,0.0029563606,-0.33534282,-0.06474936,0.33823347,0.44086543,0.30005527,-0.050607033,0.10427712,0.033180717,0.4159665,-0.07166389,0.24104889,0.50552434,-0.1353528,0.10665954,0.6950262,0.4338303,0.22779971,0.1698359,0.18250412,-0.87404716,-0.42621922,-0.5466729,0.6363037
hsa-miR-6731-5p,-0.032637067,-0.2970881,-0.14714308,0.12324615,0.36948344,-0.41723937,0.14570032,0.43302017,-0.3065425,-0.14808334,0.226443,0.28044468,-0.08829105,-0.28362224,0.107391685,0.13266225,-0.09783571,0.14881706,-0.11342982,0.23206621,0.18184328,0.050298247,-0.06525596,0.07585723,0.23550709,0.03376934,0.18758322,0.42188093,0.17410494,0.27211824,-0.28952035,-0.32505235,0.24069978,-0.26790676,0.19327791,0.05874042,-0.09913646,-0.003372914,0.8241661,-0.2421229,-0.7857975,0.10414121,0.22365579,0.21206255,0.0642468,0.19153367,-0.08779372,0.06687568,-0.19584362,-0.113136224,0.03658628,0.045472108,0.34030092,0.14265798,-0.021402352,0.0827094,0.07288894,-0.22256698,-0.085604,-0.3680172,-0.35071936,-0.19534975,-0.3707142,-0.41915438
hsa-miR-6883-5p,0.0034818565,-0.43424538,-0.21928476,0.2243116,0.39278167,-0.5802763,0.3405989,0.25622994,-0.23992209,-0.5627299,0.3945731,-0.05185689,-0.06745016,0.063106604,0.065177925,0.13211118,-0.013495393,0.30320504,0.06560833,1.0284984,0.24374014,-0.2574893,0.33522606,0.09999666,0.13753718,0.17072766,0.13384731,0.1612131,-0.22335967,0.20826672,-0.11398319,-0.15749992,0.3378666,-0.16972792,-0.08386763,-0.13895862,-0.42402664,-0.21007729,0.98933357,0.13704404,-1.0928525,0.5001217,-0.094066255,0.26949817,0.17589946,-0.12311109,0.063112296,0.09725503,-0.5260176,-0.07678112,-0.10606851,-0.22847897,0.6040537,0.51130325,0.121763736,-0.24424781,-0.35436875,-0.27866703,-0.24340856,-0.036809858,-0.40485725,-0.16050121,-0.11855548,-0.69319785
hsa-miR-6752-3p,0.72173905,0.025712857,0.5346923,-0.3131674,0.026491916,-0.7290187,-0.10792476,-0.06781477,0.34507826,-0.1987398,0.41231874,-0.29408902,0.1930303,-0.10826463,-0.5067468,0.47621298,0.24398261,-0.47741348,-0.31017062,-0.27429885,-0.071221896,-0.50697446,0.43651885,-0.027094923,0.020071851,-0.089062974,-0.033455264,-0.4032475,0.2222591,-0.72172153,-0.10000033,0.31046268,-0.20264845,-0.17153028,-0.064276926,-0.2915286,-0.5742929,-0.22619864,-0.55028677,0.2282716,0.2785152,0.13737096,-0.30236527,0.033488773,0.021053039,-0.17099997,-0.36733997,-0.93863046,0.35953578,-0.20907253,-0.1105797,0.5718463,-0.13938147,0.31156075,0.06966394,0.07051886,0.08569106,-0.0072265943,-0.24705085,0.12452263,0.4340513,-0.31453773,0.60163176,0.17015588
hsa-miR-574-5p,0.07603942,-0.41898543,-0.21110629,-0.26801005,0.38530207,-0.73081243,-0.44380587,0.8265069,-0.40649882,-0.46319366,0.35957322,0.3343871,-0.0492542,-0.12809929,-0.01225135,-0.3400195,0.071499065,0.7957265,0.42279282,0.58786833,0.20881195,0.13330741,-0.019302752,-0.19107515,-0.43052283,0.8242227,-0.34587896,0.71634436,0.40098217,0.26248977,-1.0108525,0.30691838,-0.3101264,0.3574333,-0.21162245,0.22015786,-0.6929563,0.3340084,1.0323879,0.56797487,-0.43116283,0.6797239,-0.08215728,0.036967598,0.41563442,-0.0268212,0.16691324,0.112034276,0.027663054,0.24549699,0.41886142,-0.9141562,0.8526952,0.56363857,0.07830728,0.022454618,0.3530769,-0.43940675,-0.16603135,-0.4526635,0.63561296,-0.14351352,0.4331022,-0.08184355
hsa-miR-6810-3p,0.18169898,-0.06537815,0.29503658,0.06449999,0.031271297,-0.20693873,-0.457141,0.16651939,0.11473812,0.011898749,0.68953204,-0.36014056,0.15587258,0.39993116,-0.7100399,0.24644296,-0.22698101,-0.08868114,0.09438425,-0.013754859,0.24163358,0.17298438,0.23841184,-0.05655855,-0.1782933,0.30822477,-0.47183096,-0.7292914,-0.20415744,-0.33309385,-0.34849778,0.20164232,-0.56329006,-0.3484093,0.24350856,0.0028204592,-0.20377037,0.3722953,-0.12968437,0.08232635,0.57688457,0.10962667,-0.17169687,-0.3604664,0.027370544,-0.24891925,-0.5642273,-0.49621212,0.15071511,-0.17082234,-0.031025544,-0.08061502,0.35321167,0.3045664,0.25532094,-0.05319664,0.20840959,-0.043341424,-0.3729834,0.04627071,0.41461065,-0.5506007,0.23131306,0.19142295
hsa-miR-4719,0.75197184,-0.28529665,0.74949014,-0.64411414,0.44357014,-0.49449372,0.35437748,0.20013839,0.14074492,-0.6883234,0.06586776,-0.27285165,-0.25266296,0.09517679,0.55605036,0.41804156,0.411847,-0.69721746,-0.30930635,-0.28863832,-0.1800691,-0.6866295,0.56122965,0.21952336,0.14466257,0.11013597,0.30160224,-0.19200903,0.79247713,-0.20622095,-0.2089938,0.30783817,0.0025746736,-0.27394187,0.10366564,-0.29058087,-0.40456057,-0.25652665,-0.20213641,0.163166,0.06370066,-0.31125352,-0.046992607,-0.28646272,0.37202513,-0.20009786,0.2982788,-0.3967085,0.68580025,0.112984255,-0.2836786,0.23470134,0.3597085,-0.008685519,0.99525803,0.58741504,0.28491777,0.46957406,0.34929958,0.01127718,0.07756287,-0.398036,-0.07308448,0.02427857
hsa-miR-378g,0.025950931,0.12881911,-0.17088681,0.26706162,-0.3565586,0.03500301,0.19205089,0.18085212,-0.19268835,0.07922682,-0.16113062,-0.120878704,-0.3659171,0.092037775,0.007777332,0.048080716,-0.07528999,0.20589294,-0.32285473,0.1958467,0.22355217,0.51667255,0.31897825,-0.095087126,0.01455745,0.23686442,-0.19067425,0.1331219,-0.21272078,0.18025042,0.034489416,0.19429415,-0.14477612,-0.17561743,0.0016766603,0.24834049,0.39535254,0.21636184,0.6389237,0.110097736,0.13212587,-0.28934452,0.31548935,-0.11179653,-0.41670555,0.25474513,0.24199478,0.42741638,-0.3061339,0.31229675,0.08120288,-0.16194196,0.037899863,-0.07340994,0.015446085,0.015028624,0.23877154,-0.3533035,-0.16748136,-0.048483204,0.08179946,0.1994408,-0.18855028,0.03188824
hsa-miR-6873-3p,0.17179328,0.24074897,-0.031723652,-0.42853126,0.06732057,0.16893676,0.04851292,-0.4668464,-0.050038178,-0.031960115,-0.008323748,-0.44925323,-0.50657046,0.5074142,-0.14940286,0.67175156,-0.178897,-0.12374614,0.19720495,0.4211672,-0.105230115,-0.045459416,0.90896064,-0.23858076,-0.33980346,0.16881101,-0.20489404,-0.59510446,-0.3521186,0.10894686,-0.38530174,0.41160828,-0.87946767,-0.37409964,-0.07457587,0.06459401,0.5110289,0.54053324,0.12577717,0.36349422,0.8116532,0.0074997162,-0.053284403,-0.606391,0.11074449,0.70120573,0.4575647,-0.28045726,0.11220177,0.34431416,-0.041449107,-0.7606783,-0.055544067,-0.09767192,1.0308981,0.4709005,0.719009,-0.14239454,-0.32827708,0.20098686,-0.069604225,0.01213293,0.029233813,-0.13348956
