hsa-miR-6087,0.5031631,-0.26260364,0.07421842,-0.01570677,-0.22131774,-0.5588161,0.22771011,0.03543804,-0.17651835,-0.29845706,0.77432424,-0.026084647,0.395459,-0.4017784,0.26671782,0.33342165,-0.07088608,-0.014701815,-0.034209825,-0.06458426,-0.0099639315,0.30222094,0.36519283,0.06235096,0.32662344,0.17417021,0.046606872,0.14384353,0.011436777,0.32813722,-0.17657222,-0.30336156,0.06972466,-0.63048756,-0.21843186,0.15850958,-0.39469424,0.12507829,0.5818537,0.062904336,-0.5905943,-0.154716,-0.057375304,-0.75281054,0.059521697,-0.23238824,-0.086695276,-0.15383182,0.2090487,0.51779556,0.1607563,0.11660211,-0.19876556,0.50461143,0.07244993,-0.5542601,-0.061551284,-0.10893186,-0.35934764,0.46146807,-0.35419777,0.036415372,-0.2413425,-0.4281128
hsa-miR-7-5p,0.3581797,-0.41391262,0.016592653,-0.4563638,-0.42028052,-0.8652346,-0.4756283,0.57451785,-0.26293445,0.1918269,-0.13717806,-0.79948217,0.3789234,0.30248755,0.34923396,-0.035807315,0.24193394,-0.085901275,0.01583732,0.21379647,0.38502425,0.022118615,0.031980075,0.25001213,0.48324016,0.316065,-0.20961598,0.020867785,0.09527726,0.12120697,-0.7405135,0.4057477,-0.24645036,0.41711697,-0.5912666,0.3870527,-0.26507002,0.30712435,-0.10470636,0.23441507,-0.32816365,0.30026227,0.36423835,0.1824194,-0.25523278,0.08485253,-0.20421557,-0.12023262,0.44752997,0.03404541,-0.10581813,0.13369529,-0.076120816,0.28317,0.027157016,-0.13732298,-0.42365876,0.38095498,-0.44325137,0.4778796,0.036615737,-0.012233964,0.23205471,0.047249265
hsa-miR-328-5p,0.18785736,-0.14217642,0.14133255,0.41649044,-0.0053616306,-0.281662,0.37840977,-0.09775045,-0.020321798,0.22784899,0.31622148,0.11299519,0.3464403,0.22519717,0.14782386,0.26130018,-0.44900268,0.18988205,-0.40000346,-0.103022814,0.16152546,0.58316475,0.24441195,0.118200004,0.10077172,0.36559403,0.046464115,0.24824558,-0.19966213,-0.014318205,-0.17052051,-0.44194025,0.27487287,-0.6480906,0.030869566,0.2191263,0.10395049,0.060822707,0.5806804,0.22755043,-0.022773309,-0.2710689,-0.16007279,-0.3108837,-0.0012940542,0.07742129,-0.022201708,0.2724368,0.3103912,0.27964398,0.16740668,0.32142907,-0.2958831,0.0019248187,0.21447423,-0.0735257,0.15981708,-0.26741025,-0.10070796,0.06283536,-0.107980005,-0.2953052,-0.47096327,-0.19415586
hsa-miR-3689b-3p,0.28570765,0.16836978,0.022310488,-0.12212201,-0.38374388,-0.56866467,-0.2085199,-0.22120172,-0.42313412,-0.27986434,0.10645078,0.014425836,0.003160359,0.121165186,-0.31508315,0.0004791738,0.00530621,0.2748711,-0.008142962,0.025518725,0.42524904,-0.26236704,0.39629844,0.139194,0.12137967,0.1837637,-0.46785048,-0.09669442,0.20023707,-0.05145747,-0.50011283,0.27604043,0.065904304,-0.2774743,-0.17138387,0.052586477,0.025819901,-0.4401178,0.18812668,0.006415365,-0.5771748,0.34231663,-0.2853237,-0.17637537,-0.11288409,0.3061978,-0.711706,-0.082306094,-0.12376312,0.0016354868,0.2784528,0.13391705,-0.26635054,-0.023909718,0.033760317,-0.36168835,-0.58962196,-0.26541793,-0.49921897,0.44381845,-0.1762314,-0.022714691,0.16503993,-0.37913123
hsa-miR-3689c,0.28570765,0.16836978,0.022310488,-0.12212201,-0.38374388,-0.56866467,-0.2085199,-0.22120172,-0.42313412,-0.27986434,0.10645078,0.014425836,0.003160359,0.121165186,-0.31508315,0.0004791738,0.00530621,0.2748711,-0.008142962,0.025518725,0.42524904,-0.26236704,0.39629844,0.139194,0.12137967,0.1837637,-0.46785048,-0.09669442,0.20023707,-0.05145747,-0.50011283,0.27604043,0.065904304,-0.2774743,-0.17138387,0.052586477,0.025819901,-0.4401178,0.18812668,0.006415365,-0.5771748,0.34231663,-0.2853237,-0.17637537,-0.11288409,0.3061978,-0.711706,-0.082306094,-0.12376312,0.0016354868,0.2784528,0.13391705,-0.26635054,-0.023909718,0.033760317,-0.36168835,-0.58962196,-0.26541793,-0.49921897,0.44381845,-0.1762314,-0.022714691,0.16503993,-0.37913123
hsa-miR-30b-3p,0.40921673,-0.31725413,-0.23200876,-0.26963758,-0.1382633,-0.4469423,-0.2775485,0.09067359,-0.3063749,0.003333099,-0.20935653,-0.40576515,0.16243923,0.38163587,-0.09118647,0.08974199,-0.2198424,0.32268998,0.08669556,0.16992523,0.36347634,0.2860068,0.41664404,-0.25257686,0.22752139,0.37880528,-0.24031304,0.13564673,-0.22374015,0.23745994,-0.44111082,0.027706264,-0.16976133,0.022819985,-0.5227983,0.08944073,-0.19001114,-0.035378072,-0.034284443,0.13334791,-0.5136575,0.42798665,-0.12977418,-0.16121659,-0.12277118,0.23534235,-0.04887951,-0.27918762,0.037948932,-0.25051418,-0.20382327,0.11597771,-0.23216976,0.4512685,-0.08531487,-0.09415661,-0.14820608,0.067720175,-0.49519187,0.3655922,-0.2511641,-0.11005749,-0.015108939,-0.032294776
hsa-miR-3689a-3p,0.3994141,-0.05582967,0.18766195,-0.13922115,-0.6351847,-0.6700198,-0.0055001318,-0.23767358,-0.40649796,-0.7085361,0.35805348,-0.0307466,-0.20373134,-0.046817485,-0.426664,0.111994594,0.009822365,0.3089328,0.11846451,-0.26058772,0.4002917,-0.21610028,0.5497469,-0.14493522,0.22044611,0.009261528,-0.44691297,-0.047239065,0.21900265,-0.022874288,-0.48094678,0.22942375,0.16590953,-0.6158897,-0.31993398,-0.3490178,-0.06416214,-0.6959665,0.2771979,-0.16736014,-0.7532936,0.37745485,-0.34292182,-0.14467192,0.1307468,0.18205407,-0.46625638,0.05954334,0.022816757,0.2296272,0.019763812,0.055674516,-0.43074906,0.13347258,-0.13444209,-0.2999398,-0.7483847,-0.515517,-0.64671296,0.8119489,0.10752955,-0.036388688,0.3162748,-0.6079643
hsa-miR-8485,0.5241253,-0.19053704,0.37063608,-0.17955832,0.08064261,-0.78339905,0.70058453,0.7291986,-0.51895404,-0.07233321,0.26841658,-0.40462297,-0.78016365,-0.59703624,0.07509335,0.8718782,-0.025921136,-0.2280724,0.047629565,0.5075653,-0.30228406,-0.17981295,-0.02727121,0.5998802,-0.2013126,0.08308586,0.26172757,0.26934576,0.25625688,-0.22741546,-0.5242775,0.27984664,0.25018516,-0.7719455,-0.09999275,-0.19932666,-0.086652115,-0.62834746,0.6032514,-0.4454723,-0.8816453,0.038657367,-0.1844757,0.07044747,0.7366652,0.5484928,0.46734032,-0.34024015,-0.049867887,0.917802,0.27000245,-0.094515085,0.60765785,-0.03709586,0.87728995,0.75977755,0.71893597,-0.44205377,-0.03545157,0.6787151,0.03884675,-0.34284166,0.34290656,0.85755855
hsa-miR-6851-5p,0.14723909,-0.12850617,-0.16354276,0.02342739,-0.2306743,-0.40409696,0.033483222,-0.15045561,-0.42115268,0.014844511,0.18200019,-0.005284522,0.1441825,0.026049744,-0.13479576,-0.08574777,-0.5170723,0.047824726,-0.044934228,0.031349793,-0.081742615,0.050802384,0.27351934,0.11802874,0.37884584,0.37648657,0.019461246,0.073301464,-0.1627986,-0.012564934,-0.1877843,-0.14139003,0.12933253,-0.3705402,0.37220913,0.050305795,-0.08082809,-0.1975824,0.33338815,-0.34715736,-0.33516845,0.29635048,-0.58926105,-0.27793384,0.25750414,0.6763365,0.22561596,0.24252342,0.16014487,-0.05647211,-0.03644938,0.31551784,0.016925925,0.098407894,0.15185228,-0.088519566,0.18873401,-0.028732736,-0.03807848,0.3920795,-0.5255174,-0.49783155,0.11973182,0.24650943
hsa-miR-4778-3p,0.028766993,-0.20129105,0.37628263,0.018309126,0.04666308,-0.17622685,-0.1333282,0.32948488,-0.35748836,0.5778344,-0.031093838,-0.3392377,0.043985702,0.2468315,0.19064607,-0.043497153,0.072078824,-0.116057016,-0.3659364,0.5825347,0.133623,0.5660597,-0.34483987,0.111503944,-0.03268912,0.56311965,-0.32173982,-0.12600014,-0.07578627,0.032375034,-0.64489,0.06859757,-0.6390192,0.42730284,-0.051742923,0.17861249,0.09940565,0.55045617,-0.05561872,0.30545816,0.24992992,-0.12224362,0.52346593,-0.2956335,-0.120795146,-0.15244493,-0.41503212,-0.09697061,0.3194371,-0.19648297,0.11087189,0.18297473,0.27445188,0.15335931,0.09863994,0.11809816,0.1627579,0.45351315,-0.11095311,0.005937988,-0.13145064,-0.11791283,-0.43193012,0.36664936
hsa-miR-4300,0.32409096,-0.24779332,0.2450081,0.028166955,-0.16425808,-0.488022,-0.262147,0.13799615,0.27094275,-0.029315427,-0.13628992,-0.55093145,0.39638618,0.29832208,0.27681643,-0.09959948,-0.1814816,0.22061257,0.02971275,-0.050382055,0.18856385,0.29369634,0.68609935,0.19802365,0.4621266,0.38458177,0.028006205,0.19307429,-0.3044569,-0.09219492,0.13478915,-0.006031289,-0.2121884,0.1343426,-0.2566237,0.3032288,-0.24397323,0.22443114,0.28296912,0.15651004,-0.2610777,0.609857,0.03789906,-0.1654563,-0.06516554,0.17307055,0.57938933,-0.02295932,0.247913,-0.035160724,0.079490244,0.06208602,-0.25023133,0.18754582,0.27148306,-0.06989264,-0.028455794,0.29423282,-0.3397851,0.36967006,-0.08319064,-0.24681626,0.26735407,0.0962246
hsa-miR-3192-5p,0.038377114,-0.09848145,-0.18501268,0.16852608,-0.37496325,-0.40807566,-0.18809229,-0.030989798,-0.57953507,0.10172034,0.15035054,-0.13081875,0.09522998,0.039479118,-0.20008433,-0.053768728,-0.47301722,0.10656845,-0.2652539,0.2508233,0.29974565,0.05272606,0.21463978,-0.019305957,0.31355256,0.38678414,-0.30335256,-0.1123234,-0.19662814,0.252519,-0.7321718,0.05193635,-0.09914633,-0.24197428,0.03286331,0.04266785,0.026896331,0.15821365,0.08517436,-0.03200272,-0.14753759,0.16515628,-0.078073695,-0.15758097,0.03723994,0.26446748,-0.5463872,0.070404746,0.18142882,0.043034922,0.25884917,0.36527255,0.034842137,0.14759335,-0.06496832,-0.14337918,-0.077366464,0.093008,-0.11930816,0.33844775,-0.28810015,-0.22086927,-0.0278267,0.09404588
hsa-miR-6780a-5p,0.07839061,-0.46957424,0.22361982,0.2645586,0.016814139,-0.5375967,-0.14598928,0.21755274,0.099489085,0.24861416,0.3665351,-0.2185105,0.26766405,0.063904464,0.0067903306,0.23215781,0.0049139746,0.17726566,-0.36969852,0.17715278,0.44668183,0.5461795,0.32392186,0.25313538,0.4118341,0.54433095,-0.18188758,-0.12505676,-0.33012673,-0.0017583136,-0.25385672,-0.44968918,0.038948976,0.068801455,-0.13725914,0.17369914,-0.02975156,0.15641554,0.5049674,0.00644472,-0.35095498,0.09580429,0.27561232,-0.021107053,-0.089774124,-0.12075272,0.07387783,-0.04213536,0.17715575,-0.12808198,0.4199811,0.08433335,0.06577915,0.3226359,0.09621013,-0.5197839,-0.012542478,0.28887132,-0.23345853,0.0039332565,-0.12926652,-0.16516769,-0.037820015,-0.26794147
hsa-miR-6756-5p,0.25913668,0.020361155,-0.017980292,0.24716742,0.008244011,-0.64562106,0.13998282,-0.14241213,-0.29591224,0.00804678,0.45625412,0.16868271,0.36603314,0.12606186,-0.20256624,-0.06848406,-0.26560545,0.47389042,-0.1935467,0.04422918,0.2640729,0.30407932,0.5943118,-0.0054134,0.17027538,0.7113597,-0.26136103,0.2579526,-0.19735184,0.017167116,-0.6417523,-0.21453276,0.06501747,-0.398098,-0.1553794,0.20590137,-0.106131926,0.0055937176,0.46550092,0.03534921,-0.2657439,0.359226,-0.5968076,-0.45944795,0.048945237,0.29141003,-0.40567654,-0.11860974,-0.19989431,-0.010874734,0.31606948,0.13244769,-0.09523752,0.2277305,0.16186069,-0.58906645,-0.048375733,-0.5510256,-0.25165838,0.0744648,-0.4314815,-0.10145664,-0.27570996,-0.45057276
hsa-miR-6726-5p,0.13610992,0.11346287,-0.044234104,0.14685458,-0.1924367,-0.20033759,0.059209846,-0.12453317,-0.056281894,0.06805534,0.44193992,0.20293863,0.32044578,-0.11726763,0.035080057,-0.12224902,-0.46837404,0.21075776,-0.24552566,0.056138176,-0.09633944,0.17031738,0.24649681,0.060239434,0.18328893,0.2865506,-0.11699991,0.18785246,-0.15301736,0.19557078,-0.2066647,-0.12318147,-0.04034529,-0.32729998,0.14060785,0.23392354,0.121693656,0.08131324,0.37410745,0.23541762,0.02669031,0.038102996,-0.07497062,-0.55382633,0.006177652,0.16129497,-0.37429458,-0.016886644,0.18579659,0.059933834,0.2961806,-0.04850153,-0.24946381,-0.06960046,0.13696343,-0.02108734,0.051615033,-0.37331322,-0.13376263,0.33356538,-0.40920335,0.021812748,-0.25028744,-0.035971455
hsa-miR-4728-5p,0.045021415,-0.38513732,0.030652653,0.4189139,0.0011196627,-0.3359036,0.012561317,0.33800265,-0.06344498,0.3953322,0.5044576,0.021942543,0.41248646,0.002551142,0.07342512,0.27084383,0.12463464,0.19090685,-0.46190262,-0.12289819,0.23323391,0.55106556,0.31614304,-0.16815586,0.12127321,0.3486503,-0.113844015,-0.09514547,-0.4515118,-0.20761943,-0.21428913,-0.5595077,-0.022127049,-0.38645867,0.1363165,0.2644755,0.007494277,0.07408684,0.65050304,-0.17393914,-0.36285058,-0.07709119,-0.30198732,-0.088250384,-0.27703765,-0.070077606,0.20779262,0.28894737,0.020636512,0.31328315,0.45483187,0.5697188,0.13291056,0.3005171,0.15996017,-0.3553951,0.17365433,0.24829714,-0.17563872,0.114565,0.032076955,-0.29807732,-0.1322422,-0.13170822
hsa-miR-650,-0.0132270325,-0.097043686,0.327761,0.5133555,-0.18043359,-0.046015617,0.34960905,-0.048195012,0.07511487,0.28347486,0.32353863,0.3033154,0.07492432,-0.15050088,0.12149355,0.23460846,-0.34781998,-0.03309691,-0.2960779,-0.10777777,-0.11923748,0.3409031,0.082687795,0.009187594,0.11903913,0.09847085,0.06771443,0.22801284,-0.3346522,-0.0392988,0.0458848,-0.32727194,0.25166088,-0.5182122,0.1913634,0.020873481,0.107114285,0.2258078,0.43041676,0.20326848,0.112250574,-0.2852883,0.0023561737,-0.23374672,0.19348648,0.04408382,0.21784998,0.62606037,0.18016922,0.50885814,0.2521567,0.3819739,-0.1264602,-0.16534477,-0.010477227,0.09243957,0.36185905,0.12217603,0.09111803,0.37045863,-0.01629797,-0.14761405,-0.22150695,0.08068121
hsa-miR-1277-5p,0.87968075,-0.2642474,0.29036966,0.31616014,0.29926652,-0.6402885,0.56338346,0.1684219,-0.8513114,-0.61090004,0.51988846,-0.65188813,-0.35361123,-0.7882526,0.05974192,0.13938056,0.50783044,-0.17890018,-0.034995403,0.7488691,0.3381914,-0.13725181,0.34804872,0.18249549,-0.35890406,0.04056939,-0.3090612,-0.19168895,0.33372283,0.06494487,-0.5393133,0.6374779,0.2598659,-0.56939214,-0.38232777,-0.9882265,-0.2846101,-0.81965375,0.31281114,-0.30456877,-0.8113719,0.23639789,-0.60180455,-0.0018411222,0.15711828,0.0699832,0.07663102,0.07667846,0.14764807,0.6478943,-0.24776122,0.18249412,0.811827,0.5537273,0.28007162,0.20382048,-0.30119085,-0.20571348,-0.22428454,0.75880873,0.1519675,-0.6730642,0.3715324,0.03859324
hsa-miR-1249-5p,0.05410827,-0.43579334,0.17747031,0.28930402,-0.10152208,-0.61296445,-0.16747534,0.48046708,-0.18534356,0.120509766,0.5026189,0.08905586,0.28095627,-0.06525194,0.14996423,0.03795976,0.73025614,-0.028809864,-0.20806779,-0.117868066,0.35197946,0.43690747,0.038258564,-0.0953588,0.06717414,0.33162934,-0.21332178,-0.120930836,-0.24744594,-0.36041704,-0.4141494,-0.4385416,0.13898544,-0.049316928,-0.009049296,0.034529462,0.15029061,-0.03516523,0.57450795,-0.2850779,-0.39647016,-0.048333615,-0.12022482,-0.010392601,-0.432317,-0.10208396,0.23430324,0.43190682,-0.051012516,0.022857377,0.2852693,0.26656398,0.14895087,0.37312028,0.08173335,-0.45605537,-0.06958021,-0.005084267,-0.19431263,0.14429617,0.20811075,-0.22227035,-0.09515716,-0.5927371
hsa-miR-103a-3p,0.3435991,0.14569843,0.16694069,0.36846304,0.07721324,-0.29626876,0.10094836,-0.4300411,-0.3836193,0.31710982,-0.09954586,0.20182058,0.046068665,-0.1819275,-0.102231055,0.036165293,-0.081563234,0.19647972,-0.09035389,0.4839259,0.23596591,-0.13369866,0.3690319,0.08686362,-0.025982952,-0.23801684,-0.22663417,-0.08147745,0.001989302,-0.30675876,0.20138606,0.19069265,0.25229385,-0.2189092,0.36073947,0.14142694,-0.16115037,-0.74132186,0.6075511,0.42131594,-0.3637546,-0.12094638,-0.2663322,-0.3530814,-0.19436769,0.43936297,-0.12005812,0.41510144,0.08254184,0.40546346,0.42342445,0.6346985,0.10519575,-0.3043161,0.2837475,0.17342195,-0.28161728,0.37941217,0.11634623,0.67056876,-0.011574368,-0.46042272,0.08404227,0.8958008
hsa-miR-107,0.2606328,0.22363177,0.11750227,0.2613022,0.1442333,0.06570573,0.3465472,-0.33855256,-0.06043212,0.5561557,0.1689881,0.30491403,0.28858975,-0.1935846,-0.1708081,0.20072968,-0.07344425,0.38357234,-0.27467573,0.26176202,0.047876794,0.044572994,0.5895613,-0.23919548,-0.06464767,-0.3313567,-0.20115249,-0.016224017,0.13890581,-0.3393856,0.24877319,0.16007559,0.0940611,-0.48524055,0.40167543,0.00018708539,-0.2782881,-0.79568434,0.6852737,0.34471396,-0.2710018,-0.34098056,-0.5069995,-0.27284607,-0.22976048,0.40173468,-0.010825768,0.44330794,0.06703748,0.57245135,0.28586116,0.7546803,0.023819605,-0.17951912,-0.04507513,0.44961345,-0.020541256,0.23879258,0.24732028,0.4205031,0.10773418,-0.37513602,0.18770078,0.8899304
hsa-miR-7110-5p,0.19533667,-0.28551936,-0.0036922554,-0.09163673,-0.50849605,-0.5873442,-0.104355305,0.0888831,-0.5973232,-0.033150565,0.26458046,-0.10979065,0.19040117,0.29091936,0.016800797,0.014023445,-0.027576346,0.24828734,0.07128903,0.18712795,0.31231967,0.22489476,0.30594093,0.088389695,0.46896133,0.6100583,-0.21151662,0.13886182,-0.10652887,-0.040366534,-0.64242554,-0.1519806,0.079100765,-0.3104981,-0.3869832,0.1331571,-0.084098354,0.11266057,0.39834943,-0.11752852,-0.4991786,0.4791288,-0.059272308,-0.08974186,0.0381326,0.2890087,-0.14614806,0.082945466,0.01040762,-0.036202878,0.17618975,0.35210806,-0.23402189,0.3007574,-0.27382457,-0.29226097,-0.21424381,-0.18292116,-0.32332754,0.45669037,-0.21463491,-0.038160164,0.047206175,-0.41047227
hsa-miR-920,-0.06081777,-0.34243825,-0.037222717,0.27571607,-0.188133,-0.48475838,-0.15737973,0.26697406,-0.23967502,0.31308123,0.44902784,0.1684138,0.41474164,-0.094474174,0.05298065,-0.22270876,0.045952234,0.28131834,-0.24800254,0.08082171,0.24087863,0.17393656,0.18579328,0.015391397,0.4036194,0.46247923,-0.22896823,-0.12201478,-0.2926435,-0.20722032,-0.44753453,-0.26150084,0.00016750998,-0.10559034,-0.03252779,0.50378597,-0.085496694,0.3677312,0.45597747,0.014833845,0.08206514,0.15663633,-0.14796822,-0.104123496,-0.056205958,-0.025434056,-0.2753553,0.18122675,0.05935176,0.21586621,0.478754,0.37901178,0.13731852,0.07992855,-0.083474174,-0.48966834,-0.28793326,-0.07775466,0.05274851,0.18028037,0.07930762,0.08201809,-0.05661386,0.042150345
hsa-miR-6752-5p,0.0154772755,-0.056165565,-0.060499754,0.11981661,-0.058753334,-0.38087347,-0.012743593,0.0067343977,-0.45809823,0.038850065,0.46178177,0.18301228,0.13724461,0.15522335,-0.12487721,-0.011916876,-0.20135646,0.31131673,-0.07239577,0.18899563,0.14219455,0.1401403,0.2500519,-0.14515132,0.2018774,0.5285981,-0.2884316,0.057466112,-0.27539837,-0.11858103,-0.40446895,-0.30867144,-0.06195638,-0.48091847,0.16678868,0.24045853,0.08541882,0.06871661,0.42553923,-0.23638418,-0.48409685,0.22373763,-0.36209178,-0.46005577,-0.10746095,0.27029565,-0.34428695,0.0056844535,-0.18746737,0.014597002,0.19835687,0.34022433,-0.2748676,0.17871435,0.12717086,-0.19801831,-0.107117705,-0.56659514,-0.22975825,0.24561624,-0.25514457,-0.17895901,-0.15553023,-0.2829722
hsa-miR-646,-0.13659978,0.026731381,0.2395206,0.5573669,-0.073290534,-0.06613298,-0.16156472,0.04350125,0.19742943,0.111178905,0.5124889,-0.043996464,0.3444961,-0.28200787,0.15150891,-0.24745093,0.055784665,-0.114556864,-0.40700698,0.3589923,0.2203303,-0.11972594,0.43439865,0.27955234,0.30468738,0.20331989,-0.32464167,-0.45031267,-0.16345258,-0.36471218,0.21776702,0.022972785,-0.32173756,-0.09435589,0.46738225,0.23437512,0.012743165,0.6368191,0.5107948,-0.025526516,0.33629602,0.1333527,0.14651324,-0.0017609871,-0.008907249,-0.20069796,-0.18266258,0.13615559,0.08226961,0.21192737,0.48071775,0.33204356,0.28810114,0.095442265,-0.008076695,-0.006987766,-0.09506131,0.29021886,0.21696332,-0.05352087,0.08708779,-0.0633313,0.30374068,0.095884204
hsa-miR-4739,-0.046072014,-0.40443316,0.14524372,0.47026545,0.112970516,-0.25015643,-0.14349179,0.13626297,-0.31646323,-0.032180298,0.87445754,-0.07642826,0.25072888,-0.49916622,0.16573961,-0.102287285,0.045237876,-0.20294446,-0.24507992,-0.05147969,0.116278216,0.38940862,0.11515308,-0.026852677,0.28793132,0.2042365,-0.13529307,0.14729159,-0.34735277,0.075323775,-0.13336426,-0.4946208,0.12594984,-0.2162706,0.30189356,-0.46315435,-0.29953015,0.32166493,0.5405947,-0.30047622,-0.6207435,0.00022013357,0.044898506,-0.35356328,-0.38521224,-0.33892003,0.37422213,0.344942,-0.04729351,0.009399891,0.33015025,0.29432413,-0.0151318675,0.56313586,-0.34843892,-0.3339176,0.11678385,-0.22261013,-0.005596219,0.23169199,0.032059036,-0.35537404,0.06793326,-0.49495655
hsa-miR-6812-5p,0.10100529,-0.28928483,0.10130252,0.21553017,-0.34173572,-0.666888,-0.3416601,0.17327093,-0.08975896,0.1958283,0.45112252,0.008411527,0.26815417,0.01386042,-0.28231552,0.05422054,-0.15051787,0.4114011,-0.25986895,-0.11669149,0.5088753,0.2620774,0.5005186,-0.04715336,0.28423807,0.26305473,-0.5004641,-0.08735821,-0.19405788,-0.081013806,-0.51728046,-0.18262734,0.20743173,-0.30783656,0.13396655,0.1771094,-0.034943268,-0.11603051,0.46747068,0.007008662,-0.581774,0.12300795,-0.08250202,-0.21226986,-0.19990323,0.13279454,-0.3154877,0.11292227,-0.13151649,0.32046267,0.42971376,0.43962097,-0.33301863,0.19844535,-0.07576031,-0.30939174,-0.39997527,-0.14418492,-0.21978386,0.34913793,0.08268171,-0.12779379,0.21563715,-0.40562612
hsa-miR-6799-5p,0.05294416,-0.003865965,-0.09762096,0.14652558,-0.19487052,-0.47096452,0.077388205,-0.1085672,-0.40592927,-0.0035026376,0.28804153,0.30526805,0.28106365,0.07205775,-0.10157026,-0.12826352,-0.33478355,0.30265903,-0.12168332,0.038781922,0.14258657,0.04864637,0.2699127,0.1284241,0.22220887,0.48618057,-0.18445918,0.091252066,-0.01476699,-0.093856275,-0.37984776,-0.18515839,0.06801659,-0.46093023,0.056927722,0.391775,-0.08561467,0.10659787,0.49261174,0.024157945,-0.10586428,0.23833267,-0.3956612,-0.30327582,0.13097839,0.2695899,-0.41451955,-0.05680664,-0.08323575,0.1517872,0.43113053,0.25615022,-0.06555088,-0.0050565694,0.04209242,-0.3183609,-0.1329103,-0.45070207,-0.04745415,0.07478928,-0.23603772,-0.020237416,-0.2624958,-0.0700581
hsa-miR-6756-3p,0.12237605,0.28474405,0.49933732,0.27897295,0.0035323615,-0.09120233,-0.048457704,-0.00031617476,-0.09132458,-0.39649296,0.38283727,-0.3637532,-0.05281643,-0.1479146,0.023198353,-0.20609407,0.20355572,-0.41685647,0.030816287,0.31175214,-0.021430183,-0.019089056,0.25793308,-0.2573664,-0.22712356,-0.046464752,-0.3222768,-0.28983513,-0.059329517,-0.31013945,0.10226671,0.45467618,-1.1026127,-0.0972962,0.6202815,-0.21016079,0.17531057,0.7148772,0.23136136,-0.18818544,0.41587943,0.058707852,0.23340757,-0.46223778,-0.08068845,-0.39476505,-0.034487765,-0.19722666,0.012701183,-0.0067871315,-0.2977767,-0.08940183,0.24340697,0.34000954,0.5275988,0.48854378,0.16966338,-0.1319949,-0.087576106,-0.14025962,0.10751393,-0.38939428,0.06639296,-0.06917727
hsa-miR-4446-3p,0.024493173,-0.047174938,0.42948857,0.24486059,-0.19478862,-0.4892871,0.18156604,0.1704096,0.033090547,0.14258878,0.060388256,0.41713428,0.08369304,0.041228175,-0.12810417,0.08341851,-0.13139763,0.3160711,-0.14636526,-0.05192114,0.1889445,0.21690401,0.33607674,0.20297019,0.099430904,0.44384634,-0.09571157,0.15584594,0.07010711,-0.28689754,-0.085166335,-0.19489276,0.20759107,-0.18193813,0.08099387,0.3413028,0.098721445,-0.25145385,0.62557006,0.10882039,-0.27256504,0.13062416,-0.0054142885,-0.2643818,0.1315137,0.16604498,-0.165167,-0.007016607,-0.14359728,0.4443554,0.79314446,0.13848594,-0.078862526,-0.28429708,0.23142235,-0.17717752,0.07346186,-0.097987935,0.056068186,0.05695093,0.06371248,-0.005804366,-0.34352973,0.19111054
hsa-miR-4498,0.11111146,0.15623838,-0.09309122,0.35267046,0.03445635,-0.4876627,0.31722513,-0.10286413,-0.3032576,0.05181129,0.2197879,0.40846893,0.47479877,-0.0016194987,0.08098833,-0.13995934,0.13464454,0.196957,-0.41520572,-0.1819197,0.0941353,0.37479278,0.28246927,0.35380083,-0.043064266,0.4417604,0.07221141,-0.031762872,0.037791777,-0.25620863,-0.1701565,-0.3640143,-0.23336516,-0.4111969,0.06663846,0.5655379,-0.10925131,0.0027608161,0.80338293,0.024734773,0.42060006,-0.07681421,-0.58479536,-0.10703836,-0.010349119,-0.010830051,-0.31074405,-0.110691726,0.10988103,0.14790128,0.7037683,0.19552404,0.42960703,-0.005971915,0.4871484,-0.6038327,0.09208434,-0.17793022,0.23384838,-0.48499066,-0.15264948,0.018601969,-0.5467178,0.08504724
hsa-miR-4672,0.10872517,-0.62934965,0.042275064,0.055991005,-0.15409493,-0.23438074,0.24423522,0.08984515,0.06832014,0.2637407,-0.053469047,-0.011035965,-0.09857265,0.0252309,-0.123677105,0.4965291,-0.55416703,0.23730631,-0.26441908,0.08380225,0.092844225,0.43524563,0.39821965,-0.008132761,0.4438349,0.19998081,0.09888075,0.10638366,-0.24005713,-0.13820873,0.23117746,-0.43156713,0.1321206,-0.22703132,-0.059333097,0.12955374,-0.1730483,-0.18529001,0.7832506,-0.041993752,-0.35975742,0.15840025,0.045102216,0.1467846,0.39973146,0.24154352,0.6878347,-0.07731934,0.22049168,0.10771125,0.22113425,0.22032465,0.17357646,0.17107467,-0.02385479,0.1298804,0.47097078,0.3417082,-0.12591216,0.28518698,-0.08268458,-0.24097845,0.035313837,0.846052
hsa-miR-6790-3p,0.5978061,-0.21001996,0.72692806,-0.07397204,-0.106295936,-0.13907897,0.5862053,0.3992713,0.48603007,-0.6837808,0.3110831,-0.12611847,-0.5260453,-0.82901686,0.45683983,0.6256468,0.0031906914,-0.5834927,0.14590912,-0.14500928,-0.4319738,0.0104459515,0.3581005,-0.3650234,-0.018496925,-0.32878834,0.40647253,0.39832473,0.11352019,-0.028238364,0.6889417,0.14598344,-0.17877075,-0.21468164,-0.19542429,-0.39485234,-0.20321108,0.60086614,0.5993822,-0.026980389,-0.22438496,-0.28190437,0.736151,-0.7173845,0.20075779,-0.65398717,0.85094625,-0.20158885,0.03547252,0.9163253,-0.3634432,-0.54632515,-0.012728903,0.467704,0.4689578,0.59591174,0.58233684,-0.27081937,-0.20410614,0.3383238,0.39194494,-0.036368087,-0.14727727,0.34091994
hsa-miR-6862-5p,0.31683755,-0.062818386,0.47211665,0.07797874,-0.112037376,-0.45394677,-0.11950109,0.17097329,0.30369315,0.016997127,-0.10626867,-0.24126413,0.32746902,0.06907067,0.29578647,-0.06405992,0.027705004,0.10128675,0.15698618,-0.114179865,0.13827103,0.4243723,0.49585977,0.2595323,0.25530457,0.25907168,0.021809941,0.24605848,0.015112299,-0.010339807,0.3188441,0.06226701,-0.0060602603,0.21083745,-0.10600913,0.35434747,-0.21458396,0.03485444,0.27880716,0.34513724,-0.39901114,0.2704749,0.3204702,-0.48446396,-0.17104378,-0.0054884264,0.26112428,0.028671043,0.078768186,0.4011641,0.4464386,0.053225342,-0.35483375,-0.073130324,0.22400391,-0.15563886,-0.07822665,0.3079218,-0.09197654,0.22443323,-0.017375309,-0.10880374,-0.08259188,-0.041649535
hsa-miR-4640-5p,-0.096208155,0.034904484,0.10764882,0.42004398,0.008633887,-0.24072891,-0.067637086,-0.037058454,-0.17762733,0.17374593,0.41938832,0.2501168,0.29601625,0.047685932,-0.21626616,-0.18296777,-0.3578243,0.30083343,-0.39323288,0.04261737,0.271567,0.27028748,0.49459878,0.044596184,0.2733023,0.36199406,-0.29078865,0.036142197,-0.34092456,-0.17340013,-0.09070739,-0.34385213,-0.12250297,-0.39035052,0.48282254,0.24041308,0.103012435,0.08625863,0.67425984,-0.14148492,-0.16319111,0.057298504,-0.2936037,-0.42580828,-0.15913077,0.23010796,-0.31887585,0.06769067,-0.057403084,0.0715161,0.45552745,0.40549073,-0.19467941,0.06956953,0.25330386,-0.1581688,0.007412178,-0.33788735,0.15613902,0.05316001,-0.19320475,-0.16536134,-0.11737627,-0.015375242
hsa-miR-5088-3p,0.19517797,0.17962977,0.50986964,0.23036018,0.23886555,-0.133256,0.03835707,-0.12594898,0.011696596,-0.14776334,0.3614741,-0.26522294,0.3027721,0.10612062,-0.0014149115,-0.15705809,0.21808904,-0.15960062,0.10557586,0.23337954,-0.053760633,0.2118498,0.2715208,-0.1377707,-0.20672226,0.18885769,-0.15542927,-0.02516931,-0.18678385,-0.1854868,-0.0060162595,0.25414336,-0.8091293,-0.068750374,0.2935149,-0.26428518,0.07466458,0.4507841,0.08633624,0.15011634,0.29949766,-0.051196832,0.080535956,-0.35647482,-0.078825176,-0.2869936,0.14306273,-0.04595932,0.025046373,-0.18046643,-0.29754147,-0.013977999,-0.09106158,0.34254345,0.35046193,0.1807878,0.31850025,-0.05490807,-0.116355106,-0.12147399,-0.033956874,-0.2895596,-0.19750904,-0.41222206
hsa-miR-6881-3p,0.16485165,0.070795365,0.6866325,0.03415416,0.19679734,-0.0037816446,0.53055894,0.140108,0.075335585,-0.20688856,0.11811203,-0.57616884,-0.1944827,0.07606196,0.008750549,0.36481178,0.28251442,-0.2671077,0.14300516,0.42265767,-0.13526534,0.26569963,0.089771986,-0.5339527,-0.5311829,-0.077118814,-0.1599057,0.13633448,0.28567404,0.032664172,-0.47878826,0.69784176,-1.1103511,-0.1259212,-0.032471493,-0.63270056,0.1296628,0.061886013,-0.2225411,0.19676007,0.32890135,-0.34732148,0.49120513,-0.18313941,0.1406806,-0.34170178,0.13254255,-0.14501865,0.36316413,0.26330438,-0.58559126,-0.26184827,-0.0053517073,0.29097897,0.3879357,0.9075341,0.39306265,-0.08991799,-0.2875162,-0.042136773,0.4527228,-0.47356558,-0.13161351,-0.015924774
hsa-miR-765,0.20455477,-0.53949064,-0.0075280624,0.12436664,-0.23323704,-0.60597396,-0.24773477,0.61024725,-0.26683226,-0.13694146,0.52982545,-0.32023823,0.49604797,-0.050751507,0.08451543,-0.012861976,0.226781,-0.020116787,-0.21883966,0.008797583,0.67732584,0.17899974,0.27549186,0.0053752866,0.43842188,0.45247015,-0.31097695,-0.16114585,-0.24528933,0.07448311,-0.61411643,-0.27241516,0.3308242,-0.36131638,-0.4722373,0.017124645,0.12240452,0.42061558,0.36046785,-0.33614337,-0.49966303,0.11931528,-0.21459094,0.015174176,-0.036329884,0.018077765,-0.3357664,-0.023740787,0.040845603,0.08255467,-0.040583286,0.374082,0.07141007,0.716412,-0.0031052453,-0.55715245,-0.16147128,0.09292541,-0.3273281,0.37716174,-0.11470949,0.017950533,-0.05913345,-0.76571345
hsa-miR-6778-5p,-0.06696141,-0.4673822,0.09287801,0.25490403,-0.22976859,-0.39730704,0.1892359,0.54154724,-0.18854757,0.36330056,0.35220957,0.20915881,-0.02959416,0.075862065,0.060720064,0.3914985,-0.17429486,0.18839331,-0.5081312,0.030612802,0.22593763,0.5339582,0.16268717,0.104492724,0.37047926,0.5011618,-0.15138915,0.18569274,-0.22832324,-0.2135195,-0.4247887,-0.5471802,0.34907562,-0.4424823,-0.04442415,0.11732847,0.10871883,-0.051831983,0.6833829,-0.2537814,-0.5466942,0.08961692,-0.064511105,-0.12568617,0.037361577,0.25551674,-0.052463677,0.17492303,0.028917504,0.3281988,0.4937228,0.28325424,0.042662807,0.14008832,-0.055046353,0.020602452,0.16232808,-0.22276361,-0.001661376,0.22327957,-0.023552641,-0.04440836,-0.19146584,0.13876243
hsa-miR-1199-5p,-0.054281317,-0.077696964,0.13054514,0.40336794,-0.14097013,-0.29303768,-0.15453365,0.021895368,-0.009284039,-0.24832714,0.593988,-0.2188121,0.12512341,-0.7255552,0.049429752,-0.05685141,-0.034478303,-0.04455505,0.25307372,0.2472437,-0.13305877,0.1744886,0.3417425,0.088917054,0.26201922,-0.1368717,-0.04594192,-0.04724945,-0.33954903,0.07065943,-0.02350352,-0.11397828,-0.4797964,-0.25260746,0.3641063,0.046358053,-0.30155876,0.21446557,0.3089507,-0.26792526,-0.17179361,0.23829937,0.08125285,-0.5628227,0.32994103,-0.12227856,0.1026824,-0.22762069,0.07223521,0.22453737,0.25114083,0.106378816,0.23185146,0.29424077,0.35814548,-0.07983749,-0.04193769,0.2385144,0.14184442,0.2740794,-0.1923959,-0.0044937627,0.5644718,0.2540795
hsa-miR-6779-5p,0.39351955,0.11472968,0.029743789,0.053036895,0.22864914,-0.49743187,0.0049442677,-0.2642734,-0.26852134,0.024565203,0.11740621,-0.3343931,0.49598715,0.44495502,-0.04897396,-0.10864514,-0.1771867,0.2867008,-0.13531274,0.16408402,0.34238204,0.41494787,0.4633026,0.17980586,0.114270866,0.6716238,-0.1389404,0.26137754,-0.089261055,0.21798518,-0.48142862,0.0030493943,-0.36759964,0.0250878,-0.21527763,0.22136828,-0.16082808,-0.04966458,0.086602576,0.22160387,-0.20640898,0.2652847,-0.17027813,-0.44852927,-0.18192847,0.113689095,-0.37136433,-0.30846584,0.17794496,-0.37765142,0.2267555,-0.073492825,-0.27462828,0.20767115,0.31809145,-0.49289367,-0.1607399,-0.26115736,-0.31014377,-0.120090894,-0.4419187,-0.20473318,-0.320884,-0.39045915
hsa-miR-1185-2-3p,0.34951505,-0.1752987,0.13896962,0.103561975,-0.5237131,-0.15299504,0.333381,-0.27352214,0.48533252,-0.117076956,-0.23944733,-0.05428817,-0.13498122,0.17234,0.09781897,0.42921504,-0.39545527,0.15137573,-0.14271978,-0.2549083,0.005449982,0.33042556,0.55724347,-0.06516988,0.23506775,-0.03554415,0.110270135,0.07101666,0.16826797,-0.13489467,0.2563672,0.09214582,0.32621858,-0.32849956,-0.20621875,-0.23037529,0.26969308,-0.45612,0.4039031,0.16201837,0.008995746,0.107438564,0.08050884,0.21002248,0.087047435,0.26558384,0.73225546,0.54710925,0.53060025,0.19657627,-0.24083479,-0.069752894,-0.27927077,-0.20676126,-0.11420589,0.53604186,0.084480844,0.061579406,-0.43784145,0.28806853,0.18451975,-0.50546503,0.22379333,0.13704567
hsa-miR-4726-5p,-0.23651354,-0.17595904,0.18205988,0.3861737,-0.22798711,-0.33306783,-0.28339148,0.24285081,-0.36615002,0.17069353,0.62331736,0.26098442,0.06897657,-0.17432244,0.0638923,-0.18112761,0.195228,-0.07562315,-0.18097977,0.27980945,0.16682027,0.24747254,0.08584875,-0.017496413,0.43964845,0.4562968,-0.33848515,-0.129387,-0.36300746,-0.4070167,-0.2564405,-0.33754557,-0.07596388,-0.046963234,0.47760648,0.1311673,0.23291312,0.43287018,0.63896674,-0.4149337,-0.22626704,0.19526313,0.1571801,-0.36113086,-0.25173727,0.13050805,-0.006951021,0.41328835,-0.13809253,-0.11832104,0.4413573,0.31361535,0.08598211,0.15697625,-0.11086913,-0.12681566,0.0040438105,-0.24595207,0.1312884,0.18998572,-0.058412068,-0.15832204,0.116811715,-0.15794095
hsa-miR-370-3p,0.19163069,0.030581411,0.19437642,-0.006786565,0.2607206,-0.60944647,-0.06329697,-0.024879247,-0.12234754,-0.48146734,0.21634011,0.07677787,0.2749357,-0.08308809,-0.15117727,-0.3362171,0.25388613,0.11059925,0.2666248,-0.03932787,0.14301397,-0.078885734,0.45824087,0.025789648,0.15415768,0.5626109,0.026534623,0.13946752,-0.037177816,-0.29547116,0.07712663,-0.0031092137,-0.35222593,0.20318139,-0.10744433,0.16193253,-0.17352328,0.31742826,0.4941928,-0.21296921,-0.057377618,0.41231677,-0.1585739,-0.16522992,0.025777377,-0.04711873,0.13980538,-0.49472633,-0.33606535,-0.31300473,0.10274333,-0.26245075,-0.02832241,0.41508776,0.47701845,-0.50946486,0.028221035,-0.6341679,-0.037249953,-0.38352647,-0.005538633,0.027419,-0.177266,-0.37918684
hsa-miR-7113-3p,0.2026328,0.48087114,0.4249857,0.4818099,-0.09374633,-0.2950802,0.061986025,-0.3184221,0.06827779,-0.51189625,0.21993238,-0.16374116,0.084182754,-0.43386883,0.016775092,-0.26435512,-0.15727185,-0.22276063,0.12367596,0.1466068,-0.11761267,-0.027300617,0.38524213,0.19394949,-0.22581536,-0.08097048,-0.12403184,-0.077050686,-0.060471646,-0.15836553,0.14772515,0.39605716,-0.8366889,-0.2140579,0.5009083,0.011296672,0.047749963,0.54088306,0.3678803,0.1803455,0.6932175,0.16198832,0.058346447,-0.49640977,0.37037525,-0.17054914,-0.089338884,-0.26284146,0.122708164,0.16862425,0.010629899,-0.27724493,0.23787022,-0.025219329,0.80688214,0.34146056,0.17105184,-0.111347355,0.052311987,-0.19611661,-0.10174124,-0.17071995,0.055315025,0.20604865
hsa-miR-93-3p,0.3834926,-0.09381369,0.3390695,-0.020249313,-0.35005054,-0.29208568,-0.21060823,-0.026621504,0.20971845,-0.050201464,0.067901574,-0.5369036,-0.01728779,0.0008801352,-0.020415846,-0.1523401,-0.25420704,-0.20863107,0.0019615702,0.2747589,-0.16353956,-0.27922118,0.55728215,0.42578763,0.33211184,0.19431461,-0.074571386,-0.58155817,-0.23916331,-0.1866813,0.426686,0.46346393,-0.6459971,0.05788281,0.30525228,0.27668452,-0.27342445,0.5883597,-0.0055288393,0.31406218,0.6325726,0.27846932,0.26136902,0.082048394,0.41363865,-0.19137526,0.3673725,0.013981212,0.40235192,0.30266148,-0.046364978,0.1395502,0.21733342,0.07748901,0.13899514,0.15760066,0.030650575,0.5586208,0.10254102,0.23387225,0.04417462,-0.24252829,0.46848664,0.40250114
hsa-miR-431-5p,-0.030820217,0.3107682,0.0645927,0.059024803,-0.1945163,-0.08370248,0.14438914,-0.043312043,-0.24001625,-0.076607674,0.24017553,0.19670287,-0.16555032,-0.2798552,-0.044648044,-0.124834575,-0.23361985,0.14127724,-0.02836476,0.31107384,-0.2534024,-0.02565893,-0.010040193,-0.24998966,-0.28941503,-0.108444154,-0.36511326,0.0071336767,0.07638247,0.20279984,-0.2029688,0.34538662,-0.39089248,-0.35652766,0.24097751,0.00044593317,0.09225035,-0.15184295,-0.022248141,0.2781139,-0.0005627841,0.030347044,-0.053027973,-0.5805948,0.099186175,0.03646234,-0.7702074,-0.25708964,0.11133177,0.4813653,0.15986182,-0.07296281,-0.014203576,-0.19202548,0.2207149,0.56177086,-0.06749839,-0.2543294,-0.024557907,0.43158212,-0.12302037,0.13850978,-0.26665974,0.42571673
hsa-miR-3689d,0.24757323,0.0834939,0.2694989,-0.30526128,-0.57701176,-0.34518203,0.14000562,0.3411515,0.28550944,-0.17372997,-0.06784257,0.14369124,-0.18546565,0.074282244,-0.22777131,0.29583746,-0.4117296,0.22607984,0.087558225,-0.25935966,0.058327314,-0.31027663,0.37309965,0.10673888,0.026832713,0.094087265,0.0061230958,0.13145274,0.23206182,-0.09056622,-0.46429804,0.16117425,0.42507884,-0.58128166,-0.42725343,0.04071773,0.27007332,0.14342046,0.11146575,0.14776982,0.13452522,-0.0074893017,-0.020276155,0.026603227,0.5537296,0.36888796,-0.20669137,-0.121813305,-0.13263004,0.51525307,-0.22676092,-0.1280068,-0.4226695,-0.14437139,0.063912116,0.43901795,0.14302781,-0.6177053,-0.17466278,0.1961498,0.16788203,0.24988057,0.08616791,-0.22788739
hsa-miR-1273h-5p,0.016154278,0.04950485,-0.11371142,0.1337073,-0.25103822,-0.102843896,0.24222676,0.1920647,0.07496663,0.12796043,0.37483594,0.15154296,0.37202927,0.02493818,0.064467296,0.122605555,-0.1921302,0.07983011,-0.5614742,-0.36207336,0.026567584,0.33450973,0.20761187,-0.016216643,-0.12797472,0.3139182,0.07676281,-0.10664913,-0.03405242,0.027480768,-0.27587926,-0.38288286,-0.08768753,-0.6166636,0.020638434,0.32588634,0.1843636,0.32283676,0.45472565,-0.19394235,0.3533143,-0.22054026,-0.45390618,0.027332544,0.13810825,-0.026371147,-0.22823027,-0.07749899,0.17574073,0.17554416,0.22907814,0.17543699,0.25587347,0.16455771,0.24945326,-0.17400219,0.40771225,-0.03591256,-0.06707062,-0.29855478,-0.14540005,-0.008231624,-0.34984705,-0.2210321
hsa-miR-6865-3p,0.5400827,-0.1300272,0.430342,-0.047299393,0.31392613,-0.03989428,0.39433283,0.14468315,-0.030713461,-0.06514638,0.0020459418,-0.78296447,-0.6303201,-0.3963458,0.052372035,0.2525332,0.10166801,-0.4650143,0.20309289,0.3707046,-0.57013273,0.3230121,0.08820424,0.12951605,-0.28656194,-0.002373775,0.19740489,0.11454641,-0.21409647,-0.11280051,0.2826286,0.4606923,-0.85295874,0.10877936,0.1496004,-0.44179344,-0.20661531,-0.2546804,-0.2811725,-0.18562764,-0.07133853,0.11728116,-0.006832986,-0.28227335,0.45526245,-0.097993165,0.83199424,-0.10078487,0.3380163,0.16551465,-0.3833188,-0.3198132,0.44665033,0.22074088,0.6675429,0.7034003,0.5574526,0.1962488,0.033357233,0.28330827,-0.022398315,-0.4650129,0.3842247,0.8355246
hsa-miR-4781-5p,0.22071417,-0.073250405,-0.0047160494,0.42107975,0.4037295,0.023911374,0.10837622,-0.3967656,-0.25780815,-0.057820257,0.14863135,-0.033197004,-0.055960212,-0.6077632,-0.19789171,0.11808556,0.27350214,0.047561813,0.1791884,-0.055456825,0.16314535,0.21724628,0.1557666,-0.43072873,-0.42907405,-0.42062795,-0.15275888,-0.049198475,-0.20323698,0.47104353,0.034995355,-0.013434774,0.2320118,-0.17989121,-0.027125636,-0.5025101,-0.18410559,-0.7442793,-0.13652733,0.4291082,-0.4248362,-0.71700245,-0.19595362,-0.3931511,-0.48032132,-0.32836646,0.13511837,0.5549598,0.0529022,0.5789305,-0.02848497,0.53509146,-0.07483094,0.18728672,0.03086875,-0.3526657,-0.18281792,0.40279382,-0.019285072,0.48553059,0.20559953,-0.57002723,-0.12741548,-0.2952448
hsa-miR-297,0.24722159,0.51867014,0.00012615405,0.01362624,-0.53151965,-0.54244065,-0.1800885,-0.23149133,-0.53636813,-0.417638,-0.11149469,0.35940236,-0.3537963,-0.3125678,-0.43703586,-0.03805769,-0.11060148,0.21877739,0.06927951,0.22476237,0.33376488,-0.6919236,0.45042256,0.071365714,-0.369856,-0.30036947,-0.59408027,-0.43566966,0.42696095,-0.2982518,-0.17809717,0.5871911,-0.10799643,-0.51747936,0.31892467,0.28266397,-0.022219561,-0.37736052,0.4833679,0.1299173,-0.20871775,0.22138686,-0.32126805,-0.23431651,0.027784774,0.20928764,-1.0551172,-0.34574297,-0.42291996,0.7046602,0.53285444,0.26800272,0.18124829,-0.22267175,0.33048958,0.3142195,-0.52108234,-0.21494581,-0.029801792,0.2470265,0.18361649,0.06718881,0.14729482,0.51385957
hsa-miR-6745,0.16770291,-0.10254544,-0.041071206,-0.01870543,-0.23798761,-0.57393014,0.06739078,0.19810846,-0.30016044,-0.09154941,0.52492356,-0.26454496,0.6538085,0.19554581,0.041943755,-0.33344513,0.19742551,0.056968722,-0.19565238,0.08206361,0.21737316,0.20413803,0.19062519,0.09809564,0.23135069,0.7343172,-0.10144413,0.1301195,-0.022474535,0.22615659,-0.9491411,0.096084416,-0.12981549,-0.12567788,-0.5221948,-0.15670784,0.26877034,0.229664,0.07239264,-0.115191266,0.21270631,0.22291589,-0.317522,0.19894764,0.06389864,0.15953629,-0.3797531,0.009557989,0.27174553,-0.3898816,-0.15607655,-0.14507832,0.0015862151,0.40370834,0.0015487171,-0.4273801,0.095347136,-0.30357498,-0.3352863,0.10451157,-0.36972672,-0.00053503807,-0.24663405,-0.9483004
hsa-miR-6825-5p,-0.0081232255,-0.15194309,-0.18356386,0.107134916,-0.48668104,-0.27905414,-0.0032252374,0.2189243,-0.37647295,0.23412834,0.36607024,0.23209727,-0.025979346,0.041962434,-0.061604574,0.10250759,-0.48920935,0.2952638,-0.397871,0.0948415,0.20296101,0.1568339,0.17046855,-0.05014947,0.23549408,0.3273869,-0.27362293,0.043182652,-0.22032104,0.03640596,-0.7093626,-0.24186438,0.2667097,-0.6017359,-0.089327335,0.28203937,0.22829777,0.2698288,0.4041129,-0.026572539,-0.058183685,0.055432864,-0.16227919,-0.18689115,0.045183875,0.2655259,-0.605008,0.1147568,0.04019161,0.26022145,0.18716016,0.34013388,-0.09296527,0.03781004,-0.14086641,0.08682251,-0.07975724,-0.49652004,-0.080903314,0.38618085,-0.11486673,0.104064494,-0.05805403,-0.016681982
hsa-miR-149-3p,0.27937663,-0.20408645,0.0180708,0.38891846,0.21662591,-0.5249659,0.06547093,-0.008705392,-0.3315022,0.014220785,0.30335325,-0.34837323,-0.047688723,-0.024990072,-0.0783549,0.1504884,-0.19358443,0.38803694,-0.12380652,0.25585347,0.37381232,0.43908894,0.37258816,0.38236186,-0.02300846,0.6898864,-0.16171049,0.16213831,-0.3814783,0.18158469,-0.5771317,-0.32042286,0.23285434,-0.38674322,-0.38069144,-0.028513456,-0.15187028,-0.2269122,0.2384253,0.0327754,-0.5323542,0.31867763,-0.32827553,-0.014605888,0.033866093,0.039538655,0.060744047,-0.05647347,-0.11624786,0.06398043,0.45741174,0.21757096,0.10494156,0.25817668,0.16277891,-0.37754595,-0.013374675,-0.31420925,-0.1256435,0.18967152,-0.08541618,-0.27639183,0.09378443,-0.4171928
hsa-miR-6870-5p,0.3718161,-0.2418682,0.17297152,0.0075572208,0.12147342,-0.67985106,-0.07536087,0.11061076,-0.26207262,0.14186333,0.18345276,-0.183894,0.31261164,0.26971427,-0.15756449,0.11694275,0.001486182,0.41442218,0.02230206,0.20901175,0.48880455,0.36130458,0.34252757,-0.26777932,0.05445013,0.49289858,-0.33964646,0.22330329,-0.06044477,0.2070471,-0.65824544,-0.044114865,0.1551137,-0.033883054,-0.27256554,-0.047859598,-0.11541028,-0.20628802,0.16490185,0.2294878,-0.72025675,0.100296475,-0.033943966,-0.40246707,-0.26481947,0.1766559,-0.197036,-0.087438524,-0.15494227,0.00069923233,-0.030051515,0.1484215,-0.40040064,0.30596924,0.060443446,-0.2903553,-0.25355026,-0.22785005,-0.470415,0.24287373,-0.13275132,-0.3166272,-0.2686298,-0.5559647
hsa-miR-1266-5p,0.015883433,-0.027639067,-0.104244836,0.390932,-0.21178335,-0.24099545,0.40396425,-0.13859813,0.27437365,-0.15718552,0.27290437,0.0543728,0.2872593,-0.15267521,0.23420504,0.15855652,-0.11909469,-0.10722463,-0.12914556,0.037947837,-0.12518108,-0.018300507,0.15640575,0.33200356,0.15578806,0.09625712,0.309518,0.029353779,-0.063892394,-0.14430036,-0.12860994,-0.09547863,0.22015373,-0.45592812,-0.16064374,0.068123765,0.18953264,0.00271376,0.3212033,-0.00035409408,0.38954684,0.0018054239,-0.20815344,0.3144968,0.44272032,0.12740931,0.09518652,0.2112942,0.4611091,0.1679249,-0.09925057,0.040113274,0.19692694,0.09278478,0.28004587,-0.00767379,0.2275397,0.121864915,-0.016127156,0.113269515,-0.13992052,-0.041375525,0.06559129,0.03986198
hsa-miR-6757-5p,0.1247751,-0.40967125,0.11693557,0.33094928,-0.21884488,-0.47609705,-0.33215547,0.16631304,0.25311473,-0.06760763,0.31049407,-0.06876185,0.006672057,-0.021869749,-0.4967358,0.0065048756,-0.18272156,0.15701091,-0.22808664,-0.19035433,0.53921646,0.36562058,0.69148254,-0.21570694,0.32889298,0.27885252,-0.55473405,-0.3103347,-0.37789693,-0.04095737,0.014824198,-0.12697971,0.29339448,-0.25936198,0.33864117,-0.2943991,0.38023254,-0.4683646,0.16628028,-0.16358343,-0.6537958,-0.09938777,-0.09443055,-0.2383446,-0.3039859,0.16294856,-0.06470109,0.4504344,0.12071779,0.27960864,0.02089224,0.31329846,-0.5547421,0.3940829,0.0270085,-0.055128545,-0.23832208,-0.06605875,-0.08652131,0.37474787,0.07912356,-0.49194774,0.084463954,-0.58261013
hsa-miR-5591-5p,0.45120865,0.123487316,-0.008772345,0.28732705,-0.12980184,-0.59801286,-0.1475478,-0.69562644,-0.47880307,0.050166674,0.49950507,-0.36457253,0.77502656,-0.09324115,0.29361758,-0.35728994,0.07617017,0.037350435,0.0375709,0.1381855,0.19679904,-0.32667518,0.2887222,0.12031387,0.23211318,-0.22435932,-0.0595752,0.11822568,-0.11897216,-0.18870091,-0.17362395,0.19445603,0.08551624,-0.3812898,0.25205624,0.34975308,-0.623466,0.0040848977,0.65125644,0.04100915,-0.2247167,0.2543772,-0.7386674,-0.0032843708,-0.0657711,0.35411698,0.32941246,0.49546394,0.08864267,-0.16671911,-0.015177828,0.7416758,0.15039729,0.10687673,0.1843343,-0.4962886,-0.37077662,0.4126776,-0.33359736,0.93562967,-0.28915006,-0.4664051,0.7063045,-0.044738617
hsa-miR-1913,0.22744767,0.5321531,0.33965024,0.418454,-0.011917085,-0.2180839,0.06943201,-0.43137628,-0.069377415,-0.5673529,0.32272467,-0.15100749,0.040304463,-0.40699273,-0.05913222,-0.4490014,-0.060715776,-0.123875245,0.18049745,0.26193118,-0.16265823,-0.16298895,0.61610174,0.05401436,-0.22691198,0.13740489,-0.20239331,-0.22360767,-0.05624865,-0.20041144,0.3649412,0.44104394,-1.0786874,-0.16956383,0.52502,0.1396716,-0.2567961,0.67852014,0.40975407,0.11060747,0.7394853,0.40420994,-0.06471532,-0.4397534,0.27117875,-0.38502392,0.037020184,-0.39415324,-0.07429823,0.15690702,0.20929402,-0.207469,0.4621833,0.099520996,0.50735223,0.18560831,0.14906527,-0.2242351,0.14543755,-0.30939856,-0.024957597,-0.1949323,0.12992811,0.16303773
hsa-miR-6804-5p,-0.19234893,-0.15532903,-0.15908626,-0.04144071,-0.83536345,-0.18391664,0.013410647,0.2926897,-0.05308119,0.06393527,0.3167279,0.2680296,0.016067548,-0.09111684,0.067444906,0.14166152,-0.62505674,0.25597224,-0.3509679,-0.009199229,0.26042238,0.018621257,0.29715928,-0.22926837,0.45966753,0.16990092,-0.14556064,0.12931111,0.032401297,0.04510407,-0.6686091,-0.28997034,0.3199894,-0.6749799,-0.27466762,0.2655472,0.29088578,0.5409958,0.58269244,-0.2629563,0.012120846,0.039786603,0.1036837,-0.042329036,0.21952969,0.29590195,-0.54250735,-0.107291475,0.04653249,0.2500095,0.06576149,0.3349736,-0.13175862,0.19253583,-0.26732406,0.3236323,0.03142255,-0.3995808,-0.13757204,0.38052872,0.002544233,0.3215376,0.2121957,0.09042148
hsa-miR-4518,0.43749222,0.07747891,0.078040265,0.032502014,-0.5094142,-0.48182806,-0.17366682,-0.12150743,0.30976656,-0.5875952,-0.2659263,0.06492091,0.16061595,-0.07977011,-0.11629233,-0.0839958,-0.030230563,0.23621994,0.16900662,-0.13950552,0.52183783,-0.4769074,0.7494982,0.2376741,0.1426728,-0.032932825,-0.07081686,-0.36390376,0.23073032,-0.14592035,0.25782695,0.24910164,0.2716326,-0.2953902,-0.40020564,0.36211544,0.032716833,0.087680675,0.42198548,0.35882202,0.3182222,0.15728185,0.034661405,0.15891603,0.20917225,-0.04491984,-0.11877381,-0.24173969,0.03647695,0.33508745,0.022721095,0.024401654,-0.07120435,0.037687436,0.22563945,-0.09956066,-0.43554923,0.00080992444,-0.13569053,0.095054224,0.29743108,0.1921213,0.17663546,-0.282019
hsa-miR-6133,0.08250073,-0.32534933,-0.03403913,-0.049615953,-0.26632467,-0.4882612,-0.09987182,0.33990684,-0.49648488,0.1664072,0.43053216,-0.22415017,0.30165926,0.17897569,0.0056152022,0.013292688,-0.140493,0.16308142,-0.15664415,0.08337124,0.23769915,0.31657463,0.100233845,-0.18822718,0.35931912,0.5808649,-0.17875013,0.18313117,-0.14322133,0.2521067,-0.86982983,-0.22843157,-0.028425256,-0.20389098,-0.24344768,0.06999125,-0.13594897,0.23000447,0.021292077,-0.19628564,-0.54635185,0.19177446,-0.09072036,-0.39198735,0.0013948439,0.15823513,-0.3399107,-0.095659055,0.021674957,0.012203073,0.1350432,0.28217,-0.13147254,0.37758878,-0.18060488,-0.39306206,-0.1002683,-0.17739637,-0.318287,0.3630737,-0.24484889,-0.06068496,-0.1398326,-0.36998683
hsa-miR-7111-5p,-0.062719576,-0.5944058,-0.045063686,0.21007378,0.05715973,-0.32562703,0.066099405,0.4931403,0.18868537,0.03472925,0.4702451,-0.15002966,0.2586335,0.07271179,0.120744884,0.32726547,-0.05850513,0.06737299,-0.3752156,-0.23803402,0.3260247,0.6942648,0.313814,-0.12578711,0.42590785,0.3194987,-0.06398361,0.07362647,-0.2816293,-0.12517276,-0.042354163,-0.6303932,0.2135259,-0.3839333,0.0055792723,0.0030100443,0.14888053,0.08049737,0.6272488,-0.5317257,-0.6106835,-0.037697732,-0.12963091,-0.061860975,-0.18008785,0.028405206,0.30016452,-0.008748184,0.14399417,0.038889766,-0.017619995,0.13060383,-0.1352722,0.54086787,0.17414661,-0.13511485,0.20772327,-0.23030563,-0.18689592,-0.0707334,0.0013434304,-0.24091591,-0.08520348,-0.33587214
hsa-miR-6767-5p,-0.012855492,-0.45807135,0.4663652,0.30858678,-0.18335177,-0.29709178,0.48553464,0.41061458,0.29918844,-0.072931275,-0.15796627,-0.0059046294,-0.64584327,-0.16921768,0.012590494,0.8274441,-0.43922797,0.14188293,-0.08715964,-0.3283035,0.15114437,0.48992863,0.25330186,-0.11793519,0.0075848233,0.056261268,0.1639175,0.5158447,-0.09380305,-0.07271516,0.055702023,-0.49813706,0.5706705,-0.37578332,-0.26233113,-0.14628737,-0.024608942,-0.29022005,0.6136745,-0.1727107,-0.944849,0.088428095,0.29059044,-0.061146688,0.33791608,0.06099786,0.5052545,-0.0311735,-0.2313019,0.7562691,0.38218272,0.026295569,-0.14840272,0.0016575238,0.2900518,0.2760938,0.3444273,-0.013025866,-0.3331899,0.33224714,0.39586726,-0.21947917,-0.0011807113,0.33247063
hsa-miR-1185-1-3p,0.37999082,-0.40403315,0.061773606,-0.12262825,-0.1368553,-0.34863237,0.24679929,-0.22658218,-0.030374765,0.13711163,-0.23302948,-0.3013811,-0.0040102075,0.41324994,0.1127787,0.5432471,-0.24723767,0.1256126,0.039730076,0.11643345,0.023613276,0.3216553,0.17902125,0.024218738,0.25949454,0.058472816,0.06707891,0.15576477,0.027580725,-0.0812659,0.1415954,0.023602882,0.106172435,-0.17093587,-0.17471443,-0.041869808,-0.17147785,-0.46916825,0.4087591,0.18574971,-0.44879723,0.26927426,-0.020127038,0.3036806,0.18286373,0.3890642,0.8686528,0.2648687,0.34705275,-0.0860004,-0.22919047,0.11405883,-0.10916151,-0.08407192,-0.08634749,0.26114362,0.13638213,0.39236578,-0.5413788,0.41255292,-0.122368865,-0.5259349,0.15290901,0.34896922
hsa-miR-4763-3p,0.13122003,0.29770103,0.025616791,0.57530457,0.13687034,-0.41453564,0.18081138,-0.47476733,-0.26571015,-0.12563574,0.39073485,0.21360677,0.2494812,-0.24801701,-0.07851804,-0.14151086,-0.34161538,0.35079372,-0.27258933,0.03642408,0.1423804,0.30057907,0.57701254,0.43297637,-0.007016257,0.30882198,-0.12684013,0.31728184,-0.1782815,0.07960199,-0.21874575,-0.2877654,-0.11030873,-0.435002,0.07963455,0.15457395,-0.28288305,-0.1640014,0.6870038,0.32951754,0.026885282,0.11992252,-0.34324327,-0.49512103,-0.005671285,-0.0075947433,-0.41609254,-0.17801006,0.0015209088,0.12550475,0.7123639,0.06312183,0.0069121625,0.025853606,0.3647724,-0.43860555,-0.08191694,-0.4480999,0.17363544,-0.021184597,-0.27110782,-0.008916683,-0.19392468,-0.015632339
hsa-miR-4534,0.24521726,-0.1678787,0.12880944,-0.08044162,-0.28244832,-0.47596133,-0.15227427,0.25375018,-0.071215846,0.13460045,0.45190084,-0.00077036954,0.34024766,0.121004365,-0.19352981,0.040467046,0.010280922,0.38073385,-0.034822695,0.052036908,0.278812,0.16062525,0.37533265,-0.25180468,0.054419503,0.28753865,-0.37904033,0.10540402,-0.06336308,0.10770731,-0.63097376,0.044715777,0.17677896,-0.34673125,-0.13812278,-0.1501056,0.07318092,-0.14118104,0.21539132,0.10179016,-0.46498564,0.045384582,-0.14606203,-0.19375318,-0.11621398,0.23315388,-0.09596666,0.08870146,-0.12541845,0.13293608,-0.033274718,0.158004,-0.4061031,0.29132566,-0.20255709,0.06962413,-0.034824137,-0.33677116,-0.2836889,0.41521832,-0.0220408,-0.097930565,0.026714459,-0.651216
hsa-miR-324-3p,-0.18348294,0.25031793,0.299151,0.26928037,-0.18686466,-0.29850435,0.09510355,0.1991254,-0.07877486,-0.25381953,0.17069824,0.19216523,-0.07042768,-0.1280552,-0.16018474,-0.22651893,-0.07680883,-0.008043862,0.1463687,0.22308365,-0.27504614,-0.24451865,0.2773465,0.14501385,0.036651332,0.22892044,0.0094555095,-0.14246923,0.08278502,-0.34856892,-0.011803651,0.0914211,-0.5723552,-0.19357088,0.62460905,0.13498145,0.0003507143,0.31981838,0.37574044,-0.30791864,0.40549412,0.46845323,0.01989298,-0.4626411,0.39954543,0.13818501,-0.030333666,-0.32926852,-0.19238001,0.23830481,0.38026822,-0.27975577,0.43126875,-0.24610041,0.47156492,0.23083837,0.1482799,-0.3879829,0.32190192,-0.36834574,-0.064633586,-0.14561804,0.0124760615,0.38450962
hsa-miR-3160-3p,0.3272143,-0.40635768,0.2139955,0.17556895,-0.34854707,-0.58439493,-0.39375252,0.37526867,0.21921588,0.05868982,0.4435396,-0.44811296,0.3391596,-0.5498497,0.49303192,-0.2054387,0.6455718,-0.3632401,-0.12969072,0.2271091,0.09804016,-0.089290254,0.3129655,0.22818656,0.44743642,0.052510682,0.02714088,-0.5126938,-0.22604413,-0.43897116,0.085015096,0.07036993,-0.06971306,0.37763464,-0.06964726,0.12195794,-0.17152254,0.7025658,0.6655754,-0.20555937,0.2838403,0.2838897,0.2526161,0.49842778,-0.21627387,-0.24121663,0.8991395,0.41553056,0.22995788,-0.049075887,-0.08097791,0.21217375,0.7643785,0.47606608,0.0018813604,-0.1635556,0.011624426,0.6360237,-0.08133969,0.28646722,0.21753861,-0.23510396,0.7928952,0.075716704
hsa-miR-6862-3p,0.15393937,0.34935644,0.7027915,0.5513418,0.00018997118,-0.033373516,0.16708732,-0.034509175,0.30132014,-0.015989237,0.30593395,-0.011183851,0.051436592,-0.0677296,-0.04793461,-0.1648791,0.03819818,-0.11021094,-0.050655656,0.15187299,-0.19271867,-0.011261388,0.48992914,0.112922385,-0.2109602,0.07373277,-0.04052687,-0.050021272,-0.33467665,-0.40496445,0.30693534,0.27617982,-0.5509092,-0.28010693,0.4806519,-0.18718351,0.27935773,0.4060349,0.24292807,0.25342956,0.69292444,-0.095197834,0.14621307,-0.27130228,0.095589936,-0.21442777,0.35597938,0.33672962,0.05250388,0.36907485,0.04755807,-0.016692152,-0.06675334,-0.19164877,0.46862656,0.54863185,0.41384295,-0.19626376,0.31527808,-0.03380586,0.25398475,-0.2535822,-0.03252113,-0.026729504
hsa-miR-6794-5p,0.14725094,-0.28357726,0.07193996,-0.05626846,-0.19953972,-0.64104795,0.013063713,0.27094457,-0.06979241,-0.023570163,0.13164374,-0.041009735,0.30875716,0.29599643,0.008233985,0.20626187,-0.26821113,0.43267474,0.07763586,0.05832491,0.20831145,0.26672179,0.44317916,0.19825138,0.36439157,0.78268045,-0.034360282,0.16983214,-0.10397861,0.09512271,-0.3278107,-0.31752002,0.1574677,-0.31784654,-0.2805695,0.34208816,-0.015758295,-0.018622749,0.37203163,-0.013126784,-0.5406367,0.41674843,-0.046513684,-0.22120608,0.123757765,0.24875566,0.10576623,-0.22274393,-0.054007307,0.17336135,0.39398092,0.05196971,-0.29244706,0.08083002,0.1278147,-0.2907833,0.047825553,-0.23113099,-0.3427626,0.082598545,-0.21507837,-0.1505072,-0.21810585,-0.3749378
hsa-miR-6127,0.107710026,-0.35281506,0.047588844,-0.037778616,-0.44592288,-0.6699508,-0.033093743,0.3249636,-0.52516246,-0.0023634823,0.4164535,0.020186547,0.17817375,0.14013273,-0.01282249,-0.0442158,-0.008053692,0.2405985,-0.04167684,0.017201887,0.2722704,0.27746874,0.1773248,0.027458442,0.42172462,0.64884496,-0.20259742,0.12991998,-0.103563234,-0.029243588,-0.7889338,-0.2547372,0.07592675,-0.32074556,-0.31590733,0.26296717,-0.10628477,0.1905191,0.31067312,-0.19074588,-0.41536158,0.31190377,-0.15039767,-0.33295277,0.15337075,0.15204214,-0.37597975,-0.023370806,-0.025211137,0.17459568,0.29629666,0.25484037,-0.14188719,0.25257027,-0.15063238,-0.5011401,-0.28265753,-0.38503835,-0.20289567,0.33311012,-0.13322599,0.0917515,-0.13629456,-0.3885853
hsa-miR-6870-3p,0.4926998,0.25219297,0.85466665,0.023517637,0.0052262554,0.046038542,0.4595423,0.14732803,0.24428031,0.0045906985,0.06673977,-0.24156189,0.043863457,0.15468685,-0.10803048,0.21762674,0.11022509,-0.2895845,-0.08278922,0.16342877,0.13541846,0.281727,0.29691806,-0.2798565,-0.438532,-0.35494947,-0.13849375,-0.107635215,0.29880604,-0.0042647873,0.038748965,0.5873389,-0.49997583,-0.36208138,0.16350432,-0.27781147,0.33718976,0.08312094,0.09886601,0.52841663,0.64161783,-0.87069726,0.43703023,-0.43631306,-0.03715008,-0.29854676,-0.18566976,0.17463672,0.5014092,0.5522938,-0.64904314,0.0076797944,-0.29283848,-0.015032448,0.36711928,0.89671355,0.22397606,-0.15509723,0.115185544,-0.108235314,0.4381234,-0.28640833,-0.41044372,-0.13708739
hsa-miR-6832-3p,0.49083194,-0.09941494,0.47167018,-0.18840657,0.4468444,-0.047917217,0.047075797,0.3352259,-0.05540626,0.22722161,0.11332443,-0.8172084,-0.21854725,0.18133095,0.05892348,0.14781852,0.37543133,-0.49292955,-0.07838786,0.413479,-0.066557206,0.43804064,0.026411278,-0.038004324,-0.32034218,0.13809177,-0.20020647,-0.15247294,-0.12869774,-0.14927487,-0.04806404,0.5178896,-1.0562531,0.25930715,0.23136725,-0.22730401,0.056317955,0.29236674,-0.32402754,0.063175544,0.24595128,-0.30845055,0.33161062,-0.25188503,-0.24293073,-0.37642494,0.33772618,-0.06352222,0.35500038,-0.026658978,-0.50387174,-0.19589528,0.1417243,0.32874686,0.4351653,0.6513249,0.3513685,-0.028715905,0.039700408,-0.20685239,0.17173456,-0.41883454,-0.021838129,0.118315786
hsa-miR-6882-3p,0.21216877,0.53912425,0.31103277,0.27450114,0.0587908,-0.20491105,-0.058681775,-0.3043625,-0.08651096,-0.35545492,-0.0017619336,-0.07616125,0.019942101,-0.15909705,-0.0023736388,-0.3994207,-0.11573424,-0.123103164,-0.10734896,0.17796314,0.1480712,-0.015013816,0.5062109,0.1739487,-0.193144,0.054715686,-0.33704612,-0.28817922,0.087806545,-0.34588945,0.36948663,0.3708923,-0.98812675,-0.08542064,0.51045114,0.3635956,-0.038332235,0.7308632,0.5674458,0.25574973,0.7641507,-0.02981714,0.09419585,-0.46627328,-0.000857777,-0.27299875,-0.35616297,-0.45981997,0.03181172,0.15237093,0.08817826,-0.037717488,0.22400945,0.08509767,0.7369502,0.34199196,-0.018213453,-0.25927928,0.24629995,-0.5184336,0.10876019,-0.114370555,-0.15349224,0.37336385
hsa-miR-6797-5p,0.08816022,-0.61740166,0.076246805,0.37301418,-0.005977171,-0.69429517,0.15722087,0.42981306,0.26321766,0.08527865,0.5899215,-0.12172645,0.68587047,-0.034500502,0.3019601,0.21087343,0.1389778,0.15594012,-0.4361276,-0.002851086,0.31017616,0.5070077,0.36017147,0.47846937,0.455188,0.68778515,0.102207415,0.061221004,-0.057290323,-0.11429312,-0.3476599,-0.54512715,0.35506362,-0.21089293,-0.42456356,0.2280367,-0.046141554,0.06368269,0.76839083,-0.09804428,-0.29892138,0.19218539,-0.036087632,0.25270596,0.08032149,-0.060924307,0.25830278,-0.0949934,0.30444613,0.054744937,0.46922207,0.060015284,0.20337695,0.4667844,0.09941468,-0.60767716,0.12517269,0.0019187364,-0.29656067,-0.091776885,-0.04340334,-0.063981004,-0.121599264,-0.45274654
hsa-miR-6848-5p,0.27797732,0.11415165,0.39329776,0.34242064,0.31634364,-0.52610314,-0.069613285,-0.20428266,0.039099846,-0.31752124,0.19678755,0.07615431,0.3268997,0.3576595,-0.41866696,-0.08450527,0.09357677,0.4504776,0.09236377,-0.024446758,0.5876069,0.23426627,0.798849,-0.12133586,-0.10796721,0.079565585,-0.46414816,0.026076065,-0.1646886,-0.19188291,0.30945882,-0.031614933,-0.06035732,-0.3674835,0.39780405,-0.009909695,0.058050953,-0.6273595,0.56007963,0.2579943,-0.6527472,-0.026632264,-0.22999118,-0.51691514,-0.45150667,0.05962869,-0.19063507,-0.097359076,-0.20077598,0.16684714,0.1356273,0.17348292,-0.79183835,0.15676889,0.5601722,-0.11520526,-0.36282262,-0.4876814,-0.10951454,0.050627653,0.10652983,-0.33960214,-0.32501477,-0.6669084
hsa-miR-361-3p,-0.20698442,0.23450363,0.25902593,-0.1531213,-0.49070093,-0.15717791,-0.30487576,0.3748032,-0.25525987,-0.3824023,0.12852791,-0.21179654,-0.104336865,0.084273964,-0.24058136,-0.048669286,0.28538293,-0.31884325,0.34928906,-0.16125585,0.18188089,-0.4632478,-0.024957573,-0.5547023,-0.025256613,-0.4086722,-0.35736877,-0.12290202,0.2773953,-0.21901654,-0.42640084,0.5564065,-0.51368105,-0.36382708,0.3623477,-0.29887947,0.2741977,0.3601989,-0.28326482,-0.42578527,-0.3004337,0.0012644372,0.25466755,-0.26483896,-0.18806022,-0.07016741,-0.57854635,-0.1413663,-0.30259436,0.36454704,-0.19901544,0.22246374,-0.3340699,0.07171611,0.02928855,0.41981107,-0.23013718,-0.2876964,-0.18514097,0.22059625,0.30395085,-0.025998244,0.25614622,-0.42255363
hsa-miR-5001-5p,0.101186275,-0.20385014,0.15501557,0.6453418,0.07259736,-0.109259,0.082991615,0.00522747,0.5797883,0.16861363,0.26525778,-0.058704443,0.09365514,-0.3680024,0.24916479,0.20678307,-0.5248685,0.3297184,-0.2811828,-0.21476978,0.082823485,0.38601986,0.67010504,-0.053298373,0.1043954,-0.022995444,-0.003592811,0.398553,-0.53752685,0.17659765,0.15134938,-0.36756867,0.31956404,-0.16652757,-0.13474399,0.17363615,-0.23234683,0.31376514,0.42763105,0.6154278,0.071338624,0.013864059,0.17945029,-0.36746055,-0.15226214,-0.32853281,0.43083975,0.23385021,0.07867008,0.6365639,0.2701028,0.02133441,-0.1584295,-0.028098697,0.03766438,-0.0028446012,0.06680403,-0.06160799,-0.03798359,0.3295892,0.22843993,-0.099197984,0.10236208,0.0979244
hsa-miR-6893-3p,0.17664948,0.32323855,0.4662849,0.05899188,0.15515181,-0.13066301,0.052252684,-0.06150455,0.05113631,-0.2721389,0.134679,-0.20881057,-0.26877198,-0.17668553,-0.034309432,-0.17483263,-0.013101498,-0.31919953,-0.08822135,0.16877645,-0.113209456,0.024620445,0.37553343,0.14252406,-0.11641818,0.16291414,-0.074957855,-0.31174183,0.049751244,-0.55321974,0.4184333,0.27377942,-0.97055244,-0.04454654,0.5651067,0.25763386,-0.054924507,0.67553526,0.4155075,-0.19621314,0.54627246,0.05232178,0.17739694,-0.4452308,0.14459075,-0.20741086,-0.1024097,-0.47231942,0.040361453,0.02293077,-0.012981241,-0.13664456,0.27999505,0.16240998,0.7298299,0.4171892,0.23535468,-0.30179903,0.29626712,-0.4275746,0.12093257,-0.10297807,0.050753392,0.5700527
hsa-miR-6784-3p,0.10656604,0.1180644,0.5259614,0.30047122,-0.036340926,-0.2502573,0.34695214,0.24355395,0.2312873,-0.44059995,0.07256029,-0.12799694,-0.3036017,-0.08630498,0.12585971,0.25878134,0.25779173,-0.51477194,-0.08510496,0.09720703,-0.12737532,-0.12241641,0.23369683,-0.1196783,-0.29086038,-0.13715681,0.14364442,-0.19343372,0.13911456,-0.51948833,0.14091495,0.21089043,-0.6548934,-0.21615322,0.3374336,-0.30076241,0.23887195,0.57967246,0.45344806,-0.22034207,0.6394463,-0.013089029,0.31192574,0.02472516,0.18299283,-0.25239813,0.40052864,-0.17034322,0.116314895,0.16684562,-0.36684263,-0.4242297,0.43179002,0.1124117,0.7083274,0.6864213,0.45995468,-0.24290192,-0.047601145,-0.49798942,0.344272,-0.3426002,-0.016800145,0.19942594
hsa-miR-6787-5p,0.40635055,0.107355826,-0.3028305,0.48882863,0.17772642,-0.376407,0.116724536,-0.66082144,-0.13184386,-0.10498127,0.4831364,-0.17914693,0.44049317,-0.4621453,-0.06977868,-0.29441822,-0.39446542,0.33366698,-0.047751922,0.10843181,0.08720428,0.14332674,0.8965494,0.17708117,0.19339797,0.26945513,-0.06699376,0.13254128,-0.3228774,0.32063216,-0.11136205,0.033586312,0.07591233,-0.33481237,-0.036363006,0.05465828,-0.5327882,-0.1510906,0.30028996,0.3795394,0.02949729,0.19054821,-0.62644994,-0.32150686,0.004056231,0.033606663,0.026170008,0.16429968,0.14621638,0.25681785,0.26209828,0.30981553,0.11214199,0.27195424,0.002121674,-0.56738156,-0.105853245,-0.036026463,0.1343794,0.31914455,-0.38603756,-0.30182892,0.24493687,-0.12281726
hsa-miR-181d-5p,0.1893055,0.16455664,0.32174224,-0.04612301,0.21616158,-0.16279495,0.59679496,0.1427716,-0.32915226,-0.076690204,-0.34674686,-0.09014643,-0.45064306,0.06812842,-0.15908381,0.60155827,-0.22105281,0.1492194,-0.13509752,0.36857492,0.34029946,-0.080921836,0.1451206,-0.13127032,-0.59553105,0.058338553,-0.11624475,0.46104884,0.5130637,0.3327328,-0.7149479,0.2668897,0.021165067,-0.24316432,-0.7064547,-0.36453637,-0.33984134,-0.25197592,-0.057709545,0.5765558,-0.6055437,-0.19129558,0.24781759,-0.23680538,0.06818281,-0.14238805,-1.0040519,-0.75750566,-0.23741327,0.66043884,0.08026925,0.07419564,-0.1401498,0.22132532,0.15140283,0.3585906,-0.010332658,-0.3022412,-0.3192005,0.018896945,0.29663166,0.10543895,-0.55948424,0.26021442
hsa-miR-5004-5p,0.060698655,-0.48763523,0.19252376,0.22719434,0.5358505,0.008308534,0.44713607,0.58738583,-0.22473113,0.27920908,0.15177996,-0.39673576,-0.29621238,-0.10635628,-0.0048318603,0.64886564,0.3197079,0.049044546,-0.35248888,-0.13008153,0.3196848,0.69267714,-0.1668317,0.18165947,-0.41919816,0.09551464,0.18503217,0.20145988,-0.21058418,0.030420594,-0.45515174,-0.5854207,0.4360236,-0.51720816,-0.5131762,-0.43654528,-0.18723139,-0.3791798,0.13274096,-0.27194434,-0.5961103,-0.46826443,-0.3052543,0.42524487,0.07251845,-0.17044614,0.33633652,-0.049138814,-0.1288564,0.44874778,0.084605075,0.48832494,0.3590292,0.4313388,0.1696805,-0.048302233,0.40583998,0.031474445,0.2397883,-0.089175865,0.4231137,-0.058286004,-0.038356826,-0.11942423
hsa-miR-1236-3p,0.20486642,0.31240904,0.60224366,0.18297598,-0.14849067,-0.15826239,-0.022990422,-0.06560221,-0.006747078,-0.26164615,0.12310724,-0.3502445,-0.030886665,0.08881376,-0.0048150155,-0.14808933,0.07020772,-0.23384553,0.067407705,0.39048746,0.03666031,-0.001598512,0.11002283,-0.11386829,-0.37848344,-0.07830598,-0.2892504,-0.10910255,-0.0283679,-0.06259203,-0.36666912,0.4901644,-0.79903376,-0.13839948,0.15871042,-0.41770864,0.3542206,0.48056513,-0.05455008,0.26867828,0.57666445,-0.15175913,0.27241692,-0.33201385,0.122247875,-0.1685627,-0.13745706,-0.06419493,0.19332144,-0.10707953,-0.5646264,-0.15473518,-0.031063037,0.18378198,0.5330492,0.60848844,0.23563461,0.00054421544,-0.24614368,0.09766957,0.0306853,-0.29508775,-0.069405995,-0.1874719
hsa-miR-769-5p,0.17147462,-0.034188986,0.13241838,-0.14897205,-0.3404698,-0.17583244,-0.35779852,0.14117755,0.0019496045,-0.019760873,0.32591859,-0.4294228,0.22873785,0.22632155,0.06496648,-0.10630503,0.20574111,0.04352524,0.20376644,0.24308567,0.077390574,-0.031447783,0.46228698,0.0013564532,0.40730375,0.45342103,-0.11174763,-0.2211259,-0.30343112,-0.1250521,-0.06393602,0.18622482,-0.46881095,-0.0071512624,-0.17150968,0.19101752,-0.040437724,0.6949228,-0.10931275,-0.059854902,0.06980014,0.4079935,0.28630552,0.02997397,-0.0026894596,-0.14421009,0.23860374,-0.06404662,-0.1150016,-0.088678524,0.029549325,0.17722979,-0.16152921,0.2798554,-0.2701984,-0.016139623,0.05310536,0.09235644,-0.08497705,0.1733919,-0.018020494,0.15138344,0.3967981,-0.4900543
hsa-miR-6744-5p,0.06293368,-0.31566396,0.18019229,0.04123957,-0.27354732,-0.44997114,-0.2014467,0.47324452,-0.0567931,0.021647159,0.22483434,0.1204202,-0.022873802,-0.043638404,-0.14155199,0.031060819,-0.055129856,0.2818688,-0.14336717,-0.10930911,0.3558164,0.17724828,0.41616336,-0.047596898,0.27679598,0.35855028,-0.3361752,0.058818065,-0.178619,-0.20368586,-0.17693868,-0.20833226,0.25241277,-0.20336397,-0.057860106,0.060336307,0.091000505,0.025663367,0.534842,-0.16821523,-0.568143,0.23193823,-0.020859726,-0.097947635,-0.1370368,0.10552394,0.014230174,0.0029378098,-0.24018401,0.30107996,0.3492088,0.20022859,-0.17600492,0.20353135,-0.10033591,0.023000386,0.0058875144,-0.34217224,-0.057463497,0.30332246,0.17171885,0.031755093,0.020452904,-0.16831307
hsa-miR-135b-3p,0.17855999,0.1575747,-0.03571496,0.39458972,-0.07199888,-0.63199735,0.05133634,-0.49993327,-0.04885836,-0.22898807,0.49207616,0.02979654,0.21689565,-0.44237766,-0.019259907,0.09551868,0.5988268,-0.24625802,-0.2295101,0.10667811,0.14757277,-0.18610571,0.17182297,0.1434008,-0.15729332,-0.33788997,-0.09096106,-0.48360896,0.19695537,-0.27464482,-0.15702185,0.067007326,-0.05244517,-0.22794876,0.41298956,-0.12685911,-0.23024441,-0.5809022,0.54429334,-0.33181202,-0.25933474,-0.18405278,-0.48017725,0.31178054,-0.22608985,-0.035615478,-0.06951285,0.30775714,0.08275413,-0.09098147,0.10550037,0.28808355,0.4606378,0.37582195,0.38788274,-0.5349958,-0.27232152,0.48948893,-0.17422605,0.08234329,-0.08757772,-0.3786027,0.44065875,-0.2217092
hsa-miR-4269,-0.12145377,-0.17490888,0.39164004,0.16103737,-0.053079013,-0.14527948,0.0893165,0.49491528,0.06703188,0.18488824,0.019161634,0.12684013,-0.18436766,-0.20819542,-0.036045104,0.19942065,-0.24739729,-0.12884156,-0.2591273,0.03984766,0.027017133,0.2655116,0.22762412,0.30570266,0.30382755,0.120539114,0.10834286,0.099736586,-0.0071824947,-0.48064843,0.32112628,-0.2313367,0.0017388705,-0.13666233,0.46586138,-0.06739186,0.22790422,0.10527296,0.8673176,-0.40035468,-0.21063893,-0.03856456,0.3423,-0.021182075,0.09963242,0.27042797,0.4322419,-0.06927228,-0.013150237,0.21041761,0.40601426,0.0685807,0.118647255,-0.038812257,0.3455667,0.64061594,0.57261825,-0.16519436,0.42032576,-0.15920682,0.1553522,-0.18773909,0.077184595,0.7123983
hsa-miR-4682,-0.009288889,0.23640782,0.026965922,0.0062679513,-0.36748976,-0.07572498,-0.36215603,0.059027825,-0.2204349,-0.04572642,0.5565703,-0.10348621,0.3031117,0.0603382,-0.02928323,-0.3445947,0.1428613,0.07732899,0.114791624,0.3755319,0.034440093,-0.19040565,0.33824003,-0.27702454,0.22375835,0.38011438,-0.3308003,-0.20456426,-0.2797162,-0.042051546,-0.39827496,0.29841846,-0.6092799,-0.05986493,0.11228951,0.12667817,0.18851097,0.7484301,-0.050369002,-0.06672006,0.29898816,0.34211728,0.14718424,-0.23489346,-0.0799507,-0.08330784,-0.27584758,-0.072954275,-0.18881454,-0.23966572,0.03500302,0.078762144,-0.07463421,0.22306886,-0.2425911,0.029311426,0.008278474,-0.2305291,-0.09738045,0.22506332,-0.16088186,0.14604802,0.2238199,-0.5662667
hsa-miR-6795-5p,0.25456733,-0.33729905,0.21792182,0.10560668,-0.2291922,-0.64943314,-0.2095954,0.24990031,0.17284931,-0.034235597,0.17285724,-0.15775727,0.3322175,0.13027443,0.00042890504,0.067514025,-0.16047752,0.38662314,0.015898645,-0.0848117,0.49126297,0.3339925,0.6446101,0.20736355,0.41625458,0.4090282,-0.16569015,0.09438603,-0.1761891,-0.103872225,-0.051114023,-0.2503733,0.32847095,-0.25999862,-0.1757205,0.31913373,0.013655094,-0.021219708,0.6206698,0.07359437,-0.5361502,0.23911166,0.105658345,-0.14891876,-0.07775205,0.1474938,0.29882103,-0.06052315,-0.01135383,0.22923653,0.35574764,0.19238305,-0.37159503,0.1851141,0.1395908,-0.142428,-0.09047276,-0.16823466,-0.19189008,0.28226593,0.070144035,-0.14061442,0.09524534,-0.39155412
hsa-miR-4691-5p,-0.17841871,0.55217415,0.28161284,0.6352514,-0.052274566,0.21988232,-0.11259934,-0.34066665,0.0555542,-0.13482441,0.43907663,0.21593575,-0.06433312,-0.38248459,-0.19257396,-0.15844275,-0.082239136,0.21591991,0.13391025,0.19767259,0.19801186,-0.096414365,0.56037515,-0.25712636,-0.37710425,-0.3480677,-0.40619788,-0.100819945,-0.23659284,-0.0037702157,0.1810668,0.067306824,-0.25890377,-0.5140348,0.5914322,0.015970655,0.12251313,0.20300175,0.37353712,0.22541833,0.25758985,-0.28028163,0.011502478,-0.48671556,-0.114222296,-0.22488445,-0.08326573,0.13408081,-0.452457,0.5392389,0.31825417,0.3761434,-0.0768525,-0.08282869,0.17972922,0.29208577,-0.014810687,-0.11542382,0.3904103,0.09383854,0.2759211,-0.15197682,0.3218386,-0.31376567
hsa-miR-1915-3p,0.11263975,-0.26514876,0.37808388,0.40262455,0.097749695,-0.2461869,0.37855095,0.39575273,-0.032777067,-0.08202126,0.6590561,-0.07281904,0.026525099,-0.47456467,0.059280045,0.35685036,-0.033093292,-0.12896174,-0.18409702,0.09785677,-0.15515703,0.450499,0.17711227,-0.028572315,-0.0380838,-0.024343517,-0.006396799,0.14676057,-0.15087205,0.049368337,-0.05950938,-0.3048427,-0.18784583,-0.5750352,0.3747765,-0.32919267,-0.05447173,-0.10691432,0.5834597,-0.2197292,-0.45010716,-0.26087117,-0.021278484,-0.6331844,0.110768035,-0.16058965,0.2115203,-0.038036317,0.14002046,0.5684533,0.066101186,0.048370678,0.123309344,0.31481382,0.45583805,0.20033482,0.38403463,-0.10035475,0.03317742,0.21839061,-0.07764855,-0.29785186,-0.17393474,0.12555252
hsa-miR-484,0.099394254,0.047699433,0.3784543,0.4319111,-0.3910373,0.1557489,0.6901241,0.088616945,0.076492034,-0.10645088,0.6635606,0.25956458,-0.12620273,-0.4503309,0.45378023,0.3203755,-0.20696725,-0.42703298,-0.2764661,0.12758611,-0.35669073,0.27300417,-0.17011687,-0.2548239,0.0018607148,-0.20765394,0.23568392,0.3124929,-0.059846796,0.31361398,-0.13813516,-0.1097183,0.09144038,-0.6030599,0.04537656,-0.20947567,0.24770364,0.6479933,0.34867766,0.08852844,0.5485611,-0.5342901,0.44366565,-0.61879504,0.31503376,-0.3774041,-0.070030384,0.3797563,0.40418094,0.5667776,-0.21405028,-0.17874978,0.12390915,0.023593206,-0.021776635,0.30674037,0.31723055,-0.22716065,0.08144835,0.3704783,-0.10686275,0.07657119,-0.33932543,-0.17777057
hsa-miR-4510,0.3488702,-0.23871313,-0.21891633,0.026683323,-0.5224188,-0.60362583,-0.2126883,-0.105980076,-0.4295213,-0.23186246,0.42734304,-0.2721074,0.16627264,-0.11510144,-0.08742131,0.06693462,0.051354755,0.14071947,0.046167135,0.11717381,0.46209538,-0.08198346,0.500253,-0.034469105,0.35485426,0.06311623,-0.36219755,-0.1677908,-0.037976734,0.112522334,-0.5380416,0.16975665,0.36318594,-0.48983398,-0.20131344,-0.1262146,-0.1753021,-0.3733788,0.18564916,-0.15320678,-0.67207545,0.25856856,-0.29834118,0.010081185,-0.0605839,0.24359089,-0.15582056,0.27912518,0.10964276,0.25632468,0.06343493,0.4446362,-0.08951749,0.3930693,-0.35621023,-0.25154972,-0.46811056,0.11862446,-0.2824115,0.793152,-0.09836699,-0.21667501,0.5292423,-0.424531
hsa-miR-6129,0.29173586,-0.0074605425,-0.27677453,-0.1872711,-0.39458638,-0.3305693,-0.12006469,0.00013039878,-0.8311787,-0.1930245,0.18421857,-0.15028574,0.12545592,0.103471234,0.06975811,-0.09923997,-0.005974337,0.15978383,0.10622428,0.3533006,0.2902552,-0.1708949,0.203302,0.027648263,0.26157695,0.30799198,-0.20335528,-0.074637495,0.08175899,0.14854057,-0.5838081,0.11373714,0.104131386,-0.3906587,-0.34791902,0.08783978,-0.12916951,0.0062396135,0.06759071,-0.20547436,-0.43666252,0.37136483,-0.30179667,-0.22774631,0.010461863,0.29039603,-0.44854605,-0.1145475,-0.03051097,-0.004784649,0.07138583,0.33048278,0.08076276,0.23400046,-0.23866794,-0.21280667,-0.34071198,-0.124921836,-0.24046727,0.5096754,-0.3030507,-0.005800517,0.09498936,-0.14248383
hsa-miR-4731-3p,-0.18245268,-0.07465512,0.47023416,0.1982975,0.013839593,-0.2975734,0.58240426,0.6826978,-0.09925033,-0.19705284,0.19210422,0.44660506,-0.2556311,-0.4242145,0.20999193,0.25608593,0.68373966,-0.41399008,-0.13152584,0.09648007,-0.4166014,-0.12107375,-0.15038511,0.016815443,-0.20998994,0.21840014,0.40608796,0.18537857,0.35094887,-0.7117659,-0.24686396,-0.20306726,-0.22708765,-0.10401956,-0.003605433,-0.5541643,0.13695602,-0.03266093,0.7429102,-0.77304906,-0.16285618,0.1989448,-0.0028791076,0.20180117,0.2353823,-0.032899998,0.38461044,-0.1679104,-0.27396145,0.08369466,0.38627976,-0.31083405,0.7541312,0.23517285,0.39444724,0.24234416,0.7828693,-0.27049625,-0.0054370253,-0.34064087,0.20490177,-0.088086285,-0.21053065,0.4859022
hsa-miR-1233-5p,-0.14063482,-0.22954908,0.054333027,0.5530466,0.27861103,-0.17601368,0.28734857,0.30934155,-0.53044605,0.27947542,0.40242258,0.03224867,-0.45103896,-0.2042055,-0.1369908,0.17949304,-0.12258109,0.19925183,-0.3710719,0.19734813,0.091344655,0.5985883,-0.033893336,0.31329608,-0.15894748,0.46917033,-0.11631972,0.2686883,-0.4104564,-0.062628195,-0.603772,-0.57812613,0.1670868,-0.43447474,0.061084058,-0.15483907,-0.051595643,-0.24729834,0.3486445,-0.2913602,-0.35578734,0.0073805302,-0.35202444,-0.113815635,0.1493492,0.090005286,-0.04554118,0.075204514,-0.19928935,0.254628,0.5274213,0.2710015,0.36028054,0.09974519,0.18405779,-0.09443846,0.20137791,-0.52351564,0.43742126,0.015531164,0.047286022,-0.11054416,-0.0054290993,0.1432254
hsa-miR-6824-5p,0.04921998,-0.10693226,-0.33082077,0.1648531,0.08171683,-0.20433806,-0.03212458,-0.07269817,-0.30631623,0.16279188,0.34481806,-0.121083535,0.22171395,-0.013213476,-0.11688957,0.06220779,-0.4192991,0.102054246,-0.3262634,0.2897443,0.11348095,0.34794453,0.17438358,-0.047484055,0.18980607,0.41829428,-0.18653402,-0.07350138,-0.18398818,0.3908557,-0.39288256,-0.2190332,0.05681386,-0.27680448,0.2576697,-0.14310943,0.09156627,-0.24978632,0.0660829,-0.22569601,-0.5379771,-0.041961655,-0.26582432,-0.36519527,-0.23812445,0.27264902,-0.2512334,0.038101416,0.20703296,-0.12383355,0.07467407,0.26858413,-0.018058574,0.35896108,0.037162118,-0.12260636,0.17204109,-0.018280065,-0.15861487,0.10566663,-0.5264118,-0.5002477,-0.1710324,-0.1461722
hsa-miR-1827,0.20796427,-0.32538313,-0.30346787,-0.19337076,-0.39143106,-0.5933547,-0.3102364,0.3617629,-0.26474357,0.2192795,0.069731854,-0.28219268,0.2192537,-0.2508745,-0.014243752,0.21970993,0.064470336,0.04409308,-0.056584395,-0.15682814,0.33273134,0.33157632,0.17217508,-0.032770753,0.29409876,-0.057261333,-0.12320846,-0.20681408,-0.007907452,0.18995717,-0.5063456,0.027740255,0.06978084,-0.17825438,-0.20117718,0.35533366,-0.14242941,-0.029431751,0.19529425,0.0065731755,-0.26265585,-0.34889776,0.04570645,0.042341802,-0.23769912,0.052461393,-0.13738643,-0.012293511,0.29475576,0.5091087,0.15507434,0.5194785,0.14642243,0.31174272,0.021873072,-0.20868081,-0.11309246,0.37516806,0.07372604,0.22331883,0.08270621,-0.050813686,0.1916635,0.15789934
hsa-miR-3612,0.15538098,-0.2952881,0.4087013,0.08602251,-0.038286217,-0.4364939,-0.08497439,0.39620546,0.05827081,0.13068211,0.31109813,-0.028482407,0.3868528,0.19191056,-0.086068034,0.23785076,0.77095026,0.036581144,-0.25895786,-0.01635027,0.53143996,0.33695334,0.019536655,-0.014622841,-0.060009215,0.13454391,-0.24097985,-0.30603254,0.051456574,-0.17421046,-0.48226961,-0.1742988,0.17612545,-0.0015494837,-0.3720011,-0.19936506,0.13152304,-0.20620778,0.23740241,0.007798993,-0.29133204,-0.28116298,0.068808876,0.23830312,-0.21214302,-0.1707252,-0.26286075,0.12199833,0.020601142,-0.046174504,0.026011527,0.20278066,-0.021619141,0.4026004,-0.004033236,-0.47391286,-0.1619527,0.3924989,-0.27442658,-0.061360788,0.16890213,0.11415619,-0.25823635,-0.7222062
hsa-miR-6860,0.24963471,-0.027393805,-0.047497503,-0.0692575,-0.19435047,-0.7066664,-0.025835548,0.08887701,-0.26199487,-0.08725867,0.11524728,0.07959468,0.31388384,0.19359007,-0.24174337,-0.09772566,-0.39081195,0.35865846,0.017260153,-0.011226786,0.15246512,-0.05519949,0.5268786,0.55919194,0.3088563,0.565226,-0.05293693,-0.034982216,0.013805518,0.018651627,-0.26256672,0.0129495105,-0.0037845622,-0.34606406,0.013251149,0.550514,-0.17246148,0.061343882,0.3485733,0.17305619,0.101818494,0.33309013,-0.33411887,-0.17095612,0.34165874,0.32017758,-0.23853025,-0.3404673,-0.0013395858,0.2747012,0.4295461,0.012172067,-0.03993018,-0.12370056,0.29591352,-0.37197536,-0.06645036,-0.37688723,0.12639864,-0.12872046,-0.26141778,0.03528039,-0.18197556,-0.13486342
hsa-miR-612,0.18140735,0.26448035,0.2900937,0.3558832,0.023477996,-0.22997123,-0.067064434,-0.39954224,0.14604706,-0.05751701,0.26227126,-0.09480157,0.52092814,0.16562209,0.016161436,-0.32115886,-0.23132654,0.09671025,-0.09272878,-0.042840894,0.19361703,0.1589303,0.5238672,0.1783026,0.1190459,0.2542873,-0.12569045,-0.020753328,-0.14571932,-0.15160343,0.11110164,0.11408387,-0.37845162,-0.20432423,0.27163586,0.3246089,0.024489595,0.48406333,0.32208616,0.31340024,0.50219715,0.005342092,-0.07753219,-0.27864444,0.0032318113,-0.10083183,-0.011811926,0.04527618,0.10560688,-0.03148768,0.19643871,0.19822216,-0.2078598,-0.001806063,0.30694303,-0.20876154,0.0546415,-0.066845275,0.018815078,-0.10306536,-0.08597351,-0.1829721,-0.06942633,-0.3527312
hsa-miR-219a-1-3p,0.114718676,-0.3947529,0.2593646,-0.23140027,-0.510989,-0.28359273,-0.35061154,0.78081936,-0.47431868,0.068845704,0.4449669,-0.43826255,-0.1144103,-0.017591497,0.20000695,-0.23538762,0.2730488,0.02201277,0.028192194,0.49115047,0.08345542,0.17522584,-0.097015984,-0.07601507,0.17725162,0.5599868,-0.3471442,-0.04934019,-0.15671675,0.2153869,-0.8524289,0.19923797,-0.2289196,0.18262884,-0.39854142,-0.38351792,0.18314777,0.56604284,-0.109996095,-0.07443544,-0.10837073,0.40918967,0.5577921,0.044942033,-0.107286334,-0.22903273,0.20890117,-0.020445857,0.0007220143,-0.08012569,-0.028027382,-0.112976395,0.16450943,0.34387857,-0.5634205,0.37146118,0.103684895,-0.32598266,-0.1376552,0.44271854,0.1983463,0.044895336,0.20609723,-0.46191192
hsa-miR-6785-5p,0.35886106,-0.44412342,0.20152937,-0.11105346,-0.16803947,-0.97886723,-0.177048,0.07856762,-0.22952797,-0.581849,0.68902946,0.014521266,0.28622305,-0.38314393,-0.2470648,-0.24700788,0.07570486,0.29075307,0.40913212,-0.4045194,0.1329257,0.014202766,0.3654582,-0.49422163,0.38535666,0.018072803,-0.42696086,0.316333,-0.047073502,0.197441,-0.32808834,0.14890815,0.19741635,-0.1627308,-0.03730971,-0.28015772,-0.3250787,-0.49817178,0.08273896,0.066216506,-1.0691618,0.30145204,-0.25431222,-0.7902102,-0.12429634,-0.01665696,-0.2136523,-0.019065952,-0.05033579,0.46852693,-0.08734407,-0.115991265,-0.7694557,0.29107174,-0.019028513,-0.61089313,-0.73728174,-0.68894637,-0.531251,0.9537549,0.005484794,-0.024761938,-0.0946525,-0.70046175
hsa-miR-6803-3p,0.24802013,0.13974668,0.6963635,0.54293996,0.19331312,-0.004973997,0.6359163,-0.06496478,0.055916864,-0.31909966,-0.025899826,-0.48881152,-0.84993607,-0.20385996,0.08803303,0.47567227,-0.19437914,-0.4970145,-0.061708674,0.08557063,-0.06536746,0.208089,0.11648881,-0.21322832,-0.5874394,-0.19661653,0.10335849,0.17904004,-0.1644915,-0.14253403,-0.05996015,0.27884528,-0.4733925,-0.35647818,0.05971044,-0.45827967,0.047998197,0.62677234,0.0045577236,0.14746584,0.51614106,-0.3416661,0.42624462,-0.13671175,0.32446384,-0.50117934,0.26747736,0.068764575,0.08217616,0.5268768,-0.4983787,-0.13194995,0.22112575,0.10484591,0.6602533,0.7223478,0.4135651,-0.25763735,-0.037644442,-0.06888272,0.5751924,-0.4433351,0.004229946,0.1355256
hsa-miR-4667-3p,0.19840282,0.2216835,0.49099368,-0.06532798,-0.21450205,-0.008960836,0.10484265,0.17361589,0.027116794,-0.22576286,0.21372227,-0.2692745,-0.41139638,-0.025922216,-0.07548407,0.07016904,0.022959283,-0.3374938,-0.0065756487,0.21413246,-0.16395056,-0.12504238,0.086688265,-0.06617587,-0.31949854,-0.0834779,-0.10577477,-0.11182671,0.03192903,-0.28247198,-0.1997499,0.38673955,-0.55813926,-0.25447926,0.26090488,-0.47037947,0.42886955,0.28736714,0.05861013,-0.20384672,0.33286378,-0.07446918,0.14700581,-0.0940506,0.20404667,-0.045810044,0.11528477,-0.08525825,0.010391657,-0.056737795,-0.4689833,-0.2783667,0.102581605,0.13495979,0.39696354,0.8116726,0.41187337,-0.3249376,-0.13128912,0.12639447,0.11803101,-0.23379515,0.23214705,-0.0073479777
hsa-miR-619-5p,0.25844407,-0.26425114,0.08195375,0.10531803,0.050881796,-0.42140093,-0.068478435,-0.16609171,-0.0006486163,0.179645,-0.010818958,0.0053842436,0.18047597,0.093093574,-0.25255087,0.30154234,-0.27620593,0.3327128,0.016104039,-0.03719351,0.4613178,0.27372044,0.58598286,-0.24353863,0.28058976,-0.10806294,-0.2124923,0.047605176,-0.21154411,-0.11332756,0.23854358,-0.18140674,0.12853177,-0.26307544,0.09913194,0.33223814,-0.42285088,-0.19614382,0.56466323,0.2816403,-0.619509,-0.060681045,-0.11827866,-0.2793486,-0.026519591,0.15110923,0.053721983,-0.12038527,-0.1278292,0.35275164,0.20688957,0.5705391,-0.2919301,0.17886233,0.067719355,-0.24730775,-0.18344338,0.29667354,-0.046071522,0.26688662,-0.0016282483,-0.12573764,0.019096239,0.3199591
hsa-miR-181b-5p,0.21776564,0.23032022,0.3745333,0.080832124,0.28867117,-0.19402637,0.7425622,-0.021922551,-0.018575933,-0.12502955,-0.28078455,-0.09985147,-0.40196046,-0.021810636,-0.08460375,0.53326124,-0.22950062,0.19087675,-0.16292174,0.08274636,0.2669005,0.072529234,0.36626706,0.028721225,-0.5412596,0.023043621,-0.018145096,0.5362242,0.5237863,0.20515405,-0.4227735,0.22257195,0.06921412,-0.29345003,-0.6171611,-0.18368407,-0.49022037,-0.30609322,0.1065886,0.61158586,-0.42715818,-0.17122462,0.11149441,-0.25385788,0.15545401,-0.16710989,-0.76363283,-0.64298594,-0.12670623,0.8251614,0.19816501,-0.01984579,-0.15721737,0.061226785,0.278845,0.20226717,-0.13141924,-0.41998932,-0.13328858,-0.13524939,0.3509257,0.07575575,-0.386443,0.22357824
hsa-miR-3941,0.4912914,-0.46669257,0.4529025,-0.31082276,-0.2036142,-0.39972404,0.35501543,0.5204059,0.39019638,-0.15877444,-0.26017746,-0.108841434,-0.2884874,0.14265914,-0.3137426,0.8945872,-0.116085775,0.14387044,0.010620476,0.00775249,0.32262948,0.05417232,0.5838735,-0.11968045,-0.0012334877,-0.0026207506,0.040745396,-0.11202148,0.16390504,-0.20025587,0.07506172,-0.052003853,0.21095262,-0.41405183,-0.5043143,-0.17099284,0.037793905,-0.38949051,0.47802785,0.17103651,-0.41035792,-0.15209334,0.19862185,0.143568,0.5704389,0.18387553,0.300193,-0.3928448,0.11129542,0.5007466,-0.3412295,-0.045692097,-0.15758798,0.30158296,0.2732354,0.47569302,0.28685796,0.15525433,-0.34837335,0.13960306,0.29582983,-0.057299893,-0.088333204,0.29884657
hsa-miR-6887-5p,0.20404223,-0.63480306,0.19614157,0.10134784,-0.18624356,-0.5190563,-0.119117506,0.5585024,0.22635543,0.044352833,0.09548696,-0.2697753,0.24940322,0.24603283,0.06913219,0.29243472,-0.16489334,0.47870755,-0.13717762,-0.11421129,0.559844,0.54691947,0.610045,-0.096955135,0.36559466,0.43288216,-0.22499381,0.28500852,-0.28902638,-0.045895763,-0.112265185,-0.39482197,0.4578425,-0.2630133,-0.4181766,-0.003132917,0.1469476,-0.19782084,0.65446186,-0.0018177346,-0.9700167,0.29457757,0.15652105,-0.028707387,-0.29196686,0.12825039,0.4307183,-0.008592025,0.021629699,0.2524711,0.15849374,0.21658193,-0.5198333,0.38954726,0.030270625,0.17614251,0.032600258,-0.16220562,-0.48072588,0.46930453,0.20771348,-0.239303,-0.014594368,-0.31372386
hsa-miR-6791-3p,0.072577864,0.35997322,0.18385108,0.18521908,0.17121863,0.12880127,0.024106953,-0.16517413,-0.18227452,-0.05856272,0.2499539,-0.08236547,0.0287154,-0.26741332,-0.03538608,-0.31600156,-0.26904058,0.05578652,-0.013950606,0.26898888,-0.087170765,0.2297167,0.14977099,-0.0006694462,-0.31727695,-0.016792655,-0.19919376,0.29215258,-0.20814364,0.30085003,-0.14280689,0.10521812,-0.53252375,-0.14041063,0.19985236,-0.22349912,-0.022742013,0.33425853,0.11907672,0.2707032,0.38659078,-0.17361854,-0.04441956,-0.47463718,0.08353654,-0.109699376,-0.13668628,-0.26594865,-0.037380267,-0.043940324,-0.17861333,-0.07702905,-8.342575e-05,0.21347284,0.31504732,0.4206702,0.29019225,-0.32533938,0.23609704,-0.006371134,-0.16731213,0.00094982266,-0.08995672,-0.002648198
hsa-miR-7106-5p,0.1817038,-0.17157106,0.34061489,0.028715467,0.011202713,-0.37589058,-0.02758666,0.07974157,0.10465972,0.061770417,0.3389596,-0.20283772,0.36660138,0.5620241,-0.24114206,0.24372566,0.04679488,0.32209536,-0.20633769,0.046642117,0.3113271,0.41084215,0.35796654,-0.07985529,0.0029747651,0.4342377,-0.40493688,-0.032685637,-0.14738369,0.059164,-0.38247094,-0.06553007,-0.2671822,-0.28630042,-0.10240955,-0.24432832,0.12821756,-0.25784156,0.11747425,0.31806976,-0.3594903,-0.043306805,0.089046426,-0.061872844,-0.22300984,-0.08090266,-0.14166813,0.04052894,0.1874736,-0.12070637,-0.02164053,0.02530498,-0.6464475,0.27830645,-0.04870817,-0.0130818905,-0.019848654,-0.15906997,-0.49692413,0.088144034,0.007874368,-0.22408898,-0.31500193,-0.8095622
hsa-miR-4530,-0.21629243,-0.42510772,0.2503427,0.64812243,0.28475758,0.03814406,-0.04693857,0.5998212,-0.13285752,0.46083653,0.5095537,-0.39708573,-0.31786695,-0.24853396,-0.065854,0.2626759,-0.033252124,0.103148066,-0.3923707,0.35028672,0.17969708,0.55298805,0.018856728,0.13460076,-0.04154084,0.13472474,-0.2509347,-0.05127173,-0.7106082,-0.022678312,-0.20904066,-0.48235747,-0.023258641,-0.28903425,0.3526807,-0.27288124,0.01881378,-0.029887337,0.2166291,-0.279731,-0.48597685,-0.07090953,0.09280013,-0.036416996,-0.08719414,-0.16877298,0.32572082,0.24772261,-0.08818076,0.39903665,0.34744278,0.4461936,0.28645432,0.1809395,0.13256596,0.28637686,0.1360214,0.031509984,0.3740617,0.24779646,0.28920648,-0.29575306,0.38820517,0.121291555
hsa-miR-3187-5p,0.10696867,-0.033117812,-0.2350436,0.22301064,-0.03538846,-0.7987997,-0.12482869,-0.13404974,-0.26223034,-0.5903758,0.66623116,0.1813382,0.6321555,-0.76300347,0.048089907,-0.5237267,0.1598302,0.09730066,0.32478973,-0.19631682,-0.14331827,-0.14380759,0.1623371,0.039584015,0.33668873,-0.038121015,-0.012051749,-0.0335958,-0.008844212,0.1061957,-0.24267149,0.16235098,-0.20828581,-0.13625802,0.0794055,0.34062847,-0.1402399,0.08957856,0.3137855,0.047275104,0.2553248,0.16708595,-0.34030667,-0.47107455,0.020373063,-0.17484544,-0.339198,-0.23196204,0.19454415,0.22741376,0.26641837,-0.23231375,0.2000655,0.026604138,0.49317405,-0.83277,-0.39361477,-0.45378944,-0.035113018,0.19279641,-0.1711,0.16075109,-0.1666964,-0.20483814
hsa-miR-8059,0.42776796,-0.45157424,-0.20272899,0.008661085,-0.10512257,-0.9319519,0.109683715,0.15016794,0.21755512,-0.35056624,0.28462017,-0.28604278,0.50628847,-0.08498073,0.31743935,0.399102,0.49055243,-0.04064915,-0.016419211,0.18414882,0.39070457,-0.04956668,0.3924722,0.34483722,0.38470197,0.42002192,0.15283611,-0.27763727,0.14430039,0.025967857,-0.4522993,-0.1335313,0.41658384,-0.11916109,-0.8212926,0.021511117,-0.3009836,-0.00060263765,0.37478134,-0.13897614,-0.352711,0.26490617,-0.12734795,0.66002417,0.16025063,-0.0072174855,0.15660742,-0.14783424,0.23032834,-0.07341575,-0.16688767,-0.019437585,0.31394503,0.78711677,0.049898617,-0.80389893,-0.22274497,0.42839497,-0.49060276,-0.06633472,-0.20656112,-0.040261,0.18272814,-0.6791714
hsa-miR-4749-3p,0.0641388,0.025299357,0.3474843,0.22523642,-0.019830924,-0.22969504,0.30247322,0.27294245,0.07585715,-0.45310256,0.50376105,0.03578683,-0.23409197,-0.58565146,0.015141466,0.1551043,0.13102934,-0.4234703,0.14489546,0.18539543,-0.44441193,-0.0981897,0.18730545,-0.28477308,-0.029497972,-0.24304092,0.016247058,-0.14419685,0.052247483,-0.40416956,0.3874164,0.22363575,-0.6739433,-0.2709068,0.7839228,-0.24818246,0.087090425,0.24374951,0.5768373,-0.5089921,-0.045588173,0.1292846,0.12633567,-0.5224173,0.24856977,-0.120476305,0.34337342,-0.22481228,-0.03370914,0.31693086,-0.17765889,-0.34461752,0.39104468,0.17221183,0.6177519,0.5868662,0.39454797,-0.3198826,-0.028843857,-0.06589006,0.0017158833,-0.35127026,0.10774352,0.46275374
hsa-miR-6871-3p,-0.08284062,0.14226206,0.34475154,0.2040314,-0.03513341,-0.0749784,0.09596503,0.254985,0.0056490023,0.04575175,0.1606225,0.18406276,-0.36293784,-0.2012494,-0.20884529,0.01623186,-0.11202897,-0.07450759,-0.09961486,0.15205416,-0.22811772,-0.24576771,0.12004813,0.29370573,-0.048093278,0.012290626,0.00034852928,-0.05039087,-0.09623015,-0.53138417,0.12490997,0.049397167,-0.2341768,-0.23673542,0.54604435,-0.05366473,0.17338449,0.07785988,0.37474617,-0.27866518,0.14213753,0.07510307,-0.003047305,-0.09757374,0.2894018,0.11821652,0.11308678,-0.05148028,-0.23851243,0.28660235,0.32122377,-0.02945376,0.20571044,-0.2160527,0.43572366,0.47804826,0.30580583,-0.37736222,0.3865812,-0.06583747,0.18001783,-0.06450903,0.2138785,0.55303115
hsa-miR-6842-5p,0.17418857,0.2140284,0.020764507,0.01882165,-0.30266243,-0.32015684,0.0939167,-0.18768857,-0.2743842,-0.20719218,0.3040937,-0.04759274,0.41106135,0.0057477383,0.012946873,-0.4526632,0.024414817,-0.17286319,-0.18371202,-0.2650804,-0.09823625,-0.082537636,0.07033949,0.0977443,-0.086506434,0.2169624,0.07222509,-0.03290343,-0.050813112,-0.044569094,-0.39818126,-0.0204455,-0.21230723,-0.41099256,0.04651864,-0.0893894,0.22262752,0.05132717,0.19087379,-0.25377092,0.3202831,-0.087042145,-0.7915724,0.06777382,0.14164037,0.2515024,-0.1264459,0.29839617,0.2658403,-0.23372215,-0.34358427,0.23593704,-0.009943396,0.22857559,0.43766627,-0.27326226,0.2039917,-0.04951204,-0.25303835,0.26559365,-0.31430283,-0.25715002,-0.08984259,-0.43407518
hsa-miR-190a-3p,0.8033651,0.19985467,0.7803874,-0.15554345,0.0314273,-0.25512037,0.78595227,-0.17619279,0.10725374,-0.13423932,0.047137752,-0.36747766,-0.25974968,0.063988976,0.14594625,0.7018682,0.41019154,-0.4912848,-0.305106,-0.026715044,0.03836451,-0.2491753,0.11549969,-0.24014413,-0.6159479,-0.6653773,-0.035996303,-0.054322552,0.73911935,-0.47921455,0.0823047,0.8257929,-0.23540933,-0.38898507,0.021922411,-0.38398302,-0.064398095,-0.29461494,0.5061059,0.28118563,0.14258063,-0.55978125,-0.072355814,0.35658497,0.035499655,-0.09407544,0.2858359,0.3149373,0.3836113,0.45773476,-0.83523244,0.052045505,0.1331387,-0.04102462,0.46543965,0.75358814,0.036184903,0.04414279,-0.6437598,0.31918982,0.5408735,-0.5566881,0.15498011,0.19123189
hsa-miR-1207-5p,0.089351274,-0.24628235,0.06939206,0.2618832,-0.13880676,-0.4690573,0.029927688,0.03748418,-0.20345546,0.05578693,0.35350645,0.032167625,0.49738568,0.23553015,-0.07024568,0.056760106,-0.3207027,0.22809309,-0.33618122,-0.17222774,0.34237474,0.5151803,0.44009113,0.14800861,0.39995518,0.426755,-0.10430462,0.13640688,-0.17933497,-0.025235785,-0.18682,-0.39106962,0.026882887,-0.47505316,0.14203925,0.17889284,-0.06609069,0.017271359,0.6521637,-0.05785509,-0.313188,0.011238249,-0.17189333,-0.25821832,-0.034048997,0.16358174,-0.0768344,0.019954875,0.20619941,0.08266641,0.39269707,0.33226135,-0.2695674,0.22915189,0.12414686,-0.31933072,0.058025163,-0.13152699,-0.025225913,0.0132429935,-0.1868482,-0.18739338,-0.2880053,-0.22315188
hsa-miR-7152-3p,-0.08293546,-0.08322218,0.18605071,0.099650726,-0.38369474,-0.15077008,-0.046675198,0.23604648,0.22565824,-0.0985479,0.2233728,-0.028794227,0.1424327,0.14691086,-0.12385702,0.009242023,-0.3765719,0.14736511,-0.13017803,-0.121663354,0.15067512,0.06255449,0.31300518,-0.20766743,0.13502921,0.3878143,-0.17042817,0.15143003,-0.09879839,0.051993188,-0.31009698,0.025298946,0.012578479,-0.20362936,0.00565712,-0.16428767,0.56565464,0.23028491,0.20577645,-0.13008623,-0.011569854,0.22176617,0.13963324,0.024493258,0.10291201,0.16758035,0.16492163,0.037105504,-0.011875093,-0.0856327,0.037197027,-0.2181197,-0.27017304,0.047319766,0.021336846,0.31361592,0.410692,-0.31410673,-0.3675264,0.15984201,-0.025701081,-0.20252377,-0.040438157,-0.50504583
hsa-miR-6721-5p,0.2209133,-0.07487692,-0.2742562,0.13385959,0.1579191,-0.2785294,0.32598197,-0.4993335,-0.64294344,0.2309427,0.11903177,-0.12632285,0.37699166,0.33966848,0.06408542,0.16950764,-0.3439442,0.1279519,-0.22721149,0.20137678,0.15578379,0.38180396,0.1874712,0.19522792,0.26411864,0.24375005,-0.034238074,0.23666617,-0.083477676,0.18301763,-0.14833148,-0.12699333,0.023246149,-0.5379713,0.005209439,0.14516528,-0.4177743,-0.40844706,0.33337203,0.19079067,-0.42825475,-0.12019068,-0.47674277,-0.122919284,-0.08215236,0.3324243,-0.1713483,0.20152861,0.3948041,0.074991725,0.18365064,0.6512003,-0.14307174,0.13765615,-0.042838003,-0.2819673,-0.05107082,0.20583683,0.011588253,0.33692506,-0.43966052,-0.36831427,-0.26487607,0.20463306
hsa-miR-5582-5p,0.46279174,-0.44486713,-0.4332954,-0.014422372,-0.10793595,-0.37670994,0.53096175,0.03740858,-0.40097618,0.23685744,-0.16954416,-0.2565905,-0.20582657,-0.19133359,0.08891906,0.29527712,-0.13457277,-0.23060118,-0.28551912,0.43494406,-0.27550653,0.22183289,0.14978467,0.30473423,0.29105067,0.41578224,0.2959909,-0.29579926,0.027787793,0.030594124,-0.16427058,0.13370514,-0.097409815,-0.09115136,-0.2788291,-0.012942435,-0.21007136,-0.38259408,0.15339962,-0.06542371,0.29134935,0.018822143,-0.42594138,0.36105216,0.49514216,0.32616043,0.32398233,0.17400028,0.6380012,0.13821381,-0.13440518,0.14017367,0.89531857,0.18800265,0.101439446,0.0017628086,0.30790538,0.56634694,0.12415668,0.15423149,-0.33963755,-0.4177936,-0.01980156,1.0512161
hsa-miR-6731-5p,0.08130482,-0.13163793,-0.23368768,0.016067354,-0.22812074,-0.28197294,-0.12750316,-0.044557013,-0.5611054,0.19576715,0.15130456,-0.1448722,0.210369,0.04146308,0.012327314,0.07090042,-0.07627074,0.19390957,-0.14903402,0.11125498,0.30888328,0.09235902,0.1730002,-0.011570442,0.2541543,0.036412776,-0.27548352,0.08535851,0.039663374,0.050069798,-0.43924406,0.055744205,0.18579328,-0.2717002,-0.03924905,0.02686598,-0.19251314,-0.3437615,0.2596387,-0.007911796,-0.61211604,0.09052878,-0.18218318,-0.059835378,-0.32216755,0.29885733,-0.24160743,0.24510914,0.1330215,0.21945445,0.293482,0.529412,-0.10306937,0.07532137,-0.28487825,-0.029165996,-0.32571775,0.04637761,-0.14790326,0.5218474,-0.04872674,-0.24285348,0.22934578,0.11903716
hsa-miR-6883-5p,0.3707906,0.03172922,-0.10329057,0.19104388,-0.28230113,-0.61077213,-0.09310103,-0.20572019,-0.4127955,-0.19959411,0.30297568,0.09203571,0.14998262,-0.09452088,-0.24441892,-0.06694375,0.0015324377,0.37812805,-0.004137004,0.20278879,0.4594945,-0.11012692,0.5856336,-0.120626085,0.077318095,0.26539627,-0.48523122,0.00012861457,-0.015000974,0.05256107,-0.58383983,0.19237007,0.43597937,-0.42147797,-0.21652073,-0.18315746,0.10452306,-0.5954234,0.27522367,0.06284782,-0.6070174,0.28895792,-0.45898372,-0.25282523,-0.2344471,0.38164574,-0.4536473,0.26378602,-0.14276351,0.16053094,0.18906368,0.23725353,-0.19127877,0.17692767,-0.11732817,-0.18623014,-0.4473814,-0.35307327,-0.36944288,0.6810189,-0.18474518,-0.26536432,0.1285165,-0.5145905
hsa-miR-6752-3p,0.16805108,0.25556642,0.47861952,0.18195552,-0.28216863,-0.01893594,0.0017636785,-0.020668926,0.038840774,-0.6910942,0.010504172,-0.05943296,-0.38301077,-0.1769603,-0.24641562,0.03520425,0.34603545,-0.35889265,0.39510208,0.23143187,-0.16915579,-0.36368236,0.380684,-0.49447107,-0.2472656,-0.61237544,-0.20404205,-0.52767587,0.15544848,-0.43954894,0.59083027,0.5916523,-0.8036948,-0.15972139,0.8023974,-0.6195109,0.18981615,-0.09792178,0.24119063,-0.2603484,0.12653542,0.20114915,0.22860843,-0.366794,0.010471776,-0.19575755,0.39211047,6.6701396e-05,-0.050214894,0.23588127,-0.4570572,-0.23106335,0.24818574,0.02699383,0.3798083,0.8130133,-0.021592775,0.07621633,-0.094458535,-0.049621396,0.30578756,-0.5572213,0.26629934,0.28578702
hsa-miR-574-5p,0.09346724,-0.098251894,-0.19688986,-0.23300233,-1.0959417,-0.9061266,-0.48766953,0.36591277,-0.84099835,-0.45152828,0.36021444,0.113332145,-0.18933837,-0.39763755,-0.17588133,-0.2960063,-0.0906184,0.14128545,0.0538545,0.2615464,0.24394314,-0.59194404,0.16087547,0.4089271,0.26673248,0.3876776,-0.51380306,-0.42894346,0.183052,-0.1509384,-1.1850251,0.28801376,-0.16196238,-0.43344373,-0.32163978,0.4391671,0.068752654,0.4433603,0.3434558,-0.20676556,0.084892124,0.65659624,-0.15738416,-0.0029527685,0.36511892,0.09962616,-0.94435304,-0.38028175,-0.11664027,0.3223969,0.5294736,0.1522829,0.44072017,0.1512852,-0.093121774,-0.16944508,-0.41951415,-0.5085742,-0.23759769,0.4921862,0.048742726,0.39253998,0.3633024,0.055259254
hsa-miR-6810-3p,0.1439063,0.23742777,0.29720855,0.16930984,0.049559675,-0.15528113,-0.02236137,0.0335345,-0.35266134,-0.32958332,0.29665884,-0.3319414,-0.025664456,-0.0837627,-0.032278977,-0.14985055,0.17316556,-0.35648867,0.11086341,0.47679436,-0.059351657,-0.15926397,0.066441,-0.46506152,-0.25518042,-0.029805366,-0.22694406,-0.20709349,0.09714519,0.033746853,-0.2340835,0.5564317,-0.9863704,0.08159481,0.4473047,-0.44337988,0.054348107,0.6197317,-0.03010701,-0.10414966,0.28720713,0.09894063,0.39410976,-0.40132365,-0.22973749,-0.45957515,-0.08039577,-0.28854692,-0.09879566,-0.12732057,-0.26851606,-0.23126987,0.35207132,0.32404625,0.23458263,0.36688894,0.16978519,-0.22945483,-0.22941637,-0.22065435,0.06732432,-0.46517265,-0.10573624,-0.16265558
hsa-miR-4719,0.40943715,0.1878326,0.47641695,0.20666316,0.031705648,-0.18316606,0.6339989,-0.014891731,-0.049498904,-0.07478521,0.14261511,0.003064308,-0.13466209,-0.045725588,0.0019986476,0.35567814,0.22305131,-0.30273092,-0.5493804,-0.0001131567,0.13482562,-0.2205292,0.05410999,0.24544518,-0.39495298,-0.3652115,-0.059717484,-0.28815356,0.5901963,-0.5734635,0.1004547,0.359468,0.06683892,-0.6407332,0.31651476,-0.16596632,0.12603994,-0.40283972,0.6798889,-0.120024,0.17261298,-0.3702826,-0.37498444,0.23233953,0.24969654,0.18361339,-0.23758243,0.12523499,0.21875541,0.4367761,-0.15775436,0.108181,0.36737442,-0.1994507,0.6011102,0.48226836,-0.033567563,-0.023059022,-0.09177792,0.011890337,0.2289687,-0.27657804,-0.00039302543,0.3817107
hsa-miR-378g,0.27463177,-0.1517544,0.13168283,-0.12916991,-0.17462209,-0.3500649,-0.01681002,0.3350386,0.046889134,0.4107839,0.015375836,-0.30756876,0.09305323,0.38870245,0.2496697,0.23424579,-0.13340828,0.08815811,-0.21266177,0.047489617,0.04702435,0.63761866,0.13351658,0.29805863,0.20170647,0.5798411,0.076291606,0.061250944,-0.275213,0.1535137,-0.3780838,-0.15456426,-0.064741395,-0.034688257,-0.35845277,0.44618553,0.15931825,0.37449864,0.026617883,0.21667275,0.187919,-0.063779466,0.20995381,-0.13263796,-0.011688062,0.10589649,0.05148804,0.033986367,0.34451193,-0.01684714,-0.003388326,-0.03641027,-0.076040246,0.009510746,0.22538453,-0.08485058,0.2201219,0.103817716,-0.08676218,0.04580296,-0.26815712,0.003033896,-0.20132698,-0.2159517
hsa-miR-6873-3p,0.62871385,0.3619484,0.53732085,-0.047659107,-0.4073404,-0.1980241,0.17747709,-0.24460082,0.0466728,-0.04649997,-0.04159136,-0.31714502,0.14137022,0.27253804,0.0012707942,-0.021398284,-0.14878167,-0.09260546,-0.13075568,0.25823268,0.06917625,0.12551935,0.3539528,0.15099072,-0.40935755,0.11768278,-0.16636206,-0.042662542,-0.018058581,-0.007102391,-0.5702518,0.5860357,-0.5878573,-0.4424647,-0.4052316,-0.2247859,0.38721028,0.4996007,-0.024967838,0.8849729,1.1238713,-0.3859201,0.15058206,-0.045941554,0.26226735,-0.058064286,-0.27695924,0.11567409,0.5832342,0.072030514,-0.6393928,-0.041621517,-0.24537459,0.06972849,0.27472764,0.810782,0.43659934,-0.06350776,-0.18302052,0.23716614,0.039558183,0.0041558617,-0.29385948,-0.1451567
