hsa-miR-328-5p,0.16999014,-0.21144716,0.3355455,0.40232924,0.1557519,-0.29733327,-0.18876788,0.25989062,-0.17260231,0.2525389,0.4324006,-0.04895236,0.756358,0.22258754,0.14177293,-0.0095855445,-0.06919962,-0.068212494,-0.6827947,0.23140751,0.5412405,-0.20695698,0.6294314,-0.22418569,0.5959149,0.14187558,-0.114852004,0.080748975,0.018098917,-0.4075396,-0.015853541,-0.31500748,-0.110442005,-0.5995172,0.25109452,0.029524537,0.6215438,0.07806768,0.21956512,-0.13682038,-0.32224017,-0.12944396,-0.64971036,-0.084912226,0.4098544,0.35037673,0.13970336,-0.064801164,-0.3607586,0.30523813,0.23137836,0.9171565,-0.36857936,0.27025005,0.4186995,0.28537378,0.30563182,-0.41391453,-0.02168145,0.1658618,-0.38068488,0.19957818,-0.24669877,-0.21154808
hsa-miR-3689b-3p,-0.14693671,-0.33480132,0.8792337,0.41438904,-0.25915197,-0.07634815,0.13640341,0.54874766,-0.56837505,-0.34393013,0.54213554,0.6014892,-0.21884398,-0.15077263,0.17119823,-0.68094647,-0.25178587,-0.108186424,0.13560638,0.05239945,-0.24000736,0.12113752,-0.1156121,0.11527851,0.17958257,0.37620205,0.23594828,0.4890115,-0.1871183,-0.35130727,-0.14966471,-0.32473767,0.2224805,-0.5430742,0.37125963,-0.5337696,-0.44703928,-0.13148263,0.37998492,-0.17168818,-0.07207391,-0.0075154705,-0.2742896,-0.2549727,0.28926077,-0.19019222,-0.59823483,0.030721098,0.53774124,0.10787913,-0.045735274,-0.07783242,0.23964189,0.34837028,-0.2173765,-0.04275204,-0.05714306,-0.0153563935,-0.20232387,0.54224867,-0.028104063,0.37194967,-0.24178681,0.65798867
hsa-miR-3689c,-0.14693671,-0.33480132,0.8792337,0.41438904,-0.25915197,-0.07634815,0.13640341,0.54874766,-0.56837505,-0.34393013,0.54213554,0.6014892,-0.21884398,-0.15077263,0.17119823,-0.68094647,-0.25178587,-0.108186424,0.13560638,0.05239945,-0.24000736,0.12113752,-0.1156121,0.11527851,0.17958257,0.37620205,0.23594828,0.4890115,-0.1871183,-0.35130727,-0.14966471,-0.32473767,0.2224805,-0.5430742,0.37125963,-0.5337696,-0.44703928,-0.13148263,0.37998492,-0.17168818,-0.07207391,-0.0075154705,-0.2742896,-0.2549727,0.28926077,-0.19019222,-0.59823483,0.030721098,0.53774124,0.10787913,-0.045735274,-0.07783242,0.23964189,0.34837028,-0.2173765,-0.04275204,-0.05714306,-0.0153563935,-0.20232387,0.54224867,-0.028104063,0.37194967,-0.24178681,0.65798867
hsa-miR-30b-3p,0.06471153,-0.34509826,1.0803593,0.12207173,-0.034138884,-0.42963976,-0.08708087,0.76220953,-0.50188124,0.09282081,0.12345464,0.34386688,0.09964855,0.06476894,0.26190752,-0.30164027,-0.037323236,0.3089553,0.18726774,0.088936575,0.30824348,0.023941651,0.09351695,0.09754391,0.2695298,0.0058632265,0.04404109,0.3927181,-0.2540814,-0.20934023,0.055035356,-0.20628822,0.2514966,-0.21274152,0.1900778,-0.68877316,-0.34320515,-0.24409617,0.18236454,-0.14205629,-0.041423768,0.082869284,-0.07982813,0.075650215,-0.0785814,-0.14900137,0.19647509,-0.19824062,0.16708475,0.15899524,-0.16383795,-0.36302605,-0.14115162,0.12060696,-0.055401683,0.27767685,-0.14862843,0.01076019,-0.38372606,0.3471687,0.13472064,0.18326685,-0.40152526,0.38001117
hsa-miR-3689a-3p,0.021722045,0.15208586,0.43965605,0.3590554,-0.337623,-0.5261541,0.020558728,0.091585904,-0.37832412,-0.5806264,0.752497,0.08246137,-0.5038225,-0.42508614,0.21259603,-0.8013369,-0.31420195,-0.23315579,0.21003102,0.015936308,-0.3540854,0.18261294,0.13984747,-0.17223132,0.19826578,0.34584114,0.4450945,0.6017426,0.21609367,-0.17694318,-0.14874646,-0.2576015,0.3545421,-0.91670585,0.18758245,-0.6100257,-0.33450058,0.06715748,0.10600824,-0.3879331,-0.3643711,-0.3970447,-0.37900066,-0.062371016,0.2293928,-0.15986294,-0.67619306,-0.21579279,0.56560504,0.5183068,-0.208617,-0.18308048,0.27067977,0.6120086,-0.36589924,-0.057651103,0.037942916,-0.17721805,-0.61442685,0.93686765,-0.32901552,0.52729607,-0.20146067,0.09099917
hsa-miR-8485,0.036266785,-0.009807681,0.48528573,-0.28329864,-0.38797516,-0.1020517,0.9256349,-0.11980997,-0.34300214,0.48006395,0.16348754,-0.5029937,-0.6092806,-0.08131318,0.33053258,1.1414834,0.2910964,-0.7035752,-0.40916938,0.89656466,0.20227431,0.47695258,0.21900553,0.24896656,0.41235274,0.55831295,0.9671666,0.39180782,0.7796242,-0.30149996,-1.1443268,-0.11121872,0.18367302,-0.37447098,-0.31609356,-0.26836228,-0.5340267,-0.3511591,-0.15739207,-0.44409382,-0.6889618,0.13229196,-0.49609357,-1.1393578,-0.8829641,0.4389059,0.2826444,-0.8986644,-0.27030027,0.043502524,0.32806578,0.6928422,0.8061379,0.8861754,0.05093701,0.012191197,0.88345766,-0.16042146,-0.8082082,0.8213585,-0.43657282,-0.45513824,0.39071932,0.62768406
hsa-miR-6851-5p,-0.22396609,-0.12237189,0.27491316,0.4258849,-0.4470612,-0.6195934,0.12180904,0.7036964,-0.028285898,0.23784152,0.3987166,0.22755165,0.1245064,0.10492697,0.29319566,-0.31894362,0.0904584,-0.14887004,-0.15465793,0.14554498,0.20818537,0.07290588,0.2728837,-0.12879986,0.46571606,0.28353995,-0.25652352,0.17942818,0.08185655,-0.23321566,-0.29340017,-0.32112855,0.33023107,-0.33957505,0.50881207,-0.12527354,-0.38384926,-0.07401066,-0.10436904,-0.7611413,-0.5290666,0.44833192,-0.8508766,-0.28923127,0.020648217,0.13719422,0.09608915,0.21291083,-0.33573335,-0.14000578,0.53866637,0.66100794,-0.01659639,0.5432833,0.37786198,-0.117398895,0.3649239,-0.08697663,-0.15936935,0.29460567,-0.4645894,-0.017109243,0.18950419,0.19163027
hsa-miR-4778-3p,-0.31318313,-0.342802,-0.046488803,0.17056356,0.53088665,-0.10542833,0.12218914,0.24975759,-0.4485516,0.22656628,-0.15474352,0.039435495,0.731509,-0.018993173,-0.0056104725,0.42278734,0.26672983,0.21894535,0.48597932,0.5051915,0.39151368,-0.22575523,0.22798823,0.30219206,0.19019291,-0.05948255,-0.44214836,-0.38938898,-0.37204525,0.03294711,-0.12814954,0.01531913,-0.6590022,0.41530386,-0.2050253,-0.114532106,-0.076348394,-0.12901148,0.69500685,0.49534133,0.69485927,0.088667616,0.40027165,-0.07207396,-0.25239572,-0.1607094,0.12192807,0.17863111,0.35428,0.044551726,-0.06587878,0.016857635,0.07493227,-0.14869902,0.28300714,0.89437073,0.20175996,0.3833442,0.3460035,-0.2605167,0.55187017,-0.3758979,0.23434612,0.23059614
hsa-miR-4300,0.19041051,-0.17107943,0.867021,0.37298977,0.12857528,-0.6766304,-0.3117449,1.1285816,0.11388023,0.30123594,-0.34726754,-0.13919541,0.053378187,0.37566134,-0.057404686,-0.2759002,-0.56923676,0.4269156,-0.1601688,-0.07199497,0.4003491,-0.2948413,0.28414145,0.0187124,0.1485118,0.003441625,-0.12718584,0.2733008,-0.13844709,0.124545865,0.0059368145,0.24704622,-0.032995023,0.0010562312,0.016968492,-0.21120426,0.099344164,-0.048085675,0.03153399,-0.41269797,-0.2851542,0.30079937,-0.1743007,0.17956369,-0.018075405,0.35027722,0.3890569,-0.72830623,-0.040087633,0.07000803,-0.26424617,-0.05116552,-0.5513264,0.5609717,0.6281416,0.23373194,-0.2717854,-0.041694093,-0.38882098,0.114234485,-0.053191356,-0.29245326,-0.16855682,0.5270623
hsa-miR-3192-5p,-0.28040424,-0.1950135,0.36709875,0.37550214,-0.24845506,-0.27122003,0.056602255,0.6479816,-0.4484689,0.15359202,0.37334242,0.32559595,0.22344723,0.049281266,0.314467,-0.36786208,0.16180845,0.023291249,0.10875238,0.09690831,0.05348598,-0.15435012,0.29464447,0.08904892,0.32229483,0.046555478,-0.23259649,0.112854995,-0.05771512,-0.2781011,-0.35725373,-0.12437616,0.06932285,-0.34248742,0.327213,-0.3267382,-0.4038239,-0.04533074,0.2698606,0.079107605,0.040631082,0.30967385,-0.31087112,-0.24439336,0.07017537,0.071260765,-0.20196256,0.4703738,0.19549565,0.26889384,0.25373143,0.42568251,0.09310115,0.1935708,0.25836518,0.30541626,0.18170743,0.20030834,0.32669684,0.37335885,0.14587563,0.15542933,0.274881,0.20691286
hsa-miR-6780a-5p,0.17080069,-0.4107386,0.5802453,0.4898908,0.11468657,-0.45606193,-0.33727723,0.81928986,-0.14089721,0.15079178,-0.21512899,-0.1459405,0.21297835,0.16870236,-0.19712208,-0.07425443,-0.03925578,0.35349756,-0.37695375,-0.00866337,0.35614103,0.14711568,0.3378142,0.11243854,0.09068434,-0.1992007,-0.23435758,0.06360167,-0.4139873,-0.25971353,0.071510024,-0.09505903,-0.21398905,-0.5247803,-0.20003329,0.038383573,0.18521471,-0.4446704,0.48327303,0.09127137,-0.42547232,0.17665212,-0.26774573,0.035820637,-0.023207942,0.39356267,0.035345275,-0.08154771,0.025403326,0.30997005,-0.15897821,0.18178095,-0.39422902,0.3671133,0.28005427,0.017469672,-0.3454261,-0.090896904,0.19521134,0.27552104,0.25378332,0.046122428,-0.22235556,0.16293044
hsa-miR-6756-5p,-0.019781357,-0.15762205,1.0166934,0.26852298,-0.32903242,-0.65740573,-0.23259653,0.5773904,-0.3801039,-0.17580178,0.81473696,0.48133215,0.24131426,0.15822414,-0.18265392,-0.41334084,-0.2593052,0.10664122,-0.14931603,0.026780512,0.060699996,-0.026710955,0.60843223,0.0020420975,0.43101373,0.22735082,-0.10969921,0.21467206,-0.36209476,-0.55997956,-0.18886602,-0.3675553,-0.17189556,-0.8880959,0.39308974,-0.08857775,-0.25918067,-0.0967893,0.50988185,-0.2435025,-0.36479905,0.29494548,-0.6284911,-0.28590468,0.24659194,-0.042524487,-0.5505411,-0.15806122,0.1828217,0.2301081,0.35142112,0.5425292,-0.2792033,0.30581585,0.32437557,-0.056455493,0.007267534,-0.40492555,0.15301432,0.2574769,-0.17002062,0.29341686,-0.3115229,0.010959592
hsa-miR-6726-5p,0.0899809,0.12207899,0.25433162,0.23012626,-0.13443425,-0.3498997,-0.09920612,0.14536951,-0.13369773,-0.0375817,0.42961493,0.19435678,0.3072816,-0.13889618,-0.22133411,-0.06578174,-0.2374967,0.056519035,-0.24113709,0.0007148992,0.21048416,-0.353349,0.41182476,-0.18639816,0.19553006,-0.071321145,-0.064499244,-0.112718,-0.26320037,-0.04548333,-0.105819136,-0.053873137,-0.2496598,-0.6128254,0.26024735,-0.09411838,0.19218044,0.01383779,0.15432066,-0.06946169,0.17589043,0.113777705,-0.51889646,-0.19788955,0.25243786,0.19553405,-0.23587959,-0.013286731,0.023552475,-0.11569691,0.22801284,0.5926763,-0.17178072,0.1560424,0.27956647,0.20137183,0.08421703,-0.22737327,0.14790826,0.14400356,-0.18800108,0.03621757,0.123637736,-0.03467256
hsa-miR-4728-5p,0.10996897,-0.3945636,-0.09842849,0.15928599,0.1001582,-0.3813762,-0.088092975,0.70545185,-0.3896098,0.3136632,-0.06663092,-0.08550472,0.052649673,0.074186504,-0.2468247,0.17709479,0.4110952,0.16317141,-0.4964862,0.07659356,0.27111393,0.10583027,0.38192895,-0.098186135,0.015344843,0.09806069,-0.70256424,-0.3016231,-0.36118835,-0.26332536,-0.08036797,-0.1553844,-0.4617732,-0.693526,0.11090613,0.1995095,0.21693695,-0.49983197,0.396038,-0.00058223534,-0.7853619,0.2571847,-0.40475675,-0.11020843,0.24514002,0.613875,-0.14296359,0.37870768,-0.27634144,0.3010492,0.12951821,0.5091224,-0.18512923,0.264127,0.4880298,-0.08097602,-0.25228015,-0.17117289,0.32220635,0.25699365,0.11408554,-0.063143454,-0.25390938,0.1646119
hsa-miR-650,0.027720332,0.057725687,-0.5404898,0.37911972,0.12536275,-0.43437523,-0.01459613,-0.06803636,0.017062841,0.34379783,0.12983918,-0.48864236,0.46748015,-0.010949462,-0.051230796,0.18244801,-0.024347229,-0.02660837,-0.37846887,0.24032156,0.5041256,-0.3154913,0.6108581,-0.2658377,0.37910783,-0.30780354,-0.34934857,-0.26334092,0.1799461,0.15736055,-0.21834992,0.068368025,-0.14327104,-0.20802546,0.18140711,0.03665758,0.49073264,-0.026865035,0.053690497,0.23343988,-0.23424102,-0.091957554,-0.34598243,0.019196957,0.0763602,0.64795196,0.061374936,0.11584997,-0.25029612,0.35237938,-0.024478607,0.85972387,-0.25970665,0.023400757,0.55238867,0.21191481,0.076819554,-0.2333545,0.03538901,0.11044589,-0.20192675,-0.32569304,0.16052136,-0.4400678
hsa-miR-1277-5p,0.57635796,-0.1565879,0.34581694,-0.024251223,-0.30229956,-0.62724996,0.78438264,0.15888882,-0.09322382,-0.39046377,0.9830512,-0.2159426,-0.81061524,-0.70848143,0.30564824,-0.00951241,0.11952747,-0.82107,-0.03548968,0.5825034,-0.47505736,0.5450505,0.40306008,-0.37385342,0.62130463,0.52826357,0.24308345,0.17715618,0.6537591,-0.12326935,-0.16556734,0.48953503,0.13465524,-0.6287712,0.5504473,-0.4365679,-0.80930686,-0.4572926,-0.34299487,-0.2834137,-0.9690528,0.04624349,-0.104361326,-0.85308677,-0.061009683,-0.20585747,-0.091316044,-0.6076024,0.2217037,0.38494095,-0.23940183,-0.27259496,0.69150555,0.82063925,-0.34029886,-0.21885777,-0.09241815,-0.10032369,-0.91325194,0.76462466,-0.65504134,-0.43614,0.4389738,0.7433605
hsa-miR-1249-5p,0.14366639,-0.3308946,-0.4758559,0.35438997,0.20415324,-0.41362348,0.016776316,0.49233618,-0.27682993,-0.15425158,0.031735055,-0.1575365,-0.2072505,0.08946337,-0.1962336,-0.07995743,0.20229945,-0.33273834,-0.49141556,0.28075144,0.16097529,0.300043,0.16761062,-0.020119054,0.070456274,0.25072888,-0.5485808,-0.19262947,-0.41508737,-0.1689737,0.1429818,-0.38932905,-0.42016065,-0.5562326,-0.2784113,0.17890821,0.041164033,-0.57886213,0.51852787,0.02311906,-0.91837233,-0.08333947,-0.15140457,0.09602714,-0.14893067,0.29808962,-0.31692484,0.23756887,-0.09376354,0.02164179,-0.1135859,0.11536766,-0.15442175,0.36156017,0.20233311,-0.018677235,-0.063305944,-0.40396792,0.009221948,0.33651736,0.061632082,0.057759054,-0.3283762,0.08423184
hsa-miR-103a-3p,0.35192704,-0.13693878,0.069121994,0.4189363,-0.019739226,0.041232675,0.4858022,0.25129172,-0.45421574,0.30552736,0.2742132,0.17779027,-0.24654238,-0.104966685,0.23411816,-0.13078095,-0.14624137,-0.64574564,-0.5713224,0.37879556,0.41341949,-0.23102789,0.23690723,-0.2660562,0.47078666,0.36558667,0.28318208,-0.19439662,0.115035646,-0.29564878,0.100578316,-0.15476522,0.19380233,-0.1543889,0.8108809,-0.09765401,0.17214876,-0.16698535,-0.43412814,-0.050620306,-0.3102197,0.14676782,-0.8068319,-0.46842873,0.6242474,0.25832096,-0.14785364,0.26217076,-0.36715406,0.08887166,-0.1403262,0.8925304,0.65014815,0.1534513,0.12570624,0.14614978,-0.041847937,0.31226286,-0.1064752,0.28801596,-0.70836616,-0.08173055,0.20453769,1.2072695
hsa-miR-107,0.55063945,-0.09199743,0.016511776,0.18901315,0.06424138,-0.12919988,0.47124976,-0.1030427,-0.49764928,0.54065365,0.2785966,0.1675394,-0.24314828,-0.26519823,0.30177003,0.26205215,-0.26274377,-0.3499083,-0.5104942,0.5262766,0.5279859,-0.012948535,0.27050337,-0.23506449,0.28967372,0.06918363,0.22776876,-0.23043622,0.008562257,-0.28540242,0.19521311,-0.3223056,0.23834552,-0.20623216,0.70164806,0.047394134,0.3524393,-0.15697962,-0.25152618,0.10074873,-0.4586594,0.19325022,-0.81438714,-0.3251511,0.76682884,0.25311396,0.039774563,0.2766213,-0.4631284,0.18837096,0.053747155,0.9475773,0.59570587,-0.07566669,-0.07151596,0.23889217,0.20488222,0.3506192,-0.08858519,0.14310429,-0.81525767,-0.09476459,0.17071691,0.9086452
hsa-miR-7110-5p,-0.29995865,-0.38001847,0.4677419,0.5736349,-0.14529018,-0.6676171,-0.19465253,0.8161468,-0.52619845,0.11230302,0.5027542,0.4151961,0.36587054,0.12418533,0.056102302,-0.24035195,-0.01943034,0.067051604,0.1487643,0.049148973,0.13515072,-0.09500375,0.1847251,-0.17807396,0.30605873,0.35730264,-0.10436406,0.396532,-0.15614007,-0.101769164,-0.27915287,-0.29329538,-0.05137564,-0.39943406,-0.118420325,-0.48598364,-0.35162526,-0.5581453,0.51093566,-0.11749091,-0.310191,-0.17657863,-0.23746121,-0.11507998,-0.10640882,0.15032521,-0.52469385,-0.16000015,0.47862625,0.3546168,0.0041785836,-0.19907226,-0.34362662,0.35329965,0.27934298,0.28963295,-0.0531501,-0.43773678,0.116468064,0.58274317,0.2904111,0.15481743,-0.32098,0.34570384
hsa-miR-920,0.14888273,-0.37798995,-0.04376035,0.20175384,0.095825054,-0.3719246,-0.22566059,0.6696314,-0.41652054,0.049263053,0.0941303,0.1632319,0.09833505,0.09917684,-0.20722549,-0.17543551,-0.03443777,0.19775105,-0.21700315,-0.09021559,0.06472216,-0.104492895,0.33704928,0.08490661,0.12261987,0.031291317,-0.21881637,-0.03932192,-0.17807497,-0.26992995,-0.1854017,-0.11398143,-0.2743768,-0.48483178,-0.1159969,0.23028585,-0.04651945,-0.21872644,0.472085,0.32003486,-0.18449968,0.13304208,-0.27476946,-0.27081037,0.2181265,0.48240674,-0.49195352,0.05848448,0.27636948,0.28069896,0.11209016,0.2842889,-0.038708612,0.24076481,0.29964876,0.18335207,-0.42234942,-0.3768165,0.5209691,0.3213091,0.4169076,0.18567017,-0.020403795,0.12087111
hsa-miR-6752-5p,-0.1313345,-0.37219474,0.17797343,0.40389648,-0.1961791,-0.48691127,0.046909828,0.41815755,-0.4495915,-0.14284673,0.5740145,0.4324367,0.34206793,0.024386814,0.0020319712,-0.25151074,0.07357747,-0.079949774,-0.17528799,0.16035067,0.23703662,0.11757841,0.22566888,-0.23377845,0.20083989,0.5373005,-0.27349326,0.12243996,-0.27231184,-0.4990828,-0.20666063,-0.5130388,-0.16360731,-0.58223367,0.2721785,0.029734368,-0.09856792,-0.18080436,0.3867562,-0.3654645,-0.23888248,0.14762571,-0.73929894,-0.31175423,0.33314973,0.049684078,-0.47551277,0.24549033,0.049158994,0.06983424,0.44506186,0.45102736,0.0011486866,0.3754008,0.1542566,0.00365691,0.22695263,-0.47016287,0.0040338114,0.18608621,0.018213166,0.25022593,-0.2185954,0.13353899
hsa-miR-646,0.16113092,-0.048772395,-0.19659393,0.51096463,0.18225805,-0.22368218,-0.05890261,0.4269471,-0.069414064,0.23231356,0.054557174,-0.07443747,-0.015648345,-0.21287818,-0.16266021,-0.050557416,-0.30039713,0.1458061,-0.18940735,0.091437064,0.07320505,-0.11930622,0.25063953,-0.20956196,-0.40063828,0.28071907,-0.38313714,-0.12144281,0.033883695,0.110993385,-0.25973776,0.47521856,-0.4964256,-0.13896355,0.22146282,0.5555665,0.4335843,0.2893485,0.27164736,0.3366804,-0.050802745,0.3397293,-0.0779699,0.13059737,0.7409219,0.7039047,-0.41025788,0.1765904,0.283706,0.05670454,0.11263745,0.31230876,-0.020971056,0.20380662,0.51270324,0.20756984,-0.24661322,-0.18004599,0.5718258,-0.42675894,0.37125188,-0.25243688,0.384281,0.6516809
hsa-miR-4739,0.16173732,-0.37097633,-0.332137,0.5166895,-0.20971093,-0.84823674,0.116280206,0.3114021,-0.16454339,-0.1883857,0.101805545,-0.22006652,0.2536871,-0.38485643,-0.514202,0.14296533,0.66047513,0.040336724,-0.23994571,0.06454806,0.35605308,0.40773922,0.54743886,-0.57166344,0.037559707,0.34743023,-0.88140124,-0.26872936,-0.22528975,-0.12550111,0.08360089,-0.011658597,-0.58571905,-0.6851913,0.09703133,0.10579617,0.050760955,-0.73881006,0.07954847,-0.066825666,-0.6040234,0.10842556,-0.45288548,0.07952912,0.07131197,0.41446894,-0.37137073,0.5507861,0.012352774,-0.0014661241,0.20616621,0.08972126,-0.4549016,0.5155981,0.06386955,-0.2022659,-0.29510865,-0.30193692,0.041087355,0.020750893,0.31006578,-0.045457043,-0.1252011,-0.1660905
hsa-miR-6812-5p,-0.0009977511,-0.25013885,0.38944286,0.90380937,0.014336936,-0.40700072,-0.08633715,0.48833174,-0.6930255,0.008378469,0.30706245,0.17177644,0.12036327,-0.25410563,-0.17511652,-0.30711958,-0.2204332,0.085661896,-0.20840631,0.07860132,0.44817966,0.15942761,0.38393825,-0.2184126,0.15509787,0.49103943,-0.10447647,0.27891767,-0.3268615,-0.26217943,-0.08900676,-0.4163552,0.048623417,-0.7987603,0.16636446,-0.19899502,0.20777489,-0.394441,0.47712374,-0.023100298,-0.5598197,-0.18474999,-0.55917585,-0.02384563,0.41496885,0.35832393,-0.7387879,0.049372908,0.06475949,0.57519466,-0.16858676,0.07472319,0.11070136,0.19952706,-0.072563365,0.08203489,-0.32173547,-0.5094929,-0.011335391,0.39758536,0.22636257,0.30534652,-0.52704984,0.8042734
hsa-miR-6799-5p,-0.028488444,-0.18255007,0.4394876,0.13569556,-0.11634489,-0.18261708,-0.10435429,0.5623663,-0.40337014,0.18687274,0.5517445,0.41300324,0.25678125,0.067165524,-0.10349283,-0.25371766,-0.015526176,0.14869101,-0.272583,0.029963072,0.10835902,-0.16345744,0.27904496,-0.08235164,0.20411395,0.4616512,0.08017348,0.06854653,-0.03992407,-0.4355509,-0.16457039,-0.25773886,-0.29370582,-0.5685011,0.19019292,0.118579485,0.018106291,0.059586257,0.33992672,-0.09809472,-0.09195461,0.21709543,-0.5434495,-0.28672484,0.48406753,0.29467446,-0.50655824,-0.03682465,0.081737705,0.01255553,0.51989585,0.5643076,-0.15714307,0.3554192,0.22293976,0.10555466,0.018671382,-0.31691644,0.245918,0.15808065,0.06650573,0.31916896,-0.18885432,0.14093529
hsa-miR-6756-3p,0.29650888,-0.0023417592,0.12713428,-0.025814127,0.17501909,-0.23316576,0.44176975,0.00025849516,0.09395844,-0.59421474,-0.0028636376,-0.37362355,-0.04161948,-0.28083757,0.015260957,0.16782628,0.157306,-0.19109614,0.23750085,0.42729336,0.14076635,0.39410475,0.029997533,-0.12523182,-0.5815614,0.64552206,-0.5380083,-0.0045846286,0.020383172,-0.074325055,-0.14851893,0.3496952,-0.6892416,0.09996609,-0.08578804,0.38636038,0.33693314,0.7525158,0.3058922,-0.228765,0.3696802,0.3312435,0.32611856,-0.117937416,0.14266816,-0.2918003,0.13255535,-0.16215882,0.062271446,-0.26065713,0.18433248,-0.22163178,0.330107,0.47508952,0.3797509,0.31168646,0.51639014,0.014132834,-0.41196388,-0.5389676,0.21660341,-0.45867425,0.03922914,0.11056593
hsa-miR-4446-3p,0.019838985,-0.05079266,0.6223016,0.13799031,-0.06140223,0.038410217,-0.1633528,0.33346486,-0.3509787,0.33309814,0.35601014,-0.037592195,-0.10410302,0.24387366,-0.045764785,-0.1968822,-0.42256162,-0.06532494,-0.57066965,0.23694518,0.18505973,-0.0019606503,0.32231703,0.16878273,0.24894403,0.22981258,0.48266682,0.2986611,-0.035790235,-0.35380366,-0.10730331,-0.4952825,-0.24639583,-0.42171025,-0.2315713,0.13500959,0.03286788,0.21667147,0.30425683,0.06094399,-0.342737,0.085015036,-0.70728123,-0.28258315,0.18213801,0.20466806,-0.6249746,-0.27289492,-0.005176452,0.18758765,0.12395825,0.66581273,-0.028399799,0.20192797,0.24211894,-0.0699146,0.043314435,-0.38216242,0.0061294306,0.4160422,-0.13176915,0.44468,-0.22450617,0.47872275
hsa-miR-4498,0.30947363,-0.14184114,0.4122399,-0.47675842,-0.092517145,-0.051458303,-0.09933268,0.5621561,-0.22653952,0.32378012,0.6485602,0.33500326,-0.119367726,0.33099473,-0.30584252,-0.0962844,-0.011814393,0.003896771,-0.73119706,-0.04954892,-0.169631,-0.252348,0.64141226,0.15551232,0.32163876,-0.10650445,-0.1458843,-0.27683833,-0.12768166,-0.5366419,0.12644662,0.029522961,-0.6131131,-0.7412853,0.116639316,0.5163527,0.041741293,0.186609,0.41880852,0.20788288,-0.34173924,0.52836806,-0.33684593,-0.34347156,0.4165921,0.19691503,-0.20612186,-0.00026334048,-0.13037735,0.009383852,0.55664855,0.88455325,-0.2641111,0.1959665,0.54596376,-0.1437454,-0.0051686936,0.0011849109,0.5543099,0.16510606,-0.10342526,0.16382395,-0.027548507,-0.039201718
hsa-miR-4672,0.06691202,-0.33917162,0.5780185,0.14624442,-0.023759868,-0.404845,0.08647509,0.6484682,-0.111490704,0.87468237,-0.16364871,-0.32299504,-0.06783173,0.16094062,0.301844,0.29188177,0.018641466,0.19602987,-0.44356048,0.39916465,0.7322246,0.27861887,0.06257496,-0.083022766,0.116989054,-0.28205287,0.18391427,0.2759553,0.15435755,0.008541948,-0.40451238,-0.2252714,0.30322322,0.044206753,-0.051284607,-0.04567831,0.045284092,-0.23858769,-0.16560678,-0.0086658625,-0.5152975,0.37242016,-0.723559,-0.14244978,0.02144818,0.68850815,0.35452324,-0.2550608,-0.3359897,0.23131119,-0.12829718,0.63553965,-0.09860898,0.21097589,0.43881592,-0.06903432,0.059229515,0.0039573987,-0.20028386,0.43002483,-0.110256486,-0.15218852,0.029905368,0.58220965
hsa-miR-6790-3p,0.84822357,0.34601313,0.4295676,-0.30670843,-0.046433758,-0.65092677,0.3890198,-0.3693128,0.47949618,-0.07671417,-0.11682494,-1.1527959,-0.07765257,-0.8703649,-0.638372,0.57722306,0.22752672,0.042670324,-0.9037994,0.12406317,0.5966485,0.4953258,0.4845775,-0.6853645,-0.54243994,-0.10498157,0.09256503,0.26524836,0.35785732,0.65922415,-0.3491176,0.7123005,-0.54464805,-0.2916467,-0.72175497,-0.3413047,0.73239315,0.28074065,-0.027166663,-0.027335633,0.18786654,-0.33731326,-0.06908052,0.18653032,-0.85997224,0.21108358,0.44600028,-0.4787601,-0.3208712,-0.5565356,-0.5113488,-0.13839526,0.28019786,0.81112427,-0.038521707,0.05861177,0.4372473,-0.035778116,-1.05498,0.3536747,0.074906416,-0.80752647,-0.16143958,-0.16274856
hsa-miR-6862-5p,0.1966235,0.2258468,0.6811733,0.26193476,0.17949262,-0.27941236,-0.11610193,0.54465616,-0.24597992,0.41162565,-0.092902645,-0.23453073,0.025258627,-0.07830924,-0.67345554,-0.059034053,-0.25688794,0.14871164,-0.49451116,-0.114774995,0.450085,-0.3471593,0.38321468,-0.09742974,0.075359404,0.2334889,0.3041539,0.08493264,-0.23210962,0.09686703,0.39773804,0.12653084,-0.5090204,-0.27810946,-0.052405547,-0.042795923,0.33748215,-0.28339434,0.023539796,-0.2435167,-0.13801341,-0.120343804,-0.21785715,0.28386506,-0.141899,0.1938317,-0.21421102,-0.5847055,-0.20178294,-0.07068515,-0.21917096,-0.040970836,-0.23115066,0.1760064,0.17969036,0.060623407,-0.39474538,-0.15272768,-0.2311481,0.14677216,-0.035278257,-0.119711585,-0.3525959,0.67406285
hsa-miR-4640-5p,-0.16631268,-0.16100249,0.25679395,0.37577277,-0.13982525,-0.41535443,0.15207742,0.30023217,-0.34801927,0.24934003,0.50898653,0.12959598,0.1213986,-0.098484345,-0.13095392,-0.22622856,-0.11663395,0.14387375,-0.49813205,0.11231072,0.4410869,0.13660799,0.3875396,-0.07114623,0.03583837,0.21157362,-0.24374461,0.0155493785,-0.3448013,-0.48614073,-0.25309134,-0.40873572,-0.24619943,-0.40528554,0.31726322,0.3154992,0.48250756,0.089237995,0.43326923,-0.24512757,-0.26141697,0.5312492,-0.79362303,-0.046821203,0.6096018,0.30625734,-0.41589952,0.40799677,-0.14563969,0.14813219,0.37156373,0.79276305,0.0038728572,0.117831126,0.4413185,-0.20911545,0.11265266,-0.35770604,0.19243075,0.0047049928,0.0039520944,0.01608542,-0.14709707,0.37666327
hsa-miR-5088-3p,0.32544252,-0.21793415,0.13961342,0.10140997,0.056800023,-0.5278966,0.054315727,5.644227e-05,0.22584273,-0.5091287,0.15775958,-0.11430174,0.43406266,-0.017205222,-0.10255967,0.14533402,-0.08617844,-0.15978372,0.20616305,0.20023824,0.20115988,0.23278746,0.14538212,-0.2501763,-0.21499316,0.1801856,-0.7957994,-0.016506083,-0.27049455,0.053599264,0.10481147,0.13012338,-0.455779,-0.0663148,0.12083672,0.250559,0.47693077,0.5224915,0.2411509,-0.28896654,0.21483515,0.23792726,0.11145568,-0.041440252,0.23913735,-0.45817202,0.25355348,0.01489802,0.012649604,-0.13351868,0.0275325,-0.10253709,-0.13589461,0.32490173,0.32059246,0.32788008,0.52648187,0.08970239,-0.23734106,-0.5038995,0.050737157,-0.39591542,-0.2192238,-0.25249425
hsa-miR-6881-3p,0.38976204,0.059659902,-0.14218101,-0.2056711,0.35218683,-0.24192943,0.29925498,-0.5194042,-0.0570978,-0.35530302,0.10439744,-0.6860325,-0.18437633,-0.21904662,0.30503002,0.48827058,0.02729228,-0.25077665,0.50408334,0.67547727,0.22853042,0.19020303,0.19364743,-0.010491425,-0.29900628,0.17375636,-0.27075526,-0.30737883,0.031862874,0.26002583,-0.062052198,0.20771709,-0.39543885,0.31085032,-0.31606,-0.39451858,0.13381928,0.63256884,0.36565253,-0.1959488,0.29622072,-0.46671867,0.51862025,-0.0295706,-0.20906089,-0.7998423,0.46012884,-0.25211036,0.11940036,0.41690877,-0.1970331,-0.38783392,0.32678473,0.49578714,0.17344129,0.4785183,0.7976733,0.36958542,-0.91552,-0.11989706,-0.14526585,-0.67184746,0.025351888,-0.58924013
hsa-miR-765,0.03385285,-0.3727454,0.13275115,0.40953332,-0.11041039,-0.5614559,-0.13809857,0.7026288,-0.45802018,-0.13030875,0.10616661,0.10236002,0.10535103,-0.10544775,-0.1771603,-0.29651204,0.098900944,0.28384852,-0.013093635,-0.0779615,-0.21668798,0.24158049,0.3341205,0.14588375,0.1654844,0.03848993,-0.49016508,0.18124798,-0.17131066,-0.12084078,-0.22306885,-0.0447765,-0.2018326,-0.7086679,-0.12327923,-0.40449637,-0.2410802,-0.31688663,0.9157586,0.21630871,-0.40990016,-0.089644186,0.16420959,-0.144341,-0.304177,0.10639363,-0.5084124,0.30164185,0.3937514,0.5115898,-0.07293647,-0.22043984,-0.14276026,0.44031873,-0.018372843,0.21658887,-0.38923633,-0.37927735,0.19242613,0.5711468,0.5416902,-0.14018907,-0.33802158,-0.31102243
hsa-miR-6778-5p,-0.18924782,-0.41275468,0.107146524,0.3277177,-0.023450444,-0.35967892,0.10613405,0.53186387,-0.43941116,0.4126907,0.073307775,-0.112937845,0.17218158,0.124835536,0.04275423,0.09391982,0.11126359,0.1598399,-0.4315835,0.49103567,0.4408074,0.2296299,0.33733636,0.18643534,0.40907,0.06644934,-0.09333672,0.14627568,-0.088629425,-0.31102863,-0.42552978,-0.76082957,-0.093617894,-0.4544667,-0.24199624,-0.083746165,-0.12788838,-0.3768504,0.5279438,0.09826306,-0.5979235,0.17666858,-0.749624,-0.20297344,-0.09484001,0.54919666,-0.36343998,0.1349295,-0.1443418,0.18403009,0.2763829,0.810735,-0.24584572,0.31396845,0.34071603,0.14986785,0.1645343,-0.6012185,0.029124266,0.46168357,0.058559325,0.2026857,-0.113331,0.0038418237
hsa-miR-1199-5p,0.06361188,0.18743354,-0.053039413,0.41012996,-0.30411392,-0.5806818,0.18739228,0.1383408,-0.050187726,0.08876314,0.32621297,-0.3286953,-0.17036402,-0.40234038,-0.28191888,0.30046025,0.27771968,0.15160057,0.030960623,0.19240633,0.33934748,-0.030147383,0.39139336,-0.50420624,-0.3157415,0.40953037,-0.10251631,-0.4469648,0.0040261624,0.1207737,-0.2645642,0.40171912,-0.53061074,-0.058579616,-0.002456654,0.3822345,0.30528173,-0.07370544,-0.034332488,-0.20645526,-0.08246002,0.6106734,-0.17508487,-0.3880899,0.27747917,0.5207345,-0.5302613,-0.08319771,0.1439106,-0.030010637,0.24758758,-0.07185012,0.36290774,0.24515922,0.50307816,-0.47514227,-0.52437735,0.074004985,0.06255193,-0.041753095,0.21605393,-0.5324005,0.25419828,0.50595087
hsa-miR-6779-5p,0.0804191,-0.22078963,1.114223,0.15621148,-0.08011994,-0.4561078,-0.29067805,0.55013067,-0.39151075,-0.106786475,0.44059384,0.47892255,0.40874752,0.2504658,0.045403406,-0.17953345,-0.116769984,0.26500848,-0.12035563,-0.070244886,0.14625874,-0.27180547,0.5718033,0.11553137,0.342624,0.04277436,-0.08749498,-0.077747986,-0.62130076,-0.6186661,0.2892105,0.043866258,-0.36623192,-0.5775282,0.3871196,-0.25438076,0.071913876,-0.2575606,0.445129,-0.28380853,-0.012304132,0.3547424,-0.120280966,0.063622005,0.11726452,-0.2999405,0.15972804,-0.07609755,0.24926804,0.13538416,0.072427124,0.02781029,-0.4354767,0.22792785,0.320448,0.21732578,-0.14521465,0.038357694,0.01632506,0.016177282,-0.06773421,0.08826026,-0.27846122,0.13030015
hsa-miR-1185-2-3p,0.37397787,-0.24716836,0.33911368,0.60375535,0.29721752,-0.5229292,-0.20283325,0.6745937,0.108106546,0.19007006,-0.028467763,-0.4440674,0.19439472,0.09305634,0.73555243,-0.22849332,-0.37443763,-0.2001137,-0.27601627,0.38700613,0.4365879,0.01239102,0.009205604,-0.20625822,0.3238576,-0.2676,0.05204668,0.83281577,0.4252448,0.24362302,-0.051886924,-0.2638569,0.6895959,-0.27980897,0.001014076,-0.43468148,0.11871041,-0.08694446,-0.13508268,-0.16405563,-0.6781638,-0.38175705,-0.48034933,0.3848544,0.07945072,0.4797445,0.5879388,-0.54117626,-0.22156508,0.34499064,-0.2904545,0.24538049,-0.332258,0.36976033,0.379624,0.3959,0.542438,-0.50312936,-0.6019006,0.4607835,-0.5227751,0.1921406,-0.00049806037,0.15567465
hsa-miR-4726-5p,-0.28414616,-0.17498799,-0.349153,0.80982554,-0.02612371,-0.49585846,0.016319478,0.49046925,-0.16993785,-0.005296949,0.15868773,-0.11679818,0.08945019,0.098452546,-0.13080977,-0.1868236,-0.104427814,-0.1268621,-0.10265148,0.2888616,0.46043718,0.25047106,0.12740538,-0.05081285,-0.1235442,0.5216256,-0.46363756,-0.037133988,-0.31317887,-0.11059151,-0.23769659,-0.4497916,-0.42967585,-0.2509385,-0.075415626,0.4390614,0.0105719,-0.020062339,0.44932815,-0.17666706,-0.35705435,0.32810238,-0.57160395,-0.024361173,0.094620265,0.38729262,-0.59337884,0.3352365,0.13413805,-0.20180564,0.3609796,0.32482025,-0.1614751,0.41006643,0.53627133,0.049359765,0.16401841,-0.58910644,0.264896,-0.12730753,0.25601438,0.09776438,0.057991877,0.31844953
hsa-miR-370-3p,0.616816,0.07859409,0.9232012,-0.20707834,-0.2957554,-0.68199944,-0.28299966,0.4897058,0.22480762,-0.50614065,0.13673688,0.17614964,-0.3519431,0.2777491,-0.40622887,-0.23736219,-0.36584455,0.18293089,-0.22059247,-0.5114272,-0.25264335,0.24828511,0.37413463,-0.026355892,-0.23248532,0.43831158,-0.055264935,0.2478182,-0.33957428,-0.33081833,0.21317135,0.1717858,-0.4164727,-0.47527522,-0.33883798,0.30223545,-0.277533,0.19128174,0.13087274,-0.18315831,-0.18381613,0.466651,-0.22507893,-0.11404304,0.15330629,-0.35596946,-0.37147364,-0.3620769,0.25120273,-0.20915247,0.06215332,-0.18649735,-0.42177078,0.73552686,0.21705288,-0.39991176,-0.1895792,-0.24924749,0.22703291,-0.26501346,0.24320614,0.05276402,-0.20017613,-0.025435347
hsa-miR-7113-3p,0.3913018,0.35411683,0.18618384,-0.048331916,-0.046332065,-0.29897392,0.15383236,-0.018525751,0.32132503,-0.4429771,0.37693557,-0.35258886,0.055390783,-0.19312245,-0.08624256,0.14005303,-0.07410838,-0.1313566,0.13702229,0.23789854,0.08015207,-0.13494153,0.25610963,-0.33273917,-0.38681382,0.5724807,-0.14355724,-0.29975817,0.20436142,0.054637328,-0.17706402,0.7011773,-0.6218391,-0.045332517,0.006936718,0.6470686,0.42631572,0.8782312,-0.09095397,-0.25948915,0.458718,0.58564234,0.13831612,-0.28538772,0.38101965,0.058069043,-0.107829146,-0.56285083,0.15170006,-0.21914436,0.3091793,0.11342438,0.2722039,0.3757938,0.61176115,0.034167133,0.21160723,0.069220275,-0.03872273,-0.5535596,0.019695232,-0.5007914,0.34229475,0.04070735
hsa-miR-93-3p,0.13140753,0.14653182,0.20336607,0.33734536,0.20601758,-0.23339997,-0.011797339,0.592512,0.07586378,0.5722026,-0.24961856,-0.015655914,-0.011917602,-0.044047877,-0.016765166,0.091629095,-0.60817534,0.22498037,0.040007453,-0.10109206,0.25332403,-0.36656362,0.056977827,-0.13794886,-0.4717889,0.2813148,-0.17301352,0.19564992,0.21002436,0.39481375,-0.40469018,0.9029792,-0.2668835,0.2848268,0.046651218,0.46334133,0.5762536,0.76316935,-0.057973653,-0.08009232,0.2524527,0.40679824,0.24605307,0.08039018,0.48244393,0.67516947,0.40541822,-0.5838834,0.17557646,-0.026782397,-0.030868124,-0.02649003,0.0066487803,0.39718613,0.5282661,0.6086111,0.067687,0.46352312,0.017521577,-0.29054072,0.36295554,-0.48244733,0.3585018,1.1051168
hsa-miR-431-5p,-0.08891826,0.44778782,0.28109005,-0.116156876,-0.005087919,0.32411608,0.4057719,-0.43911567,-0.48434737,0.118379876,0.48285657,0.07531162,-0.124991775,-0.36358252,-0.12718883,0.0038796635,-0.22425507,-0.0373559,0.0896272,0.48911032,0.21512325,-0.22974782,0.064057186,-0.034245234,0.14069308,0.569923,0.42124188,-0.27902713,0.14816396,0.004453055,-0.1597841,-0.013349934,-0.24683161,-0.29104698,0.2996928,-0.1976441,0.0937242,0.52897614,0.036404956,-0.19359352,0.43550643,-0.039733246,-0.23159795,-0.59267676,0.24065378,-0.09451787,-0.3061257,-0.24083906,-0.10546029,0.079092145,0.34674233,0.2960094,0.46984306,0.022848746,-0.2020043,0.29574332,0.29084253,0.05158647,-0.26525176,0.13490732,-0.32305998,-0.050243534,0.046919744,0.233711
hsa-miR-3689d,0.10904573,0.060423695,0.43449652,0.14228362,0.027087633,-0.12699312,-0.17352362,-0.09013166,-0.17365359,0.07301207,0.05960974,-0.020153748,-0.049004603,0.22477932,0.22438106,0.045773655,-0.87638307,0.13779248,0.09273377,0.11286001,0.16631107,0.15903147,0.0034076548,0.15633692,0.12085182,0.23759581,0.39254704,0.76069176,0.3289462,0.21003656,-0.5678164,-0.4563854,0.55047065,-0.19886412,-0.39110768,-0.49792078,-0.08720774,0.3571457,0.38172224,0.0138256475,-0.29772192,-0.5701726,-0.102127835,-0.1829571,-0.20017722,0.13868995,-0.21059127,-0.69176686,0.0655796,0.40011713,-0.09592696,-0.04876032,-0.057991344,0.29880735,-0.1947558,0.38615507,0.5445196,-0.6559193,-0.44877672,0.36491898,-0.0541869,0.1636519,-0.48521945,-0.21519507
hsa-miR-1273h-5p,0.0811523,0.06528781,0.25783506,-0.24769072,-0.038433168,0.053898904,-0.098592125,0.3435719,-0.13467601,0.1902058,0.14292003,0.090327494,-0.12453611,0.21560183,-0.002708542,-0.057086162,0.14885293,0.22681691,-0.50649387,0.007246409,-0.052745376,-0.081750795,0.32211244,0.058557708,0.023373347,-0.07381214,-0.37863943,-0.16198558,-0.028656846,-0.28276387,-0.08635703,-0.016920062,-0.3058653,-0.7538173,0.030936247,0.05694878,0.24593663,0.3392628,0.4701365,0.060882237,-0.3271406,0.10757109,-0.13252774,-0.09266446,0.18293689,0.316238,0.07021563,0.2226448,-0.32492387,0.16577862,0.3769538,0.69194794,-0.35898334,0.31057787,0.46514884,0.07895674,0.31862506,-0.055788822,0.19673105,0.1942338,-0.09242078,0.09206789,-0.18533927,-0.49731302
hsa-miR-6865-3p,0.18822107,-0.19276349,-0.30809596,-0.12403344,-0.030261096,-0.39928085,0.46373856,-0.29532358,0.31674424,0.20650767,-0.18954766,-0.6252626,0.08614278,-0.22914127,0.20902617,1.0791584,0.2715387,-0.4746964,0.2734253,0.6142792,0.27355182,0.23972078,0.08087868,-0.17482787,-0.09025496,0.14201696,-0.19421063,-0.24818031,0.3025201,0.23529418,-0.20494623,0.7670617,-0.25244433,0.37664402,0.07351967,0.17958324,0.07903496,0.036977775,-0.38626292,-0.39096814,-0.21698466,0.2657787,0.186652,-0.48831522,-0.42234588,0.092322886,1.1024361,-0.42835593,-0.13791859,-0.005819685,-0.25141454,-0.025567926,0.36449146,0.32694522,0.2561333,0.3148418,0.43566614,0.67105424,-0.8813288,-0.1452477,-0.30986407,-0.99740344,0.5045548,0.45745802
hsa-miR-4781-5p,0.5037607,-0.20219575,-0.4859774,0.25267002,0.20897792,-0.35487893,0.5910235,-0.29881322,-0.41228968,-0.17843615,0.24316132,-0.2487641,-0.019613687,-0.6119678,-0.0447406,0.011573949,0.5567313,-0.61021113,-0.43888244,0.0928434,0.17768523,0.20747927,0.22505315,-0.3506896,0.23284115,-0.18840222,-0.3989045,-0.47200742,-0.23855136,-0.102649756,0.69315356,0.1946925,-0.102286614,-0.42690092,0.75403416,-0.13112235,0.15613149,-0.89829856,-0.17439353,-0.09913518,-0.56370926,-0.24760197,-0.051040698,0.19575946,0.15416035,-0.42881885,0.17758806,0.6513396,-0.26248989,0.14890118,-0.27696702,-0.017880134,0.4528209,-0.10056386,-0.44938833,-0.24589469,-0.24409607,0.29882756,-0.30831867,0.37977648,-0.60477483,-0.3241642,-0.043066155,0.12568384
hsa-miR-297,0.46701798,0.14933266,0.65824175,-0.118311934,-0.21999592,0.36252335,0.51255673,0.06651813,-0.8478179,-0.26023924,0.82173,0.5514423,-0.65397274,-0.5063309,-0.06573645,-0.41784054,-0.21658312,-0.4752578,-0.06931792,0.12739621,-0.10577107,0.09963179,-0.008214526,-0.11068938,-0.11385372,1.1037936,0.7420756,0.19243893,0.3700344,-0.47448826,-0.111500226,-0.061022095,-0.04845324,-0.573857,0.37309322,0.13451116,-0.19344911,0.6958668,0.0346072,0.10126288,0.335136,-0.010119667,-0.30273682,-0.781701,0.7570552,-0.09100988,-0.9487546,-0.17146757,0.14076354,0.030209877,0.31890905,0.20212907,1.0202442,0.3020752,-0.38059282,0.08958335,0.156892,-0.045058135,-0.00032485303,0.13813694,0.053474326,0.38760054,-0.09074581,0.9914187
hsa-miR-6745,0.2172675,-0.19099855,0.3105785,0.08956516,-0.22673349,-0.70619994,-0.48869434,0.603978,-0.17836103,-0.47974136,0.24759188,0.24363983,0.078377694,0.21925512,-0.10102836,-0.39860705,-0.24494387,0.24516545,0.42722666,-0.46179274,-0.49366656,-0.064449154,0.47251335,0.26655883,0.22144288,-0.2692795,-0.5851383,0.1356645,-0.2846253,-0.09092222,-0.1019449,0.092341945,-0.0035757113,-0.7778191,-0.0588697,-0.4337146,-0.4883076,0.07540869,0.7298925,-0.011789781,-0.086267866,0.036507923,0.21301137,-0.3355651,-0.26976532,-0.46525332,-0.21519907,0.100870356,0.4762575,0.6388951,0.0025401427,-0.24333262,-0.31386828,0.36541685,0.29589668,0.20478176,-0.14029486,-0.3413401,0.40653569,0.42807034,0.2834936,-0.14290562,-0.1352593,-0.84485984
hsa-miR-6825-5p,-0.19517861,-0.325934,0.26563263,0.29667288,-0.10939921,-0.34039018,0.12046681,0.2162282,-0.56339234,0.07113176,0.41036788,0.34678277,0.30573586,-0.019393558,0.2424536,-0.18408343,-0.04231965,0.20337337,-0.026714904,0.1856526,0.3108293,0.057421595,0.18624227,-0.005387,0.34638676,0.08262637,-0.15223311,0.2685022,0.03811777,-0.27937445,-0.6061394,-0.6120763,0.22697087,-0.41601562,0.0872396,-0.33779493,-0.040920854,-0.020474872,0.5193261,0.18359976,-0.03642652,-0.0022725477,-0.4887719,-0.36689553,0.24916522,0.38895085,-0.43428954,0.28555402,0.10683122,0.30792552,0.30900937,0.55842304,-0.15762691,0.046614718,0.35209268,0.34663177,0.2505482,-0.72351664,0.28967202,0.39782304,0.11511755,0.24216329,-0.13006493,-0.21344182
hsa-miR-149-3p,-0.09590727,-0.3307539,0.80501485,0.4197818,-0.32221776,-0.44284645,-0.26321402,0.3055574,-0.22599196,-0.02181447,0.8171461,0.05480134,0.29535976,0.10512586,-0.047388952,-0.027546674,0.06842753,-0.29946,0.052799523,0.21596985,0.17870978,0.1387669,0.37144676,-0.15148887,0.49097702,0.4818064,0.09964727,0.23186712,-0.15552558,-0.6565304,-0.05142169,-0.23617521,-0.1845058,-0.5365587,0.123951405,-0.08870792,-0.14021334,-0.44615746,0.070782825,-0.2923658,-0.689027,0.056874294,-0.38341248,-0.6714714,0.07551332,0.17480195,-0.2713628,-0.46979892,0.12047704,0.51101017,0.33423465,0.17698097,-0.33632505,0.036715068,-0.024971612,-0.2622815,-0.107321024,-0.31871668,-0.3050834,0.44932514,-0.14751798,0.3008267,-0.2718752,0.2586069
hsa-miR-6870-5p,0.14203294,-0.41751665,0.8261848,0.45981988,0.104223065,-0.4868102,-0.14882745,0.42862937,-0.55970216,-0.33830726,0.32895675,0.3368824,0.43799564,-0.02477125,-0.15061639,-0.17111208,0.01894504,0.10711298,0.0046519204,0.05163055,0.35040903,0.003185418,0.5709073,-0.1227635,0.49926722,0.27081484,-0.16662613,0.16925195,-0.50408244,-0.42855632,0.27852768,-0.31001034,-0.004338592,-0.706268,0.24529779,-0.58089894,-0.11822532,-0.7572728,0.40033197,-0.16309053,-0.30205005,-0.187203,-0.21005742,-0.014805859,-0.011379807,-0.36734408,-0.16833684,-0.14856432,0.074540704,0.43476486,-0.21727937,-0.3103234,-0.07430183,0.14775741,-0.27130184,0.26685512,-0.15022016,-0.22958261,-0.1894423,0.2672465,0.06897183,0.2489368,-0.5779029,0.34378195
hsa-miR-1266-5p,0.06116877,0.059620813,0.03562744,0.36259314,-0.06378707,-0.24803992,-0.30476776,0.45707628,0.26105723,0.14787741,0.12174865,-0.29545394,0.037221156,0.3493464,0.40884876,-0.18880066,-0.15936588,-0.18339126,-0.31074813,0.15793307,-0.122263536,-0.0874205,0.22341897,0.008445454,0.09318222,0.14920466,-0.092278235,0.20278406,0.37690908,0.06284505,-0.43186766,0.01734371,0.16123052,-0.20314634,0.23809938,0.089839146,0.037436474,0.15936452,0.006615473,-0.086529516,-0.66256326,-0.041688107,-0.2606627,-0.060051896,0.33814213,0.31688896,-0.022997582,-0.015426663,-0.14468044,0.28697643,0.13699631,0.53235143,-0.24561119,0.526841,0.55881244,0.06586293,0.117827356,-0.22288063,0.24129657,0.12039273,-0.3967536,0.024735147,0.21575186,-0.27741376
hsa-miR-6757-5p,0.25904658,-0.1525966,-0.16385546,1.1544768,0.020971088,-0.34981957,0.21188147,0.28680882,-0.4553874,-0.09006102,0.1484247,-0.16856779,0.054892775,-0.33093402,0.1542311,-0.376744,-0.05496636,-0.34577575,-0.41344815,0.31554163,0.5937798,0.60289353,0.24436104,-0.19678676,0.10892067,0.54413426,-0.3243572,0.19856504,-0.12853083,-0.31300157,0.2736698,-0.44873905,0.14763191,-0.88749534,0.42499012,0.15758948,0.21781753,-0.06754848,0.31621101,-0.1731912,-0.8039803,-0.14831057,-0.56903946,0.13099435,0.3696222,0.14605735,-0.18071721,0.5704423,-0.32088998,0.3615582,-0.0096765915,0.116785616,0.22681928,0.41789845,-0.30946907,0.07249078,0.055162672,-0.40784746,-0.2746655,0.22923578,-0.16446534,0.3287861,-0.31302404,0.38981822
hsa-miR-5591-5p,0.15422955,-0.34938025,-0.07517235,0.7535594,-0.30634558,-0.5824907,-0.068808995,0.9075489,0.04240253,-0.45654577,0.08521223,0.42486697,-0.25315925,0.18946564,-0.014422082,-0.6700798,-0.30270264,-0.16612081,-0.043612305,-0.39245877,-0.11257279,-0.59256834,0.47153506,-0.58506745,0.39775917,0.1580345,-0.44228658,-0.29255825,0.017513966,-0.14926718,0.02490089,0.62826973,0.22762483,-0.5114164,1.1498231,-0.1254293,0.28443304,-0.30107304,-0.28166366,-0.47628382,-0.41036615,0.4490662,-0.32159978,-0.48243582,0.810795,0.45899436,-0.00969377,0.2044779,0.052478906,0.39039943,-0.56228185,0.19455133,-0.034481544,0.7795085,0.62482166,0.041782867,-0.73804665,0.40154833,-0.09560014,0.36847514,-0.42328215,-0.3931187,0.04230515,0.6745722
hsa-miR-1913,0.49912027,0.28527334,0.32584518,-0.16161159,-0.06808799,-0.32027397,0.021977684,0.13251308,0.20846963,-0.29917902,0.6928237,-0.20408298,-0.12892947,-0.22341056,-0.2995708,-0.038994234,-0.11743819,-0.121991426,0.102841996,0.03640246,0.076774925,-0.16969588,0.30844313,-0.42556536,-0.51316214,0.5689906,-0.0844729,-0.41833815,0.1633513,0.003318139,-0.02482271,0.9067262,-0.82024986,-0.09960327,0.18303014,0.7377472,0.36946672,0.73838747,-0.13064565,-0.2237939,0.3834995,0.66843253,0.058651943,-0.33624104,0.647456,0.037132695,-0.21233575,-0.6444113,0.25838944,-0.16708672,0.45060354,0.0129572125,0.123184614,0.42380705,0.6091016,-0.09520386,-0.015684886,0.1840908,0.045772,-0.5237016,0.090303205,-0.42446265,0.3129093,0.21276069
hsa-miR-6804-5p,-0.29144415,0.019533118,0.22925866,0.38073114,-0.065921694,-0.117229745,-0.025220485,0.16477932,-0.5958543,0.34004453,0.30288363,0.025100585,0.02582383,-0.081719145,0.24243312,-0.3763962,-0.38859943,0.41110563,0.17944111,0.12117666,0.45319703,0.019949593,-0.057302047,-0.17007764,-0.13286857,0.17917794,0.16797206,0.46764705,0.29996628,0.13381128,-0.8939883,-0.5735797,0.27542946,-0.042128805,-0.13713151,-0.65827745,-0.09531062,0.38348597,0.47557583,0.14587408,0.2230904,-0.18906878,-0.6327717,-0.42631015,0.11371348,0.3524365,-0.78187025,0.0760638,0.17282565,0.4843634,0.25093064,0.3557484,0.18893935,0.04141791,0.32382694,0.171765,0.28001496,-0.8220115,-0.070790626,0.5726085,0.25654653,0.12946129,-0.17044485,0.049159702
hsa-miR-4518,0.52467316,0.24344455,0.53017545,0.13348277,0.19242357,0.028148469,-0.18736039,0.40050796,-0.14122745,0.004935942,0.06227997,0.004052699,-0.32451504,0.013904458,0.22759907,-0.6252209,-0.74463993,0.16327828,-0.37697303,-0.15498927,-0.07420251,0.05012866,-0.12190898,-0.08124265,-0.20405588,0.2769175,0.44733933,0.63817745,0.5071135,0.13290909,-0.18631585,0.20473343,0.08140462,-0.22703393,-0.009092262,-0.08735951,0.18683483,0.6095062,0.24067225,0.46680668,-0.049195267,-0.20760898,0.14917225,0.007683499,0.5252593,0.41577116,-0.43654534,-0.46541777,0.17280978,0.21470028,-0.26846743,-0.18871717,0.024279682,0.37492436,-0.086450584,0.20980224,-0.31010294,-0.5012046,-0.09809344,0.27026123,0.0862296,0.15873024,-0.3805735,0.29982796
hsa-miR-6133,-0.32876605,-0.25469226,0.26201594,0.5838572,-0.06820066,-0.60011524,-0.09644587,0.53154105,-0.63926697,-0.0021130943,0.27950233,0.22370222,0.41478214,-0.08025408,0.00084327185,-0.16135316,0.15444897,0.27083793,0.20202336,0.0568542,0.22849485,-0.023755873,0.3558895,-0.010299376,0.2432474,0.21911295,-0.35423973,0.17736796,-0.4162467,-0.15191011,-0.26136348,-0.33729902,-0.12904909,-0.45007756,0.05619568,-0.7246022,-0.08702138,-0.5507171,0.6426246,-0.058898777,-0.22216171,0.024436401,-0.11047174,-0.018426474,-0.19925179,0.019378206,-0.40435785,0.31863365,0.2879515,0.3346416,0.031036776,-0.17948222,-0.13993233,0.21525918,0.00920505,0.31992254,-0.03610352,-0.22913131,0.009398891,0.36274225,0.42245534,-0.031056803,-0.3696982,0.064454794
hsa-miR-7111-5p,0.28078938,-0.4752962,0.18584047,0.27336916,0.008424748,-0.4780875,0.010364305,0.5799929,-0.06664424,-0.04882253,-0.29016763,-0.31045586,0.08478029,0.07895435,-0.095270835,0.08149571,0.340628,0.25138158,-0.5554169,0.1380605,0.35214078,0.53690284,0.2570555,-0.05063821,0.040345978,0.12587856,-0.39122042,0.14521389,-0.083914764,-0.40896383,-0.07310258,-0.41206405,-0.10673081,-0.5627053,-0.21072815,0.03813029,0.20628792,-0.35560942,0.4657381,-0.21775305,-0.6554432,0.13949281,-0.45894697,-0.060139313,-0.07213375,0.348499,0.058971398,0.22968212,-0.35223794,0.10180884,0.18385659,0.32293698,-0.3039401,0.63624465,0.2539005,-0.23151371,0.047812913,-0.5920253,-0.1492318,0.18991995,0.0895303,-0.069465086,-0.3601335,-0.3756229
hsa-miR-6767-5p,0.12623367,0.10652102,0.43406165,0.13924973,-0.1590177,-0.28722548,0.10755366,-0.12471797,-0.17163563,0.48469156,-0.2689735,-1.1411185,-0.06218447,0.004013975,-0.21399817,0.28883407,0.38019738,-0.23870496,-0.7696448,0.2918607,0.7984333,0.546679,0.1401782,-0.39011618,0.009415454,0.2810474,0.3704706,0.3725332,0.36348104,-0.15863462,-0.2398902,-0.395047,-0.12311582,-0.24992724,-0.4342684,-0.22646977,0.24411611,-0.34966713,-0.32698342,-0.21655838,-0.80349743,-0.36990535,-0.6915592,-0.05416923,-0.6347189,0.43686986,-0.19878662,-0.38614988,-0.697731,0.6874969,-0.35529378,0.48839325,-0.047093853,0.1217988,0.109086946,-0.41217163,0.14657348,-0.5205978,-0.7849612,0.67537606,-0.14536312,-0.12471068,-0.6425957,-0.062468372
hsa-miR-1185-1-3p,0.047305133,-0.6051464,0.4533637,0.39461464,0.16977291,-0.39346933,-0.18679065,0.9200786,0.22130594,0.30166912,-0.13677089,-0.09830062,0.18240818,0.33353534,0.3945443,-0.09958882,-0.22942267,0.005959084,-0.2500278,0.3760422,0.39006656,-0.116871506,-0.008615514,-0.24955735,0.46296483,-0.3026366,-0.09099503,0.5145935,0.10436717,0.18756281,-0.0056848885,-0.24352631,0.57361734,-0.065722,0.06848739,-0.4435056,-0.06883634,-0.38223395,-0.20266967,-0.36629322,-0.5423473,-0.12835254,-0.5890628,0.008444486,0.060768895,0.3951199,0.6222218,-0.558369,-0.24910353,0.16831654,-0.36173058,0.34323043,-0.36988568,0.4642569,0.30232996,0.12569319,0.2075848,0.005980238,-0.661192,0.48829055,-0.37549436,0.030233849,-0.028885681,0.4608845
hsa-miR-4763-3p,0.2832034,0.06505264,0.84622806,-0.20799349,-0.26258278,-0.5563173,-0.07726251,0.21876027,-0.23804565,0.20178206,0.99679404,0.25032365,0.11147185,0.015841369,-0.40740043,-0.077089846,-0.0468961,0.040031765,-0.5431905,-0.1012591,0.15376791,-0.34497392,0.9905504,-0.07476796,0.4863526,0.06843716,0.13391149,-0.24809314,-0.29270923,-0.65189147,0.121034935,0.039700158,-0.5661918,-0.65983564,0.32547513,0.31063673,0.35868034,-0.0047424114,0.13137236,-0.026767937,-0.17011304,0.62947357,-0.556126,-0.2577485,0.67752934,0.07192504,-0.35226724,-0.13862017,0.008834862,0.11465743,0.37083572,0.8984509,-0.37262827,0.086370185,0.45903802,-0.2610185,-0.21180013,-0.010182739,0.30278826,0.0933124,-0.27321804,0.0652646,-0.070091076,0.12913375
hsa-miR-4534,0.10010538,-0.17041706,0.25952706,0.7146691,-0.014084735,-0.43560863,-0.09806589,0.2626739,-0.47037768,-0.26834923,0.06616659,0.1059517,0.046394072,-0.08340602,-0.024428608,-0.27992123,-0.42074788,0.13802859,0.17103755,0.06818165,0.36037982,0.2507583,0.18867773,-0.091290094,0.20757186,0.27202475,-0.24373226,0.20350297,-0.2556038,-0.007899087,0.018915914,-0.416107,0.26217693,-0.7251595,0.1711877,-0.5566236,-0.121175095,-0.23332937,0.4641859,-0.110608436,-0.45141205,-0.3384749,-0.2590368,-0.17435731,-0.025187928,-0.016026486,-0.32601464,0.026742237,0.043273702,0.42390347,-0.16737275,-0.26089844,-0.1341414,0.34556463,-0.22231622,0.34119058,-0.028348105,-0.58486754,-0.30199257,0.37301734,-0.006063826,0.15396754,-0.5631681,0.0057480764
hsa-miR-324-3p,0.044432998,0.22275327,0.386381,-0.20749936,-0.0019522767,0.10487558,0.1397835,0.3584828,0.07130928,0.08733458,0.5844829,-0.01239438,-0.07910462,-0.11003346,-0.110097826,0.049816776,-0.071195364,-0.08853365,-0.30229887,0.26474577,0.121931255,0.13897815,0.027614577,0.2126711,-0.39304662,0.7095418,0.24263652,-0.112196766,0.020069243,-0.095166214,-0.3661328,0.0013233458,-0.54735196,-0.06440978,-0.33364287,0.62224805,0.1706196,0.67252666,0.24425375,-0.4325929,0.12760423,0.6032864,-0.24444978,-0.11747174,0.23850152,0.034564607,-0.3526634,-0.5824516,-0.110992126,-0.52145755,0.8169513,0.2795745,0.26892808,0.42174837,0.24731228,-0.09374157,0.41219094,-0.14101397,0.07246412,-0.3825274,0.14708342,-0.045390386,0.08353449,0.39242062
hsa-miR-3160-3p,0.37648934,-0.06874655,-0.40935084,0.73946697,0.16100098,-0.59551895,-0.14217357,0.9443384,0.3004831,0.27699894,-0.6283793,-0.5435807,-0.25900912,0.004461697,-0.20527062,0.11690907,-0.29811904,0.07691959,0.052360218,-0.15444331,0.21728396,0.014548748,0.1543479,-0.2740587,-0.5449669,0.08091268,-0.62030494,0.122669734,0.16264568,0.6559711,-0.23135014,0.8752148,-0.3302103,0.054863803,-0.29778525,0.29944918,0.120750025,0.07823391,0.04164074,0.16403487,-0.33529913,0.2306205,0.33572572,0.044426728,-0.09098672,0.75878793,0.2280833,-0.31711927,0.23097074,0.21814367,-0.4034011,-0.57618123,-0.21425271,0.57167107,0.68779325,0.23056938,-0.510164,-0.055990126,0.13818824,-0.0075496025,0.57649183,-0.6653818,0.41192076,0.77463573
hsa-miR-6862-3p,0.37105367,0.1371849,0.03951716,0.34674937,0.20418514,-0.3117001,-0.12278887,-0.14695999,0.419595,-0.18709031,0.21785274,-0.73706055,0.26914176,-0.032258354,-0.007983873,0.107455425,-0.60689515,-0.42136523,-0.20456824,0.18148597,0.36078596,0.20960768,0.27479103,-0.077279255,-0.29115343,0.3393337,-0.34459433,0.2947799,0.1732082,0.2104038,-0.27202103,0.38196295,-0.2536428,-0.15378137,0.009583632,0.47630107,0.7693459,0.8411264,-0.010202396,-0.19307524,-0.2202237,0.10240316,-0.07958063,0.039036267,0.28771606,0.19021426,0.30569783,-0.41634986,-0.15316512,0.15029597,-0.068314925,0.21980788,-0.07127173,0.21489468,0.48944727,0.2590167,0.6317148,-0.34677985,-0.20064922,-0.45109284,-0.14137405,-0.3055666,0.04092093,0.086937435
hsa-miR-6794-5p,-0.11837125,-0.23228568,0.85273963,0.3360637,-0.11542251,-0.3432054,-0.3744328,0.704587,-0.24096157,0.24168715,0.3269357,0.16170517,0.33795592,0.19778231,-0.054153588,-0.22572261,-0.24249676,0.26525664,-0.32997605,0.12445619,0.2153267,-0.037775543,0.2850796,-0.09645717,0.22483888,0.31369594,0.05562166,0.39592677,-0.1881472,-0.20898783,-0.17995365,-0.30237532,-0.13377717,-0.5181281,-0.22723533,-0.2538904,-0.14708243,-0.14484438,0.39915267,-0.40062666,-0.38789088,-0.075282454,-0.56975704,-0.12745564,-0.123601325,0.12333674,-0.3049442,-0.5531866,0.035282064,0.16016492,0.23975746,0.18037681,-0.26359746,0.49672744,0.04230406,0.0052133547,0.07796671,-0.34552822,-0.35002902,0.44810766,0.08589482,0.30661926,-0.38404757,0.30565402
hsa-miR-6127,-0.25813144,-0.36318037,0.37796304,0.30432042,-0.08715479,-0.586013,-0.17754295,0.5653364,-0.59921384,-0.07318669,0.47337553,0.40377238,0.35497755,0.053953625,0.0031502163,-0.24507765,0.039430905,0.22648956,0.045618758,0.070098445,0.012192551,-0.05770944,0.32712525,-0.025555957,0.39946303,0.305632,-0.14119631,0.18310933,-0.2187278,-0.26023647,-0.3396252,-0.3557927,-0.17239223,-0.5889815,-0.12254227,-0.30992004,-0.2571483,-0.42243996,0.6108011,-0.06490685,-0.2703764,0.019622786,-0.30069402,-0.24225949,-0.024784202,0.19731943,-0.6443501,-0.067640856,0.4384718,0.24277063,0.14142339,0.054840077,-0.22065027,0.35964662,0.1256476,0.28704816,-0.13637324,-0.44225794,0.13456394,0.5339702,0.2887601,0.27973717,-0.34420455,0.037337326
hsa-miR-6870-3p,0.76303583,-0.14520103,-0.36142877,0.05049275,0.5180389,0.1038999,0.34175605,-0.72826624,-0.1314875,-0.28192484,0.24485977,-0.53537023,0.10014672,-0.2755624,0.44503897,0.38406876,-0.29864788,-0.49805194,-0.10886829,0.537054,0.37517512,0.2935397,0.18576048,-0.016519755,-0.15058954,0.08231244,-0.11878599,-0.28473732,0.17266601,0.12534556,0.1514332,0.14570192,-0.091866925,0.14753821,-0.001902341,-0.15553397,0.8515504,0.82536054,0.5566108,0.16627578,0.25620455,-0.6539843,0.5121469,-0.10608376,0.04147677,-0.5131966,0.47948945,0.048561066,-0.1728359,0.50418407,-0.22390978,-0.02874144,0.3660999,0.18969448,0.06523202,0.69702756,0.7033782,-0.04160278,-0.52882576,-0.20726664,-0.27087852,-0.7025227,-0.043400634,-0.6061157
hsa-miR-6832-3p,0.34603745,-0.31708905,-0.3840934,-0.06793536,0.35302097,-0.15935394,0.2899407,-0.35682186,0.017395664,-0.2853894,-0.071839124,-0.23233344,0.3290748,-0.22481641,0.3216114,0.78801763,0.1429978,-0.2123094,0.3488629,0.51891047,0.3230926,0.3609529,-0.090521,0.029024448,-0.45327795,0.08646701,-0.60260177,-0.68031067,-0.21993561,0.04038356,0.09984559,0.59297,-0.54577273,0.3553408,-0.0664941,0.11976466,0.35994557,0.23513626,0.5045553,-0.16618745,0.34095603,0.045705512,0.6431928,-0.09564284,-0.3727584,-0.39342424,0.9215389,0.025101086,0.13467592,-0.1269765,-0.06148909,-0.4555261,0.13015832,0.22270194,0.28770235,0.5826445,0.5230958,0.18684392,-0.54973876,-0.58646065,0.11671182,-0.924309,0.18737806,-0.17166471
hsa-miR-6882-3p,0.6786275,0.16591227,0.70634544,-0.15850535,0.26100764,-0.14401717,0.22843671,0.25255764,0.074675,-0.33969897,0.27327496,0.14471138,0.004638026,-0.002745827,-0.23736191,-0.16129903,-0.40010747,0.07314523,-0.13362132,-0.049739685,0.17349236,-0.2748545,0.34561533,-0.18532042,-0.25115815,0.6010431,-0.086829305,-0.1500481,-0.044759456,-0.31257784,0.24993189,0.6896927,-0.72546893,-0.012708481,-0.018344566,0.69817305,0.614892,1.0080223,0.20579532,0.101492,0.84186965,0.6670705,0.21170117,-0.1875068,0.7252197,-0.12216826,0.077001326,-0.438895,0.14148155,-0.39765382,0.22841753,0.2167568,0.010500363,0.43268958,0.50405264,0.28647527,0.29446447,0.21109101,0.17593615,-0.7759722,0.30658454,-0.37257397,0.17899345,0.35734817
hsa-miR-6797-5p,0.3721431,-0.15697317,0.24819876,0.4083359,0.065644845,-0.6342888,-0.3616931,0.7378734,-0.03895559,0.17817499,-0.29619038,-0.2617207,0.037880365,0.20678565,-0.09023695,0.26343316,0.022914497,0.19548668,-0.58915514,0.13649201,0.07393932,0.20291165,0.46025896,-0.040426206,0.04840047,0.1259532,-0.24010468,0.1669347,-0.07551061,-0.058726862,-0.18664467,-0.08762124,-0.33125788,-0.5368626,-0.27689442,-0.024882404,-0.0031183115,-0.5688597,0.3778297,0.22827962,-0.9184867,-0.062751345,-0.26998034,0.123162515,0.072155826,0.64723915,-0.2375423,-0.079996526,0.014590728,0.23288356,-0.090798244,0.22494411,-0.5998143,0.6501571,0.42324656,-0.05994028,-0.3756828,-0.49533513,0.33287677,0.1319549,0.088456154,-0.029891267,-0.13029423,0.0011386583
hsa-miR-6848-5p,0.6095652,-0.16507836,0.93054473,0.37131,-0.032718085,-0.29515538,0.07847048,0.10551441,-0.2452176,-0.44956213,0.5057798,0.07192357,0.03961008,-0.070570305,-0.28686082,-0.43863666,-0.39074287,-0.35806814,-0.8459068,-0.055803563,0.4271933,0.45495996,0.27836066,-0.21899673,0.17789158,0.6972593,0.08268504,0.2800468,-0.39058465,-0.6562854,0.5392492,-0.40978745,-0.15206443,-0.83150417,0.41273504,0.2195563,0.7960442,0.13007595,0.2190612,-0.5634014,-0.4958508,0.101401314,-0.5156463,-0.09917644,0.63332254,-0.24892353,-0.23555814,-0.026255941,-0.40465617,0.019862138,-0.08049756,0.1104117,-0.02206632,0.29897654,-0.13309105,-0.27675053,-0.021916274,-0.5588492,-0.33898216,0.043768022,-0.40468475,0.2092016,-0.8999527,0.41350502
hsa-miR-361-3p,0.047183823,-0.07419625,-0.10335095,0.3870194,0.2059258,0.24586995,0.34029725,-0.34206724,-0.40938786,-0.5929619,0.03264509,-0.14009249,0.008574758,-0.3470094,0.009578028,-0.15754372,-0.17022732,-0.27927265,0.30656016,0.13752607,0.12884925,0.44337514,-0.30594558,0.0996453,-0.4428457,0.6113223,-0.106500566,0.23593692,-0.057508048,0.07882135,-0.12139063,-0.21984428,-0.15754028,0.03318146,-0.12349644,-0.3868846,0.26828775,0.41370028,0.49769455,-0.100751355,0.38685057,-0.3989274,0.2511689,0.056115307,-0.03582403,-0.57050574,-0.53115803,0.15585797,0.32684422,0.03482427,0.0033734506,-0.5723665,0.4841213,0.05595855,-0.28718692,0.20383173,0.29047942,-0.44265693,-0.43522832,-0.0724213,0.26456073,-0.136313,-0.49116448,0.16425145
hsa-miR-5001-5p,0.28164175,-0.062786505,0.3447591,0.13442005,0.22695166,-0.6287848,-0.1880237,-0.03067045,-0.015172741,0.29669988,0.16914757,-0.70289356,0.23211807,-0.2637779,-0.47353047,0.06726552,-0.038804498,0.20187299,-0.46544605,-0.04721002,0.666974,-0.15344317,0.73112947,-0.18180017,0.21787673,-0.4975741,-0.09952702,-0.15839173,-0.07333651,0.10012754,-0.19037676,0.17542829,-0.14460759,-0.21025811,0.08969273,-0.029028948,0.57176983,-0.47093174,-0.10244698,0.16133724,-0.32696334,-0.047293957,-0.34422606,0.18983644,0.102088735,0.5997717,0.01750099,-0.3560327,-0.19793083,0.3963223,-0.26902604,0.5512137,-0.4342466,-0.18893127,0.4356593,-0.1417176,-0.42022982,-0.3545901,-0.06580742,0.26171213,-0.120599136,-0.21102913,-0.004157407,-0.08715462
hsa-miR-6893-3p,0.48191175,0.22959268,0.4083136,-0.20370965,0.22622378,-0.10656508,0.26123303,0.16190462,0.1957746,-0.04502756,0.031505484,-0.124423824,-0.21607421,-0.0102961315,-0.14720708,0.36411297,-0.06057549,-0.014590359,-0.17492588,0.11184604,0.33140373,0.072249815,0.118553095,-0.12374961,-0.62412447,0.69985557,0.08591908,-0.19863151,0.090247534,-0.13252299,-0.07171629,0.4782963,-0.70022506,0.23633696,-0.37733424,0.71261215,0.5699109,0.9048672,0.15993698,-0.14505613,0.51177454,0.5340854,0.17878802,-0.14631546,0.32577685,0.021050218,0.1313907,-0.36135224,-0.08497877,-0.55735934,0.31197226,0.11598411,0.27293813,0.56912535,0.4755094,0.15567459,0.5036813,0.26027194,-0.0053967936,-0.75468254,0.28757855,-0.47642732,0.14205164,0.45309806
hsa-miR-6784-3p,0.86471945,0.07077125,0.09573177,-0.479239,0.4294964,-0.016974939,0.20625758,0.060453642,0.45013368,-0.38186562,-0.17384069,-0.8466263,-0.20073122,-0.027419109,0.15436544,0.4172877,0.020513106,-0.50097394,-0.43825728,0.3503236,0.10852335,0.6285139,-0.068838425,0.10943797,-0.58524734,0.51278514,-0.37990385,0.022713672,0.35866404,0.27668247,-0.42716968,0.50108,-0.5192911,0.18731755,-0.745602,0.29114586,0.30619946,0.83768237,0.14441621,0.080450445,-0.014161271,0.029273598,0.48546028,-0.03395645,-0.19083996,0.01508966,0.49650002,-0.54713833,-0.26903597,-0.19838604,0.0003147879,-0.076541,0.019857502,0.5717142,0.4766088,0.11958737,0.77107894,-0.23382375,-0.20326602,-0.48098665,0.19964388,-0.6035184,0.1846971,-0.17112087
hsa-miR-6787-5p,0.20872413,0.048103493,0.5617931,0.22642823,-0.35842308,-0.906098,-0.19574067,0.49893862,-0.24137045,0.23198597,0.7632703,0.22663885,-0.07669481,-0.1360249,-0.22838521,-0.2755482,0.06900828,0.10547318,-0.06723733,-0.4229316,0.09281991,-0.4285626,0.90127575,-0.46227095,0.30418247,-0.14792956,-0.22117017,-0.2875688,-0.03435983,-0.22678836,0.0902547,0.6087314,-0.1532679,-0.60497993,0.7769059,0.012213854,0.010904292,-0.49699384,-0.19493732,-0.099360146,-0.4239055,0.48188472,-0.33051884,-0.23313993,0.5721612,0.27428132,-0.17607284,0.115313314,0.16779537,0.4234042,0.11960892,0.27854228,-0.31805846,0.16886929,0.5419937,-0.23019144,-0.59347636,0.20447814,0.43176204,0.376753,-0.2602571,-0.13812955,0.18677941,0.29624575
hsa-miR-181d-5p,0.29674107,-0.091868155,1.1076586,-0.6272621,0.07633369,0.18534909,0.24574955,-0.8452005,-0.73518527,-0.22205853,0.38546854,-0.23241615,0.036229055,-0.29470572,-0.02641218,0.29510695,0.40447372,-0.21191342,-0.058269426,0.24384767,-0.037712567,0.4811433,0.32125878,0.23115328,0.24435319,0.49238804,0.42130277,0.059708238,-0.016625809,-0.33440268,-0.22542374,-0.24296339,-0.25750637,0.041774683,-0.11108617,-0.8513703,-0.28130853,-0.10251194,0.14248791,0.40431246,0.23915136,-0.7784781,0.35253954,-0.25931546,-0.17144893,-0.9620791,-0.38702852,0.017942978,0.11122025,0.68343353,-0.25768918,-0.18723345,0.19042276,-0.22123358,-0.67012274,-0.046472464,0.13912556,0.06795701,-0.13546456,0.059186123,0.07862282,-0.05414617,-0.5317091,-0.3692857
hsa-miR-5004-5p,0.028981697,-0.31641686,0.21357043,-0.11587114,0.07175453,0.03779428,0.18122914,-0.33603445,-0.2925033,0.53489935,-0.07328291,-0.3710789,0.032579508,0.1556466,0.121178776,0.94443095,0.53650266,-0.03559414,-0.18989927,0.35960075,0.32845673,0.55125034,0.18941224,0.015496867,0.34217605,0.07748668,0.03251359,-0.08715945,-0.015150448,-0.3897045,-0.08628896,-0.3294821,0.00393673,0.08342317,-0.5288037,-0.29429394,0.19654751,-0.66286683,0.17064713,0.23163475,-0.9398898,-0.21031858,0.21842346,-0.41615018,-0.5186741,0.16068228,0.12118671,-0.18643643,-0.45454496,0.8319544,-0.08903606,0.013262726,-0.12563005,-0.36789402,-0.268769,-0.40004972,0.0046383943,-0.1655593,-0.39246875,0.304001,0.079633236,-0.3412738,-0.57748014,-0.055828806
hsa-miR-1236-3p,0.27795598,-0.10217327,0.07547281,0.371141,0.31403938,-0.2537713,0.08536157,-0.044021618,0.13906042,-0.66864395,0.12870584,-0.30014753,0.4793302,-0.087152794,0.31979787,0.026665788,-0.3995792,-0.23915376,0.5222332,0.4828998,0.22572581,0.18958984,-0.04668338,0.036864314,-0.1595492,0.23423162,-0.5694864,-0.030648744,-0.1115806,0.33248436,-0.18125337,0.17451057,-0.2335352,0.20298335,-0.046869777,-0.097609125,0.23825836,0.87829614,0.5072274,-0.056524515,0.5843797,-0.092475355,0.5171448,-0.2516621,-0.020576453,-0.57031256,0.32780436,-0.17559797,0.19872972,-0.02914478,-0.09594298,-0.30370694,0.23501429,0.36070636,0.19034578,0.6578636,0.75564975,0.116297476,-0.2861313,-0.4304823,0.04260284,-0.56509495,-0.010818061,-0.41054717
hsa-miR-769-5p,-0.09542869,0.05091228,0.09206396,0.6119276,-0.003769502,-0.6036902,-0.43460852,0.4002245,0.031324435,-0.09466068,-0.052769862,-0.024549117,0.17702231,-0.03504377,-0.19123138,-0.050056458,-0.43574244,0.18923031,0.4068295,-0.2661234,0.13011503,-0.15976389,0.0021196036,-0.39497682,-0.5378573,0.19018209,-0.3697739,0.4431056,-0.14911969,0.44362584,-0.23833618,0.30462992,-0.124943495,-0.05109828,-0.17367409,-0.3192493,0.39067024,0.0035679194,0.2624726,-0.123359196,-0.06547736,-0.0025118578,0.13905203,0.16976005,0.047100294,0.24262686,-0.26630858,-0.11101712,0.37598073,0.12686342,-0.32620955,-0.57264954,-0.14772101,0.167978,0.26130617,0.32588688,0.18041156,-0.05024549,-0.010980453,-0.10095116,0.51048064,-0.28579566,-0.2303606,0.57141346
hsa-miR-6744-5p,-0.059549466,-0.27650455,0.33605704,0.28764483,-0.012756871,-0.19857065,0.12430884,0.25850308,-0.42136014,0.09475013,0.06470275,-0.08165841,-0.11704534,0.020298934,-0.18909304,-0.23696123,-0.28754914,0.16091952,-0.23738202,0.18522204,0.37243867,0.4203563,0.10550932,0.09465871,0.06974207,0.2880595,0.016250934,0.38369355,-0.01769859,-0.25001812,-0.2666337,-0.5182903,-0.08895701,-0.37848905,-0.1441807,-0.032480467,-0.011441565,-0.07637733,0.4755949,0.071550876,-0.3838492,0.13199863,-0.5087853,-0.20971823,0.049506705,0.27113512,-0.5474031,-0.034280512,0.032939073,0.22641626,0.029751362,0.20225582,-0.109990776,0.19190262,0.078431696,0.013242453,-0.007827795,-0.748675,-0.19115667,0.36395836,0.21933621,0.21156618,-0.42196077,0.32352155
hsa-miR-135b-3p,0.60927504,-0.14326036,-0.5090717,0.33739558,-0.24580112,-0.113043085,0.2593051,0.42451555,0.061766338,-0.4015679,0.16508467,0.16974583,-0.53592694,-0.09987231,0.20433488,-0.12435749,0.29624742,-0.7048471,-0.30260533,0.07098603,-0.45808357,-0.025300637,0.31526074,-0.3148019,0.08337917,0.22972772,-0.21236464,-0.22442627,0.0556515,-0.22733442,0.20885539,0.34681576,-0.09572877,-0.49287292,0.49745366,0.42443883,-0.0034296147,0.12354194,-0.16904566,0.21411997,-0.43062672,0.260748,0.18389055,-0.41953582,0.6869667,0.15594712,0.012882962,0.51725245,-0.09923677,0.19904803,-0.29787576,0.074049495,0.41486883,0.49503854,0.117330134,-0.2398076,-0.48932043,0.463353,0.19395845,0.0077946954,-0.24039942,-0.21458878,0.27829307,0.25115627
hsa-miR-4269,0.11131593,-0.01979308,0.039610103,0.371203,-0.072764546,-0.08043159,0.28264555,0.24899977,0.07640147,0.5050136,-0.20578344,-0.55055434,-0.13187632,0.15374999,-0.041293077,0.43381026,-0.088699184,-0.081338376,-0.5607459,0.4212444,0.64981693,0.36508974,0.13769262,-0.005343275,-0.20992728,0.335134,0.0727868,0.1604157,0.011228748,-0.0843089,-0.2400449,-0.43386972,-0.3340227,0.022316754,-0.44656968,0.4256367,0.2946488,0.21044716,0.038801603,-0.05648365,-0.28389916,0.48100826,-0.7463743,-0.12377249,0.033323355,0.38682315,-0.18554913,0.006287862,-0.334688,-0.14474097,0.25987914,0.6102762,-0.0040966114,0.293716,0.5369895,-0.2278696,0.3147236,-0.4726328,-0.025560495,-0.09877928,0.07227819,-0.11727137,0.114202745,0.5726789
hsa-miR-4682,-0.1662364,0.11334918,0.18838066,0.47880015,-0.11022225,-0.51650757,-0.26241562,0.17916682,-0.18816967,-0.33862025,0.19365203,0.21427996,0.008441668,0.07263914,-0.057574183,-0.26348156,-0.64663553,0.21581036,0.5445815,-0.1353272,0.14832796,-0.094204046,0.063629165,-0.10205672,-0.38962096,0.17259549,-0.43987882,0.16905802,-0.41165352,0.21413444,-0.2976876,-0.0628912,-0.20078036,-0.19649647,0.004147097,-0.08059383,0.12452295,0.43170443,0.46877766,-0.10415326,0.23073721,0.27309558,-0.029822264,-0.08272934,0.17832781,-0.08520805,-0.5195542,0.051214337,0.48666248,-0.041178938,0.08708271,-0.30487615,-0.1282459,0.1607804,0.4392443,0.44838417,0.30307576,-0.3408786,0.23497778,-0.19207598,0.37882367,-0.019378046,-0.11287752,0.20945801
hsa-miR-6795-5p,0.099429235,-0.16252412,0.73904043,0.8248092,0.038783517,-0.35213554,-0.30855405,0.6489574,-0.29293495,0.19220544,0.014317304,-0.09878039,0.14307453,0.14233857,-0.1524711,-0.28945547,-0.4626672,0.19739555,-0.51533794,0.009314171,0.5754479,0.15952188,0.31546015,-0.19522415,0.15786283,0.38001806,0.18920952,0.47622782,-0.08445191,-0.278481,0.07937729,-0.29646483,0.028237652,-0.71616584,0.0040281364,-0.12866521,0.34500727,-0.2638867,0.3308526,-0.26148078,-0.66815203,-0.17561962,-0.61846435,0.037163243,0.12631406,0.4466881,-0.28937975,-0.43243667,-0.12868528,0.33385795,-0.12705325,0.104577675,-0.2988546,0.49954346,0.05007438,0.021306138,-0.16702774,-0.5846775,-0.38371167,0.41459724,-0.011392783,0.30627197,-0.6547008,0.61948043
hsa-miR-4691-5p,0.14767383,0.3105759,-0.025396364,0.44587445,-0.078052685,-0.055678587,0.040123597,-0.44989425,-0.16989042,-0.11036956,0.56967896,-0.24441749,-0.15480165,-0.21431479,-0.22500654,-0.34563237,-0.26407924,-0.37837502,-0.1677251,0.040651914,0.42829072,0.08649386,0.230686,-0.60196465,-0.26514867,0.44356385,-0.28690153,-0.2117636,0.00088491774,-0.12692742,0.22166017,0.21119471,-0.4383691,-0.08303961,0.27766496,0.32991004,0.5971509,0.6380097,0.027988601,0.084137455,0.02014516,-0.11944197,-0.16510175,-0.2954509,0.54177845,0.06428401,-0.5440512,0.23866358,-0.102586135,0.22033162,0.1548696,0.27237794,0.07422079,-0.0283326,0.15315397,-0.15381616,0.20532198,-0.06988565,-0.07127863,-0.13784486,0.006163729,-0.062226873,-0.21668497,0.23338628
hsa-miR-1915-3p,0.26988178,-0.18500738,-0.14107299,-0.012027123,-0.15449525,-0.4744418,0.5107935,-0.335535,-0.02148535,0.122744575,0.50220716,-0.7295272,0.23097125,-0.57880116,-0.2482094,0.77722883,0.852868,-0.2384371,-0.4419597,0.5651733,0.5484634,0.4954204,0.7293116,-0.34485582,0.16037719,0.116139956,-0.29971313,-0.56434834,0.10423511,-0.15654646,-0.117472805,0.13248652,-0.6850893,-0.1911098,-0.1569979,0.07628077,0.47961807,-0.27908337,0.12825228,-0.05073094,-0.341903,0.25080356,-0.16004276,-0.46187225,-0.15559416,0.15889233,0.043776195,0.1914088,-0.3536875,0.085983194,0.29616994,0.32541832,0.13946062,0.1844796,0.11987873,-0.39505523,0.02921386,0.0064105038,-0.42315823,0.18801281,-0.086640194,-0.63579786,-0.023555739,-0.19145231
hsa-miR-484,0.09823525,0.23956332,-0.48409292,0.17890902,0.11271065,-0.20962457,0.28172803,-0.622818,0.15622076,-0.06452072,0.49661806,-0.7060408,0.36725935,-0.49824256,0.07152504,-0.023753174,-0.067910664,-0.29210857,-0.5073798,0.45618993,0.39761472,0.057383794,0.36770785,-0.3128199,0.047360852,-0.3976983,-0.13771267,0.116434686,0.436357,0.43146175,-0.62168115,0.2219268,-0.18136276,-0.1402982,-0.2071262,-0.11786133,0.6978379,0.70707035,0.3868635,0.37343428,0.38705483,-0.5186355,-0.032377627,0.0870875,-0.39877123,0.30040452,0.119341455,-0.038155466,-0.017081326,0.0053461776,-0.029419882,0.49514565,0.14085408,0.1984513,0.37805462,0.62539953,0.66233754,-0.4444154,-0.3270193,0.3717479,-0.05632163,-0.3017784,0.2613197,-0.7059462
hsa-miR-4510,0.038174167,-0.16359694,0.18949832,0.78889054,-0.2090354,-0.5499622,0.12150609,0.61688626,-0.64842415,-0.1992496,0.4488282,0.29777744,-0.3204206,-0.34204993,0.3449617,-0.7515447,-0.09050581,-0.20557418,0.15511982,-0.026452623,0.026301235,0.11256022,0.028533658,-0.3162778,0.25735345,0.3788336,-0.112569645,0.2146788,0.13778892,-0.041345626,-0.08331158,-0.053159773,0.45224276,-0.742584,0.7064665,-0.5866638,-0.2621246,-0.5235597,0.09626104,-0.22002864,-0.68534136,0.017214607,-0.310168,-0.33238176,0.38388684,0.23210315,-0.47562826,0.35890827,0.19796307,0.33144838,-0.17650592,-0.2753393,0.23867755,0.46690267,-0.09472037,0.2349994,-0.30840912,-0.2209082,-0.13399437,0.80987936,-0.22298218,0.19128928,-0.1914729,0.60379034
hsa-miR-6129,-0.22896026,-0.2215552,0.361123,0.19511595,-0.1934163,-0.41728145,0.06449383,0.5356097,-0.6224697,-0.21251848,0.5024225,0.6292172,0.050868474,-0.116922684,0.23776212,-0.49570367,0.0693754,0.07070997,0.30614695,-0.006526325,-0.18619363,-0.1554625,0.0022302438,-0.19095688,0.2884961,0.2817918,-0.08347454,0.13963915,-0.009214367,-0.15006009,-0.2501216,-0.09012844,0.033397466,-0.33214918,0.38231847,-0.6399727,-0.43296215,-0.50098747,0.2884388,-0.04127017,-0.056084428,0.184736,-0.06585976,-0.4318966,0.09354745,0.028150285,-0.54624593,0.21467434,0.4599569,-0.0030450898,0.027566262,-0.3081881,0.16140091,0.24200699,-0.0534775,0.362645,-0.12968798,-0.043465078,0.083106965,0.5486355,0.13609678,0.1584748,-0.1828158,0.3891849
hsa-miR-4731-3p,0.43003443,-0.069079846,-0.20035675,-0.8319241,-0.1404401,0.0010655056,0.537641,-0.026756912,0.13189302,0.0037553012,-0.18351105,-0.61679953,-0.59298277,0.23346889,0.057941817,0.9766113,0.52807075,-0.49078637,-0.5752918,0.74622583,-0.031463046,0.88805085,-0.011407605,0.17713244,-0.41279528,0.58293843,-0.16571872,-0.12082727,0.21114528,0.040964995,-0.5234357,-0.32401437,-0.8258568,0.037072845,-0.7978245,0.5301972,-0.54506403,0.06315308,-0.065770365,0.013633541,-0.6505335,0.4353818,-0.36526284,-0.34148657,-0.3229521,-0.04247657,-0.18560307,-0.06842077,-0.2791468,-0.4617104,0.3729711,0.30099583,0.18602233,0.6625217,0.378203,-0.45850408,0.5675033,-0.2483354,-0.06512663,-0.16389692,-0.0765482,-0.18096057,0.07158442,-0.088493615
hsa-miR-1233-5p,-0.34800315,-0.3033911,0.25981393,0.038201284,-0.15551054,-0.13965812,0.17383398,-0.06797496,-0.32462174,0.3535315,0.61037886,-0.17625949,0.22343667,0.06375774,0.01219862,0.3712938,0.35232374,-0.266832,-0.18493381,0.5345899,0.36463234,0.42798376,0.3441457,0.15112938,0.48124492,0.42745075,0.0139210615,0.05977156,-0.04946991,-0.5897645,-0.39925933,-0.6527265,-0.24558748,-0.19498229,-0.18775238,0.20479313,-0.07156522,-0.26975444,0.20604213,-0.13416243,-0.67550045,0.27367204,-0.5523897,-0.54917866,-0.030940415,0.29091012,-0.34819433,-0.053306475,-0.16647518,0.30322117,0.4982759,0.6417081,-0.056252655,-0.18697423,0.12033312,-0.27188835,0.27613372,-0.42532882,-0.059996687,0.3078008,-0.08736312,0.2481137,-0.14590496,0.21025641
hsa-miR-6824-5p,-0.2914664,-0.34384963,0.2531721,0.45558077,-0.12902245,-0.2526447,0.19583216,0.42712846,-0.3344273,-0.0056573814,0.29742545,0.14305073,0.3621193,-0.08140894,0.12386231,-0.072624154,0.51287335,-0.010650037,0.022935715,0.31139296,0.3429222,0.16707014,0.3185187,-0.0591147,0.34135133,0.2060178,-0.46013448,-0.20937015,-0.265845,-0.33527952,-0.10289268,-0.37849897,-0.095605455,-0.38323224,0.6556249,-0.35121277,-0.18499552,-0.52129126,0.25600085,-0.2721203,-0.25029668,0.4049045,-0.43019968,-0.423874,0.18360835,-0.034785014,0.015200347,0.76361346,-0.2223016,-0.04214889,0.39336318,0.28710067,0.07513648,0.1566511,0.12462189,0.023472382,0.11958703,0.056303702,0.20711234,0.100412995,-0.17482752,-0.008833049,0.03328875,0.1401394
hsa-miR-1827,-0.0016448129,-0.23478575,-0.06674732,0.34773755,0.23633757,-0.068962276,0.13385952,0.46950552,-0.6861006,0.27644968,-0.18369149,0.09118694,-0.10678708,-0.093027845,-0.06792512,-0.0924276,0.15538335,0.24442881,0.02285056,-0.041264124,0.17837934,-0.08289895,0.19450048,0.048706673,0.13778768,0.0382823,-0.1637831,-0.15793945,-0.008428186,0.023562932,-0.15883547,0.046879865,-0.03585636,-0.1914132,-0.14043438,-0.44107804,-0.103677504,-0.5330323,0.5261449,0.4067447,-0.114892736,-0.008471327,0.08215825,-0.38449672,-0.1720096,0.30461478,-0.42519405,0.30925107,0.22136119,0.31169042,-0.09627046,-0.14923492,0.2982,0.06745302,0.06546262,0.32973108,-0.472896,-0.05149609,0.33940068,0.6598564,0.40371388,-0.153273,-0.06447966,0.5019477
hsa-miR-3612,0.42701083,0.046277784,-0.121067844,0.46845165,0.1780144,-0.17570141,-0.0838311,0.18093657,-0.20755956,-0.1422837,-0.17798664,-0.027462143,-0.054929778,-0.034798328,-0.05394001,0.15792325,-0.24475032,-0.14844112,-0.18583737,0.19436559,-0.20859653,0.2384125,0.23296984,0.037337344,0.13195299,0.15406382,-0.25156087,0.09787534,-0.3017018,0.121779524,0.255847,-0.20271946,-0.11337049,-0.44882217,-0.1750009,-0.2284438,0.067541815,-0.20850983,0.5528842,0.5569569,-0.69807684,-0.3988613,0.40024725,0.08759448,0.011658468,-0.025791164,-0.44250584,0.17579207,-0.026915172,0.5716183,-0.58093506,-0.2979484,-0.017303608,0.047791976,-0.27940714,0.21540752,-0.33962905,-0.102998756,0.21977314,0.07656058,0.053199857,-0.14307526,-0.35760543,0.041250017
hsa-miR-6860,-0.013152373,-0.073073134,0.89040136,0.17516623,-0.25400546,-0.32496968,-0.30288738,0.6726239,-0.28374314,0.41441,0.6192012,0.42216972,0.06378363,0.17290889,-0.105900116,-0.35679442,-0.620276,0.27196515,-0.2139692,-0.31089446,-0.009326836,-0.15649754,0.39199623,0.24349065,0.26920447,0.25860652,0.27311182,0.5109406,-0.0062576775,-0.29597598,-0.3359008,-0.07221871,0.08290492,-0.48921064,-0.014493134,0.043129016,-0.05225658,0.38652402,0.37803286,-0.24027735,-0.13516296,0.27683002,-0.3372688,-0.21226093,0.25536332,0.180071,-0.2367808,-0.53512573,0.25775045,0.10305313,0.52531224,0.27456954,-0.26087102,0.38982722,0.22930697,-0.00056949613,0.09254916,-0.3270627,0.17125292,0.20863704,0.21829994,0.24757715,-0.114450075,0.39681825
hsa-miR-612,0.18326083,0.11905643,0.34122396,0.6758004,0.0427421,-0.39069983,-0.34445074,0.50513774,0.01769174,0.18105905,0.35851592,0.09627708,0.41478994,0.21224526,-0.10508444,-0.34002373,-0.6770908,0.060361415,-0.2477895,-0.1977252,0.31770328,-0.4536995,0.45511937,-0.22266906,0.002606677,0.120716624,-0.25879213,0.18146437,-0.15923764,-0.08128687,0.193532,0.25253624,-0.4097949,-0.24784079,0.253507,0.31758687,0.71407944,0.67322165,0.2761401,-0.077841125,0.17893596,0.24552634,-0.22815078,0.13066289,0.6543762,0.21605095,-0.019369386,-0.11782955,0.11200145,-0.024427934,0.2935549,0.36108097,-0.43891832,0.3305268,0.6747988,0.24372703,0.19535612,-0.119100526,0.21366951,-0.34997073,0.0610023,-0.075089194,-0.056096952,0.25185367
hsa-miR-219a-1-3p,-0.33157167,-0.2997723,0.19311062,0.346154,0.17113146,-0.35747707,-0.09304421,0.09336898,-0.2618246,-0.25699726,0.036663957,-0.26757985,0.33878365,0.033442665,0.13370411,0.11642438,-0.24948724,-0.016675776,0.8780964,0.4305064,0.2891704,0.29757228,-0.08791004,0.15513235,0.091586694,0.2107775,-0.37016824,0.26239422,-0.19296253,0.24863623,-0.39516214,-0.15644892,-0.24028392,0.10918101,-0.51798433,-0.5175934,-0.56065214,-0.18883023,0.34589422,0.081574254,0.076038145,-0.037892334,0.17450562,-0.38097087,-0.640326,-0.19533114,-0.15183756,-0.46532997,0.6829473,0.23810327,-0.08828584,-0.69193673,-0.22340359,-0.022082467,0.02816981,0.6636893,0.314783,-0.47351885,-0.19132967,0.2911873,0.4269189,0.064781964,0.024008298,0.24539064
hsa-miR-6785-5p,0.16953917,0.017814735,0.55508435,0.3774754,-0.10256972,-0.7778506,0.097565435,-0.0014986324,-0.64417934,-0.40717733,0.71407145,-0.06820889,0.09395381,-0.5346351,-0.44872123,-0.5527912,-0.2204564,-0.054072756,-0.21501605,-0.123410776,0.12898152,0.10011654,0.60877305,0.051416688,0.6724258,0.29022565,0.48688698,0.23083152,-0.29203048,-0.23806229,0.13163525,-0.30425507,-0.026379634,-1.086923,0.1761031,-0.50395316,0.022592166,-0.5236724,0.16405019,-0.44991544,-0.26388738,-0.17705806,-0.5101763,0.085018076,-0.015563285,-0.3196485,-0.67306155,-0.33505082,0.4736993,0.28041095,-0.35806003,-0.16214648,0.14822605,0.46261847,-0.55410916,-0.0851567,-0.59831685,-0.51137704,-0.47303227,0.94027996,-0.23972398,0.3242726,-0.5341529,0.13647303
hsa-miR-6803-3p,0.52444434,0.14739293,-0.003048982,-0.08273534,0.3428806,-0.3138451,0.24410611,-0.65544164,0.31362948,-0.3553507,0.129124,-1.2593378,0.21870378,-0.2869604,0.100656606,0.40705597,0.37961677,-0.6747219,0.05830628,0.3379582,0.4731003,0.42009857,0.28129226,-0.293762,-0.30627677,0.4148395,-0.30364695,0.05696805,0.57591337,0.14018688,-0.4345259,0.62388027,-0.34030983,0.34020984,-0.34207892,0.1601454,0.59264266,0.778777,-0.22471875,0.030597059,0.2030094,-0.2870052,0.5173657,-0.109671056,-0.28421724,-0.14776692,0.54071254,-0.46114737,-0.24148622,0.47475532,-0.2878355,-0.044633124,0.2967824,0.05625184,0.40891406,0.24308075,0.7064003,-0.045745138,-0.52868164,-0.3147357,0.13223237,-0.6945579,0.12167868,-0.44895825
hsa-miR-4667-3p,0.12541428,0.026408313,-0.058179952,0.10252665,-0.029889679,-0.11735153,0.40587097,-0.24332157,0.083249554,-0.3642005,-0.05143803,-0.31091118,-0.07745484,-0.081272274,0.37681097,0.4086511,-0.15282504,-0.26457933,0.37159994,0.5577668,0.2138068,0.50439906,-0.22662713,-0.002488513,-0.41384947,0.45815116,-0.2579307,0.22482783,0.18096504,0.121580906,-0.4374396,-0.123264775,-0.14659438,0.16263036,-0.25972077,0.06967244,0.086936936,0.83663243,0.2954511,-0.21941204,0.22582678,0.039401747,0.17493942,-0.43630385,-0.12123177,-0.2706836,0.20482181,-0.14824995,-0.007028102,-0.1846599,0.26074845,-0.13562591,0.3493795,0.48522976,0.197507,0.37731016,0.9464264,-0.1786096,-0.50579304,-0.26899633,0.0049634795,-0.35564837,-0.023127362,-0.1605657
hsa-miR-619-5p,0.37857938,-0.12857282,0.79887664,0.39881584,0.1259851,-0.19213377,0.049567267,0.37687474,-0.51727253,0.56691355,0.0069388817,0.082677454,-0.018997198,-0.07588741,0.029962525,-0.14604196,-0.26698637,0.06837272,-0.7137818,0.093780726,0.6435679,0.116834156,0.08875982,-0.22973211,0.13891384,0.1266459,0.30160108,0.32494828,-0.18270479,-0.19562486,0.20195426,-0.24245249,0.25554374,-0.29711235,0.18933022,-0.12017669,0.5406368,-0.11730364,-0.102380335,0.021756647,-0.3718685,0.023257801,-0.5590915,0.14594868,0.33757642,0.37921712,-0.11677562,-0.13083933,-0.31333268,0.20388594,-0.29894567,0.3691302,0.20220809,-0.07569723,-0.20822321,0.013939828,-0.28481427,0.0345314,-0.19063328,0.36079025,-0.12003868,0.13955985,-0.5172156,0.9755015
hsa-miR-181b-5p,0.471398,0.062309273,1.1273886,-0.7178973,0.081730746,0.20438763,0.19674242,-0.7150891,-0.624895,-0.11760858,0.40343317,-0.021509565,-0.34799457,-0.23749098,-0.097970665,0.35480252,0.18266562,-0.10489767,-0.31164184,0.114926755,-0.21967171,0.14116357,0.47539514,0.22087914,0.12316853,0.3952525,0.6923066,-0.04307631,-0.039381422,-0.46044886,0.018434798,-0.024375299,-0.216054,-0.16262455,-0.18479627,-0.46502364,-0.12708557,-0.13197105,0.07642039,0.25167254,0.017268926,-0.6362482,0.15357615,0.0398359,0.17693037,-0.7810536,-0.3554363,-0.40101618,0.092877276,0.59368056,-0.07406797,0.097018786,0.033486873,-0.002276532,-0.45247394,-0.29447326,0.082132004,0.13540927,-0.15400541,-0.10285097,-0.13390054,0.0275877,-0.34459302,-0.17883894
hsa-miR-3941,0.58069545,-0.1306129,0.71479905,-0.1333424,0.15768483,-0.15044597,0.15688063,0.14231399,-0.14876151,0.39292407,-0.3981509,-0.3686241,-0.3876031,0.14175406,0.36742482,0.40838212,-0.26726013,-0.05273194,-0.69262606,0.52554846,0.3428845,0.6684139,-0.11802595,0.03698118,-0.026503071,0.105461314,0.21159498,0.43612364,0.1620085,0.13032499,-0.31580785,-0.2626232,0.27265626,-0.06704318,-0.47498706,-0.4390319,0.10346532,0.02555367,0.23837389,0.23504771,-0.7123942,-0.40970188,0.005649903,-0.090877846,-0.3581062,0.27963647,0.1863038,-0.4245383,-0.38086334,0.30645332,-0.5393828,0.15606819,0.0771356,0.39642972,-0.22192582,0.21539575,0.23823282,-0.026517743,-0.5584647,0.5200469,-0.14837286,-0.24229226,-0.4786044,0.282079
hsa-miR-6887-5p,0.14141764,-0.4809434,0.78255075,0.6201274,0.16611351,-0.54340583,-0.13203223,0.6585579,-0.3514351,0.16659105,-0.1705141,-0.3493253,0.23218033,0.15255722,-0.08422782,-0.12954992,-0.19685383,0.23038773,-0.41211987,0.1755508,0.73505294,0.39317837,0.20484129,-0.105475485,0.28385526,0.24759562,0.033480283,0.47551972,-0.17964646,-0.18213731,0.08820934,-0.5755019,0.059794683,-0.50899446,-0.16630901,-0.4831969,0.17296796,-0.6956558,0.39049906,-0.28046468,-0.78802794,-0.19711792,-0.58530444,0.07675932,-0.11135516,0.18844454,-0.13916308,-0.31999868,-0.19440831,0.46959183,-0.4064617,-0.09057023,-0.47315472,0.37693402,0.13894628,0.077540524,-0.20182538,-0.864398,-0.53750634,0.6336912,-0.098202445,0.09962375,-0.81636024,0.3438754
hsa-miR-6791-3p,0.062163442,0.1803523,0.3856759,-0.016432136,-0.18188614,-0.33371493,0.2677645,-0.4787973,0.07722503,-0.26296645,0.4301614,-0.009725795,0.19454814,-0.14465296,-0.22197135,0.07642172,-0.26572278,0.12984063,0.3109772,0.11066035,0.282845,-0.06954467,0.40090308,-0.18941268,0.22213294,0.1316741,-0.23311092,-0.18182969,-0.18743517,-0.09252512,0.0835972,0.13120158,-0.27819514,0.0058638286,0.19163752,0.09945697,0.124563605,0.4621941,0.052400924,-0.21005093,0.556814,0.349396,-0.12684014,-0.4535474,0.1535191,-0.41169563,0.123128824,-0.11184242,0.039835274,-0.15932605,0.28674904,0.14803575,-0.10751365,0.028311945,0.22088891,-0.041799597,0.3456218,-0.029517235,-0.18221056,-0.33816302,-0.12447184,-0.32674348,0.1381287,-0.26943365
hsa-miR-7106-5p,0.15915324,-0.46571678,0.5061516,0.41695878,0.109911494,-0.48796782,-0.2366613,0.30200246,-0.12660256,-0.44363222,0.0060725887,0.13610898,0.4328304,0.067312695,0.006576827,-0.044817023,-0.10521417,0.21882828,0.08420554,0.21763502,0.17674004,0.13784577,0.32450455,-0.013634177,0.29342848,0.008821001,-0.5233406,0.11143562,-0.5351485,-0.258051,0.29188752,-0.36363146,-0.043717224,-0.5690369,0.076146066,-0.4779175,0.2542127,-0.3422345,0.5950754,-0.13541484,-0.35695636,-0.19989486,0.0017869641,0.08037848,0.20715712,-0.19160451,0.14075576,0.09060443,0.025218805,0.39600763,-0.22448158,-0.11082854,-0.4933448,0.28402194,-0.08183709,0.32344982,0.092025444,0.028392594,-0.32453397,0.13826646,-0.12298495,0.058617372,-0.55487496,-0.36699823
hsa-miR-4530,-0.28157344,-0.302415,-0.3511478,0.5121756,-0.015065151,-0.2259818,0.33018214,-0.15333165,-0.14225078,0.28529918,0.3575821,-0.6671912,0.15572213,-0.4479176,-0.10345581,0.48232737,0.47878072,-0.3389821,-0.11490395,0.68992674,0.59112096,0.49002254,0.20952007,-0.12850346,-0.022251239,0.32751256,-0.37221512,-0.24352108,-0.14578433,-0.247406,-0.35671386,-0.24558175,-0.31874296,-0.033928774,0.053225536,0.27120912,0.46621174,-0.4684255,0.075358145,-0.2352785,-0.76719403,0.26002017,-0.43677846,-0.4049316,0.09423437,0.5259932,-0.18091922,0.104031816,-0.3911238,0.49426615,0.30055177,0.44028145,0.25730893,-0.2863778,0.07704879,-0.3281896,0.028369034,-0.24040075,-0.3182482,0.123157516,-0.013450327,-0.308487,0.059834402,0.48986626
hsa-miR-3187-5p,0.42720953,0.34090573,0.28675488,0.1579238,-0.21441919,-0.68841976,-0.21827146,0.44515112,-0.108494945,-0.15951058,0.58796304,-0.15186381,-0.16257802,-0.32053328,-0.527788,-0.434321,-0.2566596,0.17772625,-0.23191288,-0.41550496,-0.23449282,-0.38604635,0.70160323,0.028899796,0.05879886,-0.010587274,0.39300457,-0.053012524,0.009502886,-0.019140758,-0.073673114,0.41658938,-0.38844833,-0.8048591,0.0068601607,0.28736016,0.0900108,0.2447367,0.052273206,-0.24508159,0.21177243,0.33710268,-0.30779678,0.0037444427,0.24012272,0.10194729,-0.5908843,-0.38846987,0.63901347,-0.10648869,0.28774074,0.082015336,0.19184934,0.68552244,0.28339672,-0.31852368,-0.6223593,-0.12057461,0.40237647,0.36745408,0.048110466,0.07497749,0.31089514,-0.08759358
hsa-miR-8059,0.6320429,-0.16512544,0.44042754,0.28796417,-0.038631927,-0.56459564,-0.40290922,0.9362537,0.014017232,-0.10627389,-0.15100202,0.05567352,-0.24328649,0.019550864,0.039857414,-0.07052976,0.08857978,0.095797345,-0.14118066,-0.11682132,-0.5572119,0.14067337,0.4362528,-0.0045706336,0.061142836,0.018915677,-0.3198835,0.32976353,0.047513112,0.05618647,0.023772283,0.45874357,-0.03350052,-0.7060364,-0.16869873,-0.054029427,-0.6193571,-0.5154413,0.27042463,0.4622961,-0.9244731,-0.11682818,0.5059796,0.023584696,0.044401944,0.23423778,-0.034224216,-0.28581536,0.23324518,0.48928022,-0.28259856,-0.622055,-0.31909817,0.53558874,-0.07173977,0.028516904,-0.7664621,-0.09965811,0.37182948,0.29697534,0.25297135,0.06094916,0.010675293,0.059192974
hsa-miR-4749-3p,0.51544213,0.1363199,-0.16094011,-0.2723962,-0.0859762,-0.21169007,0.66326976,-0.22028695,0.22304636,-0.18541467,-0.03831222,-0.5293226,-0.24664328,-0.34586218,-0.1429782,0.722761,0.2518738,-0.34652007,-0.3482497,0.43606153,0.27668732,0.51463044,0.047429696,-0.2794104,-0.5137986,0.6070615,-0.033871967,-0.05242836,0.3154768,0.08410774,-0.35196662,0.23116714,-0.48388332,-0.11615745,-0.23006584,0.6136086,0.25725836,0.3667083,-0.20462996,-0.32529294,-0.049251787,0.48519108,-0.2447832,-0.29428127,-0.047414314,0.13375235,0.08978629,-0.36620635,-0.2791428,-0.5625604,0.31964958,0.18046795,0.54616064,0.5771133,0.2210891,-0.1126737,0.51411,-0.15619119,-0.37218985,-0.4000121,-0.03792526,-0.49865937,0.20855895,0.23666917
hsa-miR-6871-3p,0.08142901,0.115983665,-0.036359027,0.12515484,-0.15033334,0.012459214,0.27056795,-0.1091363,0.1129739,0.1349769,0.13747822,-0.35946956,-0.1645259,-0.07991912,0.04030974,0.34239286,-0.2607863,-0.37072563,-0.23143739,0.24600567,0.26223865,0.4373601,-0.011195644,0.08302207,-0.31512564,0.5757372,0.24788487,0.412907,0.29742008,-0.09920861,-0.45492375,-0.13400242,-0.17719206,-0.029807225,-0.26623175,0.55102915,0.16587603,0.64237005,-0.08002453,-0.17094286,-0.14229886,0.25897318,-0.43632752,-0.32042432,0.14789337,0.3072485,-0.053882793,-0.24521959,-0.09389116,-0.2560323,0.38896805,0.38722384,0.35348883,0.33233717,0.17497006,-0.07623929,0.6219591,-0.29276672,-0.15280366,-0.21457054,-0.0052598747,0.025450265,0.14441833,0.49569657
hsa-miR-6842-5p,0.078995734,-0.075925894,-0.2625713,0.17066923,-0.2986743,-0.3075488,-0.06068665,0.3803775,0.12809622,-0.31946343,0.15749472,0.31403294,0.029204423,0.37978074,0.30757692,-0.22716358,-0.18113613,-0.13645977,-0.1035606,-0.076435514,-0.3392182,-0.17817254,0.28128013,-0.12505205,0.24362154,-0.047642097,-0.65753937,-0.13995083,-0.010488429,-0.08535676,-0.022175107,0.15049337,-0.018148582,-0.5662317,0.37973663,-0.04720978,-0.09417402,0.41433927,0.3236217,-0.2616715,-0.20612943,0.07687941,-0.035965607,-0.33377048,0.16002476,-0.10120423,0.27118045,0.493266,-0.09477651,0.22893912,0.077168584,0.3061821,-0.24088842,0.56827664,0.47516063,0.012532816,0.3170765,0.06467089,0.06424958,0.1435441,-0.31451577,-0.2603282,0.038019028,-0.6506726
hsa-miR-190a-3p,1.0677838,-0.40744284,-0.41662982,-0.095589176,0.4029103,0.024324328,0.7200219,-0.3783194,0.047827724,-0.59602255,-0.20326234,-0.34944737,-0.85084593,-0.24474485,0.56009215,0.36658704,-0.2723944,-0.7697878,-0.22579195,0.5757897,-0.20018451,0.32327643,0.2305161,-0.1955949,-0.016451217,-0.018019432,-0.2153282,-0.05837988,0.4087851,0.17819172,0.03624093,0.3706517,0.3304524,-0.060318995,0.35524273,-0.43240902,0.17551328,0.2833953,0.05760117,0.29524893,-0.3910722,-0.62764025,0.32263407,-0.12563573,0.39027226,-0.45141533,0.54161245,-0.016132774,-0.09014596,0.61387295,-0.95150906,0.108994044,0.5391486,0.75130683,0.06482423,0.42963976,0.5750424,0.42708528,-0.871367,0.017410053,-0.65477335,-0.7605683,0.3037656,0.22516336
hsa-miR-1207-5p,0.05644694,-0.19744489,0.43988404,0.47450656,-0.13887218,-0.4805746,-0.098487936,0.6013517,-0.23093295,0.30386445,0.26479837,0.02924305,0.25703055,0.11187474,-0.1048829,-0.1040146,-0.0211897,0.1926816,-0.5631423,0.04310024,0.42774996,0.07154638,0.5409158,-0.08733527,0.30154008,0.20890586,-0.22080089,0.09222949,-0.2142501,-0.41685504,-0.030724853,-0.30262807,-0.22544995,-0.6395305,0.10715204,0.09778091,0.38077816,-0.056888297,0.3500044,-0.13071938,-0.47525135,0.33372575,-0.62003756,-0.032968003,0.3528963,0.44348297,-0.18624802,0.19573656,-0.16907531,0.15325513,0.2655784,0.65405387,-0.40124783,0.40018487,0.42554003,-0.029488971,-0.00682581,-0.3210414,0.1511077,0.17049801,-0.017542757,0.11095049,-0.24445328,0.14864878
hsa-miR-7152-3p,-0.1717929,-0.13728523,0.42191902,0.5764436,-0.21341307,-0.25904068,-0.1633462,0.3299806,0.06355936,-0.105940975,-0.055317514,-0.26417217,0.13123994,0.24962248,0.23727214,-0.31523073,-0.4208323,0.03698998,0.07962278,0.14944091,0.24350508,0.32801974,-0.08579654,0.1061526,-0.060265247,0.036038954,-0.26917452,0.4994039,-0.106088616,0.0071782283,-0.27358466,-0.38224688,0.16111428,-0.29546365,-0.1097172,-0.33925483,-0.030055005,0.3673151,0.39562437,-0.27620432,-0.22108161,-0.0020957456,-0.3508483,-0.032462507,-0.19731078,-0.09154644,-0.012924727,0.009637556,0.012668157,0.24205482,0.061245278,0.16534528,-0.43274,0.40397894,0.34052444,0.13275357,0.5717751,-0.4925092,-0.34670535,0.21753289,-0.014530127,0.02305065,-0.21907514,-0.27944276
hsa-miR-6721-5p,-0.08144349,-0.321354,0.39505377,0.372515,-0.1604671,-0.3460498,0.19143799,0.5901307,-0.43872505,0.40231672,0.5333571,0.55763614,0.25391075,0.076156914,0.25459367,-0.38850063,0.16849627,-0.04719477,-0.36617088,0.1440028,0.24260399,-0.3225437,0.36656675,-0.22232395,0.653733,-0.014474234,-0.261321,-0.16060987,-0.1020098,-0.4978465,0.16644008,-0.074093536,0.17119,-0.4076313,0.8630754,-0.20073181,-0.0007842666,-0.41626728,-0.025380976,-0.22961076,-0.36103114,0.36736932,-0.6068248,-0.1903329,0.50875825,0.08697111,0.16784604,0.41446126,-0.20727593,0.15874058,0.2980187,0.73569673,-0.058467045,0.18389943,0.14328016,0.08594191,0.0071710413,0.43005493,0.021109924,0.37220532,-0.46343243,0.08821412,0.024206825,0.37115708
hsa-miR-5582-5p,0.19695613,-0.46998918,-0.054334063,-0.13033493,0.003870426,-0.28437096,0.30954492,0.83114564,-0.00989535,0.843266,-0.010181556,0.06708433,-0.035844028,0.12422165,0.64207274,0.47455913,0.40066668,-0.22164457,-0.10566727,0.45065314,-0.068603694,-0.15192807,0.23949522,0.101655394,0.49351308,-0.5274703,-0.19740772,0.10999892,0.40401804,0.16175145,-0.4074096,0.41748515,0.37142402,0.0654789,0.26776764,0.07401018,-0.6300677,-0.13484752,-0.26771823,0.3014907,-0.38374937,0.56006545,0.16767834,-0.43739697,-0.044082627,0.386716,0.98056185,-0.10622254,-0.18946283,0.22517715,-0.059525404,0.34041372,0.3394686,0.11371161,0.18843651,0.30434573,0.030218374,0.72869223,0.15423138,0.40265533,-0.10853625,-0.39705163,0.77265966,0.4986327
hsa-miR-6731-5p,-0.12636876,-0.31595734,0.2891983,0.40667167,-0.047134776,-0.34989214,0.2371554,0.48960456,-0.61472154,0.2026207,0.34339094,0.38399884,0.016088609,-0.14297315,0.19002299,-0.26639768,0.08707034,-0.027063502,-0.09886152,0.10015837,0.22534953,-0.049595244,0.079009205,-0.09401056,0.3185991,0.14799683,-0.11610282,-0.036772825,-0.23645684,-0.24308842,-0.0013482429,-0.29253304,0.11505277,-0.28297746,0.456555,-0.43170938,-0.108688325,-0.6486556,0.17851478,-0.12096623,-0.33935323,0.22152458,-0.46901113,-0.12023723,0.32063347,0.0886645,-0.32165182,0.39631575,0.09421314,0.1427192,-0.014878777,0.20324321,0.05627948,0.0771111,0.13974679,0.12543525,-0.12265135,-0.070784375,0.12639645,0.4226854,-0.1767934,0.033851672,-0.10633025,0.63629466
hsa-miR-6883-5p,0.123089276,-0.15630484,0.67948884,0.53608155,-0.32811305,-0.42929986,0.112747,0.40776545,-0.5061513,-0.5226637,0.7063009,0.46422744,-0.23019898,-0.18002793,0.086564675,-0.75261575,-0.29218078,-0.33974046,0.017601961,0.07324677,-0.016194884,0.21367376,0.12186045,-0.206874,0.41254914,0.38732538,0.024595724,0.26486948,-0.09954222,-0.33127785,0.038789343,-0.39091462,0.3314037,-0.8578352,0.73268676,-0.5530745,-0.39312372,-0.3619434,0.19393772,-0.2659344,-0.5390888,-0.01573309,-0.49805826,-0.50779974,0.3181022,-0.1618627,-0.6431251,0.110772364,0.0700482,0.2166868,-0.088722296,-0.003413154,0.1990733,0.31632003,-0.19295673,0.017375004,-0.14826985,-0.41408885,-0.23271993,0.62514997,-0.43169224,0.31403497,-0.41872817,0.3945184
hsa-miR-6752-3p,0.5891817,-0.0043628,0.09563059,-0.061097667,0.09088328,-0.021663796,0.5591177,0.063477464,0.30922985,-0.3698314,0.14539707,-0.60614127,-0.37475923,-0.49203882,0.2892002,0.031892717,0.025804454,-0.67492414,-0.15954857,0.56927407,0.18520536,0.7963595,-0.46315655,-0.19800888,-0.6396059,0.70479053,-0.16082475,0.43642238,0.3010868,0.25531444,-0.0361273,0.06581281,-0.12499411,0.13892834,-0.13266335,0.3346619,0.21164204,0.78880495,-0.28086832,-0.5466334,-0.13171147,0.21314766,-0.0868525,-0.015280517,0.13007937,-0.24798559,0.25540102,-0.39135838,-0.32036716,-0.50593585,0.25309613,-0.26741457,0.625709,0.4606469,-0.043408606,0.03446753,0.77905047,-0.1018182,-0.75198954,-0.30742675,-0.18768294,-0.23606102,0.085994005,0.5785768
hsa-miR-574-5p,-0.33901727,-0.28143525,0.25697836,0.21999796,-0.21387607,-0.20355669,0.0070121097,0.6791786,-0.9479369,0.02602882,0.69439745,0.43440157,-0.14530872,-0.19942364,0.1623484,-0.36130562,-0.26263642,0.144323,0.71412164,0.1312979,-0.30214363,0.072468914,-0.0709805,0.23170064,-0.07921743,0.79508984,0.30956775,0.43866953,0.44167146,0.07350805,-1.0522883,-0.10131651,-0.2508763,-0.31059465,-0.25786805,-0.27867955,-0.85141593,0.44544065,0.79717577,0.33430862,0.31460842,-0.083521076,0.06757596,-0.9212179,0.15135306,0.3530347,-1.1947834,-0.21205191,1.1410061,0.20207985,0.4807031,-0.3341724,0.34582025,0.6068338,0.17322099,0.43597797,-0.08002442,-0.5293533,0.34443596,0.6255203,0.7603363,0.27712926,0.067776464,0.36326173
hsa-miR-6810-3p,0.21127543,-0.17039208,0.007233359,-0.0068191793,0.12725182,-0.07040829,0.44178572,-0.124989755,-0.04867867,-0.66935104,0.28785187,-0.24432324,0.24944851,-0.43436125,-0.037547737,0.19650047,0.27239195,-0.26892757,0.51219463,0.33746514,0.236298,0.46478102,0.01151064,-0.0631026,-0.45088595,0.6238972,-0.4080223,-0.06611957,-0.03771011,0.027202573,-0.10291518,0.12757583,-0.6035896,0.2010716,0.017993677,0.12894195,0.1685238,0.5610783,0.1718925,-0.16477138,0.68559915,0.29932263,0.29943958,-0.3121996,0.11964283,-0.6205421,0.008525483,0.020947872,0.19363053,-0.37404203,0.36684012,-0.53083146,0.5092154,0.28596723,-0.032818537,0.32716733,0.50124246,0.07974829,-0.19695832,-0.5935003,0.3831904,-0.31295162,0.016194388,0.11360346
hsa-miR-4719,0.86119014,0.06053207,-0.34953755,-0.2674883,0.10699913,0.24173908,0.5712668,-0.04811506,0.14975233,-0.15388025,-0.06630503,-0.28013167,-0.59318334,0.063066825,0.5625247,0.41194564,-0.054157462,-0.68832946,-0.61487967,0.4565624,-0.2426896,0.18835618,0.230724,-0.026174452,0.19587909,0.08343497,0.16149116,-0.013074141,0.59426886,-0.09348045,-0.1377182,0.22677352,0.1767437,-0.26679596,-0.05600484,0.070790835,0.13779424,0.56538945,0.07673974,0.39437655,-0.42950195,-0.11659523,0.25340617,-0.40729737,0.111616306,0.004778267,0.36851248,-0.1427442,-0.5013441,0.47602704,-0.46990445,0.4686516,0.5830636,0.53645253,0.11233877,0.18407644,0.45655644,0.21196736,-0.4160169,0.17616162,-0.47905573,-0.49839556,0.24050368,0.011319769
hsa-miR-378g,-0.061530907,-0.17434344,0.65312326,0.043879826,0.30999646,-0.32563853,-0.38011613,0.51285785,-0.1639247,0.1103357,-0.14903615,-0.04923784,0.38878864,0.34619716,-0.06523126,-0.0805631,-0.12137479,0.35792327,-0.040833708,-0.024850382,0.18738727,-0.24339151,0.39729282,0.46365553,0.37982157,-0.36907813,-0.23204999,0.15073168,-0.2945789,-0.17797352,-0.15590651,-0.040958337,-0.09541504,-0.2682345,-0.35107133,-0.18131728,0.052610103,-0.08250985,0.5750948,0.10473796,-0.041256823,-0.011524992,0.22665556,-0.0025884765,-0.4265911,0.14167553,0.36126968,-0.46872514,0.03419353,0.34054863,-0.055851813,0.10373972,-0.4465479,-0.02066238,0.41755292,0.46555334,-0.005837079,-0.12969139,0.14277573,0.29033664,0.213953,0.06369874,-0.15358128,-0.2685393
hsa-miR-6873-3p,0.45927846,0.03944118,0.1570306,0.09642585,0.35957628,-0.38972354,-0.26837415,-0.086285025,-0.121608466,-0.2821211,0.24909775,-0.07677476,0.51609045,0.24402899,0.65748906,0.11825002,-0.9055276,-0.081051536,0.5053169,0.29464155,0.117245845,-0.32295483,0.23990907,0.08141448,0.21701337,-0.14684793,-0.29438025,-0.014232148,0.27258793,0.41472766,-0.37637928,0.45548213,-0.006145209,-0.027789654,0.050575215,-0.48689717,0.33615273,1.1214082,0.61122304,0.34440783,0.5831814,-0.48860988,0.7027463,-0.37619045,0.046361484,-0.17848814,0.54063195,-0.34298894,0.40880054,0.6102865,-0.40205246,-0.022722403,-0.2131359,0.33826953,0.49042922,1.1891056,0.74493814,-0.044458717,-0.21419175,-0.046191905,-0.124229945,-0.6108685,-0.0012047066,-0.78721327
hsa-miR-4723-5p,0.19824441,-0.29946512,-0.3292472,0.78215194,-0.018019143,-0.49988464,0.008299253,0.72940284,-0.44685003,-0.052134022,0.002370995,0.15799198,-0.17647773,-0.32763228,0.003953339,-0.3365542,0.24002229,-0.18583806,-0.26256105,-0.079477645,0.1951816,0.28779235,-0.2467699,-0.64684176,-0.32395616,0.42551506,-0.42542022,0.17317948,-0.12168614,-0.06652095,0.1267238,-0.026652653,-0.031415626,-0.5897892,0.35635146,0.13769628,0.244827,-0.6156483,0.13991876,-0.15977986,-0.73956704,0.08013779,-0.22037536,-0.051558238,0.40546605,0.643553,-0.45418623,0.42463273,-0.04693283,0.14894688,-0.16141725,-0.40462258,0.32062042,0.26180243,-0.10932027,-0.07956939,-0.48570108,-0.28668484,0.040275317,0.43148422,0.1743889,0.03721294,-0.42385536,0.81636095
hsa-miR-4733-3p,-0.2007106,-0.15343522,-0.11291808,0.6595665,-0.021179045,0.015646022,0.3763489,0.0077865636,-0.16816977,0.2237228,-0.13373798,-0.037830558,0.3830756,0.015527903,0.37233645,0.21766947,-0.03179256,-0.3875701,-0.34533945,0.42572972,0.4133826,0.1015128,-0.014421733,0.026890067,0.1771409,0.31750712,-0.2924546,0.036761127,-0.26926523,-0.067253746,-0.16425952,-0.25145742,0.07226996,-0.09366683,0.23579228,-0.27066445,0.3266362,0.08461286,0.16723065,-0.36840513,-0.22058488,0.017054146,-0.3461393,-0.12355818,-0.022598647,-0.023688147,0.3889236,0.57176846,-0.36811557,0.083828636,-0.12741457,0.5148964,0.21480449,0.15168044,0.015116385,0.3308447,0.61463946,0.3042672,-0.26386598,0.1160874,-0.37220916,-0.31600443,0.03393086,0.44173974
hsa-miR-6758-5p,0.261881,-0.25737596,0.0055251336,1.0494035,0.1234976,-0.48301512,-0.22644368,0.74288064,-0.62621814,-0.074546084,0.10654435,-0.07198479,0.0985923,-0.34549105,0.071621686,-0.35969356,-0.06892553,-0.13243325,0.13903083,0.11770824,0.0048612333,0.2584847,0.20127563,-0.026112488,0.033802312,0.2950083,-0.27794978,0.36380535,0.011776396,0.08529385,-0.022624562,0.079463154,-0.019226454,-0.8740985,0.12166526,-0.26349932,-0.24408828,-0.35246345,0.6247456,0.36164382,-0.64943284,-0.4793403,0.23814231,-0.011282546,0.08810073,0.296797,-0.45895666,0.17809926,0.45337465,0.7273043,-0.31634307,-0.6104612,0.111823425,0.31878018,-0.2342656,0.4482626,-0.5495223,-0.39216092,0.1826429,0.6240535,0.33507216,0.20577493,-0.2078677,0.36190495
